svm_type c_svc
kernel_type rbf
gamma 1.0
nr_class 2
total_sv 5610
rho 0.10062416849167419
label 1 -1
probA -1.8567660018344163
probB -0.07590114539951986
nr_sv 2822 2788
SV
8.0 1:-0.24137397031698724 2:1.566161714921989 3:0.4308112737390261 4:-0.11246238234003467 5:-0.1491840022406984 
0.09146855237653961 1:5.530556476336782 2:0.28817780762098394 3:-2.7537341276354104 4:-0.11246238234003467 5:-0.11204343649332912 
8.0 1:0.07205155809608418 2:-0.7330966590736391 3:0.412950804354003 4:-0.11246238234003467 5:-0.1667504860401298 
8.0 1:-0.15723512419902735 2:1.3841686297713913 3:0.3674697800225831 4:0.2864700574596957 5:0.1675146056861935 
8.0 1:-0.23295396395071669 2:0.07995673006459889 3:0.45689230104612466 4:0.020515097593208798 5:0.0059029547314245956 
8.0 1:-0.1293884044383411 2:-0.45945294877472864 3:0.4689389424262032 4:0.21998131749307398 5:0.09925626863697436 
8.0 1:0.03299580213394134 2:-0.4320461701934004 3:0.3697043686635899 4:-0.11246238234003467 5:-0.15119160038920482 
1.0194174216296426 1:0.1976948619660081 2:0.9586052572393433 3:0.37631719202563896 4:4.142816975523756 5:2.561575397780131 
8.0 1:-0.27587161315934866 2:-0.8259332581180752 3:0.39780886795229786 4:-0.11246238234003467 5:-0.1240890253843678 
0.4067783503016148 1:5.040771502195878 2:0.3529822963934085 3:-2.7537341276354104 4:-0.11246238234003467 5:-0.1456707054808121 
8.0 1:-0.3200872818336866 2:0.3089071937811073 3:0.4708260005663555 4:-0.11246238234003467 5:-0.1326213175155202 
8.0 1:0.2918225437325307 2:1.5017166121786931 3:0.35970718285396974 4:-0.11246238234003467 5:-0.10953393880769606 
8.0 1:-0.17714327726737397 2:-0.777789905656041 3:0.36009044078949143 4:0.020515097593208798 5:0.02999413251350194 
8.0 1:-0.2510733196098889 2:-0.8287292814246937 3:0.35974615823724315 4:-0.11246238234003467 5:-0.13914601149816613 
8.0 1:-0.3200872818336866 2:-0.16485703297763515 3:0.3596454718304536 4:-0.11246238234003467 5:-0.12609662353287424 
8.0 1:-0.12757159222055434 2:2.892303350126194 3:0.4942112305303791 4:-0.11246238234003467 5:-0.1110396374190759 
8.0 1:-0.3200872818336866 2:-0.41482439167756974 3:-2.7537341276354104 4:-0.11246238234003467 5:-0.12910802075563393 
8.0 1:-0.3200872818336866 2:0.416342053328737 3:0.4655740676702686 4:0.020515097593208798 5:0.02447323760510921 
8.0 1:-0.2754918568648255 2:-0.4023177578639031 3:0.3637898542518557 4:0.15349257752645226 5:0.07767458854053003 
8.0 1:0.038436900517764196 2:-0.4463209832703786 3:0.3610063622964157 4:-0.11246238234003467 5:-0.09748834991665739 
6.510220262276715 1:0.5001915022637464 2:-0.4265475639477367 3:0.3646895360157493 4:-0.11246238234003467 5:-0.1456707054808121 
8.0 1:-0.29889252274017974 2:-0.6152683555636174 3:0.35920699876862816 4:-0.11246238234003467 5:-0.13814221242391295 
1.1007104455548287 1:-0.2789677683037666 2:4.947085783946969 3:0.4688739834540809 4:4.608238155290108 5:6.30022504983626 
8.0 1:-0.25091456902775217 2:0.6163116276563353 3:0.42735220847351435 4:-0.11246238234003467 5:-0.14516880594368547 
8.0 1:-0.23747679916335665 2:-0.5723504759651095 3:0.46844200628946747 4:0.08700383755983053 5:-0.031237611015944664 
8.0 1:-0.2642174527766067 2:-0.7668933212528694 3:0.3737415687809901 4:-0.11246238234003467 5:-0.12609662353287424 
8.0 1:-0.11684918362054944 2:-0.45512594098402326 3:0.3682135602533834 4:-0.045973642373412935 5:-0.048302195278249464 
8.0 1:-0.08075573427278764 2:0.2702588202086443 3:0.41426297559087344 4:-0.11246238234003467 5:-0.13914601149816613 
8.0 1:-0.3200872818336866 2:0.803638001479198 3:-2.7537341276354104 4:-0.11246238234003467 5:-0.10802824019631624 
8.0 1:-0.20984382201652768 2:-0.20455481375515303 3:0.4533228055280051 4:-0.11246238234003467 5:0.8596340673837908 
8.0 1:-0.29220424658035477 2:-0.7715078378668774 3:0.3723352070345425 4:-0.045973642373412935 5:-0.026720515181805158 
8.0 1:-0.3111962116485268 2:-0.8679023585996842 3:0.35987282823288164 4:0.4194475373929392 5:0.8400599854358529 
8.0 1:-0.0330029366147631 2:-0.8513059117745368 3:0.3667682231236624 4:-0.11246238234003467 5:-0.15219539946345806 
8.0 1:-0.11382047153390204 2:0.9331751018182212 3:0.39164750944649873 4:-0.045973642373412935 5:-0.0754047702830865 
8.0 1:-0.21950478064577536 2:0.19944539702919364 3:0.360704303076047 4:-0.11246238234003467 5:-0.0849408614884921 
8.0 1:-0.12696979262814068 2:0.4017437928255433 3:0.39237504993426836 4:0.020515097593208798 5:-0.03274330962732451 
8.0 1:-0.28038511010245115 2:-0.3007696414733957 3:0.3745795395213675 4:0.21998131749307398 5:0.20565897050781598 
8.0 1:-0.24493392618176532 2:-0.11792840529405488 3:0.44626176525831235 4:0.08700383755983053 5:0.1308759394759509 
8.0 1:0.037113978999958316 2:-0.8473454777335425 3:0.36117525562393343 4:-0.11246238234003467 5:-0.1456707054808121 
8.0 1:-0.24265538841462667 2:-0.560835747591837 3:0.4143863976379057 4:-0.045973642373412935 5:-0.022705318884792276 
8.0 1:-0.16662112266967224 2:-0.39735823066193177 3:0.3704871242776636 4:-0.11246238234003467 5:-0.13814221242391295 
8.0 1:-0.2372381544973995 2:-0.11288262544509275 3:0.4019889778083672 4:-0.11246238234003467 5:-0.12609662353287424 
8.0 1:-0.19102409614204646 2:1.8051893628952569 3:0.3638385734809474 4:0.020515097593208798 5:-0.04328319990698334 
8.0 1:-0.31188620600879413 2:-0.8120034556290602 3:0.3645141467910191 4:-0.11246238234003467 5:-0.12910802075563393 
8.0 1:-0.20480011888079863 2:-0.8784323692531449 3:0.40545778691969725 4:-0.11246238234003467 5:-0.13814221242391295 
8.0 1:-0.2986009612135104 2:-0.6713110129458927 3:0.35906408902995934 4:0.020515097593208798 5:-0.0116635290680068 
8.0 1:-0.3200872818336866 2:2.3601460813546766 3:0.3622210950751024 4:-0.045973642373412935 5:-0.0754047702830865 
5.936797424581964 1:-0.3037857759778054 2:1.7194398563452316 3:0.36045096308477004 4:-0.11246238234003467 5:-0.1240890253843678 
3.027929574881565 1:-0.26734058514413284 2:1.419553778199369 3:0.3603502766779805 4:0.6854024972594261 5:0.9630253720318728 
8.0 1:-0.2843082208936858 2:-0.5888678578638484 3:0.449201158746846 4:-0.045973642373412935 5:-0.1025073452879235 
8.0 1:-0.1360559288880829 2:-0.7834753926368516 3:0.3940444955178112 4:0.020515097593208798 5:-0.05884208555790829 
5.031453609651519 1:0.6111353322962144 2:-0.44046299099558645 3:0.3618118535507318 4:0.08700383755983053 5:-0.011161629530880204 
8.0 1:-0.17332600019756383 2:-0.7224947712143526 3:0.40268079086146924 4:-0.11246238234003467 5:-0.158720093446104 
8.0 1:-0.26760931978971064 2:-0.46521031296136484 3:0.3604607069305883 4:0.4194475373929392 5:0.31557496913854394 
8.0 1:-0.29256532633580296 2:-0.26522636319260157 3:0.42135974329523335 4:0.08700383755983053 5:0.15998611262929435 
8.0 1:-0.2738659603798045 2:1.096559178380553 3:0.36765166514452574 4:-0.11246238234003467 5:-0.14868210270357177 
8.0 1:-0.28391497598760856 2:-0.4144793810896066 3:0.3630558178668737 4:-0.045973642373412935 5:-0.026720515181805158 
8.0 1:0.025774207024977305 2:-0.6662652330969305 3:0.4332082598103386 4:-0.11246238234003467 5:-0.14516880594368547 
8.0 1:-0.1810072456848714 2:0.16420400301286722 3:0.39227111557887256 4:0.15349257752645226 5:0.07767458854053003 
8.0 1:-0.14383055707076497 2:-0.7888661830737769 3:0.36409516142083026 4:-0.045973642373412935 5:-0.10100164667654367 
8.0 1:-0.30941260216687316 2:-0.6042639553517072 3:0.31967296833500386 4:-0.11246238234003467 5:-0.1491840022406984 
8.0 1:-0.2918929709291063 2:-0.5234380374007406 3:0.3620522017475843 4:0.020515097593208798 5:-0.02923001286743822 
8.0 1:-0.1699102687178642 2:0.47047996475663223 3:0.4504321312685631 4:-0.11246238234003467 5:-0.13362511658977344 
8.0 1:-0.0977472344889363 2:-0.8784323692531449 3:0.3682200561505955 4:-0.11246238234003467 5:-0.13914601149816613 
8.0 1:-0.2609656598065646 2:0.6058534942087 3:0.37310497085419175 4:0.21998131749307398 5:0.007910552879931037 
8.0 1:-0.05314869676356269 2:-0.5484800559104042 3:0.36097713075896054 4:-0.045973642373412935 5:0.02999413251350194 
8.0 1:-0.3200872818336866 2:0.3737116825535319 3:0.36218536764043524 4:-0.11246238234003467 5:-0.11204343649332912 
8.0 1:-0.055428272116205504 2:-0.8327472172303487 3:0.3863241216810774 4:-0.11246238234003467 5:-0.12459092492149443 
8.0 1:-0.0643836726026234 2:-0.45127332275176735 3:0.35994428310221604 4:-0.045973642373412935 5:-0.017184423976399552 
8.0 1:-0.12030330576390307 2:0.7653777648181935 3:0.36503706651660345 4:-0.11246238234003467 5:-0.12459092492149443 
8.0 1:1.0361334675572758 2:1.296234056164266 3:0.36405293808895095 4:0.020515097593208798 5:0.06914229640937763 
8.0 1:-0.06764584142770713 2:-0.4708886122215928 3:0.37579427230005424 4:-0.11246238234003467 5:-0.11856813047597507 
8.0 1:-0.31211551240521385 2:-0.832409394362968 3:0.36825253563665683 4:0.020515097593208798 5:0.06061000427822525 
8.0 1:-0.2742270401352527 2:0.7052021681009419 3:0.4835644549995361 4:-0.11246238234003467 5:-0.15219539946345806 
8.0 1:-0.20834762371952678 2:-0.8784323692531449 3:0.43547207998880016 4:-0.11246238234003467 5:0.8596340673837908 
8.0 1:-0.3200872818336866 2:-0.5412132704014289 3:-2.7537341276354104 4:-0.11246238234003467 5:-0.11204343649332912 
8.0 1:-0.05641812868717558 2:-0.3574160673846067 3:0.3672846469520347 4:-0.11246238234003467 5:-0.1456707054808121 
8.0 1:0.28083140048694794 2:-0.7863504808698784 3:-2.7537341276354104 4:-0.11246238234003467 5:-0.13814221242391295 
8.0 1:-0.11094013417434972 2:-0.30565010374895873 3:0.42238609505476543 4:-0.045973642373412935 5:-0.06386108092917442 
8.0 1:-0.28081467050117404 2:-0.8444416386181853 3:0.3837744820252775 4:-0.11246238234003467 5:-0.11856813047597507 
8.0 1:-0.2915038763650457 2:1.2857687349960483 3:0.3594895702973603 4:-0.11246238234003467 5:-0.12007382908735491 
8.0 1:-0.24101496573254735 2:-0.4119708666062907 3:0.4305222063130819 4:-0.11246238234003467 5:-0.10953393880769606 
8.0 1:-0.07388069272221356 2:-0.20551796831321706 3:0.4131684169106128 4:-0.045973642373412935 5:-0.017184423976399552 
8.0 1:-0.25634321638552515 2:-0.5596785245780437 3:0.3596064964471802 4:-0.11246238234003467 5:-0.1326213175155202 
8.0 1:-0.23072107994576113 2:-0.7121732044577864 3:0.41481512685391286 4:-0.11246238234003467 5:-0.15119160038920482 
8.0 1:-0.24027309209707184 2:-0.7754107701432114 3:0.36196125918661337 4:-0.11246238234003467 5:-0.12459092492149443 
8.0 1:-0.3200872818336866 2:-0.7435044784771961 3:0.10016036179076239 4:0.020515097593208798 5:-0.034249008238704325 
8.0 1:-0.15714070391814866 2:0.4480327133772752 3:0.37729157660747314 4:-0.11246238234003467 5:-0.13914601149816613 
8.0 1:-0.2751473784774439 2:-0.45821666083452706 3:0.3629843629975393 4:-0.11246238234003467 5:-0.1456707054808121 
8.0 1:-0.2980624543368506 2:2.6163883201231926 3:0.37585923127217663 4:-0.045973642373412935 5:-0.0754047702830865 
8.0 1:-0.01661738633304478 2:-0.07258826385922182 3:-2.7537341276354104 4:-0.045973642373412935 5:-0.0628572818549212 
8.0 1:0.010313145427466855 2:-0.8444775772210982 3:0.3811501395515369 4:-0.11246238234003467 5:-0.14165550918379918 
8.0 1:-0.31684275196217365 2:1.3920679346916325 3:0.36545605188679237 4:0.5524250173261827 5:0.6272545816941696 
0.8363801881393164 1:0.2563495705162575 2:1.4386084254637543 3:-2.7537341276354104 4:-0.11246238234003467 5:-0.09748834991665739 
8.0 1:-0.27885882182582955 2:-0.513253037335243 3:0.3661446169912886 4:-0.11246238234003467 5:-0.1456707054808121 
8.0 1:0.10558839676159208 2:-0.07779217356100039 3:-2.7537341276354104 4:-0.11246238234003467 5:-0.13011181982988712 
8.0 1:-0.3200872818336866 2:1.4059114845336567 3:0.3594700826057234 4:-0.11246238234003467 5:-0.11856813047597507 
8.0 1:0.11085829353722831 2:-0.7667495668412181 3:0.3604542110333762 4:-0.11246238234003467 5:-0.1240890253843678 
8.0 1:0.2574369601246187 2:1.7509508233792055 3:0.38279684949483705 4:-0.11246238234003467 5:-0.1491840022406984 
8.0 1:-0.3113746763552426 2:1.1815108479459133 3:0.36200997841570504 4:0.08700383755983053 5:0.09975816817410092 
8.0 1:-0.1118760362991034 2:-0.6300031827578798 3:0.4344489761778743 4:0.08700383755983053 5:-0.031237611015944664 
8.0 1:-0.16965709785484878 2:-0.7067320999767831 3:0.37754816454735635 4:-0.11246238234003467 5:-0.1491840022406984 
8.0 1:-0.010327543006817779 2:-0.36343937723279784 3:0.36161372868575886 4:-0.11246238234003467 5:-0.14416500686943226 
8.0 1:-0.08830935674308334 2:-0.8363698284039626 3:0.39743210591398853 4:0.020515097593208798 5:0.005401055194297972 
8.0 1:-0.30952466140132257 2:-0.8301165114971292 3:0.36369566374227824 4:-0.11246238234003467 5:-0.0849408614884921 
8.0 1:-0.20730588787334864 2:0.7390635197654155 3:0.3859083842594947 4:-0.11246238234003467 5:-0.13814221242391295 
8.0 1:-0.2485291599536849 2:-0.4414045823919027 3:0.35974615823724315 4:-0.11246238234003467 5:-0.13914601149816613 
8.0 1:-0.16444945620946225 2:0.42475168641034056 3:0.3838004656141264 4:0.6189137572928044 5:0.21670076032460142 
8.0 1:-0.03031143981696819 2:-0.783087255725393 3:0.35970718285396974 4:-0.11246238234003467 5:-0.14165550918379918 
8.0 1:-0.2047420140925656 2:-0.504469642783346 3:0.4132008963966738 4:0.15349257752645226 5:0.1148151542878993 
8.0 1:-0.0832065112336171 2:-0.5117004896894086 3:0.4338870810690166 4:-0.045973642373412935 5:-0.1025073452879235 
8.0 1:-0.22576142123586918 2:0.5945759606146525 3:0.3664012049311714 4:-0.045973642373412935 5:-0.13161751844126698 
8.0 1:-0.19466498367614915 2:-0.7587208829504906 3:0.4027619895766223 4:-0.11246238234003467 5:-0.14868210270357177 
8.0 1:0.534394470822926 2:0.5074967257568525 3:0.45848054791451487 4:-0.11246238234003467 5:-0.11405103464183557 
8.0 1:-0.20253610731071825 2:0.1889297618168979 3:0.3799873739505481 4:-0.045973642373412935 5:-0.03926800360997045 
8.0 1:-0.16247285582403456 2:-0.09243356038768946 3:0.36340010041912196 4:-0.045973642373412935 5:-0.0754047702830865 
8.0 1:-0.11752153902724607 2:-0.7785230531554629 3:0.3672002002882758 4:-0.11246238234003467 5:-0.1110396374190759 
8.0 1:-0.2709057289364317 2:-0.5500685421591515 3:0.36450440294520087 4:0.020515097593208798 5:-0.034249008238704325 
8.0 1:-0.2516626681762526 2:-0.6091875439507655 3:0.3616981753495181 4:-0.045973642373412935 5:-0.015176825827893085 
8.0 1:-0.11918271341940866 2:0.08953796160116077 3:0.35915503159093026 4:-0.11246238234003467 5:-0.08544276102561871 
8.0 1:-0.27976774672747506 2:0.8059308843450367 3:0.3744366297826987 4:-0.11246238234003467 5:-0.15119160038920482 
8.0 1:-0.2543448267045101 2:-0.8438378700892497 3:0.36175014252721566 4:-0.11246238234003467 5:-0.1240890253843678 
8.0 1:-0.23522938896134285 2:0.7536689679891916 3:0.3663784692909287 4:-0.11246238234003467 5:-0.12609662353287424 
8.0 1:0.40336713577190814 2:-0.3364926127687539 3:-2.7537341276354104 4:-0.11246238234003467 5:-0.09899404852803723 
8.0 1:-0.04793379201964704 2:0.3144992403943445 3:0.3869737114023002 4:-0.11246238234003467 5:-0.1456707054808121 
8.0 1:-0.3200872818336866 2:-0.5881131472026789 3:0.39463887011273024 4:-0.11246238234003467 5:-0.1110396374190759 
8.0 1:-0.3200872818336866 2:0.1438843169259502 3:0.35956752106390677 4:-0.11246238234003467 5:-0.0849408614884921 
8.0 1:-0.06540361915321413 2:-0.18934559700244116 3:0.3841772276524357 4:-0.11246238234003467 5:-0.13211941797839358 
8.0 1:-0.22410439718572328 2:-0.6717422761808466 3:0.3928070270988817 4:-0.11246238234003467 5:-0.12609662353287424 
8.0 1:-0.29365167835866 2:1.2240118397506323 3:0.4459499621921254 4:0.020515097593208798 5:-0.04428699898123655 
8.0 1:0.16514372952945364 2:-0.8243878981928233 3:0.3628869245393559 4:-0.11246238234003467 5:-0.1456707054808121 
8.0 1:-0.30755013618690324 2:-0.8476329865568452 3:0.3592654618435384 4:-0.045973642373412935 5:-0.022203419347665655 
8.0 1:-0.020340243121976208 2:-0.8542025631693114 3:0.36541058060630655 4:-0.045973642373412935 5:-0.022203419347665655 
8.0 1:0.010659698985856796 2:-0.2751885439200395 3:0.3781327952964568 4:-0.11246238234003467 5:-0.13814221242391295 
8.0 1:-0.3200872818336866 2:-0.8393958587692233 3:-2.7537341276354104 4:-0.11246238234003467 5:-0.13914601149816613 
8.0 1:-0.2767379970553235 2:1.0147916690332701 3:0.37384550313638587 4:-0.11246238234003467 5:-0.12910802075563393 
8.0 1:-0.08877315746344352 2:-0.18871307759117523 3:0.36023335052816025 4:-0.11246238234003467 5:-0.13914601149816613 
8.0 1:-0.17857307009210852 2:-0.8451244720735293 3:0.3614935545873328 4:-0.11246238234003467 5:-0.10802824019631624 
8.0 1:0.5101419472486551 2:-0.008682240159618142 3:0.36058088102901475 4:-0.11246238234003467 5:-0.12609662353287424 
8.0 1:-0.2754918568648255 2:1.3357593316478023 3:0.36495911575005663 4:-0.045973642373412935 5:-0.05081169296388253 
8.0 1:-0.3200872818336866 2:-0.5498960368651699 3:0.35903810544111037 4:-0.11246238234003467 5:-0.14868210270357177 
8.0 1:-0.30098844545858594 2:-0.850723706407349 3:0.36010343258391586 4:-0.11246238234003467 5:-0.018188223050652774 
8.0 1:-0.31214248962832203 2:0.6979569457537145 3:0.3853952083797286 4:-0.045973642373412935 5:-0.026720515181805158 
8.0 1:-0.2528517411640217 2:-0.8127797294519774 3:0.3615130422789693 4:-0.11246238234003467 5:-0.1537010980748379 
8.0 1:0.5849829896638239 2:2.5519216542181486 3:0.46968272265700317 4:-0.11246238234003467 5:-0.13362511658977344 
8.0 1:0.006560198658914744 2:-0.8784323692531449 3:0.3653488695827904 4:-0.11246238234003467 5:-0.14516880594368547 
8.0 1:-0.2429697768223876 2:-0.5751249361099803 3:0.41641636551672717 4:-0.11246238234003467 5:-0.11856813047597507 
8.0 1:-0.16257661437445073 2:-0.7479536775178052 3:0.36336762093306063 4:-0.11246238234003467 5:-0.13814221242391295 
8.0 1:-0.2622356644636583 2:0.8771108812741982 3:0.40072227785198256 4:0.08700383755983053 5:-0.0036331364739810375 
8.0 1:-0.20931984133692613 2:-0.8334588015680229 3:0.37288735829758196 4:-0.045973642373412935 5:2.548526009814839 
5.430852381892847 1:-0.08512604441631585 2:0.4181964852390394 3:0.37789569504821047 4:0.020515097593208798 5:0.023971338067982614 
8.0 1:-0.1562577186541072 2:0.741047330646204 3:0.37019480890311324 4:-0.11246238234003467 5:-0.14516880594368547 
8.0 1:-0.24136048170543312 2:0.03476753076199968 3:0.366190088271774 4:-0.11246238234003467 5:-0.1240890253843678 
8.0 1:0.07196440091373466 2:-0.6895678232256129 3:0.3616299684287896 4:-0.11246238234003467 5:-0.13362511658977344 
8.0 1:0.01703151156691255 2:-0.2968595214764792 3:0.38204007746961227 4:-0.11246238234003467 5:-0.15219539946345806 
8.0 1:-0.3154046584534058 2:0.9899293435381707 3:0.37643736612406503 4:-0.11246238234003467 5:-0.11856813047597507 
8.0 1:-0.1612734069812239 2:-0.6349411467981033 3:0.41118067236367095 4:-0.11246238234003467 5:-0.14165550918379918 
8.0 1:-0.1388231694276816 2:-0.8515071679508488 3:0.3598760761814878 4:0.21998131749307398 5:0.2136893631018418 
8.0 1:-0.3200872818336866 2:2.0077393289119967 3:0.38402457406794827 4:-0.11246238234003467 5:1.1738231776250496 
8.0 1:0.011299889241924417 2:-0.8647469492639372 3:0.40780280581331185 4:-0.11246238234003467 5:-0.1110396374190759 
8.0 1:-0.20571008136794827 2:-0.189280907517198 3:0.3818257128616087 4:0.15349257752645226 5:0.21268556402758854 
8.0 1:0.5488905779015663 2:-0.11262386750412037 3:0.3602690779628274 4:-0.045973642373412935 5:-0.015176825827893085 
8.0 1:-0.3200872818336866 2:0.4583039660897636 3:0.39584385904559877 4:-0.11246238234003467 5:-0.12459092492149443 
8.0 1:-0.2821272161639383 2:0.8175390530858826 3:0.3665993297961447 4:-0.11246238234003467 5:-0.14516880594368547 
8.0 1:0.004653116502265907 2:-0.5201101227710121 3:0.46217996137687917 4:-0.11246238234003467 5:-0.1456707054808121 
8.0 1:-0.10444588650380293 2:-0.7862498527817224 3:0.3714420211678613 4:-0.045973642373412935 5:-0.1025073452879235 
8.0 1:-0.18874763354591614 2:0.3334891981734867 3:0.3614935545873328 4:-0.045973642373412935 5:-0.022705318884792276 
8.0 1:-0.2975031957501075 2:0.27728841093839474 3:0.48276870759103824 4:-0.11246238234003467 5:-0.1456707054808121 
8.0 1:-0.22460036305671247 2:-0.3054344721314817 3:0.4044639146462261 4:0.020515097593208798 5:0.005401055194297972 
8.0 1:0.2851705830653513 2:1.4433954473717439 3:0.35917451928256716 4:-0.11246238234003467 5:-0.1110396374190759 
8.0 1:-0.3200872818336866 2:0.7871134318598763 3:0.485714596976784 4:-0.11246238234003467 5:-0.15219539946345806 
8.0 1:-0.06547728772400963 2:-0.554675871052577 3:0.3661706005801375 4:-0.11246238234003467 5:-0.12007382908735491 
0.9426020583313404 1:5.036633611205281 2:-0.6411585251020239 3:0.3648227019085999 4:-0.11246238234003467 5:-0.1537010980748379 
8.0 1:-0.2725430388619986 2:2.979281956895838 3:0.3596909431109394 4:-0.11246238234003467 5:-0.1110396374190759 
8.0 1:-0.3200872818336866 2:0.9318669366721939 3:0.42461743574716604 4:-0.11246238234003467 5:-0.15219539946345806 
8.0 1:-0.22643066388605335 2:-0.5241783726207448 3:0.4247051303595311 4:0.15349257752645226 5:0.1148151542878993 
8.0 1:-0.27503635682849864 2:0.6661584698964378 3:0.36307855350711643 4:-0.045973642373412935 5:0.032001730662008405 
8.0 1:-0.10372580216391486 2:-0.6016476250596527 3:0.377122683279955 4:-0.11246238234003467 5:-0.11856813047597507 
8.0 1:-0.2895698169852887 2:2.590045324188084 3:0.36269204762298884 4:-0.11246238234003467 5:-0.14165550918379918 
8.0 1:-0.22452046897289205 2:1.0297780664479226 3:0.3626693119827461 4:-0.045973642373412935 5:-0.022203419347665655 
8.0 1:-0.21354903985188836 2:0.5039459917890644 3:0.39884821150625444 4:-0.11246238234003467 5:-0.13011181982988712 
8.0 1:-0.28661684864044507 2:0.5614908827730963 3:0.36162672048018335 4:0.08700383755983053 5:0.09975816817410092 
8.0 1:-0.2759670710257315 2:-0.781973159035095 3:0.3774702137808095 4:-0.045973642373412935 5:-0.05131359250100912 
8.0 1:0.10797276825015517 2:-0.8784323692531449 3:0.360304805397495 4:-0.11246238234003467 5:-0.13814221242391295 
8.0 1:-0.3154285229200015 2:-0.8734800297717563 3:0.4475999200840314 4:0.020515097593208798 5:-0.07389907167170665 
8.0 1:-0.07203690328131859 2:-0.534751509597701 3:0.3849112640374174 4:-0.11246238234003467 5:-0.15219539946345806 
8.0 1:-0.3087028936820267 2:0.4507568594780682 3:0.36192877970055204 4:-0.11246238234003467 5:-0.1491840022406984 
8.0 1:-0.06513799726414882 2:0.09976608799015356 3:0.3625588817301383 4:-0.045973642373412935 5:-0.08644656009987194 
8.0 1:-0.3072969653238879 2:1.0646744498762857 3:0.3679439805190758 4:0.15349257752645226 5:0.11431325475077268 
8.0 1:-0.30967199854291355 2:-0.8211318607689204 3:0.3615715053538796 4:0.15349257752645226 5:0.2648831158887562 
0.8189268829334192 1:4.2145452779885915 2:-0.8784323692531449 3:-2.7537341276354104 4:-0.11246238234003467 5:-0.12559472399574761 
8.0 1:-0.207205242079445 2:-0.2703368325268068 3:0.4486684951754431 4:-0.11246238234003467 5:-0.158720093446104 
8.0 1:-0.253457691098452 2:-0.7631125802264391 3:0.3671417372133655 4:0.15349257752645226 5:0.036518826496147884 
8.0 1:-0.11094013417434972 2:-0.1663233279764789 3:0.4266896269578671 4:-0.11246238234003467 5:-0.13011181982988712 
8.0 1:-0.1305287109074146 2:0.975065137373422 3:0.36973360020104507 4:-0.045973642373412935 5:-0.022203419347665655 
8.0 1:0.44018585738707877 2:-0.18836806700321207 3:0.36189630021449104 4:-0.11246238234003467 5:-0.1537010980748379 
8.0 1:0.4166222905875712 2:1.0408040298215802 3:0.3589471628801391 4:-0.11246238234003467 5:-0.13011181982988712 
8.0 1:0.712125604587261 2:-0.5180544346843978 3:0.35977538977469825 4:-0.045973642373412935 5:0.006404854268551192 
2.954586333361161 1:0.5114057263927239 2:-0.2190811970525211 3:0.3632084714513611 4:-0.11246238234003467 5:0.9740671618486582 
8.0 1:-0.2593501391765851 2:-0.4406929980542286 3:0.41626046398363353 4:0.08700383755983053 5:0.10527906308249367 
8.0 1:-0.2089172581613115 2:1.0581336241461499 3:0.38126706570135716 4:-0.11246238234003467 5:-0.11405103464183557 
8.0 1:-0.29076822824259524 2:-0.7135532468096393 3:0.3850541737760866 4:-0.11246238234003467 5:-0.11204343649332912 
8.0 1:-0.3200872818336866 2:0.19267456424041549 3:0.3598695802842754 4:-0.11246238234003467 5:-0.0849408614884921 
8.0 1:-0.3115344645228834 2:0.9823175474412325 3:0.36842792486138704 4:0.6189137572928044 5:0.723619292822479 
8.0 1:-0.03017344094491472 2:-0.8607793275023603 3:0.36972710430383265 4:-0.11246238234003467 5:-0.1491840022406984 
8.0 1:-0.3200872818336866 2:-0.8681395533789089 3:0.3592719577407505 4:-0.11246238234003467 5:-0.1326213175155202 
8.0 1:-0.2762026029351761 2:2.7011027949093274 3:0.43511805359073397 4:-0.11246238234003467 5:-0.09899404852803723 
8.0 1:-0.027435252799432527 2:-0.3936637422824923 3:-2.7537341276354104 4:-0.045973642373412935 5:-0.03575470685008417 
8.0 1:0.07577856522703226 2:-0.6357461715033508 3:0.36447192345913954 4:-0.11246238234003467 5:-0.14516880594368547 
8.0 1:-0.12381449510998557 2:2.486987786475238 3:0.4573112864163136 4:-0.11246238234003467 5:-0.09748834991665739 
8.0 1:-0.0573882711335666 2:-0.5602391667834838 3:0.3635040347745177 4:0.951357457125913 5:0.6508438599391204 
8.0 1:0.6278300830581728 2:-0.49307710565997726 3:0.360191127196281 4:-0.11246238234003467 5:-0.13211941797839358 
8.0 1:-0.21361855808066724 2:-0.7986055444631552 3:0.40702979404505674 4:-0.045973642373412935 5:-0.017184423976399552 
8.0 1:0.011121424535208691 2:-0.7086655968134936 3:0.36136363664308807 4:-0.11246238234003467 5:-0.13211941797839358 
8.0 1:-0.005157254439581028 2:-0.6498341038451823 3:0.3619092920089155 4:-0.11246238234003467 5:-0.13814221242391295 
7.436171114544547 1:0.18525939969863253 2:-0.8607146380171172 3:0.36126619818490474 4:-0.11246238234003467 5:-0.1326213175155202 
8.0 1:-0.090183236163599 2:1.4420944699462994 3:0.36964915353728584 4:0.08700383755983053 5:0.038024525107527726 
8.0 1:-0.2090894973550023 2:0.8856211424439577 3:0.37042541325414746 4:-0.11246238234003467 5:-0.15119160038920482 
8.0 1:-0.15301837671011503 2:0.5834421814322561 3:0.4465540806328628 4:-0.11246238234003467 5:-0.1667504860401298 
8.0 1:-0.30024553423760636 2:-0.638930331721428 3:0.361701423298124 4:-0.11246238234003467 5:-0.15119160038920482 
8.0 1:-0.09321609859226306 2:0.7031321045731628 3:0.39510982266061667 4:-0.045973642373412935 5:-0.035252807312957546 
8.0 1:-0.25472769575554566 2:-0.7688340058101625 3:0.36693711645118054 4:-0.11246238234003467 5:-0.13814221242391295 
8.0 1:-0.3200872818336866 2:0.8480868655617926 3:0.36224383071534516 4:-0.11246238234003467 5:-0.09899404852803723 
8.0 1:-0.19736166840146488 2:-0.6918103920473739 3:0.37303351598485734 4:-0.11246238234003467 5:-0.13814221242391295 
8.0 1:-0.2736283532993515 2:-0.25003152188105476 3:0.3620294661073416 4:-0.045973642373412935 5:-0.026720515181805158 
8.0 1:0.0902570333521018 2:-0.3028325172805924 3:0.36776534334573974 4:-0.11246238234003467 5:-0.1667504860401298 
8.0 1:-0.2738441710842171 2:-0.8277517514254646 3:0.35916802338535475 4:-0.11246238234003467 5:-0.0849408614884921 
8.0 1:-0.1785979721442084 2:0.21938413392523465 3:0.3668331820957848 4:-0.11246238234003467 5:-0.05984588463216151 
8.0 1:-0.3017500332186405 2:-0.8730631419779674 3:0.4941592633526812 4:0.4859362773595609 5:0.223727353844374 
8.0 1:-0.13454209163751127 2:-0.6206088319564647 3:0.36286743684771905 4:-0.11246238234003467 5:-0.12609662353287424 
8.0 1:-0.10271000595534074 2:-0.8158704493024813 3:0.3600482174576118 4:-0.11246238234003467 5:-0.11405103464183557 
1.5335382982663854 1:2.2792252318440056 2:-0.7371289703204592 3:-2.7537341276354104 4:-0.11246238234003467 5:-0.1456707054808121 
8.0 1:-0.3200872818336866 2:-0.8705905660975644 3:0.35903810544111037 4:-0.11246238234003467 5:-0.1326213175155202 
8.0 1:0.11254540756699492 2:-0.8762041758725492 3:0.35920699876862816 4:-0.11246238234003467 5:-0.11856813047597507 
8.0 1:-0.2569180387548306 2:0.6252244011787184 3:0.4472588854803893 4:-0.11246238234003467 5:-0.1110396374190759 
8.0 1:-0.17739126020286855 2:-0.8659041722777306 3:0.35984034874682064 4:-0.11246238234003467 5:-0.11856813047597507 
8.0 1:-0.03588742431633206 2:-0.7377902406140554 3:0.3618735645742483 4:-0.11246238234003467 5:-0.10802824019631624 
8.0 1:-0.13332189108461737 2:-0.7589221391268025 3:0.4003455158136733 4:0.020515097593208798 5:0.10527906308249367 
8.0 1:-0.2767162077597361 2:2.3393807565916407 3:0.46030914297975717 4:-0.045973642373412935 5:-0.1025073452879235 
8.0 1:-0.26684358168763944 2:-0.3814158664097981 3:0.366297270575776 4:-0.11246238234003467 5:-0.1537010980748379 
8.0 1:-0.30390302313977563 2:-0.8588673938273974 3:0.3613344051056333 4:-0.11246238234003467 5:-0.11856813047597507 
8.0 1:0.08482423565231219 2:-0.8716974750672797 3:0.38367704356709414 4:-0.11246238234003467 5:-0.12007382908735491 
8.0 1:-0.25781139987391366 2:-0.4809514210371867 3:0.3904165369247813 4:0.08700383755983053 5:0.12987214040169764 
8.0 1:-0.2516626681762526 2:-0.33482506159359837 3:0.35964871977905977 4:-0.11246238234003467 5:-0.1240890253843678 
8.0 1:0.31484034055684934 2:1.5328035036982954 3:0.35908357672159585 4:-0.11246238234003467 5:-0.12910802075563393 
1.2208784994600979 1:0.3509877443508274 2:-0.8614837241194518 3:-2.7537341276354104 4:-0.045973642373412935 5:-0.02069772073628581 
8.0 1:-0.31230954089449203 2:0.9283090149838235 3:0.36447192345913954 4:0.4194475373929392 5:0.7180983979140864 
8.0 1:-0.27616006192950554 2:0.8280762514599258 3:0.3633448852928179 4:-0.11246238234003467 5:-0.1240890253843678 
8.0 1:-0.27128133488893813 2:-0.8401074431068974 3:0.3595870087555436 4:0.21998131749307398 5:0.15797851448078787 
8.0 1:-0.3200872818336866 2:-0.24975838849891727 3:-2.7537341276354104 4:-0.045973642373412935 5:-0.08995985685975821 
8.0 1:-0.20763168972165535 2:0.8786706166406155 3:0.4058637804954617 4:0.35295879742631747 5:0.22021405708448774 
8.0 1:-0.17165237477935136 2:-0.4259797340217138 3:0.3601846312990686 4:-0.11246238234003467 5:-0.1456707054808121 
7.655312083891838 1:0.10784307006213499 2:2.6495884014940696 3:0.48393796908923953 4:-0.11246238234003467 5:-0.12910802075563393 
8.0 1:-0.3200872818336866 2:0.8183297023499649 3:0.37308548316255485 4:-0.11246238234003467 5:-0.14516880594368547 
8.0 1:-0.11646838974052218 2:-0.4115683542536669 3:0.4328282498234231 4:-0.11246238234003467 5:-0.158720093446104 
8.0 1:-0.05826710605559137 2:-0.8159638896700546 3:0.36175339047582183 4:-0.11246238234003467 5:-0.11856813047597507 
0.3968642065992328 1:1.8961144233859442 2:0.8650067598131553 3:-2.7537341276354104 4:-0.11246238234003467 5:-0.13211941797839358 
8.0 1:-0.16012583741362127 2:-0.21484762962938905 3:0.36099012255338503 4:-0.11246238234003467 5:-0.13814221242391295 
8.0 1:-0.320018801190412 2:0.7570040703395029 3:0.42915806789851396 4:0.08700383755983053 5:0.10678476169387349 
8.0 1:0.05827449777182783 2:-0.8592483430182735 3:0.36431277397744005 4:-0.045973642373412935 5:-0.10100164667654367 
8.0 1:-0.18159451908022678 2:0.3591781115355813 3:0.36297786710032687 4:0.08700383755983053 5:0.15697471540653468 
8.0 1:0.2705385522856659 2:1.6700674036635788 3:0.35924922210050775 4:-0.11246238234003467 5:-0.13362511658977344 
8.0 1:-0.28617898755768895 2:-0.8446500825150798 3:0.3651929680496971 4:-0.11246238234003467 5:-0.14416500686943226 
8.0 1:-0.05117728430565589 2:0.015605067688875898 3:0.44262081487085797 4:-0.11246238234003467 5:-0.11856813047597507 
8.0 1:-0.20834762371952678 2:-0.4921786405871565 3:0.3791786347476258 4:-0.11246238234003467 5:-0.14868210270357177 
8.0 1:0.5784918547497896 2:-0.2984048814017311 3:0.3645336344826557 4:-0.11246238234003467 5:-0.15119160038920482 
8.0 1:0.05101969992673065 2:-0.8030259926214339 3:0.36271153531462574 4:-0.11246238234003467 5:-0.13914601149816613 
8.0 1:-0.021206627017951087 2:-0.6551889556791947 3:0.39297592042639945 4:-0.11246238234003467 5:-0.1326213175155202 
8.0 1:0.008037720416840694 2:-0.8648044510285978 3:0.3612174789558131 4:-0.11246238234003467 5:-0.13814221242391295 
8.0 1:-0.24027309209707184 2:-0.14192101659866369 3:0.42516958701020546 4:-0.11246238234003467 5:-0.13814221242391295 
8.0 1:-0.3200872818336866 2:2.3399701496794107 3:0.4066985032872329 4:-0.11246238234003467 5:-0.13362511658977344 
8.0 1:-0.3115375772793959 2:1.3003957463815723 3:0.36341634016215263 4:0.020515097593208798 5:-0.07389907167170665 
8.0 1:-0.049882377596462316 2:0.32201759612370956 3:0.3620976730280701 4:-0.11246238234003467 5:-0.1326213175155202 
8.0 1:-0.31203769349240174 2:1.2669728456726357 3:0.37148099655113437 4:-0.045973642373412935 5:-0.088956057785505 
8.0 1:-0.13317040360100976 2:1.4952692268161303 3:0.36824928768805065 4:0.21998131749307398 5:0.15797851448078787 
8.0 1:-0.23443771122166765 2:2.801666193580023 3:0.36479347037114507 4:-0.11246238234003467 5:-0.10953393880769606 
8.0 1:-0.24481356626328257 2:0.3834726071046579 3:0.35943110722245 4:-0.11246238234003467 5:-0.1110396374190759 
8.0 1:-0.2276290751433599 2:1.1122715355740447 3:0.36007420104646076 4:-0.11246238234003467 5:-0.11856813047597507 
8.0 1:-0.13274499354430355 2:0.39201880687733015 3:0.4729404151089362 4:-0.11246238234003467 5:-0.1537010980748379 
8.0 1:-0.17987316472882287 2:-0.8772176444746911 3:0.3610063622964157 4:-0.11246238234003467 5:-0.11856813047597507 
8.0 1:0.3078086235951468 2:1.4228457542261848 3:0.35945709081129895 4:-0.11246238234003467 5:-0.11204343649332912 
8.0 1:-0.005157254439581028 2:-0.568174410306638 3:0.3598890679759123 4:-0.11246238234003467 5:-0.13211941797839358 
8.0 1:-0.3200872818336866 2:-0.3958416216190101 3:0.40368440698075864 4:-0.11246238234003467 5:-0.11856813047597507 
0.8441708849980573 1:0.04246999537243996 2:3.602888594639356 3:0.2546555331378059 4:-0.045973642373412935 5:-0.11656053232746863 
8.0 1:0.08207774682279675 2:-0.8784323692531449 3:0.3974191141195641 4:-0.11246238234003467 5:-0.11856813047597507 
8.0 1:-0.256804941934877 2:0.9683014923052267 3:0.37200716422532487 4:-0.11246238234003467 5:-0.11204343649332912 
8.0 1:-0.1810072456848714 2:0.5709714862215022 3:0.4616278101138397 4:0.020515097593208798 5:-0.0116635290680068 
8.0 1:-0.04248750570830334 2:-0.8495952342758859 3:0.3932942193897988 4:-0.11246238234003467 5:-0.1240890253843678 
8.0 1:-0.3200872818336866 2:-0.7245576470215495 3:0.3633318934983934 4:-0.11246238234003467 5:-0.15119160038920482 
8.0 1:-0.0710667608349276 2:0.7483788056404224 3:0.4336889562040437 4:-0.11246238234003467 5:-0.15119160038920482 
8.0 1:-0.10821439705491748 2:-0.8784251815325624 3:0.3614903066387266 4:-0.11246238234003467 5:-0.1326213175155202 
8.0 1:0.03759438108838508 2:-0.5583200453879384 3:0.36301359453499443 4:-0.11246238234003467 5:-0.12609662353287424 
8.0 1:-0.3095983299721181 2:0.79261203810554 3:0.4156985688747758 4:0.2864700574596957 5:0.2402900385695522 
8.0 1:-0.26684358168763944 2:-0.5783450349309703 3:0.3630233383808127 4:0.21998131749307398 5:0.24932423023783123 
8.0 1:-0.025436863118417502 2:-0.2369570581413653 3:0.3796658270385429 4:-0.11246238234003467 5:-0.11405103464183557 
8.0 1:-0.11002394617417513 2:-0.5034993005046995 3:0.40677970200238556 4:-0.11246238234003467 5:-0.09899404852803723 
8.0 1:-0.2569180387548306 2:-0.682013528893335 3:0.36435174936071346 4:-0.045973642373412935 5:-0.026720515181805158 
8.0 1:-0.20571008136794827 2:0.2035423977612568 3:0.3723417029317549 4:0.35295879742631747 5:0.37630481313086384 
8.0 1:-0.22873617887630018 2:-0.6641664186868209 3:0.3988969307353461 4:-0.11246238234003467 5:-0.14868210270357177 
8.0 1:-0.2843082208936858 2:-0.5167462695383707 3:0.4033790998117841 4:0.020515097593208798 5:0.06964419594650426 
8.0 1:0.5131333062571528 2:0.9800534154577237 3:0.3623087896874675 4:-0.045973642373412935 5:-0.048302195278249464 
8.0 1:-0.28763679519103585 2:1.397954677848755 3:0.3637541268171885 4:-0.045973642373412935 5:0.006404854268551192 
8.0 1:-0.28512272551445256 2:1.9207104080982744 3:0.3666512969738426 4:-0.11246238234003467 5:-0.10802824019631624 
8.0 1:-0.3041157281681287 2:-0.779665900728091 3:0.3897507074605278 4:-0.11246238234003467 5:-0.15119160038920482 
8.0 1:-0.05108390161028132 2:0.2957536651150096 3:0.3727606883019435 4:-0.11246238234003467 5:-0.1456707054808121 
8.0 1:-0.24817534329676583 2:1.185845043457201 3:0.4352382276891601 4:-0.11246238234003467 5:-0.1491840022406984 
1.5232102629661326 1:1.595455347016076 2:0.8358318019685157 3:0.39803947230333175 4:-0.11246238234003467 5:-0.11856813047597507 
8.0 1:0.1275530442991868 2:1.8530595819751536 3:0.4301357004289544 4:-0.11246238234003467 5:-0.15219539946345806 
8.0 1:-0.0196284594661214 2:-0.855453226550678 3:0.37821724196021567 4:-0.11246238234003467 5:-0.11204343649332912 
8.0 1:-0.22231248702003636 2:-0.31126371352394355 3:0.36153577791921204 4:-0.11246238234003467 5:-0.08544276102561871 
8.0 1:-0.14715601861160257 2:0.07496845198029735 3:0.3782919447781563 4:-0.11246238234003467 5:-0.1667504860401298 
8.0 1:-0.273695796357122 2:-0.8087833568080701 3:0.39171246841862106 4:-0.11246238234003467 5:-0.15219539946345806 
8.0 1:-0.18484527446476479 2:-0.37183463487323615 3:0.4300609976110138 4:-0.11246238234003467 5:-0.15219539946345806 
8.0 1:-0.3041157281681287 2:-0.7127050957808962 3:0.3916312697034684 4:-0.11246238234003467 5:-0.12609662353287424 
8.0 1:-0.19763974131658016 2:-0.8320643837750049 3:0.38317361153314633 4:-0.11246238234003467 5:-0.14165550918379918 
8.0 1:-0.02291449275780089 2:2.452529854002411 3:0.4942014866845608 4:-0.11246238234003467 5:-0.158720093446104 
2.7945841675511844 1:0.058098108236120376 2:-0.8784323692531449 3:0.36052241795410445 4:0.08700383755983053 5:0.05157581260994624 
8.0 1:-0.2995970432975054 2:-0.8698646063187251 3:0.3607335346135018 4:-0.045973642373412935 5:-0.026720515181805158 
8.0 1:-0.2708164965830739 2:0.6064213241347228 3:0.44049990443106524 4:-0.11246238234003467 5:-0.12609662353287424 
8.0 1:-0.26016879413936855 2:1.1770400857435563 3:0.35972991849421243 4:-0.11246238234003467 5:-0.12609662353287424 
8.0 1:0.13949565345208562 2:-0.8247472842219516 3:0.36933410252249305 4:-0.11246238234003467 5:-0.14516880594368547 
8.0 1:-0.07635948449165539 2:0.2092638233449801 3:0.4045223777211364 4:-0.11246238234003467 5:-0.12559472399574761 
8.0 1:-0.24489968586012797 2:0.04155992671252556 3:0.40757869735949 4:0.020515097593208798 5:0.012427648714070542 
8.0 1:-0.25290569561023807 2:0.6453715819716538 3:0.372682737535397 4:-0.045973642373412935 5:-0.022203419347665655 
8.0 1:0.4516397637675176 2:-0.049379114098112825 3:0.36070105512744083 4:-0.11246238234003467 5:-0.13362511658977344 
8.0 1:-0.061804235039277906 2:-0.8096602587191433 3:0.36713524131615344 4:0.08700383755983053 5:-0.011161629530880204 
8.0 1:-0.015967857807439666 2:0.13595626112337877 3:0.3619580112380072 4:-0.11246238234003467 5:-0.13914601149816613 
8.0 1:-0.2725430388619986 2:1.1935430922011305 3:0.3600449695090056 4:-0.11246238234003467 5:-0.14868210270357177 
8.0 1:-0.2754918568648255 2:1.697208236583352 3:0.3595740169611192 4:0.020515097593208798 5:0.023971338067982614 
8.0 1:-0.06105509830527331 2:-0.8784323692531449 3:0.3730627475223121 4:-0.11246238234003467 5:-0.158720093446104 
8.0 1:-0.14681050263871678 2:-0.5230499004892819 3:0.43557926229280214 4:-0.045973642373412935 5:-0.08995985685975821 
8.0 1:0.6278300830581728 2:-0.5010051614625488 3:0.359658463624878 4:-0.11246238234003467 5:-0.11405103464183557 
8.0 1:-0.31443140325050234 2:0.9476296079097635 3:0.36631675826741256 4:-0.11246238234003467 5:-0.13362511658977344 
8.0 1:-0.3200872818336866 2:0.20374365393756866 3:0.35936614825032764 4:-0.11246238234003467 5:-0.018188223050652774 
8.0 1:-0.3200872818336866 2:0.5254157131691923 3:0.3863241216810774 4:-0.11246238234003467 5:-0.12609662353287424 
8.0 1:-0.22654064794949447 2:-0.14591738924257097 3:0.3785517806666457 4:-0.11246238234003467 5:-0.10953393880769606 
1.4091819206774314 1:1.633014904681218 2:1.4038126701235474 3:0.35930768517541767 4:-0.11246238234003467 5:-0.10802824019631624 
8.0 1:-0.3200872818336866 2:-0.056394329386698305 3:0.4427474848664965 4:0.08700383755983053 5:0.10527906308249367 
8.0 1:-0.25428568433077287 2:-0.8784036183708147 3:0.48411985421118175 4:-0.11246238234003467 5:-0.158720093446104 
8.0 1:-0.06906733356840838 2:-0.6227076463665742 3:0.3613149174139964 4:-0.11246238234003467 5:-0.13914601149816613 
8.0 1:-0.3075252341348034 2:1.7217471146522356 3:0.35996377079385294 4:0.21998131749307398 5:0.2317577464383998 
8.0 1:-0.3200872818336866 2:1.4607609802992259 3:0.35920699876862816 4:-0.11246238234003467 5:-0.09899404852803723 
8.0 1:-0.31123460231218075 2:0.4493336908027199 3:0.4822360440196353 4:0.020515097593208798 5:-0.04428699898123655 
8.0 1:-0.3200872818336866 2:-0.8784323692531449 3:-2.7537341276354104 4:-0.11246238234003467 5:-0.1326213175155202 
8.0 1:-0.3200872818336866 2:0.9998124593392006 3:0.366550610567053 4:-0.045973642373412935 5:-0.10100164667654367 
8.0 1:-0.191689188450214 2:0.9348642161551244 3:0.36686241363323996 4:0.5524250173261827 5:0.18206969226286526 
8.0 1:-0.23034132365123805 2:-0.35188871025661256 3:0.362614096856442 4:-0.11246238234003467 5:-0.1667504860401298 
8.0 1:-0.10141924958816384 2:-0.7647945068427597 3:0.36579383854182823 4:-0.11246238234003467 5:-0.05984588463216151 
8.0 1:-0.14157795894123038 2:-0.47471966729210097 3:0.3923198348079646 4:-0.11246238234003467 5:-0.15219539946345806 
8.0 1:-0.04133267304217162 2:-0.8502493168488996 3:0.3598435966954265 4:-0.11246238234003467 5:-0.14165550918379918 
8.0 1:-0.3200872818336866 2:-0.5732920673614257 3:-2.7537341276354104 4:0.020515097593208798 5:0.023971338067982614 
8.0 1:-0.3200872818336866 2:-0.8418468714878786 3:0.36485842934326745 4:-0.11246238234003467 5:-0.1456707054808121 
8.0 1:0.11425119813583641 2:-0.8517874890535688 3:0.3654073326577007 4:-0.11246238234003467 5:-0.11204343649332912 
8.0 1:0.05524059775765964 2:-0.6600837933959228 3:0.3961361744201488 4:-0.11246238234003467 5:-0.11856813047597507 
8.0 1:-0.3200872818336866 2:-0.8533328489788209 3:0.3886821323691165 4:-0.11246238234003467 5:-0.1110396374190759 
8.0 1:0.06843557261408136 2:-0.7470983387684798 3:0.37267948958679076 4:-0.11246238234003467 5:-0.11856813047597507 
8.0 1:-0.306796849110882 2:-0.7526616344993866 3:0.39654216799591324 4:0.08700383755983053 5:0.12987214040169764 
8.0 1:-0.26734058514413284 2:1.450813175012953 3:0.3610648253713256 4:0.020515097593208798 5:0.012427648714070542 
8.0 1:0.46105170187576655 2:0.9337501194648268 3:0.36006445720064245 4:-0.045973642373412935 5:-0.05081169296388253 
2.8178282546590587 1:0.50466038303017 2:0.7043612047927816 3:0.36311752889038984 4:-0.11246238234003467 5:-0.1667504860401298 
8.0 1:-0.26538058612677173 2:-0.48905198213373974 3:0.3965876392763987 4:-0.11246238234003467 5:-0.09899404852803723 
8.0 1:-0.18412830288138915 2:0.9928188072123628 3:0.41175231131834694 4:-0.11246238234003467 5:-0.158720093446104 
8.0 1:-0.27027695212090985 2:2.5392712659928307 3:0.4763312734537194 4:0.6189137572928044 5:1.0242571155613196 
8.0 1:-0.3200872818336866 2:-0.8186592848885172 3:0.3621983594348597 4:-0.11246238234003467 5:-0.11856813047597507 
8.0 1:-0.23310441384882008 2:-0.5469634468674826 3:0.3709483329797318 4:-0.11246238234003467 5:-0.11856813047597507 
8.0 1:-0.2100482263608475 2:-0.8152307421706328 3:0.3607172948704715 4:-0.11246238234003467 5:-0.12559472399574761 
8.0 1:-0.23818858281921143 2:-0.7927475521883631 3:0.40545778691969725 4:-0.045973642373412935 5:-0.07490287074595987 
8.0 1:-0.15597757056798361 2:0.7394013426327961 3:0.3709483329797318 4:0.15349257752645226 5:0.23527104319828607 
8.0 1:-0.0759703899275948 2:-0.25769363202207135 3:0.3900787502697454 4:-0.11246238234003467 5:-0.14165550918379918 
8.0 1:-0.11680560502937465 2:0.8441911210060411 3:0.35896015467456355 4:-0.11246238234003467 5:-0.1326213175155202 
8.0 1:-0.30613590714473116 2:-0.4766100378053162 3:0.36040549180428455 4:-0.045973642373412935 5:-0.022705318884792276 
8.0 1:-0.25792760945037974 2:-0.1820788114934659 3:0.4240490447410959 4:-0.045973642373412935 5:-0.022203419347665655 
8.0 1:0.022843027975721113 2:-0.7852866982236585 3:0.36054190564574135 4:-0.11246238234003467 5:-0.1326213175155202 
8.0 1:-0.19310964300541109 2:-0.5353984044501321 3:0.3655599862421881 4:-0.11246238234003467 5:-0.11204343649332912 
8.0 1:-0.14715601861160257 2:-0.40867889057947493 3:0.3889452162062117 4:-0.11246238234003467 5:-0.1240890253843678 
8.0 1:-0.01673982142253584 2:-0.4067382060221818 3:0.36740157310185495 4:-0.11246238234003467 5:-0.14516880594368547 
8.0 1:-0.26349529326571036 2:-0.27690640913927306 3:0.3714062937331937 4:-0.11246238234003467 5:-0.1537010980748379 
8.0 1:-0.1826289918278758 2:-0.8562007494912651 3:0.377262345070018 4:-0.11246238234003467 5:-0.13814221242391295 
8.0 1:-0.09993446473170872 2:0.6322683673496341 3:0.40351226570463467 4:0.020515097593208798 5:-0.0116635290680068 
8.0 1:-0.2955691363703505 2:0.7132308519916695 3:0.38638583270459353 4:-0.11246238234003467 5:-0.10953393880769606 
8.0 1:-0.3200872818336866 2:-0.5865174732333491 3:0.3594700826057234 4:-0.11246238234003467 5:-0.11204343649332912 
8.0 1:-0.15435374925397086 2:-0.41381811079601033 3:0.4718491043772817 4:-0.11246238234003467 5:-0.15119160038920482 
8.0 1:-0.3200872818336866 2:-0.7129351028395384 3:0.36318573581111835 4:0.2864700574596957 5:0.20063997513654985 
8.0 1:-0.20758811113048056 2:-0.5642642903097215 3:0.3698115509675919 4:0.08700383755983053 5:0.07516509085489696 
8.0 1:-0.3046116940391179 2:-0.586934361027138 3:0.37236768652060387 4:-0.11246238234003467 5:-0.14165550918379918 
8.0 1:-0.2498686828395574 2:2.344282782028951 3:0.36849937973072144 4:0.08700383755983053 5:0.1308759394759509 
8.0 1:-0.10208226672532304 2:-0.2655498106188171 3:0.3630980411987533 4:-0.11246238234003467 5:-0.09748834991665739 
8.0 1:-0.3200872818336866 2:0.30548583878380536 3:0.3640756737291937 4:-0.11246238234003467 5:-0.1240890253843678 
8.0 1:-0.005157254439581028 2:-0.5717395197155912 3:0.36070105512744083 4:-0.11246238234003467 5:-0.12007382908735491 
8.0 1:-0.022994386841621316 2:-0.6739489063996947 3:0.4000596963363349 4:-0.11246238234003467 5:-0.1240890253843678 
8.0 1:-0.2635336839293643 2:0.6012246021535269 3:0.4384049775801218 4:-0.045973642373412935 5:-0.02069772073628581 
8.0 1:-0.1361524243399699 2:-0.5534180199506278 3:0.4422245651409122 4:-0.11246238234003467 5:-0.1456707054808121 
8.0 1:-0.3200872818336866 2:-0.7952345035099313 3:0.3991080473947435 4:-0.11246238234003467 5:-0.14165550918379918 
8.0 1:0.5276958188080594 2:-0.43491407070584465 3:0.3608407169175038 4:-0.11246238234003467 5:-0.14165550918379918 
8.0 1:-0.13698353032880328 2:-0.8163017125374353 3:0.3616039848399406 4:-0.11246238234003467 5:-0.11204343649332912 
1.24308526917053 1:0.06530206439151368 2:2.4134070908714986 3:0.36107456921714387 4:-0.11246238234003467 5:2.6027311598245126 
8.0 1:-0.1301541425404123 2:0.011694947691959497 3:0.44591748270606407 4:-0.11246238234003467 5:-0.12609662353287424 
8.0 1:0.04532335550888405 2:-0.786156412414149 3:0.36203920995315986 4:-0.045973642373412935 5:-0.0754047702830865 
8.0 1:-0.3200872818336866 2:-0.8676579760998769 3:-2.7537341276354104 4:-0.11246238234003467 5:-0.1537010980748379 
8.0 1:0.017841865845662653 2:-0.6938013906487449 3:0.37132509501804106 4:-0.11246238234003467 5:-0.1456707054808121 
8.0 1:-0.25797845114008366 2:-0.8784323692531449 3:0.3598760761814878 4:-0.11246238234003467 5:-0.10953393880769606 
8.0 1:-0.17380847745699893 2:2.1332441180042 3:0.4185502677509444 4:-0.11246238234003467 5:-0.12459092492149443 
8.0 1:-0.2924377033187911 2:-0.8784323692531449 3:0.39464861395854856 4:-0.11246238234003467 5:-0.11405103464183557 
8.0 1:-0.10208226672532304 2:-0.16188131665645242 3:0.3647837265253265 4:-0.11246238234003467 5:-0.10953393880769606 
8.0 1:0.031652128906052214 2:-0.6214282321028772 3:0.4070655214797239 4:-0.11246238234003467 5:-0.1240890253843678 
8.0 1:-0.010512233226558537 2:-0.7116556885758415 3:0.3603730123182232 4:-0.045973642373412935 5:-0.10652254158493639 
8.0 1:-0.2665582456739951 2:-0.6119116900515584 3:0.3600871928408852 4:-0.11246238234003467 5:-0.12007382908735491 
8.0 1:-0.19976264125809456 2:-0.025034304484958192 3:0.45428419831541483 4:-0.045973642373412935 5:-0.048302195278249464 
8.0 1:-0.23624207241340447 2:1.1398005054052767 3:0.36559571367685534 4:-0.11246238234003467 5:-0.15119160038920482 
0.8952451512176804 1:5.109943177416308 2:1.3365859195147975 3:-2.7537341276354104 4:-0.11246238234003467 5:-0.10953393880769606 
3.901714258717065 1:0.5396259769349083 2:0.08495938359006557 3:0.44613509526267386 4:-0.11246238234003467 5:-0.10802824019631624 
8.0 1:-0.2560807072529723 2:0.9002481538294815 3:0.36330266196093863 4:-0.11246238234003467 5:-0.12459092492149443 
8.0 1:-0.3200872818336866 2:-0.2673395530438763 3:0.361071321268538 4:0.020515097593208798 5:-0.014173026753639864 
8.0 1:0.3990310659500173 2:-0.720712216509876 3:-2.7537341276354104 4:-0.11246238234003467 5:-0.13362511658977344 
8.0 1:-0.26699714434225535 2:-0.6308082074631273 3:0.37663873893764416 4:-0.11246238234003467 5:-0.1110396374190759 
8.0 1:-0.2935686715183271 2:-0.6667324349347975 3:0.3590998164646265 4:-0.11246238234003467 5:-0.14416500686943226 
8.0 1:-0.20055743175428228 2:-0.7953998210833304 3:0.4073415971112437 4:-0.11246238234003467 5:-0.13814221242391295 
8.0 1:-0.061622657576049664 2:-0.5780647138282502 3:0.365790590593222 4:-0.11246238234003467 5:-0.1537010980748379 
8.0 1:-0.31542956050550564 2:0.5882292033402458 3:0.404483402337863 4:-0.045973642373412935 5:-0.026720515181805158 
8.0 1:-0.3200872818336866 2:-0.8784323692531449 3:-2.7537341276354104 4:-0.045973642373412935 5:-0.022203419347665655 
8.0 1:-0.3200872818336866 2:-0.8781592358710074 3:-2.7537341276354104 4:-0.11246238234003467 5:-0.11856813047597507 
8.0 1:-0.10097931333439936 2:-0.8784323692531449 3:0.3694217971348581 4:0.15349257752645226 5:0.17454119920596606 
8.0 1:-0.1893525458948423 2:-0.5686487998650873 3:0.36102909793665844 4:-0.11246238234003467 5:-0.10953393880769606 
8.0 1:-0.10208226672532304 2:-0.3133122138899752 3:0.3617663822702463 4:0.15349257752645226 5:0.1148151542878993 
8.0 1:0.016592612898652232 2:-0.13226072013569357 3:0.36160073689133443 4:-0.11246238234003467 5:-0.11856813047597507 
6.734865763620504 1:-0.0977472344889363 2:-0.5959261994759294 3:0.42084656741546733 4:0.2864700574596957 5:0.3351490510864818 
8.0 1:0.1310829101843442 2:-0.7953710702010001 3:0.36320197555414907 4:-0.11246238234003467 5:-0.13914601149816613 
8.0 1:-0.11612702410965305 2:-0.43720695357168354 3:0.4450957517087173 4:-0.11246238234003467 5:-0.15219539946345806 
8.0 1:-0.03186885565871457 2:-0.2937328630230625 3:0.36129218177375366 4:-0.11246238234003467 5:-0.14516880594368547 
8.0 1:-0.21929311320292644 2:1.194225925656474 3:0.4516306243042195 4:-0.11246238234003467 5:-0.1491840022406984 
8.0 1:-0.1394457207301785 2:0.7671459440815049 3:0.42413998730206715 4:0.4859362773595609 5:0.4766847205561862 
8.0 1:0.019811203132561184 2:-0.815626066802674 3:0.40845239553453466 4:-0.11246238234003467 5:-0.11856813047597507 
8.0 1:-0.26674501106474413 2:-0.7028579185827795 3:0.36952573149025353 4:-0.11246238234003467 5:-0.10802824019631624 
8.0 1:-0.19093278861768026 2:-0.48746349588499244 3:0.3958016357137191 4:-0.11246238234003467 5:-0.10802824019631624 
8.0 1:-0.13358647538817855 2:0.3675733691760197 3:0.3720493875572045 4:-0.11246238234003467 5:-0.11204343649332912 
8.0 1:-0.11094013417434972 2:-0.10668681030292003 3:0.37832117631561146 4:0.4859362773595609 5:0.6091861983576116 
8.0 1:-0.30547289000757194 2:-0.06171324261779786 3:0.4157570319496861 4:-0.11246238234003467 5:-0.05984588463216151 
8.0 1:0.004762062980202887 2:-0.8573867233873886 3:0.3620879291822515 4:-0.11246238234003467 5:-0.11405103464183557 
8.0 1:-0.26403898806989096 2:-0.1945063803807243 3:0.374592531315792 4:-0.11246238234003467 5:-0.15219539946345806 
8.0 1:0.5359207590995476 2:-0.2418159572551807 3:0.36104858562829495 4:-0.11246238234003467 5:-0.1110396374190759 
0.5436690896642031 1:0.5099811214955102 2:0.6569366243890042 3:0.3627732463381419 4:-0.11246238234003467 5:-0.12459092492149443 
8.0 1:-0.2449588282338652 2:-0.4998623138899206 3:0.42391587884824533 4:-0.045973642373412935 5:-0.017184423976399552 
8.0 1:-0.2618382692155644 2:0.4508790507279718 3:0.4571846164206751 4:0.15349257752645226 5:0.30955217469302454 
8.0 1:-0.2856736834171623 2:1.1286235998993845 3:0.3591420397965058 4:-0.11246238234003467 5:-0.1110396374190759 
8.0 1:0.5314093373274533 2:-0.537626597830728 3:-2.7537341276354104 4:-0.11246238234003467 5:-0.158720093446104 
8.0 1:-0.06855476632935262 2:-0.3689236080372965 3:0.36104858562829495 4:-0.11246238234003467 5:-0.1110396374190759 
8.0 1:0.02099716336381778 2:-0.8760029196962372 3:0.36311752889038984 4:-0.11246238234003467 5:-0.1537010980748379 
8.0 1:-0.31691745811847327 2:-0.7349295278221937 3:0.38984814591871153 4:-0.11246238234003467 5:-0.10802824019631624 
8.0 1:0.5904043739230678 2:-0.5226042618131628 3:0.36018138335046235 4:-0.11246238234003467 5:-0.1326213175155202 
8.0 1:-0.3142913292074405 2:-0.8587883289009892 3:0.35912904800208134 4:0.020515097593208798 5:0.02848843390212212 
8.0 1:0.6169644876585938 2:2.427351268801679 3:0.3649786034416935 4:-0.11246238234003467 5:-0.10953393880769606 
8.0 1:-0.11069526399536762 2:0.011996831956427317 3:0.3915240873994664 4:-0.045973642373412935 5:-0.02069772073628581 
8.0 1:-0.01661738633304478 2:-0.41208587013561176 3:0.3597591500316676 4:-0.11246238234003467 5:-0.13814221242391295 
8.0 1:-0.30424023842862813 2:1.1899061055863516 3:0.39031909846659796 4:-0.11246238234003467 5:-0.1537010980748379 
8.0 1:0.037176234130208013 2:-0.8784323692531449 3:0.358891947753835 4:-0.11246238234003467 5:-0.12609662353287424 
0.8749934229065283 1:2.987216512681082 2:2.043591679177841 3:-2.7537341276354104 4:-0.11246238234003467 5:-0.14165550918379918 
8.0 1:-0.26760931978971064 2:-0.34536225996764175 3:0.36151629022757553 4:0.15349257752645226 5:0.036518826496147884 
8.0 1:-0.1980184600255991 2:-0.8730128279338893 3:0.3624516994261363 4:-0.11246238234003467 5:-0.13814221242391295 
8.0 1:-0.3200872818336866 2:0.7608710640129238 3:0.410141328809714 4:-0.11246238234003467 5:-0.13362511658977344 
1.7899422968881815 1:-0.022236949423583417 2:0.5734584375430705 3:0.42546515033336174 4:-0.11246238234003467 5:-0.14165550918379918 
8.0 1:-0.3200872818336866 2:-0.823180361134952 3:0.4026775429128634 4:-0.11246238234003467 5:-0.1110396374190759 
8.0 1:-0.2323231119641865 2:-0.019629138606867744 3:0.44321194151717086 4:0.08700383755983053 5:0.09975816817410092 
8.0 1:0.5651256782851811 2:0.04357248847564436 3:0.3592329823574771 4:-0.045973642373412935 5:0.08118788530041633 
8.0 1:-0.2975654508803572 2:-0.7365683281150189 3:0.39863059894964464 4:0.2864700574596957 5:0.24129383764380538 
8.0 1:-0.3200872818336866 2:-0.8634172209561625 3:0.35902511364668593 4:-0.045973642373412935 5:0.08118788530041633 
8.0 1:-0.31755142286151594 2:0.4014706594434059 3:0.44791821904743073 4:0.08700383755983053 5:0.021963739919476147 
8.0 1:-0.261752149618719 2:0.49775736436747414 3:0.3816503236368785 4:0.5524250173261827 5:0.5444411580682788 
8.0 1:-0.2047420140925656 2:-0.24771707585346828 3:0.39701312054379967 4:-0.11246238234003467 5:-0.09899404852803723 
8.0 1:-0.22626465020538752 2:-0.8207796624603746 3:0.3606458400011367 4:-0.11246238234003467 5:-0.13814221242391295 
8.0 1:-0.0832065112336171 2:-0.4397082803344169 3:0.3583170608505528 4:-0.11246238234003467 5:-0.14165550918379918 
8.0 1:-0.3176167907482781 2:-0.38591537949448507 3:0.3618183494479442 4:-0.045973642373412935 5:-0.022705318884792276 
8.0 1:-0.1810072456848714 2:0.25044946228308945 3:0.36362745682155 4:0.020515097593208798 5:0.06713469826087119 
8.0 1:-0.3200872818336866 2:-0.853030964714353 3:0.3988384676604361 4:-0.11246238234003467 5:-0.13914601149816613 
8.0 1:-0.14715601861160257 2:-0.3420559084996609 3:0.3667065121001463 4:-0.11246238234003467 5:-0.1110396374190759 
8.0 1:-0.17930145511602988 2:-0.7428719590659303 3:0.4217494971279671 4:-0.11246238234003467 5:-0.1491840022406984 
8.0 1:-0.29907721295992046 2:0.31602303715784863 3:0.42669937080368536 4:-0.045973642373412935 5:-0.08995985685975821 
8.0 1:-0.2578632791491217 2:-0.8515287311125965 3:0.47812089313568834 4:-0.11246238234003467 5:-0.158720093446104 
8.0 1:-0.21486262310015683 2:0.2086241162131318 3:0.35965521567627184 4:0.020515097593208798 5:0.06914229640937763 
8.0 1:-0.10810752574798882 2:0.8200619430103635 3:0.3683921974267198 4:-0.11246238234003467 5:-0.11405103464183557 
8.0 1:-0.03907488698511619 2:-0.6419419866455236 3:0.36569315213503867 4:-0.11246238234003467 5:-0.13814221242391295 
1.089214220536353 1:6.983501984011184 2:-0.037677504989693626 3:0.36224383071534516 4:-0.11246238234003467 5:-0.11405103464183557 
8.0 1:-0.3200872818336866 2:2.2291714368991395 3:0.4681984101440091 4:-0.11246238234003467 5:-0.15219539946345806 
8.0 1:-0.15920342390042172 2:-0.795356694759835 3:0.3952364926562552 4:-0.11246238234003467 5:-0.1240890253843678 
8.0 1:-0.24251116402954823 2:0.274413322705368 3:0.3600059941257322 4:-0.11246238234003467 5:-0.13011181982988712 
8.0 1:-0.02187171932611861 2:-0.20247037478620858 3:0.4163124311613314 4:-0.11246238234003467 5:-0.13211941797839358 
8.0 1:-0.29723446110452967 2:2.7925018498372505 3:0.3949019539498255 4:-0.045973642373412935 5:0.006404854268551192 
8.0 1:-0.2594248453328848 2:-0.5025361459466355 3:0.471098828249269 4:0.020515097593208798 5:-0.07389907167170665 
8.0 1:-0.30059001262498797 2:1.2324358482734008 3:0.35912255210486926 4:-0.11246238234003467 5:-0.11856813047597507 
8.0 1:-0.3200872818336866 2:0.30518395451933766 3:0.3602365984767664 4:-0.11246238234003467 5:-0.11856813047597507 
8.0 1:-0.11467129164731445 2:-0.1813241008322963 3:0.36285444505329456 4:-0.11246238234003467 5:-0.14165550918379918 
8.0 1:-0.0900078842133957 2:-0.6679830983161641 3:0.36044446718755796 4:-0.11246238234003467 5:-0.11856813047597507 
8.0 1:-0.13358647538817855 2:-0.7860629720465757 3:0.409537210368977 4:-0.045973642373412935 5:-0.035252807312957546 
1.0969881245069637 1:1.7939890325533447 2:2.049830620643509 3:0.3679115010330148 4:11.257112151952281 5:12.98050788899146 
8.0 1:-0.12757159222055434 2:-0.5705247949371374 3:0.400621591445193 4:-0.11246238234003467 5:-0.11204343649332912 
8.0 1:-0.2979161547807638 2:0.6814395638549753 3:0.3898448979701053 4:-0.11246238234003467 5:-0.1537010980748379 
8.0 1:-0.1361524243399699 2:-0.6320948094474068 3:0.3847326268640814 4:-0.045973642373412935 5:-0.08142756472860581 
8.0 1:-0.3027222508360398 2:-0.8784323692531449 3:0.36493313216120804 4:-0.11246238234003467 5:-0.15119160038920482 
0.1319919822463282 1:-0.0550173882565576 2:1.6386858156000907 3:0.3802244741987944 4:1.948688556625239 5:1.1587661915112515 
8.0 1:-0.100848577560875 2:-0.16005563562848035 3:0.3605256659027106 4:-0.11246238234003467 5:-0.12609662353287424 
8.0 1:-0.3098930042552999 2:1.7405286285344836 3:0.4089038603907845 4:-0.11246238234003467 5:-0.1491840022406984 
8.0 1:-0.09937313097395738 2:-0.8784323692531449 3:0.36265307223971543 4:-0.11246238234003467 5:-0.0849408614884921 
8.0 1:-0.15315741316767267 2:0.3220966610501179 3:0.47625007473856673 4:0.020515097593208798 5:-0.09698645037953078 
8.0 1:0.20611694350328694 2:1.5213965911337615 3:0.35915503159093026 4:-0.11246238234003467 5:-0.13362511658977344 
8.0 1:-0.23560188215733682 2:0.9823175474412325 3:0.378308184521187 4:-0.11246238234003467 5:-0.1240890253843678 
8.0 1:-0.30986498944668756 2:0.2813925993910406 3:0.3932325083662827 4:0.020515097593208798 5:-0.05884208555790829 
8.0 1:-0.31319978925706266 2:-0.7125182150457495 3:0.3609868746047788 4:-0.045973642373412935 5:-0.015176825827893085 
8.0 1:0.6463499467219513 2:-0.6306500776103109 3:0.3615650094566672 4:-0.11246238234003467 5:-0.13814221242391295 
8.0 1:-0.3200872818336866 2:-0.49797194337670553 3:0.3809227831491089 4:-0.11246238234003467 5:-0.13814221242391295 
8.0 1:0.10421774631059473 2:-0.6705706777258882 3:0.3596779513165149 4:-0.11246238234003467 5:-0.1110396374190759 
8.0 1:-0.1098579324935093 2:-0.5057131184441302 3:0.3602983095002826 4:-0.045973642373412935 5:-0.07490287074595987 
8.0 1:-0.3200872818336866 2:1.2914398465356935 3:0.35924597415190157 4:-0.045973642373412935 5:-0.026720515181805158 
8.0 1:-0.2937813765466802 2:1.7052584836358267 3:0.3626368324966851 4:-0.11246238234003467 5:-0.09899404852803723 
8.0 1:-0.26820800662561184 2:-0.8468135864104325 3:0.36090567588962613 4:-0.11246238234003467 5:-0.13211941797839358 
8.0 1:-0.06137156188404256 2:0.11784320525530984 3:0.376609507400189 4:-0.11246238234003467 5:-0.13211941797839358 
8.0 1:-0.1604589023604571 2:-0.7989721182128662 3:0.38324831435108697 4:-0.11246238234003467 5:-0.11405103464183557 
8.0 1:0.4210455175918117 2:0.49131716672549397 3:0.4710403651743591 4:-0.11246238234003467 5:-0.13814221242391295 
8.0 1:-0.3062427784516598 2:-0.6595303389110653 3:0.3630103465863882 4:0.020515097593208798 5:0.023971338067982614 
8.0 1:-0.19421674673835138 2:0.672893364082303 3:0.4110280187791835 4:-0.11246238234003467 5:-0.13362511658977344 
8.0 1:0.06188114498429323 2:-0.8399636886952461 3:0.37267299368957835 4:-0.11246238234003467 5:-0.15119160038920482 
8.0 1:-0.19060802435487773 2:-0.8758663530051686 3:0.3619385235463703 4:-0.11246238234003467 5:-0.12609662353287424 
8.0 1:-0.3200872818336866 2:-0.07389642900524904 3:0.3606101125664695 4:-0.11246238234003467 5:-0.13362511658977344 
8.0 1:-0.19781094292476684 2:-0.8200177640786225 3:0.36158124919969786 4:-0.045973642373412935 5:-0.015176825827893085 
8.0 1:-0.31369679271355594 2:-0.8142963384948991 3:0.39111484587509615 4:-0.11246238234003467 5:-0.11856813047597507 
8.0 1:0.02264692431543454 2:-0.496268453598637 3:0.3614188517693922 4:-0.11246238234003467 5:-0.09748834991665739 
8.0 1:-0.16786311251815356 2:-0.5980106384448738 3:0.3588757080108047 4:-0.11246238234003467 5:-0.018188223050652774 
8.0 1:-0.272044997820001 2:1.8583856829268357 3:0.3851516122342699 4:0.08700383755983053 5:-0.061853482780667976 
8.0 1:-0.3200872818336866 2:0.37857776938792986 3:0.44975006206127927 4:-0.11246238234003467 5:-0.1240890253843678 
8.0 1:-0.3200872818336866 2:-0.6747611188255248 3:0.36594974007492154 4:0.020515097593208798 5:-0.05884208555790829 
8.0 1:-0.25420890300346494 2:0.6642249730597273 3:0.3689768281758203 4:-0.11246238234003467 5:-0.1537010980748379 
8.0 1:-0.235403703326042 2:0.09071674777670176 3:0.4455147370789062 4:-0.11246238234003467 5:-0.12609662353287424 
8.0 1:-0.2857867802371159 2:1.6606802405827459 3:0.4058280530607941 4:-0.11246238234003467 5:-0.15219539946345806 
8.0 1:-0.15524918554406225 2:0.02818357870836826 3:0.3585866405848605 4:-0.11246238234003467 5:-0.13814221242391295 
8.0 1:-0.27397283168673314 2:-0.8780729832240166 3:0.3849145119860236 4:-0.11246238234003467 5:-0.10802824019631624 
8.0 1:-0.1100996899159789 2:0.31360077532152353 3:0.4691760426744495 4:-0.11246238234003467 5:-0.13914601149816613 
8.0 1:-0.21612536465872137 2:-0.8784323692531449 3:0.3813352726220857 4:-0.11246238234003467 5:-0.12609662353287424 
8.0 1:-0.17705300732851192 2:-0.8759526056521594 3:0.378136043245063 4:-0.11246238234003467 5:-0.13814221242391295 
1.6215308581095287 1:-0.28010703718733587 2:0.8443708140206054 3:0.3793962473042352 4:2.3476209964249692 5:1.703327189293625 
8.0 1:-0.03165718821586564 2:-0.6747611188255248 3:0.38551538247815476 4:-0.11246238234003467 5:-0.1110396374190759 
8.0 1:-0.3200872818336866 2:0.9812897033979253 3:0.3650857857456951 4:-0.11246238234003467 5:-0.13814221242391295 
8.0 1:-0.2347022955252288 2:2.674889177944706 3:0.3635332663119725 4:-0.11246238234003467 5:-0.10802824019631624 
8.0 1:-0.23378506993955003 2:0.8058230685362983 3:0.40376885364451787 4:-0.11246238234003467 5:-0.13814221242391295 
8.0 1:0.004871009458139809 2:-0.5871140540417021 3:0.4049835864232046 4:-0.11246238234003467 5:-0.13011181982988712 
8.0 1:-0.2847616457590043 2:-0.5740970920666731 3:0.4764611913979641 4:1.4832673768588869 5:0.8611397659951706 
8.0 1:-0.18369666731165796 2:0.4277705290550187 3:0.3874446639501866 4:-0.11246238234003467 5:-0.0849408614884921 
8.0 1:-0.20557104491039066 2:0.23061854119578684 3:0.3704546447916023 4:-0.11246238234003467 5:-0.1326213175155202 
8.0 1:-0.3006169898480962 2:-0.5961777696963192 3:0.36924315996152174 4:-0.11246238234003467 5:-0.13814221242391295 
8.0 1:-0.22994289081764005 2:0.8046586578019225 3:0.4193590069538667 4:-0.11246238234003467 5:-0.11856813047597507 
8.0 1:-0.25420890300346494 2:0.35385919830448176 3:0.4278783761477049 4:-0.11246238234003467 5:-0.1240890253843678 
8.0 1:-0.24464443982610426 2:0.6529186885833492 3:0.3805460211108 4:0.21998131749307398 5:0.17805449596585238 
8.0 1:-0.030841646009594697 2:-0.639145963338905 3:0.3660504264817111 4:-0.11246238234003467 5:-0.09899404852803723 
8.0 1:-0.2532211216035032 2:1.9023960960538937 3:0.429817401465555 4:-0.045973642373412935 5:-0.11656053232746863 
8.0 1:-0.22107776027008422 2:-0.6694997073590858 3:0.3803868716291001 4:-0.045973642373412935 5:-0.1025073452879235 
8.0 1:-0.3200872818336866 2:0.8121410749283747 3:0.36124671049326823 4:-0.11246238234003467 5:-0.15119160038920482 
8.0 1:-0.23298612910134567 2:1.0047935497029197 3:0.46279382366343474 4:-0.045973642373412935 5:-0.1025073452879235 
8.0 1:0.7140627767235307 2:-0.8784323692531449 3:0.35972991849421243 4:-0.11246238234003467 5:-0.11204343649332912 
8.0 1:-0.2649406498730073 2:-0.676450233162428 3:0.3592005028714161 4:-0.11246238234003467 5:-0.11856813047597507 
8.0 1:-0.26087538986770253 2:2.3161500436687836 3:0.4725604051220207 4:0.020515097593208798 5:-0.04428699898123655 
8.0 1:0.5101554358602093 2:-0.07444988349010676 3:0.36876246356781667 4:-0.11246238234003467 5:-0.1537010980748379 
8.0 1:-0.1388231694276816 2:-0.8406752730329202 3:0.3600287297659753 4:-0.11246238234003467 5:-0.12609662353287424 
8.0 1:-0.19514227300806344 2:-0.7084787160783469 3:0.43180514601249725 4:-0.11246238234003467 5:-0.15219539946345806 
8.0 1:-0.29723446110452967 2:2.409496970874582 3:0.37043190915135954 4:-0.045973642373412935 5:-0.09698645037953078 
8.0 1:-0.3200872818336866 2:1.4929763439502917 3:0.35974615823724315 4:-0.11246238234003467 5:-0.12910802075563393 
8.0 1:-0.30703549377683914 2:-0.8509968397894865 3:0.35974615823724315 4:-0.11246238234003467 5:-0.10953393880769606 
8.0 1:-0.23310856419083673 2:2.3767640913415717 3:0.40486666027338436 4:-0.11246238234003467 5:-0.08544276102561871 
8.0 1:-0.0660946510989857 2:-0.7653982753716954 3:0.3644491878188968 4:-0.045973642373412935 5:-0.13161751844126698 
8.0 1:-0.3080014858812135 2:-0.8396618044307783 3:0.37481988771822006 4:0.4859362773595609 5:0.3973845936901816 
8.0 1:-0.20387770536759908 2:0.11898605282793794 3:0.44613184731406763 4:-0.11246238234003467 5:-0.1537010980748379 
8.0 1:-0.2596147234801463 2:0.39127847165732577 3:0.40080672451574145 4:0.020515097593208798 5:-0.05884208555790829 
8.0 1:-0.0977472344889363 2:0.29479051055694566 3:0.3687981910024839 4:-0.11246238234003467 5:-0.1240890253843678 
8.0 1:-0.2106002218490614 2:-0.6902219057986265 3:0.36702156311493944 4:-0.11246238234003467 5:-0.1537010980748379 
8.0 1:-0.3200872818336866 2:1.2272606894539526 3:0.3590770808243838 4:-0.11246238234003467 5:-0.14868210270357177 
8.0 1:-0.1562577186541072 2:-0.5086528961624001 3:0.4415230082419915 4:-0.045973642373412935 5:-0.08142756472860581 
8.0 1:-0.0499996247584326 2:-0.6392394037064784 3:0.42841428766771367 4:-0.11246238234003467 5:-0.1491840022406984 
8.0 1:-0.3200872818336866 2:1.0100980874928538 3:0.36066857564137983 4:-0.11246238234003467 5:-0.12910802075563393 
8.0 1:-0.025436863118417502 2:-0.48246084235952574 3:0.36891511715230413 4:-0.11246238234003467 5:-0.1456707054808121 
8.0 1:-0.3200872818336866 2:-0.8442475701624561 3:0.35936614825032764 4:-0.11246238234003467 5:-0.13914601149816613 
8.0 1:-0.06135081017395934 2:-0.799920897329765 3:0.3610908089601746 4:-0.045973642373412935 5:-0.07490287074595987 
8.0 1:-0.3154285229200015 2:1.702764344593676 3:0.4058377969066127 4:0.15349257752645226 5:0.06010810474109863 
8.0 1:-0.0979786160563643 2:-0.7745841822762161 3:0.3614578271526656 4:-0.11246238234003467 5:-0.1667504860401298 
8.0 1:-0.3200872818336866 2:0.4170392622252462 3:0.3797372819078773 4:0.35295879742631747 5:0.4119396802668533 
8.0 1:-0.12330400304193812 2:0.32558270553266283 3:0.4653791907539015 4:-0.11246238234003467 5:-0.13011181982988712 
8.0 1:-0.3200872818336866 2:1.140123952831492 3:0.37223776857635915 4:-0.11246238234003467 5:-0.11856813047597507 
8.0 1:-0.3200872818336866 2:0.5870288540029571 3:0.3892830028612476 4:-0.11246238234003467 5:-0.14516880594368547 
8.0 1:-0.24001888364855228 2:0.6705429794518036 3:0.43268858803336013 4:-0.11246238234003467 5:-0.1110396374190759 
8.0 1:-0.2622356644636583 2:0.9545585705513583 3:0.3689475966383651 4:0.020515097593208798 5:0.06061000427822525 
8.0 1:-0.2670095953683053 2:-0.8784323692531449 3:0.37334207110243806 4:-0.11246238234003467 5:-0.1456707054808121 
8.0 1:0.49953574822511637 2:-0.42453500218461787 3:0.36177287816745873 4:-0.11246238234003467 5:-0.14165550918379918 
8.0 1:-0.21486262310015683 2:-0.3671410533328199 3:0.37723960942977525 4:0.35295879742631747 5:0.3035293802475052 
8.0 1:-0.31188620600879413 2:-0.31050900286277405 3:0.40928711832630627 4:0.7518912372260479 5:0.6819616312409703 
8.0 1:-0.3099687479971037 2:-0.4183176238806973 3:0.36660907364196293 4:-0.11246238234003467 5:-0.12459092492149443 
8.0 1:-0.3199150426399958 2:0.45482510932780107 3:0.4727910094730546 4:-0.11246238234003467 5:-0.1110396374190759 
8.0 1:-0.021604022266044905 2:0.0029187408606451207 3:0.3839888466332811 4:-0.11246238234003467 5:-0.10953393880769606 
8.0 1:-0.23229198439906165 2:0.8516447872501632 3:0.3717245926965931 4:-0.11246238234003467 5:-0.1240890253843678 
8.0 1:-0.016817640335347946 2:-0.3753134916351986 3:0.36154227381642445 4:-0.045973642373412935 5:-0.049305994352502686 
8.0 1:-0.18785323484132893 2:-0.801034994020063 3:0.3579175631720008 4:-0.045973642373412935 5:-0.022203419347665655 
8.0 1:-0.2935582956632855 2:-0.7862067264582271 3:0.3678790215469538 4:-0.11246238234003467 5:-0.12910802075563393 
8.0 1:-0.3200872818336866 2:1.8878553373153606 3:0.3659335003318912 4:-0.11246238234003467 5:-0.12910802075563393 
8.0 1:-0.02187171932611861 2:-0.22981965160287626 3:0.44885038029738566 4:-0.11246238234003467 5:-0.11405103464183557 
0.7350277932364961 1:-0.3008639351980866 2:2.4748549141318645 3:0.4942112305303791 4:2.8130421761913214 5:2.02102959629477 
8.0 1:-0.21921114394809765 2:-0.7146385926176069 3:0.39304087939852184 4:-0.045973642373412935 5:-0.08644656009987194 
8.0 1:-0.12378751788687736 2:-0.8306843414231521 3:0.3656054575226736 4:-0.11246238234003467 5:-0.1667504860401298 
8.0 1:0.07246555471224461 2:-0.8468854636162582 3:0.36340334836772814 4:-0.045973642373412935 5:-0.09698645037953078 
8.0 1:-0.3200872818336866 2:-0.3317990312283377 3:0.35987932413009405 4:-0.045973642373412935 5:-0.05884208555790829 
8.0 1:-0.2510577558273265 2:-0.8784323692531449 3:0.3600806969436732 4:0.15349257752645226 5:0.062115702889605065 
8.0 1:-0.19136442418741142 2:-0.7843019805038468 3:0.3604022438556784 4:-0.11246238234003467 5:-0.1537010980748379 
8.0 1:-0.2703537334482178 2:1.89395771208996 3:0.3693243586766744 4:-0.11246238234003467 5:-0.1110396374190759 
8.0 1:-0.3200872818336866 2:1.2813267236760217 3:0.359145287745112 4:-0.11246238234003467 5:-0.09899404852803723 
8.0 1:-0.16643850762093984 2:-0.6904231619749385 3:0.36060361666925744 4:-0.11246238234003467 5:-0.10953393880769606 
8.0 1:-0.3019637758324978 2:2.4342514805609428 3:0.4471387113819632 4:-0.11246238234003467 5:-0.1110396374190759 
8.0 1:-0.06637583677061348 2:0.2451233613314073 3:0.3764925812503691 4:-0.11246238234003467 5:-0.1667504860401298 
8.0 1:-0.29700100436609334 2:2.421414211600478 3:0.49420473463316705 4:-0.045973642373412935 5:-0.1025073452879235 
8.0 1:-0.306796849110882 2:-0.46572782884330965 3:0.4310223903984235 4:0.2864700574596957 5:0.2402900385695522 
8.0 1:-0.10565986154367185 2:-0.0950498906797439 3:0.3741118349220873 4:-0.11246238234003467 5:-0.11204343649332912 
8.0 1:-0.3176499934844113 2:-0.6335107904021724 3:0.3591322959506875 4:-0.11246238234003467 5:-0.1240890253843678 
8.0 1:-0.25388517632616653 2:0.31235729966073955 3:0.3602820697572519 4:-0.045973642373412935 5:-0.05081169296388253 
8.0 1:0.702320421572935 2:-0.8176601917275405 3:0.36025933411700917 4:-0.045973642373412935 5:-0.03575470685008417 
0.7011294664342722 1:0.5519265530867428 2:-0.8784323692531449 3:0.36909700227424674 4:-0.11246238234003467 5:2.6027311598245126 
8.0 1:0.03820655653584034 2:-0.49388213036522477 3:0.35994428310221604 4:-0.11246238234003467 5:-0.1537010980748379 
8.0 1:-0.13876195188293608 2:-0.7789040023463389 3:0.37243589344133204 4:-0.045973642373412935 5:-0.026720515181805158 
8.0 1:-0.0900078842133957 2:-0.4472050729020344 3:0.36030805334610083 4:-0.11246238234003467 5:-0.13914601149816613 
8.0 1:0.023416812759522388 2:-0.7952488789510964 3:0.35899913005783696 4:-0.11246238234003467 5:-0.11204343649332912 
6.537110258374906 1:0.18811794776259746 2:0.6861403331159742 3:-2.7537341276354104 4:-0.11246238234003467 5:-0.12459092492149443 
8.0 1:-0.2086682376403127 2:-0.7734628978653356 3:0.3935995265587737 4:-0.11246238234003467 5:-0.13814221242391295 
8.0 1:0.16818800539866346 2:-0.8338038121559861 3:0.36625179929529017 4:-0.11246238234003467 5:-0.15119160038920482 
8.0 1:0.6451089944589742 2:-0.6405260056907579 3:0.35984034874682064 4:-0.11246238234003467 5:-0.11204343649332912 
8.0 1:-0.24921189121542317 2:0.3218235276679803 3:0.39773091718575104 4:-0.11246238234003467 5:-0.1667504860401298 
8.0 1:-0.16406969991493914 2:-0.018737861254629437 3:0.3599345392563978 4:0.15349257752645226 5:0.07767458854053003 
8.0 1:-0.11348844417257037 2:0.559090184098519 3:0.4651226028140187 4:-0.11246238234003467 5:-0.1456707054808121 
8.0 1:0.5743830161533101 2:2.4059893632302893 3:0.3606718235899857 4:-0.11246238234003467 5:-0.15219539946345806 
8.0 1:-0.09957961048928551 2:-0.18613268590203366 3:0.36186382072842965 4:-0.045973642373412935 5:-0.06586867907768086 
8.0 1:-0.2241490133624022 2:-0.5090050944709459 3:0.43014544427477264 4:-0.11246238234003467 5:-0.11856813047597507 
8.0 1:0.06861922524831798 2:-0.8461091897933409 3:0.3613409010028454 4:-0.11246238234003467 5:-0.13362511658977344 
8.0 1:-0.3039258500208672 2:2.038193701020333 3:0.37803210888966726 4:-0.11246238234003467 5:-0.14165550918379918 
8.0 1:-0.21850558580526785 2:2.6005034576357193 3:0.4799202566634759 4:-0.11246238234003467 5:-0.08544276102561871 
8.0 1:-0.11915573619630046 2:-0.6165908961508096 3:0.43767418914374595 4:0.15349257752645226 5:0.0982524695627211 
8.0 1:-0.2459735868569351 2:0.8249064666830138 3:0.4941592633526812 4:-0.11246238234003467 5:-0.15219539946345806 
8.0 1:-0.1278828678718028 2:4.364125706097868 3:0.4656357786937847 4:-0.11246238234003467 5:-0.09899404852803723 
8.0 1:-0.23923654417841456 2:-0.7697468463241486 3:0.3671254974703352 4:-0.11246238234003467 5:-0.12459092492149443 
8.0 1:-0.3200872818336866 2:3.2679551909328963 3:0.44416683840736854 4:-0.11246238234003467 5:-0.08544276102561871 
8.0 1:-0.23574091861489446 2:0.05088958802869756 3:0.3610128581936278 4:-0.045973642373412935 5:-0.022203419347665655 
8.0 1:-0.3200872818336866 2:0.6486707457190521 3:0.42354236475854223 4:-0.11246238234003467 5:-0.1667504860401298 
8.0 1:-0.29060636490394604 2:-0.7960035896122659 3:0.36107456921714387 4:-0.11246238234003467 5:-0.10953393880769606 
8.0 1:-0.23001863455944382 2:-0.14403420644993842 3:0.4092936142235183 4:-0.11246238234003467 5:-0.15219539946345806 
8.0 1:-0.10393539443575546 2:0.82825594447449 3:0.3815528851786952 4:0.020515097593208798 5:-0.04328319990698334 
8.0 1:-0.017847962740980276 2:-0.7496859181782038 3:0.36620632801480474 4:-0.11246238234003467 5:-0.14516880594368547 
8.0 1:-0.23041914256405016 2:1.5158548585646026 3:0.4325651659863279 4:0.020515097593208798 5:-0.053321190649515564 
8.0 1:-0.2581423896497412 2:-0.7385090126723121 3:0.3627017914688071 4:-0.11246238234003467 5:-0.1537010980748379 
8.0 1:-0.14260516859035025 2:-0.3104371256569484 3:0.36106157742271944 4:-0.11246238234003467 5:-0.11856813047597507 
8.0 1:-0.11915573619630046 2:-0.6783909177197212 3:0.395119566506435 4:-0.045973642373412935 5:-0.11656053232746863 
8.0 1:-0.08064471262384236 2:-0.6454064679663211 3:0.3675769623265851 4:-0.11246238234003467 5:-0.11204343649332912 
8.0 1:-0.20954084704931253 2:-0.840962781856223 3:0.36662856133359945 4:-0.11246238234003467 5:-0.11405103464183557 
8.0 1:-0.18171384141320535 2:-0.8539581806695041 3:0.3613993640777553 4:-0.11246238234003467 5:-0.11856813047597507 
8.0 1:0.4990594964787063 2:0.8941457790548822 3:0.3623607568651654 4:-0.11246238234003467 5:-0.11405103464183557 
8.0 1:0.028449102454705666 2:-0.6559077277374514 3:0.36036651642101114 4:-0.11246238234003467 5:-0.12609662353287424 
8.0 1:-0.2821272161639383 2:0.48150592813029014 3:0.4601759770869063 4:-0.11246238234003467 5:-0.11405103464183557 
8.0 1:-0.2856446310230457 2:-0.8261273265738045 3:0.38332301716902756 4:-0.11246238234003467 5:-0.13211941797839358 
8.0 1:-0.3200872818336866 2:-0.5112476632927068 3:0.36024309437397883 4:-0.11246238234003467 5:-0.11856813047597507 
8.0 1:-0.06807436424092585 2:-0.8784323692531449 3:0.3588562203191678 4:-0.11246238234003467 5:-0.11204343649332912 
8.0 1:-0.30467291158386345 2:-0.8479636217036431 3:0.40426903772985945 4:0.020515097593208798 5:-0.02923001286743822 
4.825213860363402 1:0.9061499435234444 2:0.35531830558274274 3:-2.7537341276354104 4:-0.11246238234003467 5:-0.1667504860401298 
8.0 1:-0.11289598284969414 2:0.3957492338596826 3:0.37286787060594545 4:-0.11246238234003467 5:-0.12910802075563393 
8.0 1:0.0439776071099866 2:-0.8684270622022116 3:0.36085695666053447 4:-0.11246238234003467 5:-0.13211941797839358 
8.0 1:-0.3012561425186596 2:-0.07388924128466647 3:0.4623748382932458 4:-0.11246238234003467 5:-0.14516880594368547 
8.0 1:0.013271301699831272 2:-0.3702892749479843 3:0.36397823527101036 4:-0.11246238234003467 5:-0.1456707054808121 
6.261620288182746 1:-0.3200872818336866 2:-0.10367515537882442 3:-2.7537341276354104 4:-0.11246238234003467 5:-0.14416500686943226 
8.0 1:-0.3200872818336866 2:0.3005838133464947 3:0.35966495952209043 4:-0.045973642373412935 5:0.032001730662008405 
8.0 1:-0.09216398689104328 2:-0.27631701605150255 3:0.38196212670306584 4:0.020515097593208798 5:-0.05884208555790829 
8.0 1:-0.0381068197097335 2:-0.08643900142182863 3:0.29035048831900295 4:-0.11246238234003467 5:-0.158720093446104 
8.0 1:-0.183388504416922 2:-0.18284789759580053 3:0.4098197818977088 4:-0.11246238234003467 5:-0.13814221242391295 
8.0 1:-0.279651537151009 2:-0.8486177042766568 3:0.36273751890347466 4:-0.045973642373412935 5:-0.08995985685975821 
8.0 1:-0.3200872818336866 2:1.107383885577899 3:0.3609868746047788 4:-0.11246238234003467 5:-0.12609662353287424 
8.0 1:-0.23590589471005616 2:0.5782885857745554 3:0.43990877778475274 4:-0.11246238234003467 5:-0.1240890253843678 
8.0 1:-0.01676991140215653 2:-0.5868984224242251 3:0.36291290812820487 4:-0.11246238234003467 5:-0.1537010980748379 
8.0 1:0.40128158890854354 2:-0.7841150997687001 3:-2.7537341276354104 4:-0.11246238234003467 5:-0.15119160038920482 
0.309018086529779 1:3.7614223500517276 2:0.34302730338655313 3:0.3597266705456066 4:-0.11246238234003467 5:-0.13211941797839358 
8.0 1:0.6091556191542742 2:-0.4983097662440861 3:0.3600287297659753 4:-0.11246238234003467 5:-0.11204343649332912 
8.0 1:-0.1915937305838311 2:0.5372898275715929 3:0.46438856642903664 4:0.020515097593208798 5:0.012427648714070542 
8.0 1:-0.21464680531529123 2:-0.6715625831662825 3:0.36105508152550736 4:-0.11246238234003467 5:-0.11856813047597507 
8.0 1:-0.26856389845353923 2:-0.8766426268280858 3:0.37277692804497414 4:-0.11246238234003467 5:-0.15219539946345806 
8.0 1:-0.3200872818336866 2:0.5289880102987281 3:0.37597615742199686 4:-0.11246238234003467 5:-0.15119160038920482 
8.0 1:-0.04133267304217162 2:-0.6564396190605615 3:0.4051784633395713 4:-0.11246238234003467 5:-0.11204343649332912 
8.0 1:-0.3068694800961733 2:0.011486503795065044 3:0.36817458487011 4:-0.11246238234003467 5:-0.13914601149816613 
8.0 1:-0.01747131920296965 2:-0.3894804889034383 3:0.37591119844987453 4:-0.045973642373412935 5:-0.09698645037953078 
8.0 1:0.5768088910620396 2:-0.18286227303696567 3:0.35874903801516617 4:-0.11246238234003467 5:-0.10953393880769606 
8.0 1:0.7526702957478758 2:-0.8678376691144412 3:0.35913554389929375 4:-0.11246238234003467 5:-0.14165550918379918 
8.0 1:-0.17286219947720366 2:-0.6414891602488219 3:0.3672489195173675 4:0.08700383755983053 5:0.15647281586940806 
8.0 1:-0.009569068003275744 2:-0.6505456881828564 3:0.3598371007982144 4:-0.11246238234003467 5:-0.11405103464183557 
8.0 1:-0.05315077193457102 2:-0.7864942352815297 3:0.43348108749325215 4:-0.11246238234003467 5:-0.158720093446104 
8.0 1:-0.3200872818336866 2:0.6117618005275703 3:0.3599735146396712 4:-0.11246238234003467 5:-0.12007382908735491 
1.6633006253404026 1:0.46306046741182316 2:-0.24115468696158446 3:0.36001898592015663 4:-0.11246238234003467 5:-0.11405103464183557 
8.0 1:-0.3200872818336866 2:0.7060359436885197 3:0.37077294375500164 4:-0.11246238234003467 5:-0.13362511658977344 
8.0 1:-0.3200872818336866 2:-0.7858904667525941 3:0.3753298156493799 4:-0.11246238234003467 5:-0.12910802075563393 
8.0 1:-0.23224944339339101 2:-0.7158245665137304 3:0.3590023780064432 4:-0.11246238234003467 5:-0.13211941797839358 
8.0 1:-0.07075859794019161 2:-0.43852949415887593 3:0.4048893959136271 4:0.020515097593208798 5:0.02447323760510921 
8.0 1:-0.3200872818336866 2:-0.8781592358710074 3:-2.7537341276354104 4:-0.11246238234003467 5:-0.11856813047597507 
8.0 1:-0.1604589023604571 2:1.0698496086957339 3:0.37326736828449747 4:-0.045973642373412935 5:-0.03575470685008417 
8.0 1:-0.2883247143802949 2:-0.8712877749940734 3:0.3643582452579255 4:-0.11246238234003467 5:-0.15119160038920482 
8.0 1:-0.020066320548877584 2:-0.8533472244199859 3:0.4163286709043621 4:-0.11246238234003467 5:-0.158720093446104 
8.0 1:-0.3200872818336866 2:1.211878967407259 3:0.3772331135325632 4:-0.11246238234003467 5:-0.09899404852803723 
8.0 1:-0.006432447024195544 2:0.3349698686134954 3:0.460133753755027 4:-0.11246238234003467 5:-0.13814221242391295 
8.0 1:-0.2762026029351761 2:1.7468178840442294 3:0.39999148941560675 4:0.6189137572928044 5:0.42599286730639846 
8.0 1:-0.2843082208936858 2:-0.6250220923941608 3:0.35876852570680273 4:-0.11246238234003467 5:-0.11204343649332912 
8.0 1:-0.3026257553841528 2:1.0538353672377745 3:0.3628706847963252 4:-0.11246238234003467 5:-0.11856813047597507 
8.0 1:-0.1740564603924935 2:-0.7681583600754012 3:0.4640118043907277 4:-0.11246238234003467 5:-0.158720093446104 
8.0 1:-0.2871180024389551 2:-0.36990832575710814 3:0.41888155850876785 4:-0.11246238234003467 5:-0.1537010980748379 
0.17324709348442888 1:0.685217899707841 2:0.9992877557366733 3:0.35975265413445556 4:0.08700383755983053 5:-0.061853482780667976 
8.0 1:-0.2982046035509207 2:1.8163159543570706 3:0.42412049961043063 4:-0.11246238234003467 5:-0.15219539946345806 
8.0 1:0.4581018462874354 2:0.309891911500919 3:0.46944237446015064 4:-0.11246238234003467 5:-0.13814221242391295 
8.0 1:-0.3111962116485268 2:-0.7187571565114178 3:0.4187029213354318 4:0.15349257752645226 5:0.0982524695627211 
8.0 1:-0.10232194897678433 2:-0.8784323692531449 3:0.36287718069353764 4:-0.11246238234003467 5:-0.15119160038920482 
8.0 1:-0.306610083720133 2:2.5723275929520564 3:0.37110748246143127 4:0.35295879742631747 5:0.3035293802475052 
8.0 1:-0.15052505874361494 2:-0.6448961398049586 3:0.3716823693647135 4:-0.045973642373412935 5:-0.07490287074595987 
8.0 1:-0.20763168972165535 2:0.006598853798919444 3:0.3826604356533803 4:0.020515097593208798 5:0.02447323760510921 
8.0 1:-0.23818858281921143 2:-0.7892255691029052 3:0.4063672125294091 4:-0.11246238234003467 5:-0.10953393880769606 
1.1005341314078654 1:16.165993621797362 2:3.205479523629223 3:0.36659283389893227 4:-0.11246238234003467 5:-0.1491840022406984 
8.0 1:-0.1512679699645946 2:-0.6089359737303757 3:0.3591842631283854 4:-0.11246238234003467 5:-0.12609662353287424 
8.0 1:-0.01418528591129022 2:-0.7003350286582983 3:0.3844110799520758 4:-0.11246238234003467 5:-0.14165550918379918 
8.0 1:-0.2606906996479618 2:0.649188261600997 3:0.3803868716291001 4:-0.045973642373412935 5:-0.05081169296388253 
8.0 1:-0.26610897115069315 2:-0.3786342185443446 3:0.46918578652026777 4:-0.11246238234003467 5:-0.158720093446104 
8.0 1:-0.1373248959596724 2:-0.8784323692531449 3:0.3745730436241555 4:-0.11246238234003467 5:-0.15119160038920482 
8.0 1:-0.3200872818336866 2:-0.8208443519456177 3:0.3601424079671893 4:-0.11246238234003467 5:-0.11204343649332912 
8.0 1:-0.3200872818336866 2:-0.8166754740077288 3:0.3617339027841853 4:0.08700383755983053 5:0.15697471540653468 
8.0 1:0.03400952317150713 2:-0.6437604799529131 3:0.3593693961989338 4:-0.11246238234003467 5:-0.10953393880769606 
8.0 1:0.4547390316684479 2:0.9973758220617102 3:0.3624387076317119 4:-0.11246238234003467 5:-0.14868210270357177 
4.339652275849315 1:-0.0778899231102936 2:0.7167168964742145 3:0.3701785691600825 4:0.5524250173261827 5:0.9223715095246173 
8.0 1:0.06530206439151368 2:-0.357940770987134 3:0.3645596180715046 4:-0.11246238234003467 5:-0.1456707054808121 
8.0 1:-0.305999983443686 2:-0.450698305105162 3:0.47426557814023074 4:0.4859362773595609 5:0.223727353844374 
8.0 1:-0.24170807284932722 2:0.6318155409529324 3:0.385239306846635 4:-0.11246238234003467 5:-0.1537010980748379 
8.0 1:-0.0748394217280588 2:1.3445355384791167 3:0.36749251566282587 4:0.15349257752645226 5:0.07918028715190989 
8.0 1:-0.2971690932177675 2:-0.47899636103872845 3:0.43785282631708233 4:-0.11246238234003467 5:-0.15119160038920482 
8.0 1:0.09875485863118443 2:-0.8784323692531449 3:0.36309154530154086 4:-0.11246238234003467 5:-0.14868210270357177 
8.0 1:-0.3200872818336866 2:-0.16116254459819568 3:-2.7537341276354104 4:-0.045973642373412935 5:-0.02069772073628581 
8.0 1:-0.2594248453328848 2:-0.6164471417391584 3:0.35985658848985097 4:-0.11246238234003467 5:-0.14165550918379918 
8.0 1:0.3332076791515161 2:-0.8608152661052731 3:-2.7537341276354104 4:-0.11246238234003467 5:-0.14868210270357177 
8.0 1:-0.256901437386764 2:-0.39734385522076665 3:0.36698258773166603 4:-0.045973642373412935 5:-0.088956057785505 
8.0 1:-0.18159451908022678 2:-0.20391510662330462 3:0.3818614402962763 4:-0.11246238234003467 5:-0.12559472399574761 
8.0 1:0.314940986350753 2:0.9541488704781521 3:0.47117677901581584 4:-0.11246238234003467 5:-0.15219539946345806 
8.0 1:-0.13037307308179039 2:-0.8784323692531449 3:0.36431277397744005 4:-0.11246238234003467 5:-0.1537010980748379 
8.0 1:-0.28583139641379485 2:-0.7489312075170343 3:0.3781133076048199 4:-0.11246238234003467 5:-0.15119160038920482 
8.0 1:-0.09819339625572575 2:-0.40836263087384195 3:0.3600482174576118 4:0.020515097593208798 5:-0.02170151981053906 
8.0 1:-0.11289598284969414 2:0.8378012374081392 3:0.3839953425304931 4:0.08700383755983053 5:0.05157581260994624 
8.0 1:-0.24052730054559143 2:0.16314022036664744 3:0.4583766135591191 4:-0.11246238234003467 5:-0.05984588463216151 
8.0 1:-0.12182233094199549 2:-0.5011273527124525 3:0.4273294728332716 4:-0.11246238234003467 5:-0.13814221242391295 
8.0 1:-0.07670292529353284 2:-0.8144257174653854 3:0.361103800754599 4:-0.11246238234003467 5:-0.13211941797839358 
8.0 1:-0.12498592914418388 2:0.6612492567385445 3:0.42606926877409906 4:-0.11246238234003467 5:-0.13814221242391295 
8.0 1:-0.09640148609003885 2:-0.8428244014871078 3:0.36015539976161376 4:-0.11246238234003467 5:-0.15119160038920482 
8.0 1:0.4547296933989105 2:0.9031232420625084 3:0.3602560861684033 4:-0.11246238234003467 5:-0.11856813047597507 
8.0 1:-0.13777417048297433 2:1.2876087914651853 3:0.3710522673351276 4:-0.045973642373412935 5:-0.017184423976399552 
8.0 1:-0.20480011888079863 2:1.114061277999104 3:0.35924597415190157 4:-0.11246238234003467 5:-0.1110396374190759 
8.0 1:-0.2047420140925656 2:-0.42406780034675096 3:0.4675780519602411 4:0.2864700574596957 5:0.19160578346827084 
8.0 1:-0.279651537151009 2:-0.7401837515680502 3:0.3952364926562552 4:-0.11246238234003467 5:-0.11856813047597507 
8.0 1:-0.1361524243399699 2:-0.3790079800146381 3:0.4021383834442484 4:0.020515097593208798 5:0.06713469826087119 
8.0 1:-0.2606906996479618 2:0.649188261600997 3:0.4380249675932063 4:-0.11246238234003467 5:-0.12609662353287424 
8.0 1:-0.3200872818336866 2:1.032380021298812 3:0.37565461050999166 4:-0.11246238234003467 5:-0.05984588463216151 
8.0 1:-0.16728413980683143 2:3.642025733211433 3:0.4544238601054778 4:-0.11246238234003467 5:-0.09899404852803723 
8.0 1:-0.06135081017395934 2:-0.7867817441048325 3:0.3603437807807684 4:-0.11246238234003467 5:-0.11856813047597507 
8.0 1:-0.26758960566513157 2:-0.7378405546581333 3:0.3615780012510917 4:-0.11246238234003467 5:-0.1456707054808121 
8.0 1:-0.2754918568648255 2:-0.7578799196423304 3:0.35905109723553486 4:-0.045973642373412935 5:-0.02069772073628581 
8.0 1:-0.28361200102039336 2:0.07869887896264958 3:0.3622665663555879 4:0.08700383755983053 5:0.10226766585973399 
8.0 1:-0.30243172689487463 2:-0.7186421529820967 3:0.4842887475386999 4:-0.11246238234003467 5:-0.158720093446104 
8.0 1:-0.20172575303196813 2:1.2031243237376923 3:0.45041913947413864 4:-0.11246238234003467 5:-0.15219539946345806 
8.0 1:0.05827449777182783 2:-0.8320356328926746 3:0.3666512969738426 4:-0.11246238234003467 5:-0.1537010980748379 
8.0 1:-0.21508362881254323 2:-0.32751514976112767 3:0.3597948774663348 4:-0.045973642373412935 5:-0.0628572818549212 
8.0 1:-0.30888447114525497 2:2.3992472813238415 3:0.36061660846368193 4:-0.11246238234003467 5:-0.14165550918379918 
1.1008231558392483 1:-0.30197830202955606 2:3.556736240778693 3:0.46015324144666353 4:8.93000625312052 5:4.5721849435093365 
8.0 1:-0.3200872818336866 2:0.8038967594201702 3:0.3590738328757776 4:-0.11246238234003467 5:-0.1110396374190759 
8.0 1:0.0023050605063484266 2:-0.6907753602834842 3:0.3695484671304966 4:-0.045973642373412935 5:-0.088956057785505 
8.0 1:-0.23480605407564498 2:-0.774519492790973 3:0.36593025238328497 4:-0.11246238234003467 5:-0.11204343649332912 
8.0 1:-0.274229115306261 2:-0.5554162062725815 3:0.39891641842698294 4:-0.11246238234003467 5:-0.09748834991665739 
8.0 1:-0.3200872818336866 2:-0.8784323692531449 3:0.35981761310657756 4:-0.11246238234003467 5:-0.1667504860401298 
8.0 1:0.5022718611995902 2:0.5919308794402678 3:0.459766735562536 4:-0.11246238234003467 5:-0.1240890253843678 
8.0 1:-0.18159451908022678 2:-0.27157312046700827 3:0.3787141780969514 4:-0.045973642373412935 5:-0.09598265130527756 
8.0 1:-0.3200872818336866 2:0.2821473100522101 3:0.3878766411148 4:-0.11246238234003467 5:-0.1667504860401298 
8.0 1:-0.3032327429040873 2:-0.7515834764120015 3:0.3625166583982587 4:-0.11246238234003467 5:-0.12459092492149443 
8.0 1:-0.3200872818336866 2:1.0814937160394926 3:0.3862169393770754 4:-0.11246238234003467 5:-0.158720093446104 
8.0 1:-0.3200872818336866 2:0.05671882942115949 3:0.3617436466300036 4:-0.11246238234003467 5:-0.14416500686943226 
8.0 1:-0.0628501212274727 2:-0.8784323692531449 3:0.3626270886508665 4:-0.045973642373412935 5:0.032001730662008405 
8.0 1:-0.2649406498730073 2:-0.6577621596477538 3:0.36023335052816025 4:-0.11246238234003467 5:-0.13211941797839358 
8.0 1:-0.31118687337898937 2:-0.6914006919741675 3:0.3675574746349482 4:0.15349257752645226 5:0.08570498113455584 
8.0 1:0.5042961905182094 2:-0.3878057500077002 3:0.35932067696984216 4:-0.11246238234003467 5:-0.1240890253843678 
8.0 1:-0.26760931978971064 2:0.9085715342640945 3:0.36378011040603747 4:0.15349257752645226 5:0.2498261297749578 
8.0 1:0.48821880313122695 2:0.7044258942780247 3:0.36276999838953566 4:-0.11246238234003467 5:-0.1326213175155202 
8.0 1:-0.24442965962674282 2:-0.7503759393541303 3:0.36189630021449104 4:-0.11246238234003467 5:-0.11204343649332912 
5.6413016926746495 1:0.522950940297529 2:0.0861525452067717 3:0.3629843629975393 4:-0.11246238234003467 5:-0.14416500686943226 
8.0 1:-0.08653508553096718 2:-0.8723443699197106 3:0.36317923991390594 4:-0.11246238234003467 5:-0.1456707054808121 
8.0 1:-0.3200872818336866 2:-0.3117165399206453 3:0.4700627326439187 4:-0.045973642373412935 5:-0.13161751844126698 
8.0 1:-0.26026943993327223 2:-0.715084231293726 3:0.41455853891402966 4:0.08700383755983053 5:-0.011161629530880204 
8.0 1:-0.31423633717571997 2:0.3839254335013597 3:0.37433269542730296 4:-0.045973642373412935 5:-0.08142756472860581 
8.0 1:-0.3115344645228834 2:0.09678318394838824 3:0.3819556308058534 4:0.15349257752645226 5:0.505292994172403 
8.0 1:-0.0035355082965766293 2:-0.5957321310202001 3:0.3982473410141233 4:-0.045973642373412935 5:-0.0628572818549212 
8.0 1:0.018088811195653108 2:-0.7506562604568504 3:0.36419584782761977 4:-0.045973642373412935 5:-0.13161751844126698 
0.03097765617596582 1:2.7926692306508016 2:1.0781370505274337 3:-2.7537341276354104 4:-0.11246238234003467 5:-0.10953393880769606 
8.0 1:-0.19426240050053448 2:2.210073663311259 3:0.35921024671723434 4:0.4194475373929392 5:0.6272545816941696 
8.0 1:-0.3200872818336866 2:1.5332491423744146 3:0.3625199063468649 4:-0.11246238234003467 5:-0.1110396374190759 
8.0 1:-0.050995706842427595 2:0.6026908971523707 3:0.41273319179739354 4:-0.11246238234003467 5:-0.1537010980748379 
8.0 1:-0.31607908903111076 2:0.7494929023307202 3:0.3973476592502297 4:0.08700383755983053 5:0.1715298019832064 
0.8678264864377658 1:1.9677462138367416 2:-0.028886922717214197 3:-2.7537341276354104 4:-0.11246238234003467 5:-0.11856813047597507 
8.0 1:-0.21468208322243276 2:1.966604004017965 3:0.3683174946087792 4:-0.11246238234003467 5:-0.018188223050652774 
8.0 1:-0.23747679916335665 2:2.212467174265254 3:0.3615390258678183 4:0.15349257752645226 5:0.25886032144323684 
0.7330284529557254 1:0.38772345912566525 2:1.1469235365026003 3:0.35912255210486926 4:-0.11246238234003467 5:-0.11405103464183557 
8.0 1:0.48022109406515007 2:0.4424191036022905 3:0.4782995303090247 4:-0.045973642373412935 5:-0.08995985685975821 
8.0 1:-0.14371019715228225 2:1.8008767305457163 3:0.361269446133511 4:0.2864700574596957 5:0.1675146056861935 
8.0 1:0.6278300830581728 2:-0.6106538389496092 3:0.3598890679759123 4:-0.11246238234003467 5:-0.11204343649332912 
8.0 1:-0.26135579195612935 2:0.8849742475915267 3:0.3869672155050878 4:-0.11246238234003467 5:-0.1667504860401298 
7.99830347700749 1:0.4931556349600274 2:0.6008364652420682 3:0.36319872760554284 4:-0.11246238234003467 5:-0.1326213175155202 
8.0 1:-0.3200872818336866 2:1.6448816307422638 3:-2.7537341276354104 4:-0.11246238234003467 5:-0.1491840022406984 
8.0 1:0.43662278876578825 2:-0.7226600887877517 3:-2.7537341276354104 4:-0.11246238234003467 5:-0.10953393880769606 
8.0 1:-0.27564645710494556 2:-0.7357992420126843 3:0.36188330842006655 4:-0.11246238234003467 5:-0.08544276102561871 
4.737001210945951 1:-0.03710970004023432 2:0.7182622563994664 3:-2.7537341276354104 4:-0.11246238234003467 5:-0.14516880594368547 
8.0 1:-0.3200872818336866 2:0.5435215813166787 3:0.38489177634578087 4:-0.11246238234003467 5:-0.15119160038920482 
8.0 1:-0.306796849110882 2:-0.5419104792979379 3:0.40232676446340304 4:0.15349257752645226 5:0.2498261297749578 
8.0 1:-0.13838219558841297 2:-0.8784323692531449 3:0.35921024671723434 4:-0.11246238234003467 5:-0.1110396374190759 
8.0 1:-0.009312784383747857 2:-0.6135001763003057 3:0.35922973440887085 4:-0.11246238234003467 5:-0.14165550918379918 
8.0 1:-0.16287751417065754 2:0.4829434722468034 3:0.3683921974267198 4:-0.11246238234003467 5:-0.12459092492149443 
8.0 1:-0.2510733196098889 2:-0.7251614155504851 3:0.40771835914955296 4:-0.11246238234003467 5:-0.13814221242391295 
8.0 1:0.046119183590575936 2:-0.6539814186213234 3:0.373793535958688 4:-0.11246238234003467 5:-0.10953393880769606 
8.0 1:-0.2258797059833436 2:2.371574557080958 3:0.36528715855927424 4:0.35295879742631747 5:0.4606239353681347 
8.0 1:-0.268710198009626 2:-0.7441585610502097 3:0.35945709081129895 4:-0.11246238234003467 5:-0.1326213175155202 
8.0 1:-0.11649017903610956 2:0.6816911340753652 3:0.3841804756010419 4:-0.11246238234003467 5:-0.11856813047597507 
8.0 1:-0.2762026029351761 2:-0.2901102518494488 3:0.4422375569353367 4:0.15349257752645226 5:0.11431325475077268 
8.0 1:0.006900526704279709 2:-0.8761682372696363 3:0.3592005028714161 4:-0.11246238234003467 5:-0.11856813047597507 
8.0 1:-0.14225342710443953 2:1.0372820467361223 3:0.36059712077204503 4:0.020515097593208798 5:0.06914229640937763 
8.0 1:-0.15524918554406225 2:-0.551089198481876 3:0.36550801906449026 4:-0.11246238234003467 5:-0.11405103464183557 
8.0 1:-0.3068404277020568 2:0.6860109541454879 3:0.4499351951318277 4:-0.045973642373412935 5:-0.02069772073628581 
8.0 1:-0.061622657576049664 2:-0.4952621727170776 3:0.35936614825032764 4:-0.11246238234003467 5:-0.11204343649332912 
8.0 1:-0.2463253283428459 2:-0.8554747897124257 3:0.37881486450374097 4:-0.11246238234003467 5:-0.1491840022406984 
8.0 1:-0.09689952713203637 2:0.37857776938792986 3:0.43142513602558175 4:-0.11246238234003467 5:-0.1240890253843678 
8.0 1:-0.2834740021483399 2:-0.6709444391961817 3:0.40605540946322216 4:0.08700383755983053 5:0.16701270614906688 
8.0 1:-0.04339746819545299 2:0.3179062199504813 3:0.39354755938107583 4:-0.11246238234003467 5:-0.1667504860401298 
8.0 1:-0.19646519452586936 2:-0.33534257747554325 3:0.38422269893292116 4:0.21998131749307398 5:0.25032802931208437 
8.0 1:-0.2786118764758392 2:-0.5494935245125462 3:0.36189630021449104 4:-0.11246238234003467 5:-0.11204343649332912 
8.0 1:-0.18785323484132893 2:-0.8301021360559642 3:0.36305906581547986 4:0.2864700574596957 5:0.5258708751945941 
8.0 1:-0.3200872818336866 2:1.0238625724084698 3:0.3654300682979434 4:0.8183799771926695 5:0.7452009729189234 
8.0 1:-0.06445007807488971 2:-0.8784323692531449 3:0.39035807384987137 4:-0.11246238234003467 5:-0.11856813047597507 
8.0 1:-0.3200872818336866 2:-0.635013024003929 3:0.36893460484394064 4:-0.045973642373412935 5:-0.05131359250100912 
8.0 1:-0.31035161704813935 2:-0.8230437944438832 3:0.4110637462138507 4:-0.11246238234003467 5:-0.10953393880769606 
8.0 1:-0.25698651939810524 2:-0.815309807097041 3:0.3620554496961905 4:0.020515097593208798 5:0.1459329255897492 
8.0 1:-0.10208226672532304 2:-0.4121793105031851 3:0.4087219752688423 4:0.08700383755983053 5:0.15647281586940806 
8.0 1:-0.10456935917879813 2:-0.8043988472527043 3:0.35891793134268396 4:-0.11246238234003467 5:-0.1110396374190759 
8.0 1:-0.10456935917879813 2:-0.7437919873004989 3:0.35990530771894264 4:-0.11246238234003467 5:-0.1110396374190759 
8.0 1:-0.3200872818336866 2:-0.8578898638281683 3:0.38047131829285896 4:-0.11246238234003467 5:-0.12609662353287424 
8.0 1:-0.3176499934844113 2:1.2960759263114494 3:0.36241597199146913 4:-0.11246238234003467 5:-0.13814221242391295 
8.0 1:-0.3200872818336866 2:1.790210153201187 3:0.35932717286705457 4:-0.11246238234003467 5:-0.08544276102561871 
8.0 1:0.12901707744555865 2:-0.8545331983161095 3:-2.7537341276354104 4:-0.11246238234003467 5:-0.11204343649332912 
8.0 1:0.7094859870646744 2:-0.8162226476110271 3:0.3601261682241586 4:-0.11246238234003467 5:-0.11204343649332912 
8.0 1:-0.3200872818336866 2:-0.8122622135700326 3:0.3621983594348597 4:-0.11246238234003467 5:-0.13914601149816613 
8.0 1:-0.11348844417257037 2:-0.38061084170455056 3:0.38275787411156365 4:-0.045973642373412935 5:-0.1025073452879235 
8.0 1:-0.026194300536455346 2:-0.4044165722740126 3:0.3600482174576118 4:-0.11246238234003467 5:-0.1240890253843678 
8.0 1:-0.07992670345496261 2:-0.41189898940046493 3:0.4488211487599305 4:0.08700383755983053 5:-0.061853482780667976 
8.0 1:-0.2843632129254063 2:1.9392116008778022 3:0.3747549287460977 4:0.020515097593208798 5:0.02447323760510921 
5.602703300261528 1:-0.19310964300541109 2:1.3493513112694366 3:0.4533650288598847 4:-0.11246238234003467 5:1.1738231776250496 
8.0 1:-0.25976621096375385 2:-0.8784323692531449 3:0.38537247273948594 4:-0.11246238234003467 5:-0.1491840022406984 
8.0 1:-0.3200872818336866 2:1.1850687696342836 3:0.35899263416062455 4:-0.11246238234003467 5:-0.12609662353287424 
