svm_type c_svc
kernel_type rbf
gamma 2.0
nr_class 2
total_sv 6791
rho 0.049929212697776684
label 1 -1
nr_sv 3160 3631
SV
1.0392845743463275 1:0.333333 2:19.030208 3:53.9318 
8.0 1:0.5 2:1.172887 3:5.194398 
0.7560955526896285 1:0.142857 2:4.511628 3:12.719474 
6.502152455495524 1:0.00905 2:5.371732 3:13.762151 
0.017303738251764074 1:0.142857 2:15.653951 3:34.450046 
1.0161806207564765 1:0.25 2:48.953963 3:69.10287 
8.0 1:0.007947 2:2.251892 3:3.853692 
8.0 1:0.125 2:1.475958 3:2.563542 
1.0900404968318644 1:0.5 2:1.759067 3:5.058382 
7.222693636872857 1:0.333333 2:4.612855 3:14.238661 
7.03945311144754 1:0.666667 2:4.819867 3:14.238661 
0.9055429742417727 1:0.5 2:9.087883 3:24.341998 
0.8785437846540572 1:0.666667 2:38.392559 3:71.200327 
7.873209860195745 1:0.223464 2:2.353542 3:5.146041 
8.0 1:0.285714 2:16.162386 3:57.056043 
8.0 1:0.142857 2:16.162386 3:57.056043 
8.0 1:0.6 2:2.502503 3:5.549778 
0.43161064296866386 1:0.125 2:14.306532 3:35.988014 
0.6304189578829106 1:0.974359 2:3.925335 3:13.333839 
8.0 1:0.968833 2:3.213389 3:4.359515 
0.6830412715817902 1:0.230769 2:22.541013 3:54.589954 
7.386634750089361 1:0.333333 2:12.680556 3:31.451444 
8.0 1:0.5 2:1.644663 3:4.119262 
8.0 1:0.5 2:1.40658 3:2.611229 
8.0 1:0.073171 2:1.777647 3:3.04368 
8.0 1:0.222222 2:7.33248 3:12.95181 
0.6017938348253901 1:0.417722 2:35.536508 3:66.958619 
8.0 1:0.266667 2:5.596558 3:9.91811 
8.0 1:0.121843 2:1.498883 3:2.579565 
8.0 1:0.025641 2:0.203221 3:0.696072 
0.8606344897083803 1:0.5 2:24.027163 3:45.895876 
0.2377773119967124 1:0.2 2:30.06167 3:68.950666 
0.7891861142214545 1:0.333333 2:5.008277 3:11.069228 
5.740294896997877 1:0.142857 2:7.143993 3:16.359926 
8.0 1:0.014286 2:7.61802 3:12.569154 
0.5690660820770468 1:0.836364 2:26.681234 3:45.428346 
0.4612536379621906 1:0.666667 2:24.277778 3:43.62788 
0.41472731102407984 1:0.5 2:11.958041 3:30.935132 
8.0 1:0.142857 2:0.315424 3:0.878974 
0.6961490057358819 1:0.333333 2:26.494643 3:66.784285 
8.0 1:0.5 2:5.017595 3:12.390705 
6.457683005308363 1:0.428571 2:40.379545 3:85.555705 
3.7013475766076516 1:0.003413 2:4.425333 3:10.496376 
3.5646008955724624 1:0.333333 2:7.944958 3:18.590658 
8.0 1:0.333333 2:1.783665 3:5.360668 
8.0 1:0.5 2:1.628937 3:2.846454 
1.0495976326770784 1:0.666667 2:93.018568 3:163.352762 
1.4095507774103637 1:0.666667 2:5.619809 3:13.112702 
2.321696037240738 1:0.5 2:2.865878 3:5.20125 
8.0 1:0.384615 2:6.453015 3:9.061501 
0.4999409419003753 1:0.964286 2:24.38425 3:48.401312 
1.0193666795001322 1:0.666667 2:26.152381 3:45.552595 
8.0 1:0.5 2:2.589038 3:7.489995 
2.487572301558767 1:0.5 2:17.108475 3:24.304057 
8.0 1:0.25 2:5.874364 3:13.449563 
8.0 1:0.4 2:1.832815 3:3.308339 
0.8632765513581752 1:0.85 2:41.835555 3:98.486005 
0.7155533112855887 1:0.052632 2:5.836514 3:14.072014 
8.0 1:0.0125 2:2.220977 3:3.951976 
1.0499352022540906 1:0.8 2:59.970682 3:159.239541 
8.0 1:0.214286 2:7.112929 3:12.369375 
2.4445038714347858 1:0.4375 2:23.060964 3:42.395309 
8.0 1:0.5 2:3.056331 3:5.226442 
0.6314338195023884 1:0.888889 2:22.37383 3:48.209626 
8.0 1:0.166667 2:3.104524 3:5.374293 
0.16713824406618122 1:0.916667 2:19.259184 3:37.31051 
8.0 1:0.2 2:1.075062 3:1.978661 
1.2435330401120614 1:0.787037 2:79.366507 3:143.893364 
0.22340948386497583 1:0.333333 2:22.365455 3:55.21434 
0.905062165840888 1:0.5 2:15.176193 3:45.515047 
4.567776319791636 1:0.333333 2:10.455274 3:24.675658 
8.0 1:0.2 2:2.705582 3:7.755812 
0.0930312045120436 1:0.666667 2:4.402003 3:15.468454 
1.0331790962773217 1:0.25 2:34.790536 3:84.10798 
8.0 1:0.5 2:15.386619 3:20.755334 
0.9777926271440724 1:0.5 2:31.804577 3:70.286692 
0.28573990739084476 1:0.75 2:3.013475 3:8.0277 
6.331124989319013 1:0.333333 2:9.5058 3:15.594034 
0.07637758260199522 1:0.5 2:15.630056 3:30.146002 
8.0 1:0.5 2:2.229864 3:5.490234 
8.0 1:0.428571 2:1.511648 3:4.035147 
0.1403770321319571 1:0.25 2:19.639199 3:40.318852 
6.845940231533716 1:0.333333 2:1.088513 3:2.451638 
0.6782057254635426 1:0.2 2:29.165573 3:49.179253 
8.0 1:0.5 2:6.047106 3:8.820737 
1.691106327693189 1:0.5 2:8.007185 3:13.240158 
1.4935374573729183 1:0.981251 2:59.096113 3:89.512744 
6.230608863399056 1:0.125 2:5.642496 3:11.452609 
0.6020016589703348 1:0.75 2:11.172629 3:37.041292 
8.0 1:0.2 2:22.338261 3:31.737278 
1.6372804320618168 1:0.990741 2:15.919355 3:27.596482 
8.0 1:0.012346 2:1.008656 3:2.864893 
1.3393273037502929 1:0.5 2:0.331208 3:3.980529 
8.0 1:0.965517 2:3.592731 3:5.187805 
0.45608315508785274 1:0.882353 2:37.48203 3:74.642616 
8.0 1:0.5 2:4.134876 3:9.275859 
1.8937666354526164 1:0.96 2:11.838789 3:20.959244 
0.6648582664414365 1:0.666667 2:24.828337 3:44.266235 
0.3200307992628043 1:0.333333 2:16.036357 3:39.360036 
3.0189946676848693 1:0.557522 2:24.251859 3:36.042228 
3.658585359562164 1:0.2 2:4.526028 3:8.088901 
8.0 1:0.727273 2:2.434941 3:4.080342 
8.0 1:0.5 2:4.214219 3:8.427462 
8.0 1:0.052632 2:8.789004 3:20.979194 
6.267024394140524 1:0.947368 2:10.775332 3:20.979194 
2.913950515709776 1:0.875 2:7.460934 3:14.482471 
8.0 1:0.212766 2:17.175045 3:27.969441 
8.0 1:0.053381 2:3.050742 3:5.719771 
8.0 1:0.5 2:0.005979 3:0.109353 
0.3385223619371567 1:0.333333 2:6.466607 3:23.163269 
0.9216233581790689 1:0.333333 2:38.000304 3:65.554807 
0.45512418732282417 1:0.571429 2:22.142714 3:39.3642 
8.0 1:0.166667 2:20.695152 3:41.189353 
8.0 1:0.166667 2:19.309563 3:41.189353 
3.3619118500923286 1:0.25 2:0.005594 3:0.145859 
8.0 1:0.25 2:0.304346 3:0.983346 
4.438917333763228 1:0.5 2:9.941646 3:25.505863 
0.6194921318595472 1:0.142857 2:32.555729 3:69.5475 
8.0 1:0.111111 2:2.311718 3:4.399674 
8.0 1:0.333333 2:2.324826 3:4.399674 
1.0499653962738191 1:0.25 2:30.95014 3:81.812378 
0.5294943588613216 1:0.5 2:11.128927 3:20.840628 
3.8876472600291967 1:0.052632 2:6.52267 3:12.816464 
8.0 1:0.968293 2:1.149247 3:1.89709 
0.4211893271872844 1:0.153846 2:15.335852 3:35.124302 
2.9490786189159164 1:0.054217 2:12.658062 3:23.348763 
8.0 1:0.5 2:2.214983 3:5.445706 
8.0 1:0.5 2:3.457384 3:5.037247 
7.923680223989559 1:0.5 2:19.651129 3:30.977149 
0.21520229656337161 1:0.9 2:7.276626 3:13.982985 
6.491615288074196 1:0.222222 2:3.044448 3:6.245844 
8.0 1:0.666667 2:2.774344 3:4.291291 
0.1848968284629615 1:0.909091 2:32.585981 3:64.161666 
3.4179465779753495 1:0.944444 2:1.272517 3:3.674961 
6.039559278055806 1:0.111111 2:12.822056 3:28.286301 
8.0 1:0.287356 2:5.979852 3:9.012284 
8.0 1:0.138889 2:0.527831 3:1.445658 
1.0495390159480615 1:0.857143 2:54.741762 3:125.971426 
8.0 1:0.333333 2:1.391693 3:3.974197 
0.4680395025305188 1:0.777778 2:24.593753 3:53.206811 
2.202347790572674 1:0.1875 2:6.319774 3:20.571444 
1.5399652796312224 1:0.962963 2:2.890881 3:5.708421 
8.0 1:0.123636 2:1.689943 3:3.029445 
0.3917765083231832 1:0.25 2:30.987018 3:61.374843 
0.7581578390699912 1:0.384615 2:29.988247 3:59.951009 
0.3963528520768759 1:0.957895 2:19.403199 3:34.93501 
8.0 1:0.131148 2:4.052215 3:6.57635 
0.10486819220942245 1:0.996212 2:14.069395 3:21.209591 
5.245688209792165 1:0.666667 2:0.90363 3:2.914469 
2.54216809495415 1:0.5 2:11.43076 3:21.019412 
8.0 1:0.924276 2:4.209047 3:5.901085 
1.0248365875260255 1:0.690625 2:45.273807 3:71.933282 
1.0503472358276833 1:0.9 2:64.338312 3:92.469824 
0.9229094426899873 1:0.833333 2:37.74304 3:81.994998 
8.0 1:0.333333 2:4.860072 3:7.65044 
0.9283298324818892 1:0.026316 2:35.536795 3:62.306895 
8.0 1:0.666667 2:2.910373 3:7.719884 
8.0 1:0.25 2:10.545522 3:18.065597 
0.3919562217228202 1:0.357143 2:24.372184 3:48.86058 
0.23740989716462105 1:0.5 2:15.77402 3:37.570829 
1.141644653021342 1:0.552941 2:118.929248 3:218.566523 
8.0 1:0.007194 2:0.446052 3:1.344285 
8.0 1:0.6 2:1.634496 3:3.105277 
8.0 1:0.25 2:4.942699 3:8.142072 
0.606703636911084 1:0.222222 2:26.153814 3:57.667028 
8.0 1:0.5 2:4.353885 3:7.29087 
0.3097251682858515 1:0.363636 2:25.758004 3:52.094381 
1.12697136013538 1:0.75 2:8.772538 3:22.578634 
0.4877820752971453 1:0.553571 2:13.375657 3:26.67907 
4.8903196961599855 1:0.533333 2:32.982899 3:43.143233 
5.397580243421012 1:0.058753 2:18.795989 3:37.166887 
0.87414118234869 1:0.908163 2:7.541274 3:10.363073 
1.050131944048383 1:0.5 2:113.377511 3:173.708991 
0.21237057499821815 1:0.780488 2:4.137364 3:7.895251 
8.0 1:0.55 2:4.355442 3:9.40177 
1.049993399106664 1:0.769231 2:68.458346 3:215.699288 
0.8769733446573414 1:0.230769 2:66.085151 3:142.98136 
0.5106411095604375 1:0.9375 2:9.774198 3:22.742402 
4.493760411605116 1:0.153846 2:2.805377 3:7.509083 
8.0 1:0.5 2:0.002786 3:0.074645 
2.3056369547586537 1:0.947368 2:20.088569 3:42.034445 
8.0 1:0.216 2:1.473256 3:2.965772 
8.0 1:0.2 2:7.858591 3:21.82406 
8.0 1:0.25 2:0.788071 3:1.855892 
4.06775347488724 1:0.988095 2:6.487493 3:14.655981 
2.325456929182407 1:0.5 2:27.108344 3:64.486839 
0.6076770759003233 1:0.666667 2:21.958447 3:60.992342 
0.9430592960312916 1:0.571429 2:35.508595 3:70.509613 
8.0 1:0.25 2:1.030283 3:2.22694 
0.2117843062288434 1:0.901639 2:8.24316 3:19.934162 
0.7704546378290522 1:0.5 2:34.575044 3:63.771662 
8.0 1:0.7 2:2.213286 3:3.705352 
0.7171492588393684 1:0.125 2:21.592718 3:40.832011 
1.0497663862177666 1:0.857143 2:108.192163 3:355.468675 
0.10419958214643145 1:0.214286 2:17.47102 3:35.31966 
8.0 1:0.125 2:0.981301 3:2.462259 
0.8526071389916828 1:0.2 2:3.164397 3:9.077283 
8.0 1:0.111111 2:3.388633 3:7.73475 
1.6394419257254778 1:0.125 2:9.7797 3:17.857698 
8.0 1:0.333333 2:0.418334 3:2.017791 
8.0 1:0.518519 2:1.769851 3:3.213533 
2.2988147401981416 1:0.6 2:0.159839 3:0.5654 
4.713738815066423 1:0.666667 2:19.10193 3:38.246982 
8.0 1:0.333333 2:20.076321 3:38.246982 
1.0549060021069916 1:0.5 2:27.81734 3:60.742161 
0.2893702119702679 1:0.25 2:12.858375 3:37.706167 
8.0 1:0.144951 2:17.736677 3:28.561803 
0.7119112191332791 1:0.5 2:15.101241 3:46.438727 
1.0490487009102512 1:0.75 2:5.484412 3:24.780982 
8.0 1:0.166667 2:6.548616 3:15.553236 
8.0 1:0.166667 2:6.548616 3:15.553236 
8.0 1:0.166667 2:6.548616 3:15.553236 
8.0 1:0.166667 2:6.548616 3:15.553236 
8.0 1:0.166667 2:6.548616 3:15.553236 
8.0 1:0.166667 2:6.548616 3:15.553236 
0.5586944612127479 1:0.666667 2:9.290266 3:30.943082 
0.36552777763750577 1:0.5 2:32.786743 3:68.175738 
4.59713777986485 1:0.333333 2:6.077933 3:10.673545 
8.0 1:0.083333 2:3.646913 3:5.699758 
0.6098978317154947 1:0.597826 2:33.039953 3:59.253861 
7.2508209495802625 1:0.111111 2:8.983672 3:21.17399 
0.5292580638240296 1:0.682243 2:21.116586 3:37.708758 
8.0 1:0.5 2:0.22526 3:0.671208 
0.5224469578318788 1:0.8 2:13.18596 3:40.162716 
8.0 1:0.444444 2:4.226698 3:5.863679 
4.115051841450657 1:0.5 2:17.479366 3:30.37064 
0.583384488612642 1:0.5 2:28.971491 3:70.383778 
8.0 1:0.333333 2:2.347382 3:4.276128 
8.0 1:0.2 2:2.440675 3:8.732481 
8.0 1:0.32 2:3.599532 3:7.605655 
4.496318374253672 1:0.923077 2:1.730234 3:3.04171 
8.0 1:0.025641 2:17.250529 3:26.074437 
3.6206119551226843 1:0.962963 2:7.637401 3:14.678809 
0.6085066314253578 1:0.444444 2:33.344989 3:74.294803 
0.5942886055922804 1:0.6 2:6.719727 3:12.337806 
0.8557934633398789 1:0.785714 2:12.037407 3:27.444414 
0.03353676050777046 1:0.833333 2:18.002498 3:41.092319 
2.297848389088168 1:0.333333 2:16.510542 3:29.652756 
0.8633212625052561 1:0.5 2:1.545096 3:4.113148 
0.8334368480422568 1:0.942308 2:61.381097 3:99.748668 
0.10751217383685087 1:0.666667 2:16.492 3:45.062782 
8.0 1:0.208333 2:2.635802 3:4.848456 
5.820708178401378 1:0.5 2:13.756784 3:19.641201 
0.5605278072951236 1:0.333333 2:33.663279 3:74.094604 
2.514812005633249 1:0.833333 2:6.503982 3:18.444061 
0.25790638907213476 1:0.8 2:28.176597 3:60.127029 
8.0 1:0.04918 2:2.826177 3:6.40472 
8.0 1:0.545455 2:2.441952 3:3.87596 
8.0 1:0.190476 2:1.501879 3:4.482926 
2.4815646109575344 1:0.090909 2:12.49157 3:32.18949 
2.862395374626006 1:0.333333 2:29.779671 3:56.336948 
5.3682285540942205 1:0.045455 2:9.465017 3:16.557431 
1.9573548809496377 1:0.5 2:12.443844 3:23.746001 
1.7477422762420458 1:0.5 2:5.631582 3:10.25125 
8.0 1:0.133333 2:1.438398 3:3.020771 
8.0 1:0.1 2:0.334184 3:1.205972 
2.6382919942235636 1:0.967742 2:1.176648 3:4.76169 
2.1633261912159596 1:0.888889 2:39.105953 3:73.716583 
8.0 1:0.012195 2:1.154841 3:3.256447 
8.0 1:0.5 2:15.472442 3:63.950193 
8.0 1:0.5 2:15.472442 3:63.950193 
4.086602171480725 1:0.25 2:24.595812 3:45.542785 
1.0499072085950378 1:0.5 2:31.590154 3:101.244682 
0.5925257173519207 1:0.666667 2:12.453554 3:39.824613 
3.2701610918556834 1:0.681818 2:3.596564 3:7.203094 
7.825757730698304 1:0.333333 2:21.670896 3:50.839632 
8.0 1:0.25 2:3.275535 3:5.939074 
8.0 1:0.5 2:14.892728 3:34.252106 
8.0 1:0.5 2:14.892728 3:34.252106 
0.8664790098597906 1:0.25 2:0.839315 3:1.991748 
8.0 1:0.333333 2:9.655355 3:17.559353 
1.743596897993951 1:0.333333 2:3.504218 3:9.351014 
1.0447036539033574 1:0.222222 2:25.664676 3:78.282388 
8.0 1:0.282443 2:5.027806 3:7.477253 
3.1235091739706857 1:0.75 2:8.429224 3:23.606718 
8.0 1:0.5 2:0.00874 3:0.132215 
8.0 1:0.666667 2:0.004885 3:0.098847 
0.9596409696133784 1:0.960526 2:49.926779 3:90.013262 
5.130740460869163 1:0.8 2:3.708807 3:7.403883 
0.922848399252892 1:0.2 2:54.0749 3:86.977645 
8.0 1:0.25 2:5.007233 3:8.308792 
0.9775709245524018 1:0.5 2:31.417279 3:63.441293 
1.1684574255414502 1:0.769231 2:6.097691 3:13.595774 
8.0 1:0.375 2:9.847231 3:13.961198 
0.3046833467292311 1:0.5 2:21.003907 3:46.76565 
8.0 1:0.125 2:8.6531 3:18.278176 
2.056327312074531 1:0.009804 2:4.615909 3:10.782441 
8.0 1:0.019608 2:4.359911 3:10.782441 
0.2134445479864069 1:0.5 2:23.81544 3:52.613331 
3.7175514524520676 1:0.5 2:11.060868 3:28.667766 
0.6032751677149966 1:0.5 2:0.748197 3:2.557741 
0.19960294283709995 1:0.333333 2:11.945788 3:27.772781 
7.133962218409171 1:0.933333 2:4.770834 3:7.616466 
0.8261352509892277 1:0.090909 2:31.057894 3:77.520591 
1.3100637006219717 1:0.461538 2:27.580249 3:61.722723 
8.0 1:0.1 2:2.130789 3:4.507742 
8.0 1:0.9 2:3.31425 3:4.254245 
0.6167392226731473 1:0.225 2:25.953346 3:41.433803 
1.0302899502294438 1:0.666667 2:45.233875 3:97.789281 
1.9736008802105571 1:0.046154 2:1.390274 3:5.926773 
7.199033573536161 1:0.251282 2:6.050598 3:15.390956 
8.0 1:0.333333 2:1.548084 3:3.04171 
8.0 1:0.5 2:4.229832 3:5.8428 
0.4585351060466575 1:0.083333 2:14.7983 3:33.078746 
8.0 1:0.008403 2:5.785026 3:12.833883 
0.7931884654364103 1:0.6 2:32.117122 3:83.679841 
8.0 1:0.2 2:6.483989 3:9.148208 
0.7290601186407573 1:0.75 2:17.833855 3:77.79592 
3.451056137401909 1:0.8 2:3.429471 3:6.533733 
1.3998876514522582 1:0.5 2:1.723794 3:4.975937 
0.7992003309555546 1:0.021739 2:12.137423 3:36.065456 
2.521164040839162 1:0.125 2:5.88536 3:21.788897 
0.5839016417966822 1:0.2 2:16.463094 3:44.836799 
0.4122136484584101 1:0.5 2:20.045662 3:47.449283 
5.208500982491491 1:0.5 2:10.222314 3:22.200107 
1.7296411787494077 1:0.5 2:24.67457 3:55.578426 
8.0 1:0.111111 2:4.65641 3:7.980459 
1.084818458984801 1:0.666667 2:66.844546 3:142.603795 
0.6533178903334346 1:0.142857 2:5.199349 3:17.231334 
8.0 1:0.5 2:1.581899 3:4.074064 
0.958071106673226 1:0.666667 2:15.905868 3:51.230833 
8.0 1:0.666667 2:4.336099 3:6.146152 
8.0 1:0.5 2:2.095918 3:3.788248 
8.0 1:0.166667 2:2.553311 3:7.884547 
6.890173286258529 1:0.75 2:1.177533 3:2.226747 
2.242622878741711 1:0.893204 2:12.399668 3:18.75803 
8.0 1:0.5 2:0.920002 3:1.748655 
0.8719894286629399 1:0.972603 2:21.64961 3:46.161563 
8.0 1:0.5 2:2.969199 3:5.186647 
1.0271195036337808 1:0.2 2:13.339977 3:25.477912 
8.0 1:0.8 2:8.506549 3:11.366309 
0.12034485346554011 1:0.716981 2:9.503596 3:17.780063 
1.0503365272956637 1:0.772684 2:102.019655 3:146.307734 
8.0 1:0.052632 2:7.726158 3:11.857764 
6.378153502621668 1:0.529412 2:10.832988 3:22.288726 
6.2983584957842575 1:0.333333 2:43.853998 3:90.023277 
3.6796665871608596 1:0.923077 2:3.758788 3:10.149623 
2.494926871791901 1:0.052632 2:5.51117 3:14.725709 
8.0 1:0.5 2:2.814662 3:4.919109 
8.0 1:0.275862 2:5.139575 3:7.710551 
0.04265563096120229 1:0.8 2:6.372693 3:12.604186 
0.4546021241690476 1:0.067568 2:21.315825 3:38.424692 
8.0 1:0.186441 2:6.823098 3:10.211445 
0.9265777401398895 1:0.5 2:40.775454 3:89.63258 
0.947091299466239 1:0.363636 2:33.307457 3:67.989826 
8.0 1:0.2 2:2.347534 3:4.800594 
1.165844535938474 1:0.666667 2:15.812661 3:86.442741 
0.9169526734915355 1:0.777778 2:36.218622 3:72.103394 
0.8212745643103998 1:0.428571 2:2.081678 3:5.630785 
2.74819499696866 1:0.5 2:15.039554 3:23.309464 
0.020027267719379606 1:0.5 2:1.654587 3:4.83918 
8.0 1:0.25 2:7.69285 3:11.856394 
2.9200527232580753 1:0.988506 2:14.837041 3:20.876769 
0.9761519130564856 1:0.75 2:25.001909 3:69.240333 
8.0 1:0.1 2:4.839611 3:9.436929 
2.170321612075847 1:0.9 2:4.66078 3:9.436929 
2.4098014783369823 1:0.2 2:8.110905 3:14.311637 
8.0 1:0.096154 2:1.404202 3:4.228351 
8.0 1:0.166667 2:17.438412 3:31.993433 
1.8279610892290534 1:0.2 2:5.106609 3:14.952658 
8.0 1:0.5 2:5.776515 3:10.045576 
0.4305383614662904 1:0.888889 2:15.133938 3:34.347412 
8.0 1:0.5 2:2.296852 3:4.127142 
6.181945019056703 1:0.666667 2:10.912328 3:19.104861 
8.0 1:0.333333 2:6.220751 3:10.322225 
8.0 1:0.5 2:12.549533 3:18.509259 
0.17994595389300438 1:0.666667 2:4.366733 3:11.124105 
6.9424131520818495 1:0.444444 2:3.972492 3:12.657707 
3.5211629287758264 1:0.5 2:4.95312 3:12.327174 
0.42742807209855127 1:0.875 2:10.152191 3:27.173924 
0.6946022815026711 1:0.333333 2:35.021137 3:125.578437 
2.4139311151390004 1:0.5 2:2.238512 3:5.577187 
1.7914220483266514 1:0.142857 2:3.022798 3:7.361592 
2.7861167188653715 1:0.125 2:33.843653 3:82.895657 
0.02569231018493089 1:0.583333 2:15.806121 3:30.596578 
3.9141876759173857 1:0.98913 2:10.301728 3:16.224065 
0.5485655307025231 1:0.993007 2:5.929445 3:12.820482 
3.7529356385226555 1:0.6 2:5.104618 3:11.123223 
8.0 1:0.333333 2:9.866184 3:12.289295 
8.0 1:0.111111 2:2.37308 3:4.470605 
0.6395631467078796 1:0.333333 2:25.581553 3:64.012294 
8.0 1:0.034483 2:4.790855 3:8.864854 
8.0 1:0.767956 2:5.890548 3:8.405091 
8.0 1:0.234375 2:11.168621 3:18.665396 
8.0 1:0.612219 2:4.332695 3:5.810634 
4.696223421452944 1:0.5 2:2.98042 3:10.876322 
0.9917879671780688 1:0.666667 2:31.860558 3:58.759961 
1.3547663166267148 1:0.666667 2:1.081361 3:6.368667 
8.0 1:0.272727 2:12.056086 3:22.954564 
8.0 1:0.5 2:9.895539 3:17.49527 
0.2634866055783203 1:0.5 2:10.388606 3:30.913605 
0.5872327224674012 1:0.25 2:4.862436 3:13.323016 
8.0 1:0.222222 2:12.891195 3:29.014081 
0.25566524850013206 1:0.375 2:26.018815 3:53.184127 
0.8969565137609179 1:0.5 2:6.895072 3:19.925852 
8.0 1:0.708333 2:5.575446 3:6.976566 
1.0501842847623064 1:0.916667 2:68.863617 3:148.304823 
8.0 1:0.021053 2:1.735961 3:4.586328 
2.65098155589363 1:0.5 2:4.599663 3:10.80318 
0.48858911956512713 1:0.75 2:33.659082 3:66.434697 
8.0 1:0.333333 2:8.308088 3:12.241603 
8.0 1:0.636364 2:3.705149 3:7.831874 
1.0576830950933762 1:0.375 2:11.131232 3:43.898953 
0.4007807033755584 1:0.125 2:21.002033 3:38.021413 
0.458780643508182 1:0.6 2:15.117438 3:38.311333 
8.0 1:0.347826 2:2.279819 3:3.726828 
4.5438914397157095 1:0.1 2:0.204842 3:0.866834 
0.9725236927626881 1:0.827586 2:2.412468 3:5.12466 
8.0 1:0.75 2:0.380348 3:0.872179 
0.01531376730253865 1:0.212389 2:13.269105 3:24.984896 
8.0 1:0.307692 2:2.260563 3:6.044329 
1.0412105732894041 1:0.888889 2:23.389425 3:55.666405 
0.8120235057370518 1:0.333333 2:17.62787 3:55.783307 
4.579603491166414 1:0.41954 2:4.14007 3:7.43679 
0.8119446115222594 1:0.714286 2:38.923666 3:76.376516 
8.0 1:0.142857 2:0.390175 3:2.027752 
3.0281932227969137 1:0.625 2:5.343937 3:11.210543 
8.0 1:0.538462 2:0.557337 3:2.153717 
3.093561391911178 1:0.25 2:19.185584 3:44.85222 
5.032917734984056 1:0.699346 2:16.560855 3:25.375485 
8.0 1:0.5 2:0.002302 3:0.071808 
0.5222673002293657 1:0.666667 2:37.874371 3:71.675378 
8.0 1:0.5 2:5.505998 3:8.072128 
8.0 1:0.4 2:10.309308 3:14.610291 
0.8041503574935809 1:0.875 2:23.086057 3:53.634588 
0.27166169901542586 1:0.703704 2:22.098748 3:37.421835 
1.0498849270938526 1:0.953125 2:65.454803 3:131.105371 
4.251608840572755 1:0.689655 2:1.348714 3:2.398498 
3.4295607258925878 1:0.2 2:1.114537 3:3.990668 
1.0499351039890379 1:0.333333 2:48.14773 3:129.683375 
8.0 1:0.241379 2:8.030141 3:12.774735 
0.4186421753845294 1:0.875 2:12.233085 3:29.43693 
5.3194038939983885 1:0.26087 2:6.445686 3:11.874332 
7.195804021805055 1:0.666667 2:8.570214 3:13.576777 
8.0 1:0.571429 2:0.97782 3:2.031263 
0.748391345474619 1:0.5 2:20.778507 3:53.636707 
8.0 1:0.185185 2:1.28703 3:3.818676 
0.046837456529682825 1:0.944444 2:5.150053 3:15.516721 
8.0 1:0.4 2:1.879909 3:5.469448 
4.158175832209355 1:0.681165 2:6.892477 3:9.623512 
0.6604004683715772 1:0.985507 2:25.97778 3:36.830892 
8.0 1:0.153846 2:11.669264 3:17.210837 
0.30540390219434443 1:0.909091 2:21.019043 3:46.437242 
0.3649390818357463 1:0.5 2:13.551414 3:30.553617 
8.0 1:0.5 2:11.703178 3:30.553617 
0.7968642635755243 1:0.875 2:29.505076 3:66.185451 
8.0 1:0.5 2:4.237563 3:6.544261 
3.8576082708622463 1:0.120879 2:2.032666 3:6.253742 
0.5427521391848759 1:0.198113 2:29.355576 3:64.024491 
1.0498205166400087 1:0.875 2:70.930082 3:121.789155 
2.467042129309857 1:0.5 2:5.523704 3:18.567173 
0.014786906096369477 1:0.916667 2:28.265487 3:64.398752 
8.0 1:0.007253 2:1.32227 3:2.812326 
0.6879090160548875 1:0.944444 2:38.179826 3:83.231437 
8.0 1:0.720339 2:1.219829 3:2.063447 
8.0 1:0.5 2:2.318428 3:5.604496 
0.554344879823171 1:0.166667 2:35.106749 3:66.867279 
5.277777925693309 1:0.625 2:0.614789 3:2.246369 
1.6275004556948391 1:0.055556 2:9.947983 3:16.567625 
8.0 1:0.5 2:6.5586 3:26.584659 
0.2613108870431409 1:0.5 2:4.391349 3:9.87922 
5.150617993683216 1:0.25 2:0.977681 3:5.817363 
0.08301933157442591 1:0.952381 2:14.591917 3:31.633856 
8.0 1:0.069767 2:2.07386 3:4.452885 
8.0 1:0.798839 2:1.604514 3:2.6485 
8.0 1:0.73913 2:1.722165 3:2.86072 
0.8346583921791103 1:0.333333 2:52.353677 3:113.491425 
0.8199445696021433 1:0.333333 2:13.559563 3:41.110978 
0.7886254745346409 1:0.8 2:17.985156 3:40.182049 
8.0 1:0.405405 2:3.517699 3:6.173264 
2.1446944119663285 1:0.928571 2:1.684749 3:5.548945 
8.0 1:0.333333 2:1.301661 3:2.420448 
8.0 1:0.8 2:0.964908 3:4.268595 
8.0 1:0.142857 2:5.651832 3:12.722534 
0.8633215705715593 1:0.75 2:6.355604 3:14.620078 
3.1157327230659915 1:0.368421 2:2.539718 3:7.628608 
6.689734707280402 1:0.5 2:0.580189 3:1.320531 
8.0 1:0.75 2:4.636232 3:6.961837 
8.0 1:0.25 2:6.948039 3:12.044025 
8.0 1:0.333333 2:22.063166 3:31.97155 
0.9982556909298089 1:0.777778 2:39.163908 3:81.812378 
0.28159741778659275 1:0.538462 2:6.200304 3:23.214496 
0.7806984725775507 1:0.076923 2:44.074888 3:103.026507 
3.7369025803793594 1:0.333333 2:5.553273 3:13.127289 
0.9783297091311888 1:0.222222 2:42.715555 3:103.026507 
3.7512532812312434 1:0.333333 2:6.695315 3:16.752138 
5.122139418954731 1:0.333333 2:2.09994 3:5.852265 
2.0394671928274577 1:0.98773 2:17.455016 3:28.057114 
8.0 1:0.111111 2:3.454078 3:7.328785 
1.2293290303656954 1:0.980392 2:12.521546 3:20.959244 
1.9634713390527467 1:0.285714 2:20.35224 3:29.82887 
7.8496553963358 1:0.666667 2:7.195815 3:14.246599 
8.0 1:0.25 2:9.477043 3:17.496029 
0.6624021687696356 1:0.958333 2:12.76098 3:39.096089 
2.9159555317537236 1:0.8 2:7.14903 3:13.563151 
1.049388964059444 1:0.666667 2:22.514128 3:66.839242 
8.0 1:0.222222 2:0.198829 3:0.717146 
8.0 1:0.333333 2:0.910409 3:1.908755 
8.0 1:0.142857 2:0.481239 3:1.189344 
8.0 1:0.25 2:0.394796 3:2.028686 
0.5444138242310741 1:0.111111 2:34.487767 3:61.57692 
8.0 1:0.111111 2:1.072679 3:4.252662 
8.0 1:0.333333 2:10.065232 3:45.040651 
8.0 1:0.333333 2:10.065232 3:45.040651 
8.0 1:0.333333 2:10.065232 3:45.040651 
0.6154454842656744 1:0.333333 2:17.457146 3:41.094592 
3.079085045351266 1:0.868852 2:4.572909 3:9.021024 
0.335549793051808 1:0.142857 2:13.06845 3:27.236077 
0.48828229836516246 1:0.545455 2:14.292195 3:29.683359 
0.1442588967534798 1:0.555556 2:23.829093 3:50.217726 
4.937288509744716 1:0.142857 2:8.483965 3:17.768459 
8.0 1:0.384615 2:2.444128 3:4.495238 
0.0730383357150294 1:0.666667 2:20.802268 3:44.955769 
1.4440528564369146 1:0.014599 2:4.363829 3:13.089051 
2.8098295953943158 1:0.8 2:6.377393 3:9.21369 
8.0 1:0.151515 2:4.719304 3:8.343603 
8.0 1:0.333333 2:2.049542 3:3.96445 
1.2277439797895384 1:0.470588 2:42.333517 3:64.669352 
0.3955295397237243 1:0.5 2:13.186707 3:36.873973 
3.0120464946822394 1:0.368421 2:3.358408 3:6.297172 
0.25642969592775905 1:0.333333 2:15.296998 3:37.000601 
0.821222409389982 1:0.25 2:30.869444 3:78.322657 
8.0 1:0.037037 2:3.370934 3:6.513028 
8.0 1:0.645161 2:2.487686 3:4.27037 
0.745070592917872 1:0.21875 2:26.92845 3:55.868598 
8.0 1:0.2 2:16.741458 3:22.598913 
8.0 1:0.428571 2:8.051663 3:11.941067 
0.841741582243631 1:0.993243 2:3.205133 3:6.378705 
1.0224345886684183 1:0.990958 2:48.394944 3:70.90792 
0.4520175885120662 1:0.5 2:7.34971 3:27.008675 
0.4769807479277529 1:0.333333 2:8.840647 3:37.927758 
0.47651510568980804 1:0.842105 2:7.06447 3:12.302548 
0.9509814688028657 1:0.333333 2:28.023134 3:55.256901 
8.0 1:0.666667 2:0.0 3:0.0 
0.5921997276117791 1:0.952703 2:11.068219 3:20.775686 
1.0498736490084135 1:0.428571 2:167.788314 3:307.060136 
1.049942592178888 1:0.8 2:55.491234 3:154.888302 
3.680655489884891 1:0.5 2:2.371578 3:6.192836 
1.95259252411128 1:0.5 2:8.553522 3:24.073584 
0.032973585356576116 1:0.5 2:8.617302 3:21.817893 
1.049820962551064 1:0.666667 2:72.335346 3:178.443203 
1.0675513374197307 1:0.542857 2:45.109909 3:80.64521 
6.400036314537617 1:0.117647 2:7.904018 3:15.249439 
8.0 1:0.5 2:4.975287 3:7.8848 
4.972305339462458 1:0.3 2:12.66892 3:20.085712 
1.1465051739486356 1:0.173913 2:40.896319 3:84.637553 
1.0492484746038726 1:0.5 2:30.365198 3:90.19687 
8.0 1:0.305556 2:0.63077 3:1.466301 
0.42994437724657003 1:0.971429 2:8.747943 3:16.127872 
2.595265718717527 1:0.714286 2:15.850219 3:23.436154 
3.2472388008091726 1:0.625 2:7.540835 3:21.520958 
7.098918893040812 1:0.266667 2:5.448226 3:16.066582 
0.1493593807532868 1:0.125 2:3.518385 3:10.420376 
4.499409132947054 1:0.625 2:5.19359 3:10.277027 
8.0 1:0.714286 2:1.681509 3:2.713766 
0.7201232495214107 1:0.928571 2:22.901817 3:86.442741 
5.757758232541253 1:2.2E-5 2:13.404161 3:34.757521 
8.0 1:0.166667 2:4.545047 3:7.345384 
0.6078119857169578 1:0.8 2:25.772868 3:62.785162 
8.0 1:0.25 2:17.342721 3:44.836799 
7.13893506008005 1:0.75 2:15.165988 3:44.836799 
0.16088702849672035 1:0.75 2:18.525971 3:41.258224 
6.975760099982239 1:0.25 2:7.939314 3:18.843247 
1.6582047883716171 1:0.6 2:37.96968 3:50.661322 
8.0 1:0.033333 2:0.686808 3:1.392637 
5.444386994758837 1:0.580645 2:6.510156 3:12.647429 
0.6545762465756317 1:0.285714 2:30.603529 3:74.122168 
8.0 1:0.428571 2:3.758619 3:5.839193 
1.0536197864600152 1:0.166667 2:26.90777 3:40.323833 
2.2379531314266585 1:0.046154 2:8.811734 3:22.265855 
0.6530848658885262 1:0.368421 2:22.604732 3:43.287504 
0.9858670883316947 1:0.941667 2:44.184545 3:75.180073 
1.747822480483255 1:0.875 2:19.253976 3:36.679493 
0.8419996945327757 1:0.875 2:40.381272 3:82.923617 
1.0761014291767836 1:0.866667 2:11.03624 3:18.634971 
5.462427547789361 1:0.818182 2:1.412879 3:2.37271 
8.0 1:0.038462 2:2.368464 3:6.227912 
4.358010960027787 1:0.8 2:1.785115 3:4.179159 
1.0500099742550302 1:0.650602 2:94.170338 3:89.978429 
2.1993190411992685 1:0.9 2:10.234639 3:25.020957 
8.0 1:0.068182 2:2.748004 3:7.014736 
0.07629493744553073 1:0.5 2:14.878884 3:38.747732 
8.0 1:0.011952 2:2.545923 3:5.222435 
8.0 1:0.5 2:0.350585 3:0.837359 
2.3953163255229932 1:0.5 2:10.369022 3:20.745241 
0.23293885852098328 1:0.615385 2:19.338226 3:40.285445 
0.5521844212610769 1:0.142857 2:0.463407 3:2.368066 
0.12018517222643939 1:0.5 2:23.918601 3:58.317059 
4.83287052728805 1:0.994859 2:4.522988 3:7.938708 
0.8595974937270294 1:0.547619 2:31.217239 3:68.927439 
8.0 1:0.2 2:3.280867 3:5.752412 
0.9278166382473177 1:0.5 2:19.544222 3:57.619926 
2.8399715971737045 1:0.857143 2:21.533385 3:42.685369 
3.954827642869372 1:0.5 2:6.825878 3:19.279707 
8.0 1:0.5 2:6.825878 3:19.279707 
8.0 1:0.4 2:3.966637 3:8.675046 
5.37881531242688 1:0.5 2:19.456545 3:42.176626 
8.0 1:0.117647 2:1.334381 3:2.511281 
8.0 1:0.25 2:3.42644 3:6.364046 
0.542263149297878 1:0.944444 2:14.766778 3:41.450784 
1.0498944274195676 1:0.333333 2:46.673822 3:132.07158 
8.0 1:0.033333 2:7.082268 3:12.802395 
3.297970020180463 1:0.666667 2:10.035895 3:16.085664 
8.0 1:0.333333 2:1.45857 3:2.787842 
1.1034347141039063 1:0.8 2:8.199194 3:12.092355 
0.8944982683745625 1:0.5 2:20.726934 3:60.508345 
1.0497995770905086 1:0.142857 2:59.419834 3:166.809689 
7.749171020619329 1:0.75 2:4.065635 3:10.412453 
8.0 1:0.049689 2:3.893488 3:6.266399 
0.8897992925682411 1:0.6 2:3.782896 3:23.437205 
0.3195216061706513 1:0.666667 2:1.811247 3:4.306939 
0.78342853668687 1:0.909091 2:6.345287 3:18.008854 
0.8246613155824473 1:0.6 2:24.03333 3:61.005075 
8.0 1:0.2 2:6.82053 3:11.513469 
8.0 1:0.142857 2:1.324066 3:3.036859 
8.0 1:0.271642 2:2.754337 3:4.602299 
0.4611277923165711 1:0.017045 2:26.34731 3:56.903217 
0.1413179764588751 1:0.666667 2:13.461721 3:35.844532 
8.0 1:0.872255 2:12.99247 3:17.250625 
8.0 1:0.75 2:3.390421 3:6.507808 
0.5403244631323578 1:0.8 2:16.336443 3:41.528408 
8.0 1:0.042373 2:6.407854 3:15.661874 
0.6084659762470619 1:0.2 2:28.495129 3:56.912425 
1.4419437076951611 1:0.857143 2:19.535911 3:44.467632 
0.4106577253795682 1:0.75 2:14.020987 3:37.027885 
8.0 1:0.416667 2:4.723768 3:7.28258 
0.767383937378209 1:0.990196 2:20.89882 3:36.287071 
0.5602039000909803 1:0.988636 2:35.160314 3:51.06719 
8.0 1:0.5 2:3.631435 3:5.779857 
8.0 1:0.076923 2:5.487057 3:10.114552 
4.255525352558277 1:0.066667 2:11.86418 3:19.018564 
3.4766999353891626 1:0.666667 2:9.847338 3:17.405942 
4.978483535586612 1:0.6 2:2.429677 3:5.351016 
2.1341551384543203 1:0.5 2:0.015164 3:0.174147 
0.45019503299791436 1:0.8 2:14.877435 3:39.968119 
0.06079853181828753 1:0.5 2:3.585487 3:9.588506 
8.0 1:0.666667 2:1.595634 3:2.749885 
8.0 1:0.5 2:2.602787 3:4.112736 
4.681047545929192 1:0.75 2:6.740131 3:9.106323 
3.186088045981032 1:0.375 2:17.535885 3:46.753309 
0.5046794978997496 1:0.888889 2:15.040251 3:36.307733 
0.03193077545675593 1:0.666667 2:24.68073 3:58.444548 
4.368256470838941 1:0.52459 2:2.425579 3:5.645139 
8.0 1:0.083333 2:4.839466 3:9.396535 
8.0 1:0.4 2:1.217501 3:2.479266 
0.6740720424987788 1:0.97561 2:29.713024 3:70.743622 
1.0616912498726743 1:0.99705 2:25.169157 3:36.671386 
2.2985374655961457 1:0.666667 2:5.987485 3:13.840567 
3.514687374063963 1:0.083333 2:13.284286 3:31.380447 
0.41868464911538783 1:0.875 2:7.741005 3:15.655794 
4.475515850405699 1:0.333333 2:16.86256 3:38.432764 
8.0 1:0.028571 2:12.30572 3:23.25483 
8.0 1:0.75 2:3.856532 3:5.564581 
1.0502371780538293 1:0.5 2:87.014857 3:118.55533 
8.0 1:0.28866 2:1.378363 3:2.70112 
5.084218790865899 1:0.833333 2:7.773001 3:19.195643 
8.0 1:0.333333 2:0.799197 3:1.664729 
8.0 1:0.888889 2:10.302204 3:16.90739 
0.5957746062825465 1:0.980769 2:5.093283 3:12.119027 
1.0402377782774723 1:0.428571 2:22.062876 3:36.704246 
0.7017247875763991 1:0.780488 2:40.272324 3:69.50869 
0.29629359637867597 1:0.75 2:9.956705 3:28.446059 
6.825632404605739 1:0.117647 2:19.780222 3:31.737278 
0.30636027769626784 1:0.8 2:16.62829 3:39.969529 
6.761795093974953 1:0.090909 2:6.244245 3:11.528736 
7.669963214156661 1:0.017857 2:6.603549 3:13.839069 
8.0 1:0.900826 2:1.944326 3:3.179564 
0.5264030389437518 1:0.823529 2:23.777582 3:49.869146 
6.601030319895575 1:0.555556 2:0.697857 3:2.317775 
8.0 1:0.090909 2:9.0668 3:15.979344 
8.0 1:0.090909 2:3.548973 3:10.320323 
8.0 1:0.636364 2:3.873999 3:10.320323 
8.0 1:0.166667 2:3.819165 3:7.216341 
0.6622924303070079 1:0.4 2:11.952181 3:24.949327 
2.4557871519167365 1:0.6 2:5.012337 3:8.278454 
8.0 1:0.5 2:5.291476 3:8.707234 
8.0 1:0.571429 2:0.199764 3:0.648536 
5.697934519944402 1:0.5 2:9.47636 3:14.653643 
8.0 1:0.333333 2:8.246575 3:14.72171 
8.0 1:0.5 2:89.67833 3:245.94057 
8.0 1:0.5 2:60.062735 3:245.94057 
0.8444810033878201 1:0.5 2:7.228396 3:22.336176 
0.31360168134068533 1:0.555556 2:5.380157 3:21.38855 
1.0475603307913328 1:0.5 2:46.19927 3:90.023277 
0.5258782054862561 1:0.076923 2:33.267913 3:69.519781 
1.139182312141151 1:0.5 2:25.572836 3:48.262668 
7.565914787722679 1:0.714286 2:1.120256 3:3.283927 
1.3458725468889758 1:0.938462 2:26.397242 3:48.51129 
0.8809496158445034 1:0.888889 2:22.132628 3:32.613904 
5.4989915904938425 1:0.25 2:21.154873 3:34.773887 
0.004988004033486511 1:0.941176 2:7.624215 3:15.989097 
8.0 1:0.2 2:1.446717 3:4.37674 
0.20572124935046776 1:0.5 2:5.565751 3:19.543556 
8.0 1:0.333333 2:2.795424 3:6.721274 
4.424088693151637 1:0.307692 2:2.492887 3:5.176461 
0.7619814132224315 1:0.5 2:18.773535 3:45.192092 
1.0225012279662624 1:0.857143 2:44.26361 3:71.01647 
1.9717855646398772 1:0.5 2:2.856816 3:9.64292 
0.5271736926772599 1:0.857143 2:29.597735 3:60.803876 
0.06263015484056121 1:0.822222 2:15.040813 3:28.680813 
0.5163348140577513 1:0.7 2:19.886486 3:49.218543 
3.515458794195695 1:0.2 2:7.535044 3:13.605509 
0.6684789053357145 1:0.333333 2:31.155356 3:84.960742 
0.6161412584158991 1:0.5 2:11.09933 3:37.364868 
0.7943374411614361 1:0.75 2:25.54094 3:51.368953 
0.7280991874123393 1:0.5 2:17.381068 3:49.881183 
8.0 1:0.333333 2:3.3313 3:6.395409 
2.878000455321245 1:0.037037 2:2.251795 3:6.415697 
8.0 1:0.333333 2:16.361671 3:26.461512 
8.0 1:0.241379 2:2.69225 3:5.45372 
0.43334894475522834 1:0.842105 2:6.095711 3:11.718915 
8.0 1:0.333333 2:5.553681 3:8.734248 
8.0 1:0.102564 2:2.667251 3:4.893815 
0.9587657517140165 1:0.090909 2:8.588723 3:18.906168 
0.9019429596460546 1:0.25 2:31.11932 3:54.197702 
0.4700833672255133 1:0.972222 2:26.865531 3:47.661982 
8.0 1:0.5 2:2.529306 3:4.476052 
0.6201671709623802 1:0.75 2:6.02465 3:41.302988 
0.9078435893838778 1:0.597015 2:30.682109 3:59.253861 
0.15394890055864396 1:0.5 2:20.428095 3:48.133065 
8.0 1:0.25 2:2.967976 3:5.104747 
1.0428055449239868 1:0.666667 2:30.314074 3:51.391431 
0.7872626375588719 1:0.666667 2:30.347549 3:61.784552 
1.031628072169969 1:0.967742 2:57.268654 3:118.106431 
4.422520128276651 1:0.5 2:9.417133 3:15.987583 
8.0 1:0.666667 2:2.481885 3:5.367468 
8.0 1:0.185185 2:6.410598 3:10.280021 
4.860530164287747 1:0.045455 2:4.512518 3:15.22397 
1.7509171388470186 1:0.666667 2:1.780155 3:4.401603 
8.0 1:0.125 2:1.646217 3:3.223655 
0.030044947481568423 1:0.5 2:15.881907 3:25.789118 
1.0718644793687402 1:0.521739 2:63.327449 3:103.225476 
8.0 1:0.142857 2:1.121522 3:2.393381 
0.9881871330975893 1:0.5 2:41.106108 3:99.91275 
1.0499325913438695 1:0.094737 2:70.815044 3:119.688167 
0.3231336443620484 1:0.900474 2:11.210725 3:21.020888 
1.1031211068513327 1:0.571429 2:10.929551 3:20.900308 
1.0864012562929442 1:0.5 2:44.164945 3:63.695212 
8.0 1:0.098361 2:5.629273 3:13.693475 
2.137830387338467 1:0.987903 2:2.131015 3:6.92926 
0.9784984241727089 1:0.5 2:25.957492 3:115.496873 
0.751870026866338 1:0.090909 2:15.843022 3:27.966473 
1.0505081730461157 1:0.5 2:34.625733 3:49.055442 
1.287854978835926 1:0.95 2:72.513765 3:116.719087 
5.340391696315512 1:0.75 2:2.682863 3:5.576383 
7.728982485058292 1:0.5 2:4.740119 3:10.712791 
8.0 1:0.25 2:1.548803 3:4.649909 
2.3166354985069195 1:0.5 2:13.183252 3:22.534879 
8.0 1:0.02381 2:1.870416 3:5.58455 
8.0 1:0.25 2:1.111918 3:2.222715 
0.17492861225960896 1:0.882353 2:7.925467 3:11.627612 
0.8917138924252919 1:0.990991 2:10.978305 3:17.381502 
0.8767309675067603 1:0.75 2:14.984853 3:44.612783 
0.4554420697300389 1:0.166667 2:5.816662 3:15.400711 
0.30393682556820556 1:0.5 2:10.450833 3:15.173927 
8.0 1:0.133333 2:1.313127 3:2.710093 
8.0 1:0.094118 2:6.726123 3:15.805846 
8.0 1:0.614118 2:7.800372 3:15.805846 
1.0183401342990013 1:0.5 2:3.767589 3:8.083598 
1.0500793533950612 1:0.886792 2:53.578208 3:73.923559 
0.00975350991503203 1:0.923077 2:18.67564 3:29.612773 
8.0 1:0.25 2:3.677244 3:7.322286 
2.11707098409452 1:0.5 2:7.487727 3:13.069736 
1.2189478642050788 1:0.2 2:22.667452 3:48.328323 
0.8789575262331922 1:0.666667 2:10.481929 3:40.87462 
5.438437056634514 1:0.066667 2:4.707636 3:14.618692 
2.471840871564755 1:0.5 2:7.544048 3:12.472496 
2.1874861610146317 1:0.333333 2:7.951308 3:14.822154 
3.3660533119084177 1:0.666667 2:22.785689 3:33.142485 
8.0 1:0.5 2:0.401197 3:0.981645 
8.0 1:0.580645 2:1.022761 3:1.890124 
5.963709057042388 1:0.6 2:3.726139 3:7.832663 
0.5879631838279713 1:0.75 2:34.270058 3:230.95539 
0.0632468104476768 1:0.8 2:10.174995 3:34.53451 
7.174277999822416 1:0.5 2:3.872821 3:11.228561 
8.0 1:0.294118 2:4.672426 3:14.069991 
8.0 1:0.285714 2:7.18565 3:10.670425 
0.48309346164679134 1:0.992857 2:13.73481 3:19.624412 
0.9848390997920872 1:0.833333 2:5.791564 3:40.193526 
0.8880854030444661 1:0.8 2:21.303092 3:58.411623 
0.43936221803249376 1:0.5 2:21.523951 3:60.458163 
6.653478732843704 1:0.999038 2:9.60129 3:12.725271 
0.3091825092647557 1:0.828571 2:3.271307 3:11.639977 
0.8638540723167524 1:0.125 2:2.626344 3:9.907704 
2.483033803586275 1:0.25 2:18.811557 3:47.403964 
0.34726820746314735 1:0.264706 2:39.97782 3:83.716304 
8.0 1:0.333333 2:1.314775 3:3.962924 
1.2548209280568767 1:0.2 2:10.064714 3:24.658929 
8.0 1:0.238095 2:0.6139 3:1.176256 
2.5832955236938484 1:0.923077 2:28.963683 3:50.906703 
1.4940700771747595 1:0.2 2:20.160554 3:37.440968 
8.0 1:0.090909 2:3.284739 3:6.447809 
0.15183277939713713 1:0.95122 2:21.671847 3:39.445497 
1.1214814562414954 1:0.75 2:1.786905 3:4.734831 
8.0 1:0.052632 2:1.557803 3:2.796654 
1.050303704924854 1:0.5 2:121.66301 3:167.39692 
1.0502841644971341 1:0.5 2:122.911979 3:251.16259 
0.6236152775464725 1:0.857143 2:6.916345 3:13.68896 
8.0 1:0.5 2:5.823311 3:9.472106 
0.6090305182041306 1:0.2 2:12.738098 3:26.711164 
2.690861531937365 1:0.2 2:10.178954 3:26.416781 
8.0 1:0.5 2:7.261171 3:24.623703 
7.819756089489234 1:0.5 2:7.449894 3:24.623703 
1.514874918169402 1:0.482143 2:23.70803 3:49.102267 
0.2971007963383766 1:0.9 2:13.360747 3:23.779333 
1.0110934622004546 1:0.346479 2:40.947114 3:70.90792 
8.0 1:0.5 2:4.060666 3:8.882 
0.8145790764167523 1:0.75 2:43.265511 3:67.51838 
4.628466087904544 1:0.555556 2:3.332093 3:6.560417 
1.6982907413696853 1:0.6 2:9.967801 3:23.443705 
8.0 1:0.8 2:11.779184 3:16.246037 
7.748722863648048 1:0.6 2:0.949949 3:4.438768 
8.0 1:0.217391 2:8.177227 3:16.276147 
0.2047884604007527 1:0.948718 2:21.428465 3:41.316578 
1.049935638497395 1:0.857143 2:58.015221 3:121.789155 
1.050281610446505 1:0.125 2:34.2711 3:99.84552 
8.0 1:0.142857 2:1.566928 3:2.526991 
1.2866428130884897 1:0.333333 2:6.484205 3:12.455229 
1.0477598390672893 1:0.5 2:47.898626 3:89.588373 
0.8674090140283102 1:0.666667 2:35.258947 3:68.129715 
8.0 1:0.083333 2:2.308008 3:5.20759 
8.0 1:0.25 2:1.416301 3:3.818802 
8.0 1:0.25 2:1.416301 3:3.818802 
8.0 1:0.25 2:1.416301 3:3.818802 
8.0 1:0.25 2:1.416301 3:3.818802 
1.4790112830013802 1:0.333333 2:12.650061 3:28.496985 
0.33788027607648347 1:0.6 2:9.725526 3:21.484901 
1.0273869365734374 1:0.833333 2:5.659455 3:8.400848 
0.9182137207947947 1:0.964286 2:36.598389 3:71.13281 
1.9795141763468413 1:0.361111 2:20.353425 3:35.404272 
3.393534565126363 1:0.5 2:8.113612 3:15.851596 
4.2175966044234015 1:0.5 2:1.179218 3:5.09284 
8.0 1:0.666667 2:1.784997 3:2.858269 
2.3282306316928554 1:0.5 2:5.242604 3:17.815539 
8.0 1:0.211679 2:7.38147 3:13.563151 
8.0 1:0.166667 2:2.496966 3:5.137563 
1.3228383930913854 1:0.007813 2:1.466452 3:8.445705 
1.2001353316914105 1:0.090909 2:23.504617 3:71.323099 
2.6099755997775933 1:0.5 2:5.598105 3:10.153053 
3.3895518784709195 1:0.857143 2:17.337957 3:31.54118 
0.5352545608127021 1:0.9375 2:25.766199 3:54.44441 
3.9594247953360857 1:0.666667 2:7.329547 3:23.303168 
1.0503035727985903 1:0.888889 2:71.900571 3:163.395968 
3.558012611461518 1:0.166667 2:12.438855 3:29.276632 
8.0 1:0.571429 2:14.154335 3:17.911812 
8.0 1:0.071429 2:5.393536 3:10.064693 
8.0 1:0.296296 2:2.521567 3:5.252061 
8.0 1:0.6 2:6.236256 3:9.003193 
1.0976211510046694 1:0.5 2:34.936324 3:60.47705 
1.8099532398938558 1:0.857143 2:9.532669 3:20.228287 
0.15152692046764826 1:0.6 2:42.345999 3:98.947193 
0.2926950620811056 1:0.933333 2:10.568147 3:19.695363 
5.528300065958491 1:0.5 2:2.183289 3:9.498055 
8.0 1:0.8 2:5.346651 3:8.116476 
8.0 1:0.447059 2:1.802051 3:3.262598 
1.02732758322365 1:0.833333 2:19.075348 3:45.95092 
0.6838734235745861 1:0.888889 2:37.56173 3:83.231437 
8.0 1:0.3125 2:6.412114 3:15.193436 
1.049993045410938 1:0.375 2:66.625702 3:135.106885 
0.9585826390727491 1:0.666667 2:45.128972 3:110.392782 
2.901362986258447 1:0.444444 2:33.238165 3:64.636239 
8.0 1:0.041667 2:0.85487 3:2.017212 
8.0 1:0.4 2:4.58644 3:6.325915 
8.0 1:0.083333 2:4.075532 3:7.411899 
5.015164303180366 1:0.333333 2:2.008916 3:5.487472 
0.05288617652996099 1:0.25 2:5.100424 3:11.806356 
0.6505077725466342 1:0.5 2:20.086465 3:34.767903 
1.1852383321000548 1:0.5 2:18.300903 3:32.146335 
2.3491229785587397 1:0.5 2:18.435782 3:40.598708 
1.0499611243709912 1:0.357895 2:151.256705 3:214.116579 
0.7349524297939508 1:0.5 2:21.533189 3:62.078634 
2.7129911157598707 1:0.131868 2:7.373985 3:18.492899 
0.63008579577635 1:0.230769 2:11.39654 3:30.625338 
8.0 1:0.333333 2:2.632107 3:5.162529 
0.6132729716038969 1:0.5 2:40.014762 3:84.105842 
1.0521575548235855 1:0.847826 2:47.324526 3:80.585327 
8.0 1:0.333333 2:6.622398 3:15.805373 
8.0 1:0.162162 2:0.504839 3:2.166985 
8.0 1:0.333333 2:1.339457 3:3.825223 
8.0 1:0.5 2:10.754742 3:17.888216 
1.6638755244550683 1:0.246377 2:6.585697 3:11.450687 
2.0990944335035433 1:0.444444 2:8.475296 3:16.264975 
1.891560910273822 1:0.5 2:11.885743 3:26.290084 
8.0 1:0.5 2:2.728803 3:4.529447 
0.07624606391600933 1:0.933333 2:25.059784 3:45.11337 
8.0 1:0.071429 2:1.630447 3:2.947253 
0.3818842390752657 1:0.375 2:17.947065 3:44.713358 
2.604771306778538 1:0.625 2:28.197237 3:42.201837 
2.2306646954148794 1:0.466667 2:6.483625 3:20.964304 
8.0 1:0.511111 2:6.230595 3:20.964304 
0.2253641994231799 1:0.333333 2:7.012564 3:17.050567 
1.0323860284934212 1:0.125 2:79.820215 3:132.053759 
0.4990009684821798 1:0.090909 2:14.814596 3:36.723012 
8.0 1:0.084507 2:0.47892 3:1.214318 
8.0 1:0.666667 2:8.310228 3:19.196294 
1.268632924040102 1:0.666667 2:4.281578 3:11.275131 
1.3570845736708255 1:0.909091 2:6.07973 3:12.017204 
8.0 1:0.666667 2:0.67818 3:2.213547 
0.6653116821586011 1:0.023622 2:32.527903 3:77.841068 
1.049582818944979 1:0.5 2:2.718412 3:44.967342 
8.0 1:0.5 2:1.137406 3:2.115732 
2.9384180790094603 1:0.666667 2:11.824738 3:18.411316 
0.562732518167003 1:0.888889 2:22.312861 3:60.277942 
0.902402359656096 1:0.5 2:12.608626 3:25.529458 
8.0 1:0.695652 2:18.209024 3:23.279709 
0.6118058059657693 1:0.8 2:4.58 3:9.230569 
0.24444911890783094 1:0.5 2:10.234189 3:31.603607 
0.900179642660012 1:0.483871 2:45.238533 3:96.418791 
2.209785481379281 1:0.25 2:3.972771 3:9.472659 
3.0242729622515676 1:0.142857 2:14.284013 3:29.087682 
8.0 1:0.026316 2:5.053803 3:9.681289 
0.7423824416020225 1:0.2 2:34.471745 3:70.428448 
0.827948456351736 1:0.214286 2:25.666571 3:57.395877 
0.8650510316243186 1:0.666667 2:58.212991 3:142.98136 
4.815744659471221 1:0.666667 2:4.476514 3:9.400398 
8.0 1:0.5 2:10.411889 3:21.930979 
8.0 1:0.5 2:10.411889 3:21.930979 
2.4945860711884746 1:0.5 2:23.175017 3:35.034422 
3.4714322771195105 1:0.5 2:10.459011 3:17.46153 
2.291689651105095 1:0.315789 2:23.071869 3:33.833723 
8.0 1:0.333333 2:0.120241 3:0.490389 
8.0 1:0.846154 2:11.158185 3:13.951599 
0.387040578887729 1:0.666667 2:24.546163 3:55.02462 
1.049347617363678 1:0.666667 2:45.331559 3:91.890583 
8.0 1:0.5 2:15.812546 3:20.198335 
0.28428565158845354 1:0.777778 2:20.267379 3:45.231428 
0.7520931245580784 1:0.857143 2:18.310942 3:28.933956 
8.0 1:0.5 2:2.457814 3:6.031485 
0.4914644119961821 1:0.333333 2:9.436383 3:28.658026 
0.8420549999149944 1:0.5 2:20.554006 3:45.187572 
1.5878205230488103 1:0.272727 2:3.667944 3:9.944312 
0.2894614211682791 1:0.7 2:15.339219 3:27.197631 
0.5791629137739076 1:0.2 2:11.963425 3:33.021248 
2.0409357322348374 1:0.666667 2:8.288376 3:23.232679 
1.5244919756088473 1:0.166667 2:12.706048 3:34.262277 
6.061182642561336 1:0.333333 2:12.306854 3:19.157753 
0.15401359712464846 1:0.166667 2:19.969358 3:45.872817 
5.313632805859194 1:0.666667 2:15.795873 3:25.374285 
0.8384494363612544 1:0.75 2:19.491013 3:52.553666 
8.0 1:0.166667 2:1.365967 3:2.891214 
8.0 1:0.333333 2:3.844232 3:7.52826 
6.1801954626012305 1:0.142857 2:6.120819 3:15.807127 
1.0498752565255738 1:0.333333 2:52.253968 3:96.69931 
1.0403224732490246 1:0.28 2:36.341967 3:79.46901 
0.0042041403163349395 1:0.166667 2:11.430495 3:20.270784 
8.0 1:0.176471 2:0.345663 3:1.165528 
0.22685901278319032 1:0.979167 2:10.173701 3:19.53475 
8.0 1:0.2 2:1.28111 3:3.85553 
8.0 1:0.5 2:9.335583 3:16.131959 
8.0 1:0.090909 2:0.950288 3:2.33399 
8.0 1:0.083333 2:2.894014 3:5.672091 
0.3111994884867253 1:0.933333 2:8.840403 3:26.096525 
1.0665386939652992 1:0.137931 2:43.859902 3:58.759961 
1.0495906584437777 1:0.111111 2:31.120437 3:91.942981 
0.8704129507416867 1:0.577778 2:5.512843 3:15.184343 
0.5332656806241775 1:0.857143 2:25.042169 3:59.713013 
0.023150068031789303 1:0.615385 2:5.186582 3:11.229167 
8.0 1:0.5 2:20.716939 3:25.771788 
8.0 1:0.133333 2:2.539874 3:4.970938 
8.0 1:0.5 2:32.38448 3:149.217282 
8.0 1:0.5 2:31.888798 3:149.217282 
2.519311068250238 1:0.5 2:0.901586 3:1.950447 
8.0 1:0.997389 2:6.334098 3:7.661251 
8.0 1:0.1 2:5.566149 3:9.12838 
1.0499863404533223 1:0.809524 2:66.212864 3:167.685093 
8.0 1:0.184615 2:3.303209 3:6.311619 
0.37420260342220213 1:0.066667 2:14.696922 3:34.938578 
8.0 1:0.5 2:0.808579 3:1.730412 
8.0 1:0.01087 2:2.362108 3:7.905829 
5.268808012813607 1:0.934783 2:3.046901 3:7.905829 
8.0 1:0.5 2:0.38651 3:2.101105 
0.7998389367707357 1:0.166667 2:0.477347 3:2.101105 
0.674269666374873 1:0.666667 2:30.735181 3:60.862749 
3.6022797209136237 1:0.5 2:3.472753 3:9.300449 
3.613440621843125 1:0.714286 2:3.65493 3:11.660805 
3.896640559619893 1:0.333333 2:14.291592 3:25.811108 
2.718117028615545 1:0.5 2:8.512925 3:21.154976 
8.0 1:0.666667 2:27.138163 3:65.644353 
8.0 1:0.333333 2:24.542331 3:65.644353 
0.5469481575099241 1:0.833333 2:9.175677 3:27.929908 
8.0 1:0.142857 2:2.918412 3:5.025882 
0.12678955219945293 1:0.911458 2:7.601998 3:11.298738 
2.2688841110835165 1:0.8 2:3.648616 3:7.514517 
3.4947368116480666 1:0.901639 2:14.548907 3:24.043658 
8.0 1:0.166667 2:11.394786 3:18.934846 
0.964412445927635 1:0.965517 2:16.068243 3:26.140709 
1.0499102924471984 1:0.529412 2:46.495209 3:230.95539 
0.4081775919633081 1:0.5 2:2.247911 3:6.506795 
8.0 1:0.678749 2:10.440562 3:12.725271 
0.6451851647279494 1:0.2 2:6.87525 3:14.8707 
0.7235899183446652 1:0.970626 2:35.689114 3:51.06719 
0.20025977514438043 1:0.5 2:4.22612 3:8.759934 
0.707930950886758 1:0.962963 2:26.026187 3:56.382652 
8.0 1:0.105263 2:0.917942 3:2.485958 
1.4728391888449994 1:0.5 2:4.842158 3:11.890816 
0.9334820272917214 1:0.25 2:39.010016 3:61.956281 
0.7213002344160325 1:0.666667 2:16.194735 3:48.677072 
5.656890767040347 1:0.010989 2:2.746539 3:5.744905 
1.0499610814496307 1:0.4 2:66.787717 3:159.239541 
2.1228024015374265 1:0.833333 2:8.250653 3:24.041589 
0.3732082296973936 1:0.5 2:33.166257 3:69.524869 
8.0 1:0.516129 2:4.237001 3:6.464379 
0.3647918924317241 1:0.166667 2:16.065225 3:31.953914 
8.0 1:0.5 2:3.217683 3:4.795647 
1.4877737364281391 1:0.333333 2:11.564761 3:34.439689 
8.0 1:0.5 2:6.52466 3:12.523272 
1.2532694258279822 1:0.888889 2:17.764942 3:36.287071 
0.036831148770514605 1:0.75 2:12.2802 3:30.269639 
3.2408826286818226 1:0.4 2:13.593929 3:27.234749 
8.0 1:0.181818 2:4.235507 3:6.717345 
1.9230198399307168 1:0.425532 2:24.544306 3:38.056719 
1.044375204582088 1:0.666667 2:46.973144 3:99.758994 
8.0 1:0.555556 2:1.127799 3:3.320612 
0.5624473057562985 1:0.961652 2:25.501591 3:37.421835 
8.0 1:0.5 2:6.126871 3:9.598141 
8.0 1:0.5 2:3.064591 3:4.815212 
8.0 1:0.272727 2:66.592107 3:139.875779 
8.0 1:0.545455 2:58.976868 3:139.875779 
0.9806082972308595 1:0.014925 2:26.250754 3:59.107946 
0.22286402923666462 1:0.976327 2:19.877925 3:34.009167 
8.0 1:0.090909 2:11.275276 3:18.502243 
8.0 1:0.333333 2:7.159805 3:11.506499 
1.6456000435799432 1:0.3 2:2.807345 3:6.70451 
2.97218584871359 1:0.25 2:8.86714 3:19.977845 
1.3405397645150547 1:0.5 2:23.458645 3:55.970469 
0.8693394493119484 1:0.05 2:29.271943 3:65.687822 
0.8746130670862485 1:0.04878 2:6.08487 3:11.84658 
0.8593358425755669 1:0.071429 2:19.368076 3:44.02802 
8.0 1:0.333333 2:5.301729 3:7.965724 
0.786930061386006 1:0.5 2:35.720323 3:76.759097 
0.3448627460046901 1:0.857143 2:1.465524 3:4.94066 
1.1587808111266529 1:0.136 2:29.364275 3:43.566429 
2.7338033094285903 1:0.5 2:11.135005 3:32.567062 
8.0 1:0.222222 2:0.448298 3:1.165151 
0.6516595345958757 1:0.5 2:19.074248 3:49.389927 
8.0 1:0.2 2:1.31501 3:4.182523 
8.0 1:0.625 2:7.14065 3:10.537871 
2.6427761498976365 1:0.5 2:16.522489 3:35.434879 
8.0 1:0.5 2:0.608728 3:1.327262 
8.0 1:0.041667 2:0.884995 3:2.109792 
0.025956621843506875 1:0.5 2:36.991087 3:81.092327 
0.9168063687413854 1:0.978102 2:28.448908 3:44.870804 
0.766109220618083 1:0.75 2:32.879867 3:71.78347 
0.6405530934525684 1:0.086957 2:22.562548 3:47.33056 
1.0496001731226428 1:0.5 2:61.844577 3:136.067563 
4.202913858378837 1:0.1875 2:8.49956 3:13.826457 
8.0 1:0.556701 2:1.207891 3:2.054702 
1.5440002850359913 1:0.5 2:11.246931 3:34.17172 
0.8862677465534557 1:0.333333 2:22.889792 3:57.070934 
8.0 1:0.333333 2:13.037275 3:18.914006 
3.042380872950104 1:0.083333 2:4.574547 3:12.434711 
7.031585451036437 1:0.325 2:6.168837 3:13.407218 
1.735987789899358 1:0.5 2:17.356721 3:33.804738 
0.47594381783343487 1:0.72 2:26.023387 3:43.360509 
0.5076891749562513 1:0.333333 2:28.828916 3:70.978286 
0.5355385677485822 1:0.5 2:3.004551 3:6.706045 
0.6024502898383474 1:0.944444 2:23.926814 3:56.578412 
0.23289729667070347 1:0.991453 2:13.474797 3:24.026297 
1.6008353358362861 1:0.5 2:2.181745 3:6.908799 
1.045937535747823 1:0.217391 2:86.480424 3:180.856521 
0.6515298461660521 1:0.928571 2:29.071431 3:64.636239 
8.0 1:0.5 2:6.199928 3:9.765628 
8.0 1:0.230769 2:6.581487 3:8.93189 
3.4783275306397825 1:0.5 2:10.054577 3:18.076902 
1.1601284959881042 1:0.75 2:3.668146 3:6.849207 
0.23930313355347474 1:0.5 2:18.756103 3:29.765849 
8.0 1:0.222222 2:2.861062 3:5.600529 
0.5140705152715536 1:0.916667 2:21.763854 3:38.25734 
0.8659477901974427 1:0.6 2:26.831784 3:41.83351 
1.0467173384061437 1:0.666667 2:33.557751 3:92.730315 
0.6144357667371062 1:0.131579 2:14.881448 3:40.24869 
0.9755317793919501 1:0.030488 2:1.053399 3:3.172166 
0.9496533072506333 1:0.425926 2:51.352523 3:85.541034 
8.0 1:0.967218 2:14.370912 3:17.61595 
0.4417278350638675 1:0.8 2:6.646136 3:14.66951 
1.0497838004380862 1:0.898876 2:53.76695 3:90.899144 
1.0462556131060978 1:0.25 2:23.108714 3:72.986339 
0.5228009350070446 1:0.5 2:29.173201 3:54.178733 
5.676725170120522 1:0.592593 2:5.63579 3:11.864154 
0.5567477106485901 1:0.181818 2:25.104093 3:48.191337 
0.08625929855740397 1:0.088235 2:5.867605 3:19.871058 
2.2418776402156144 1:0.821181 2:20.636492 3:26.422152 
0.36287973530814094 1:0.241379 2:14.453513 3:38.445009 
8.0 1:0.571429 2:2.289474 3:6.658387 
0.2022001144120777 1:0.666667 2:12.609637 3:36.426942 
0.982627176344518 1:0.26087 2:12.768877 3:24.30255 
8.0 1:0.696653 2:2.509601 3:3.370953 
8.0 1:0.125 2:10.619072 3:16.031882 
1.393326375765705 1:0.39726 2:49.305366 3:85.541034 
8.0 1:0.125 2:0.581692 3:1.411045 
0.8156230876924319 1:0.25 2:6.445752 3:18.631916 
4.837625448410386 1:0.5 2:17.336025 3:31.036762 
3.659257580654337 1:0.333333 2:3.898822 3:8.412054 
8.0 1:0.5 2:15.472442 3:63.950193 
8.0 1:0.5 2:15.472442 3:63.950193 
8.0 1:0.333333 2:2.31664 3:4.566796 
8.0 1:0.833333 2:10.023076 3:14.445934 
1.0140307170125786 1:0.969697 2:56.731512 3:112.842953 
8.0 1:0.428571 2:5.494347 3:10.429827 
0.45094971174946236 1:0.622642 2:27.151829 3:42.895743 
1.0538245289189565 1:0.125 2:10.168293 3:21.747917 
7.44859357588694 1:0.281818 2:1.679763 3:5.208629 
0.5824236315310267 1:0.666667 2:29.811404 3:63.746647 
8.0 1:0.25 2:0.466843 3:1.069543 
6.112512236505798 1:0.090909 2:10.371615 3:20.122932 
1.0980721753050926 1:0.8 2:9.43806 3:20.672117 
1.6429594566133408 1:0.695652 2:23.461099 3:43.171876 
1.104469853675857 1:0.571429 2:5.419304 3:12.702735 
0.06875262004105165 1:0.5 2:10.305442 3:18.47942 
8.0 1:0.1 2:3.799859 3:11.349254 
8.0 1:0.142857 2:10.367846 3:15.225717 
0.7561638360361347 1:0.25 2:43.867763 3:76.609863 
0.22845208103882567 1:0.5 2:9.220054 3:27.416427 
1.0493870867967896 1:0.72 2:64.363662 3:143.893364 
8.0 1:0.777778 2:8.417423 3:27.728078 
8.0 1:0.222222 2:9.282752 3:27.728078 
4.021689215051595 1:0.928571 2:2.484656 3:5.194558 
4.358086104082295 1:0.285714 2:3.997174 3:6.908754 
2.487150076139207 1:0.769231 2:2.1532 3:6.465278 
8.0 1:0.210526 2:14.671142 3:20.094268 
0.9707746144413609 1:0.8 2:33.496867 3:85.584305 
0.4811037781970721 1:0.25 2:23.034983 3:46.161563 
3.5510646420756022 1:0.666667 2:17.838032 3:31.441728 
0.7720502478982065 1:0.888889 2:16.627603 3:86.442741 
0.7906628717864261 1:0.97619 2:37.91121 3:60.796669 
8.0 1:0.333333 2:2.560913 3:6.715806 
6.033026446878727 1:0.333333 2:2.623693 3:6.715806 
8.0 1:0.090909 2:2.586281 3:5.271654 
3.4527145531889873 1:0.5 2:1.628905 3:5.70161 
1.0503046705499657 1:0.8 2:36.313286 3:53.818819 
0.790739979789191 1:0.6 2:38.413159 3:84.839138 
8.0 1:0.5 2:5.581412 3:9.905182 
3.8337712107766 1:0.333333 2:3.473036 3:7.444726 
8.0 1:0.006494 2:7.287412 3:13.15616 
1.3190906234036446 1:0.486486 2:2.095564 3:4.073578 
8.0 1:0.071429 2:6.951247 3:15.667435 
0.8757167908170161 1:0.666667 2:43.753873 3:110.53379 
0.7456480285898486 1:0.75 2:44.45286 3:103.026507 
5.385948681597342 1:0.714286 2:6.119232 3:18.712071 
8.0 1:0.166667 2:0.987263 3:2.504454 
0.3269750002267158 1:0.8125 2:16.445544 3:33.570704 
1.0498422493126536 1:0.230769 2:68.084463 3:131.868143 
0.9674012605173234 1:0.5 2:9.391175 3:35.710373 
8.0 1:0.5 2:3.92099 3:6.039421 
0.8906736084202715 1:0.857143 2:1.90144 3:9.323363 
1.0790255004299758 1:0.666667 2:19.416116 3:46.61344 
0.7810219909794679 1:0.6 2:2.891818 3:14.992471 
3.7102944419539052 1:0.5 2:10.95226 3:29.18953 
2.4481649954981655 1:0.6875 2:4.442848 3:9.637491 
8.0 1:0.068376 2:1.185186 3:2.38435 
8.0 1:0.2 2:10.447868 3:16.652905 
3.4436498650549603 1:0.545455 2:10.057727 3:26.508741 
2.789940364819339 1:0.5 2:1.666166 3:3.223816 
1.1801622363417128 1:0.833333 2:12.747955 3:27.720319 
3.0704603894030584 1:0.294118 2:7.574524 3:17.649355 
3.9016837640507216 1:0.020408 2:1.417404 3:5.076496 
0.027703083854653556 1:0.5 2:33.748542 3:59.25692 
8.0 1:0.25 2:2.570538 3:7.458357 
0.9532538044686759 1:0.333333 2:15.131628 3:44.446567 
8.0 1:0.25 2:7.878931 3:13.482427 
4.754564475321911 1:0.2 2:1.58753 3:4.604077 
1.908165861569667 1:0.963455 2:14.907918 3:21.119709 
8.0 1:0.75 2:5.768192 3:8.504191 
0.5598591960273691 1:0.861111 2:34.573171 3:63.441293 
0.8545720703874988 1:0.833333 2:85.787298 3:182.441307 
8.0 1:0.137931 2:1.523037 3:2.61653 
1.0500647155934157 1:0.25 2:125.574341 3:307.675359 
0.6434835078962354 1:0.913043 2:15.697434 3:48.86649 
4.991729458679378 1:0.4 2:8.454874 3:22.33883 
5.395174155560959 1:0.021053 2:3.869218 3:7.877484 
0.7212109439713098 1:0.938776 2:23.527408 3:86.442741 
1.0506319473690449 1:0.666667 2:59.034649 3:119.142683 
0.906496543515059 1:0.8 2:18.228378 3:59.624097 
1.0498590101268677 1:0.5 2:122.371785 3:402.919632 
8.0 1:0.181818 2:2.448291 3:4.414744 
1.7228283046897515 1:0.958333 2:21.963976 3:41.676329 
8.0 1:0.407895 2:9.270626 3:20.135536 
8.0 1:0.592105 2:9.078428 3:20.135536 
0.7126799709257235 1:0.8 2:26.863571 3:66.598018 
2.1899419023062787 1:0.824 2:20.963769 3:31.843576 
3.736787310142533 1:0.809524 2:14.148148 3:24.17071 
8.0 1:0.166667 2:1.565362 3:2.67829 
7.6367275224402285 1:0.75 2:0.704423 3:2.230751 
1.2162377023666828 1:0.8 2:6.296824 3:12.864628 
8.0 1:0.240901 2:5.476358 3:8.701327 
0.889669685719582 1:0.993197 2:30.552435 3:54.353652 
0.7780782514992849 1:0.666667 2:32.595775 3:66.761637 
4.082885148505848 1:0.028571 2:1.929017 3:5.632308 
8.0 1:0.242424 2:5.244217 3:9.697617 
4.65050634174291 1:0.013514 2:5.083716 3:15.695276 
8.0 1:0.333333 2:5.015865 3:8.479212 
1.4073364539653124 1:0.25 2:4.328576 3:9.874846 
0.9777294368512777 1:0.210526 2:27.062446 3:115.496873 
1.8877037081263177 1:0.4 2:7.355733 3:20.348571 
6.927957888197759 1:0.027027 2:3.591992 3:6.758355 
8.0 1:0.064516 2:1.504037 3:3.369307 
0.9561518419962504 1:0.159091 2:43.949251 3:100.962354 
2.167511731623415 1:0.8 2:8.613907 3:24.3095 
0.6743608565178496 1:0.666667 2:44.056941 3:106.030111 
0.7073465363490158 1:0.9375 2:37.720847 3:84.775057 
2.8968780572051975 1:0.111111 2:3.191064 3:7.647036 
0.8041144827578534 1:0.851852 2:36.846045 3:77.063152 
8.0 1:0.2 2:8.195435 3:11.018427 
0.30857120471783217 1:0.333333 2:23.479797 3:48.13958 
8.0 1:0.833333 2:5.309538 3:7.701711 
8.0 1:0.052632 2:0.876952 3:2.830333 
2.9731513910399463 1:0.333333 2:1.383384 3:4.063466 
1.0099445986699125 1:0.991453 2:43.946034 3:66.508958 
8.0 1:0.058824 2:3.25892 3:8.353616 
2.5038273484985294 1:0.5 2:7.295504 3:19.886982 
0.6952835046415514 1:0.5 2:34.465872 3:125.578437 
6.1044047982795275 1:0.65 2:1.802111 3:4.885706 
6.197075976388274 1:0.142857 2:12.52134 3:22.766861 
8.0 1:0.333333 2:5.66968 3:8.818943 
0.720579129695652 1:0.5 2:27.750063 3:47.107212 
6.647074468535016 1:0.75 2:19.855648 3:38.25723 
8.0 1:0.4 2:5.542008 3:14.259792 
8.0 1:0.5 2:1.911125 3:3.337835 
0.3681538134216012 1:0.666667 2:14.260228 3:37.738797 
8.0 1:0.5 2:2.294818 3:5.410299 
1.4340440509605425 1:0.75 2:16.585377 3:29.79692 
8.0 1:0.2 2:13.979327 3:33.548632 
6.647870007803484 1:0.8 2:13.618833 3:33.548632 
8.0 1:0.5 2:0.37009 3:0.91299 
1.0503265367011847 1:0.333333 2:54.465286 3:135.297465 
0.6577491376302456 1:0.5 2:30.035014 3:73.868363 
0.06101366635488614 1:0.772727 2:2.240497 3:5.113125 
8.0 1:0.913043 2:0.715695 3:1.263046 
1.0146662772839425 1:0.5 2:34.435222 3:75.919977 
3.6095913533923927 1:0.25 2:5.465408 3:10.589664 
0.9794726893097233 1:0.875 2:46.243689 3:110.53379 
0.46962503805474315 1:0.833333 2:22.041676 3:49.391052 
3.806618917552929 1:0.986219 2:16.304545 3:20.322006 
2.529925642658955 1:0.032258 2:6.637309 3:17.506035 
3.571971577202239 1:0.076923 2:4.076028 3:9.777604 
2.510646133234478 1:0.896552 2:2.367332 3:10.941907 
8.0 1:0.032258 2:0.909596 3:2.881137 
0.6989882602386605 1:0.333333 2:30.891576 3:62.110504 
2.40230321382336 1:0.166667 2:3.053505 3:8.825846 
0.9878543367053689 1:0.032258 2:22.855926 3:61.566601 
8.0 1:0.130435 2:1.771016 3:3.301258 
8.0 1:0.4 2:3.55232 3:8.30858 
8.0 1:0.132275 2:1.191286 3:2.962737 
8.0 1:0.043011 2:1.808248 3:3.188881 
4.7555868777964845 1:0.5 2:12.755435 3:21.723843 
8.0 1:0.142857 2:3.216781 3:6.53632 
0.8468566854896221 1:0.935484 2:31.944788 3:68.29612 
8.0 1:0.142857 2:0.001112 3:0.063749 
0.6343266726387744 1:0.833333 2:16.28935 3:34.549143 
1.3567646092808485 1:0.307692 2:9.534963 3:17.67629 
1.0472837936988748 1:0.666667 2:47.479877 3:73.488801 
8.0 1:0.25 2:0.914448 3:1.978896 
8.0 1:0.083333 2:1.470066 3:2.696757 
1.375548393816712 1:0.958333 2:1.345063 3:3.972363 
0.05166605373713422 1:0.5 2:23.267309 3:47.433372 
1.0446127016373017 1:0.285714 2:55.013765 3:116.151982 
7.583555695363148 1:0.363636 2:3.793949 3:6.401357 
2.051712740214132 1:0.95 2:26.336988 3:49.557457 
2.960181106195117 1:0.75 2:3.377793 3:12.576003 
0.9030790171108203 1:0.285714 2:21.86178 3:57.667028 
0.5896419604156005 1:0.75 2:11.708223 3:33.203135 
3.3426742947679635 1:0.057143 2:16.674345 3:29.566185 
2.2239659760642225 1:0.98609 2:19.50371 3:25.338991 
8.0 1:0.333333 2:2.856016 3:5.336094 
8.0 1:0.66861 2:2.297594 3:4.135826 
1.2225825152380596 1:0.5 2:13.434963 3:30.770219 
8.0 1:0.066667 2:6.224066 3:10.592909 
0.7239315231742017 1:0.6 2:17.213896 3:77.79592 
0.3805440699978446 1:0.5 2:8.303087 3:21.056898 
8.0 1:0.066667 2:0.674246 3:1.619398 
0.36910251696692287 1:0.875 2:10.654847 3:30.625338 
6.833265530276533 1:0.5 2:11.685105 3:23.595139 
5.083978417932135 1:0.5 2:10.007495 3:23.595139 
1.0102971714571087 1:0.125 2:5.811492 3:10.916039 
0.22392485438626203 1:0.5 2:12.262335 3:26.461472 
0.949541429498432 1:0.794118 2:42.263634 3:70.90792 
1.0493145180478487 1:0.285714 2:19.721588 3:86.442741 
8.0 1:0.666667 2:1.756477 3:4.442868 
0.1972203206337005 1:0.333333 2:16.447418 3:37.367627 
6.457580357244129 1:0.142857 2:1.554428 3:3.425757 
8.0 1:0.5 2:1.640675 3:4.079423 
7.633077845504146 1:0.333333 2:17.437185 3:32.524293 
8.0 1:0.103158 2:2.231064 3:4.06077 
0.22130795090589805 1:0.344828 2:15.442717 3:38.626059 
7.15664508344568 1:0.25 2:8.746815 3:23.112346 
8.0 1:0.157895 2:5.706944 3:8.95939 
6.507801618513092 1:0.4 2:15.90226 3:33.44649 
8.0 1:0.428571 2:6.533505 3:9.95049 
8.0 1:0.666667 2:0.402878 3:0.945402 
8.0 1:0.5 2:2.251747 3:3.570992 
1.3103770466796745 1:0.714286 2:8.117923 3:19.208899 
5.645793248477514 1:0.3 2:9.052429 3:19.895758 
0.6125259358007318 1:0.5 2:27.577215 3:51.519431 
8.0 1:0.5 2:6.824657 3:10.717555 
8.0 1:0.555556 2:6.236608 3:9.317594 
0.6803691304224512 1:0.5 2:19.383112 3:51.62568 
6.25247118550358 1:0.714286 2:12.435333 3:28.067027 
0.7729299282905475 1:0.666667 2:4.783806 3:11.702993 
0.7792831284388196 1:0.333333 2:51.575805 3:105.635989 
0.4096590699178063 1:0.818182 2:23.03069 3:47.456334 
4.209829819731571 1:0.666667 2:11.317368 3:34.84544 
8.0 1:0.5 2:1.603417 3:3.126688 
3.978769520215967 1:0.666667 2:11.197897 3:26.403768 
7.954186685641699 1:0.027778 2:7.630527 3:26.403768 
0.4136243280650462 1:0.5 2:10.291717 3:35.402764 
8.0 1:0.083333 2:1.700942 3:3.483233 
8.0 1:0.333333 2:5.356666 3:6.185199 
8.0 1:0.181818 2:2.822333 3:6.429414 
8.0 1:0.115385 2:5.32224 3:11.438556 
0.8260073308672032 1:0.333333 2:18.090518 3:49.291195 
1.0719402131684133 1:0.958333 2:9.596295 3:21.306822 
0.545290818767915 1:0.953846 2:18.772919 3:27.288479 
8.0 1:0.333333 2:3.634902 3:5.900937 
8.0 1:0.666667 2:30.456927 3:66.586112 
8.0 1:0.333333 2:29.519368 3:66.586112 
1.182258305973191 1:0.777778 2:5.12583 3:10.468259 
0.9197803829294189 1:0.5 2:43.480443 3:82.53579 
0.4272497400123907 1:0.333333 2:15.882716 3:36.36085 
0.2222476977030701 1:0.666667 2:17.948149 3:43.803191 
8.0 1:0.5 2:2.420545 3:6.246878 
8.0 1:0.039216 2:2.969516 3:9.546866 
6.457728308047078 1:0.5 2:4.073613 3:9.064458 
0.6241155705575588 1:0.074074 2:9.972503 3:33.203135 
1.736262167879885 1:0.8 2:11.399108 3:17.551664 
1.2899689920259374 1:0.833333 2:5.760152 3:11.248499 
8.0 1:0.333333 2:0.912119 3:1.940796 
8.0 1:0.421053 2:4.102247 3:7.225697 
0.31116056671077585 1:0.666667 2:25.790284 3:56.647523 
1.8880428380750949 1:0.333333 2:22.540342 3:33.919843 
0.4953344017108916 1:0.666667 2:16.818969 3:44.439827 
1.0473293999572528 1:0.176471 2:58.221846 3:90.827396 
5.990557096103957 1:0.166667 2:0.64919 3:3.479125 
1.0066829436828129 1:0.866667 2:25.625601 3:65.419645 
0.3611513328527551 1:0.375 2:17.299755 3:44.09167 
6.25260342345917 1:0.3 2:7.617687 3:14.487894 
0.3622137187473311 1:0.881356 2:3.446508 3:5.073985 
1.5242042684121482 1:0.2 2:11.990954 3:29.035671 
0.48831732284754936 1:0.75 2:22.338021 3:52.326735 
8.0 1:0.5 2:2.701363 3:6.40114 
1.0496399523322917 1:0.666667 2:58.570951 3:110.007272 
8.0 1:0.5 2:1.583797 3:2.831364 
0.1872912582466853 1:0.5 2:8.895163 3:14.921533 
1.3965744581388877 1:0.555556 2:11.84331 3:20.836139 
0.0029306218860714207 1:0.5 2:3.271139 3:8.157704 
0.9265620144311985 1:0.666667 2:27.677265 3:71.367188 
0.8134387438792675 1:0.6875 2:32.164418 3:78.47574 
0.5123333979724717 1:0.5 2:13.033773 3:31.967559 
7.380087487094551 1:0.5 2:9.765943 3:29.889054 
8.0 1:0.723404 2:0.792204 3:1.4532 
8.0 1:0.5 2:9.066282 3:13.884687 
4.4385689464172104 1:0.023256 2:8.348985 3:15.268553 
0.23073273654775003 1:0.8 2:14.483201 3:38.438165 
8.0 1:0.8 2:2.648676 3:4.207308 
0.5716293333254986 1:0.333333 2:20.638568 3:49.309026 
1.524419004148312 1:0.943662 2:19.309912 3:32.555915 
8.0 1:0.166667 2:5.812084 3:9.217859 
8.0 1:0.084746 2:1.633193 3:2.694257 
8.0 1:0.5 2:2.539294 3:4.308306 
4.138262071110864 1:0.2 2:2.804671 3:9.183362 
5.380762635669329 1:0.25 2:4.396835 3:7.835079 
0.5327161384702461 1:0.333333 2:26.199285 3:62.724774 
8.0 1:0.4 2:1.460219 3:3.984299 
1.0497615187562956 1:0.333333 2:32.371199 3:89.260178 
1.0497791693644947 1:0.666667 2:4.316501 3:9.261094 
2.2810148750122727 1:0.75 2:2.611749 3:10.050498 
0.3253550168104499 1:0.333333 2:15.512703 3:32.072592 
0.8843118401772803 1:0.473684 2:30.596464 3:85.584305 
8.0 1:0.117647 2:12.643943 3:26.03677 
1.058061837725516 1:0.5 2:2.622577 3:10.333019 
7.429173862307673 1:0.4 2:4.486948 3:10.162548 
5.027992908216215 1:0.818182 2:2.226279 3:4.969766 
8.0 1:0.5 2:7.610391 3:11.408819 
1.0007829476848182 1:0.333333 2:36.764581 3:66.713257 
8.0 1:0.5 2:4.816797 3:10.179685 
0.9098473351105971 1:0.333333 2:35.62674 3:93.092706 
8.0 1:0.826087 2:4.7311 3:7.260361 
1.0496759213919722 1:0.75 2:14.776042 3:68.446671 
0.4917720961362861 1:0.2 2:6.672315 3:19.839673 
0.9025774062094124 1:0.5 2:44.319468 3:96.051094 
1.0500304257265336 1:0.028169 2:51.554845 3:143.893364 
8.0 1:0.5 2:6.072174 3:7.837233 
0.1820165961289793 1:0.9 2:23.926428 3:47.362177 
1.7132712194653716 1:0.5 2:30.851183 3:49.526472 
1.0497088425814909 1:0.6 2:126.167898 3:355.468675 
8.0 1:0.333333 2:29.092762 3:59.709305 
0.6457169959375946 1:0.74359 2:43.749072 3:68.140829 
7.779992733203045 1:0.5 2:11.544321 3:18.92588 
0.2173591596931261 1:0.5 2:16.752957 3:40.13252 
0.44724520425243425 1:0.666667 2:30.878901 3:67.092346 
6.927054176265195 1:0.2 2:0.920251 3:2.541566 
0.4678231360624241 1:0.428571 2:26.657217 3:46.786005 
0.6451894538052629 1:0.2 2:37.511575 3:69.267047 
2.964839020207612 1:0.357143 2:6.374694 3:17.579804 
0.852172676123095 1:0.333333 2:33.535351 3:59.801315 
1.0967540741098156 1:0.666667 2:33.713371 3:57.906221 
0.8262397714883634 1:0.944444 2:8.011167 3:17.297269 
8.0 1:0.5 2:0.995203 3:3.244266 
8.0 1:0.2 2:3.424615 3:5.812324 
8.0 1:0.5 2:1.55291 3:4.063434 
8.0 1:0.03125 2:3.045268 3:7.504344 
5.026853521259379 1:0.5 2:5.124152 3:12.196792 
0.061388777799440644 1:0.333333 2:12.384809 3:30.392174 
0.34228130105788374 1:0.5 2:8.324269 3:19.104226 
2.0024549669976373 1:0.5 2:8.119284 3:19.104226 
6.698789045364011 1:0.049751 2:17.003153 3:32.945593 
8.0 1:0.235294 2:4.7658 3:7.821913 
8.0 1:0.571429 2:5.715507 3:9.272629 
1.7650508185609066 1:0.888889 2:5.300011 3:11.125417 
0.08748058753160745 1:0.888889 2:14.354932 3:28.585996 
0.9552618874795743 1:0.938053 2:42.51856 3:82.706422 
4.513831639098017 1:0.358025 2:10.502421 3:21.013848 
8.0 1:0.428571 2:2.03803 3:5.446119 
6.194662252893328 1:0.384615 2:2.464 3:6.654491 
8.0 1:0.375 2:1.029816 3:2.162067 
0.2950026480733276 1:0.875 2:1.890661 3:6.066857 
1.704207754570279 1:0.5 2:34.387315 3:64.991448 
1.0472369113176492 1:0.785714 2:47.85633 3:78.181859 
0.3323144772654919 1:0.142857 2:12.366107 3:35.264409 
1.4051934734578764 1:0.666667 2:21.618108 3:45.175657 
0.777311961730859 1:0.4 2:32.018522 3:73.911565 
8.0 1:0.947368 2:6.090147 3:9.274098 
8.0 1:0.1875 2:9.716541 3:12.989451 
1.0447828267100927 1:0.75 2:25.185896 3:79.749374 
1.0849418113494338 1:0.5625 2:68.110899 3:144.243778 
2.197456580302632 1:0.772727 2:4.713186 3:7.72864 
0.2668907252956752 1:0.5 2:17.247575 3:42.12459 
8.0 1:0.333333 2:5.826518 3:10.034662 
1.0225454119753903 1:0.5 2:26.077463 3:70.685041 
1.2183451131907685 1:0.75 2:5.870902 3:13.447954 
1.172059610099301 1:0.5 2:27.104435 3:53.773226 
4.627866083674447 1:0.666667 2:0.322923 3:1.71201 
8.0 1:0.5 2:0.585661 3:1.24625 
8.0 1:0.076923 2:2.238343 3:5.522264 
0.6035698441143835 1:0.142857 2:7.194172 3:23.851399 
8.0 1:0.067416 2:0.824129 3:2.101111 
1.7733904305296129 1:0.666667 2:6.861208 3:21.712582 
8.0 1:0.333333 2:0.318168 3:0.83913 
1.0499650309068262 1:0.111111 2:93.571444 3:204.990584 
8.0 1:0.666667 2:3.119702 3:7.8984 
1.07761760344864 1:0.5 2:1.926714 3:7.308955 
8.0 1:0.107143 2:11.31051 3:20.163153 
0.9379137031850125 1:0.957895 2:36.502752 3:68.982098 
0.7395196489980854 1:0.984615 2:20.506436 3:39.945792 
0.21149993610670595 1:0.5 2:21.616818 3:53.044417 
0.8112051222826542 1:0.75 2:17.236772 3:56.31806 
0.8239902255384172 1:0.333333 2:19.869682 3:50.65525 
0.26652806013876235 1:0.8 2:19.2284 3:38.699519 
4.077416822419135 1:0.5 2:4.802647 3:10.128903 
8.0 1:0.052632 2:4.728011 3:11.286783 
2.567101309649517 1:0.758065 2:7.716512 3:12.332583 
1.9852493311970314 1:0.4 2:5.290065 3:15.359022 
8.0 1:0.2 2:1.290491 3:2.631492 
0.28680245542928573 1:0.333333 2:25.838271 3:59.605771 
8.0 1:0.333333 2:8.835108 3:12.864498 
0.9162915729495753 1:0.875 2:29.639826 3:68.304105 
0.7765869738816037 1:0.588235 2:2.219907 3:7.365325 
2.3400093869255674 1:0.52305 2:12.276065 3:18.905052 
1.0498021216461209 1:0.275362 2:101.41377 3:175.196861 
8.0 1:0.25 2:11.107667 3:34.853531 
7.6335700003883495 1:0.25 2:11.938839 3:34.853531 
0.04602233285905746 1:0.5 2:8.50149 3:27.303204 
8.0 1:0.092025 2:11.782936 3:23.807285 
1.9513171453218303 1:0.5 2:7.255941 3:14.395547 
5.0350511642388796 1:0.375 2:37.377267 3:47.387204 
0.3797023147503204 1:0.16129 2:15.683437 3:24.922605 
4.046815588897062 1:0.3 2:6.835464 3:13.445566 
8.0 1:0.428571 2:4.268594 3:12.454487 
8.0 1:0.780488 2:7.528832 3:10.950768 
5.3665232750650125 1:0.166667 2:11.634745 3:24.354973 
8.0 1:0.666667 2:3.168199 3:4.82014 
1.0333052679375228 1:0.909091 2:48.529229 3:79.745711 
8.0 1:0.25 2:4.130533 3:7.154221 
4.228011327521977 1:0.2 2:0.358811 3:1.191106 
1.3580557141410161 1:0.242424 2:37.167982 3:70.428448 
8.0 1:0.25 2:6.086945 3:13.178054 
8.0 1:0.222222 2:2.401698 3:5.008547 
5.116900649724911 1:0.5 2:1.559763 3:5.758476 
6.463686776521315 1:0.222222 2:3.72415 3:11.324594 
8.0 1:0.181818 2:3.155586 3:5.103494 
5.930181513701817 1:0.5 2:10.888251 3:26.07158 
0.0970610113084546 1:0.666667 2:21.783984 3:47.286676 
6.211596841355735 1:0.142857 2:1.131836 3:3.753647 
8.0 1:0.891386 2:7.648384 3:10.301698 
8.0 1:0.5 2:7.306864 3:9.560473 
8.0 1:0.5 2:0.375296 3:1.808806 
1.0302616273729908 1:0.571429 2:6.947305 3:14.476241 
8.0 1:0.333333 2:1.006965 3:2.301157 
0.5048811216627458 1:0.892857 2:14.137922 3:40.162716 
2.2329406767140725 1:0.967742 2:5.520502 3:12.134908 
0.5778712974312203 1:0.027027 2:5.904811 3:12.107964 
8.0 1:0.382576 2:2.467663 3:3.920313 
2.1101647192698265 1:0.25 2:12.442645 3:31.225613 
8.0 1:0.133333 2:2.491888 3:5.418487 
0.03264698295428211 1:0.5 2:26.216913 3:52.218685 
1.0824892801178883 1:0.5 2:20.314756 3:42.191325 
8.0 1:0.5 2:2.352688 3:6.786842 
1.05925331164826 1:0.75 2:10.350552 3:16.988641 
8.0 1:0.1 2:1.399686 3:3.770206 
0.27804373217837053 1:0.888889 2:1.729681 3:5.787551 
8.0 1:0.291667 2:3.358871 3:5.576855 
6.716740630795679 1:0.923077 2:5.669995 3:7.607644 
8.0 1:0.2 2:3.607106 3:5.928263 
0.30388406338024126 1:0.25 2:32.635762 3:83.927547 
8.0 1:0.6 2:0.842414 3:1.666418 
6.4933731680140445 1:0.1 2:11.329683 3:24.912984 
5.181627990655633 1:0.705882 2:1.684526 3:4.332931 
8.0 1:0.363636 2:1.237903 3:2.467096 
1.4112139770890528 1:0.125 2:0.15173 3:0.671971 
0.9339105967943976 1:0.991304 2:52.231609 3:85.541034 
0.05979221099157683 1:0.9 2:0.857674 3:4.686207 
1.7731463412552857 1:0.25 2:8.105026 3:17.498458 
0.17969318858749575 1:0.571429 2:24.394632 3:51.083224 
8.0 1:0.181818 2:6.944782 3:11.235444 
8.0 1:0.005587 2:1.319639 3:3.290793 
0.8539046488983357 1:0.130435 2:29.484102 3:60.702497 
8.0 1:0.5 2:13.895294 3:30.132935 
7.525068494124756 1:0.75 2:2.587808 3:4.340405 
8.0 1:0.333333 2:4.000522 3:12.210043 
0.7882755381015366 1:0.8 2:34.141466 3:77.15107 
0.33746398734233807 1:0.666667 2:9.111175 3:17.629522 
2.5564493383726945 1:0.333333 2:6.898273 3:11.695895 
8.0 1:0.333333 2:2.089515 3:3.970094 
8.0 1:0.666667 2:2.182488 3:3.91287 
0.07303658251896059 1:0.75 2:22.722591 3:48.765551 
2.5399757958443576 1:0.142857 2:9.950077 3:19.699193 
1.0499737023003333 1:0.666667 2:78.181063 3:170.615343 
0.8892648106653745 1:0.2 2:35.341592 3:82.706422 
6.292112245695742 1:0.857143 2:4.339189 3:6.562179 
0.13350206916599738 1:0.64 2:33.37899 3:82.895657 
0.9061831277100235 1:0.482759 2:21.431582 3:49.869146 
8.0 1:0.25 2:8.330138 3:18.759054 
8.0 1:0.04 2:2.212319 3:4.901046 
0.6891925775015924 1:0.0625 2:20.14405 3:40.305442 
4.684861844050558 1:0.5 2:3.886824 3:10.547444 
2.709933193714544 1:0.5 2:24.273795 3:70.843076 
0.9493302238320979 1:0.558824 2:29.357563 3:73.077025 
8.0 1:0.363636 2:10.42895 3:16.304606 
8.0 1:0.9 2:4.854882 3:6.96695 
8.0 1:0.846154 2:5.06858 3:7.309162 
8.0 1:0.360294 2:1.208406 3:2.493556 
3.6366242414653267 1:0.142857 2:8.001149 3:23.495262 
2.9548867121307647 1:0.333333 2:4.883477 3:15.176447 
0.0786150011414834 1:0.705882 2:12.908435 3:30.656903 
1.6303377233207093 1:0.5 2:17.262026 3:29.777229 
8.0 1:0.25 2:3.406792 3:5.702554 
0.9353144559418393 1:0.5 2:31.048842 3:65.231996 
8.0 1:0.02 2:0.0 3:0.0 
8.0 1:0.333333 2:5.757383 3:10.108875 
1.004316721513033 1:0.333333 2:28.239287 3:53.707992 
0.47628980894223005 1:0.666667 2:28.51215 3:57.647658 
8.0 1:0.5 2:20.706512 3:54.331635 
8.0 1:0.5 2:18.829349 3:54.331635 
8.0 1:0.038462 2:9.802683 3:14.123242 
2.5206096058424117 1:0.2 2:8.554214 3:18.593155 
8.0 1:0.235294 2:64.215749 3:150.590438 
8.0 1:0.588235 2:65.019405 3:150.590438 
8.0 1:0.5 2:8.44164 3:11.261828 
2.419729080578725 1:0.428571 2:11.510286 3:19.786052 
2.220879088362663 1:0.5 2:6.942825 3:16.982305 
7.022533292398082 1:0.5 2:2.759278 3:6.327377 
8.0 1:0.066667 2:6.527387 3:13.745629 
0.31728160396029365 1:0.77551 2:16.087269 3:31.10471 
0.004324357248005718 1:0.5 2:10.909213 3:30.792612 
5.707520446081581 1:0.5 2:3.106227 3:9.239907 
6.29937317007836 1:0.5 2:1.17407 3:3.401581 
8.0 1:0.5 2:0.006983 3:0.118174 
7.666434741281343 1:0.076923 2:9.538446 3:17.744749 
1.214064294480972 1:0.666667 2:16.055348 3:34.737296 
1.8579396109042805 1:0.25 2:11.994635 3:20.598189 
4.024731737681294 1:0.375 2:10.807541 3:22.579651 
8.0 1:0.209302 2:2.164805 3:4.132982 
0.36846871854604685 1:0.125 2:25.324797 3:39.454738 
8.0 1:0.833333 2:0.872246 3:4.545606 
6.6653627094381465 1:0.166667 2:0.811536 3:4.545606 
1.0471491001262663 1:0.55 2:79.386985 3:155.738823 
8.0 1:0.090909 2:8.29927 3:14.153509 
8.0 1:0.3 2:3.378914 3:5.34827 
1.0503868027729721 1:0.470588 2:84.971506 3:159.239541 
8.0 1:0.090909 2:0.721557 3:2.211477 
0.02199607514673285 1:0.993671 2:6.426418 3:12.950125 
0.582198749818211 1:0.333333 2:3.529669 3:46.933353 
0.8243277664483036 1:0.774194 2:49.86477 3:91.53459 
2.240346133248939 1:0.666667 2:0.840921 3:2.500444 
0.17329599877118237 1:0.388889 2:31.016318 3:67.145876 
5.810489310417745 1:0.071429 2:0.988548 3:3.029445 
8.0 1:0.271429 2:5.46526 3:8.328722 
2.6366085574562867 1:0.875 2:8.963322 3:13.955126 
0.5230818626917094 1:0.96875 2:14.193488 3:36.181866 
1.507974913456481 1:0.666667 2:18.822902 3:37.253213 
8.0 1:0.0625 2:3.643776 3:7.736884 
1.0499315854929898 1:0.5 2:6.88363 3:33.983998 
0.024969969077844958 1:0.833333 2:3.258979 3:8.868857 
8.0 1:0.083333 2:5.854464 3:9.150211 
8.0 1:0.5 2:1.121178 3:2.147945 
8.0 1:0.222222 2:2.215582 3:4.055934 
8.0 1:0.298246 2:0.377724 3:0.976137 
0.865774621077069 1:0.333333 2:37.281531 3:80.64521 
0.2970766545016398 1:0.5 2:4.980847 3:14.202108 
7.551833046754844 1:0.679007 2:8.016863 3:11.782277 
0.795207638879039 1:0.9375 2:29.081038 3:49.088922 
8.0 1:0.777778 2:2.2562 3:5.059385 
0.7324095670546471 1:0.15 2:6.178789 3:41.302988 
3.055440201943441 1:0.777778 2:2.665217 3:5.617938 
1.2289930652006569 1:0.65625 2:9.682847 3:30.72761 
2.9973431497322474 1:0.323529 2:7.842998 3:25.73196 
8.0 1:0.363636 2:7.305705 3:11.462543 
4.065616656887109 1:0.888889 2:10.47059 3:15.021812 
8.0 1:0.852273 2:3.557853 3:5.180183 
0.32720703581186517 1:0.333333 2:11.52212 3:27.38558 
2.673041072066626 1:0.5 2:34.703226 3:59.73281 
0.5433970138892851 1:0.75 2:24.549903 3:51.083224 
1.4361335199389744 1:0.5 2:6.675985 3:17.81473 
1.3904463874770359 1:0.375 2:2.567874 3:6.312703 
1.0496294432795552 1:0.75 2:41.347002 3:79.842772 
0.1485237452985244 1:0.965517 2:24.546031 3:48.53098 
8.0 1:0.125 2:6.537841 3:11.270169 
8.0 1:0.714286 2:0.22684 3:0.673558 
2.888091026167776 1:0.025641 2:15.150472 3:25.898324 
0.5115838750080026 1:0.388889 2:7.562545 3:14.682364 
6.970929754543993 1:0.75 2:3.012995 3:9.19575 
8.0 1:0.5 2:40.515711 3:94.387649 
8.0 1:0.5 2:41.303796 3:94.387649 
1.0190837656593692 1:0.980198 2:61.031844 3:89.512744 
1.4040139898402693 1:0.555556 2:22.670345 3:45.859986 
6.494667161325541 1:0.333333 2:0.271379 3:0.870332 
6.298513154223173 1:0.709957 2:9.317283 3:14.187452 
4.925892763768424 1:0.425 2:16.603074 3:34.244834 
8.0 1:0.5 2:2.964274 3:6.454127 
0.3665754394092241 1:0.875 2:23.824514 3:46.636434 
0.7210718995689093 1:0.5 2:28.270878 3:66.187866 
0.5896930196477236 1:0.5 2:43.365178 3:77.18803 
8.0 1:0.076923 2:2.884273 3:4.283518 
0.6827957040491293 1:0.5 2:13.40794 3:20.610805 
0.2070200267655344 1:0.064516 2:14.460996 3:32.592043 
7.404977365903714 1:0.333333 2:2.101679 3:5.801902 
3.6847225071769705 1:0.666667 2:1.825503 3:5.801902 
1.0499388586895426 1:0.333333 2:62.037685 3:156.046525 
1.0461711561139257 1:0.970149 2:81.011428 3:155.738823 
0.4612302336676595 1:0.666667 2:19.715489 3:47.926506 
0.959751924846891 1:0.909091 2:33.94723 3:68.510597 
1.4150003785584924 1:0.923077 2:2.304249 3:5.051917 
1.0500426087682968 1:0.194444 2:48.468226 3:112.585025 
0.44167189538395957 1:0.25 2:26.757244 3:62.007557 
0.8175082067394598 1:0.5 2:16.760104 3:50.491411 
8.0 1:0.111111 2:0.517807 3:1.342977 
2.8119173221767255 1:0.375 2:25.591091 3:46.904633 
8.0 1:0.034483 2:2.004838 3:4.205749 
8.0 1:0.333333 2:13.092104 3:19.631564 
0.058954308122322996 1:0.909091 2:17.744134 3:34.52638 
0.6073061312569428 1:0.333333 2:29.213446 3:77.445825 
0.7085599303373485 1:0.666667 2:12.644737 3:34.942526 
1.0497205960407359 1:0.666667 2:25.33897 3:166.809689 
4.505883872164791 1:0.333333 2:7.090161 3:20.570366 
8.0 1:0.25 2:4.049739 3:8.550644 
1.0281086015272338 1:0.125 2:32.845778 3:87.131123 
1.843894109648115 1:0.5 2:3.60069 3:9.82397 
0.40271739396651574 1:0.875 2:6.177905 3:12.042701 
8.0 1:0.333333 2:8.313602 3:13.140461 
2.572337542985102 1:0.5 2:17.286147 3:34.887379 
1.0460965328392777 1:0.888889 2:85.37345 3:111.402692 
0.948568353528318 1:0.076923 2:20.024276 3:66.598018 
0.6332374309576919 1:0.625 2:13.974303 3:34.596615 
8.0 1:0.25 2:9.828309 3:17.496788 
0.41556798922476407 1:0.5 2:39.173959 3:61.612854 
8.0 1:0.25 2:8.253477 3:25.126372 
8.0 1:0.25 2:8.253477 3:25.126372 
8.0 1:0.25 2:8.253477 3:25.126372 
8.0 1:0.25 2:8.253477 3:25.126372 
0.32288752953646005 1:0.666667 2:14.605001 3:35.542356 
6.411446012364227 1:0.004484 2:2.47855 3:7.314641 
8.0 1:0.333333 2:4.091013 3:12.346946 
2.014244535824275 1:0.888889 2:27.514052 3:38.639453 
8.0 1:0.1 2:2.111733 3:4.117905 
0.8340469553022063 1:0.826087 2:20.983574 3:41.651559 
7.646955432648419 1:0.5 2:1.970326 3:5.312253 
1.0934408959314235 1:0.9 2:21.198758 3:34.334843 
3.2238264898219176 1:0.090909 2:3.8288 3:8.70222 
8.0 1:0.289474 2:1.261102 3:3.888644 
0.8536265702052055 1:0.922589 2:38.749094 3:64.024491 
0.8010648938353231 1:0.25 2:43.058574 3:110.02276 
2.424215345283304 1:0.5 2:19.295797 3:32.067906 
8.0 1:0.5 2:5.185514 3:8.449007 
1.665350425137023 1:0.666667 2:5.433883 3:11.151252 
0.30116627049813377 1:0.5 2:20.291372 3:36.36085 
8.0 1:0.333333 2:7.836582 3:23.052864 
8.0 1:0.333333 2:7.563183 3:23.052864 
2.8464831251896707 1:0.166667 2:14.659599 3:30.391893 
0.6069408122411415 1:0.017544 2:0.299624 3:1.315156 
8.0 1:0.091837 2:8.011575 3:12.068608 
0.6989949030710761 1:0.666667 2:18.723496 3:39.190818 
0.26118138172009336 1:0.333333 2:2.994985 3:6.575655 
1.839549696464568 1:0.666667 2:3.180234 3:6.575655 
1.8903088965835269 1:0.5 2:3.188473 3:11.750193 
8.0 1:0.5 2:36.966202 3:86.63063 
8.0 1:0.5 2:34.844139 3:86.63063 
2.022696514027108 1:0.555556 2:9.922407 3:16.622331 
3.208467354110005 1:0.5 2:0.415427 3:2.132911 
8.0 1:0.833333 2:0.473783 3:0.982341 
7.395526840040911 1:0.529412 2:0.873236 3:1.870661 
1.0115904480742537 1:0.986667 2:42.520609 3:77.890919 
0.6154944441982299 1:0.666667 2:25.117377 3:61.630634 
3.6277231049414036 1:0.888889 2:3.686659 3:6.447661 
8.0 1:0.25 2:4.147456 3:10.945584 
3.2775807945328816 1:0.15 2:23.980557 3:45.332375 
8.0 1:0.333333 2:4.870656 3:9.117433 
0.04382977902635501 1:0.5 2:19.924795 3:48.684746 
8.0 1:0.142857 2:1.980911 3:3.567673 
6.8109697685415345 1:0.222222 2:13.29857 3:23.619303 
0.7079536690380912 1:0.333333 2:24.469282 3:59.801315 
8.0 1:0.222222 2:22.739158 3:31.453124 
1.025525362529545 1:0.434629 2:42.989893 3:72.028252 
0.19101996149536893 1:0.333333 2:21.944041 3:53.190217 
1.15706948692984 1:0.714286 2:10.950697 3:24.415903 
0.3372475753724065 1:0.5 2:9.282371 3:22.366651 
1.049939874859025 1:0.75 2:45.627354 3:114.720826 
1.016595394216708 1:0.5 2:6.666976 3:29.714372 
0.15963033022673973 1:0.666667 2:13.605254 3:40.163375 
2.3261379814496723 1:0.5 2:11.546238 3:23.003215 
1.1389655074655862 1:0.125 2:11.945747 3:86.442741 
8.0 1:0.046875 2:1.470973 3:5.36596 
1.7200893414531688 1:0.958333 2:1.733727 3:4.464846 
0.8233353944985852 1:0.666667 2:0.654265 3:2.192387 
1.23495092822882 1:0.958333 2:3.169001 3:6.167953 
8.0 1:0.166667 2:3.978217 3:7.004767 
0.17884553099015574 1:0.2 2:11.327561 3:24.020663 
1.5142651607099598 1:0.481481 2:7.06859 3:13.060783 
8.0 1:0.142857 2:2.141847 3:4.572783 
8.0 1:0.333333 2:4.497227 3:7.013551 
1.0253534512801366 1:0.333333 2:46.124602 3:101.096544 
8.0 1:0.532982 2:12.541659 3:19.104049 
2.3666834459103994 1:0.5 2:12.491142 3:25.496977 
8.0 1:0.222222 2:8.542009 3:11.792286 
8.0 1:0.6 2:0.638691 3:1.323323 
0.43095212742660205 1:0.333333 2:24.225819 3:58.784811 
0.856538143563962 1:0.88 2:11.96851 3:16.584372 
0.4420895700151355 1:0.5 2:34.665587 3:77.697787 
0.43672591236866587 1:0.5 2:32.569546 3:63.941393 
0.6121178796701083 1:0.5 2:5.290378 3:12.300197 
8.0 1:0.166667 2:5.612345 3:13.293249 
8.0 1:0.666667 2:9.388631 3:13.230641 
4.793027393056784 1:0.193548 2:10.009043 3:21.325083 
6.184335051827196 1:0.645161 2:9.556521 3:21.325083 
7.424033238046286 1:0.578947 2:16.47264 3:28.975996 
0.11509941660848058 1:0.952381 2:4.47353 3:13.186081 
0.460428594025799 1:0.5 2:23.315436 3:55.714065 
8.0 1:0.333333 2:3.893399 3:6.375703 
8.0 1:0.714286 2:1.129881 3:2.144238 
8.0 1:0.253012 2:4.197976 3:6.508631 
4.253334436457754 1:0.08 2:7.954476 3:16.135989 
5.819571957357869 1:0.8 2:2.163272 3:6.671935 
1.244086597999397 1:0.2 2:2.200062 3:6.671935 
0.4151494048947733 1:0.5 2:19.263735 3:48.626815 
0.3844764069274288 1:0.5 2:26.333875 3:42.640394 
0.5308455929836894 1:0.125 2:18.050553 3:42.479004 
1.4400934230137556 1:0.727273 2:6.117794 3:11.1884 
8.0 1:0.5 2:0.167658 3:0.59432 
0.4287366728034818 1:0.5 2:20.355989 3:46.215619 
1.2196271102551124 1:0.5 2:3.551032 3:10.154397 
7.765225706443549 1:0.375 2:6.787147 3:15.513427 
0.06091723717246379 1:0.166667 2:20.871162 3:38.469576 
0.5921916538808037 1:0.8 2:18.502792 3:43.477168 
8.0 1:0.071429 2:5.000693 3:8.270513 
0.2685115506946155 1:0.111111 2:20.838635 3:43.954865 
1.0138321763290656 1:0.5 2:57.761628 3:113.462976 
8.0 1:0.5 2:3.591287 3:5.728376 
0.6564444878049295 1:0.75 2:23.494678 3:58.581149 
1.0371534944121934 1:0.666667 2:5.082465 3:42.401416 
1.7746432863807153 1:0.4 2:18.269457 3:40.242166 
0.20037411557634568 1:0.5 2:22.975884 3:54.655455 
1.0498300948911443 1:0.615385 2:22.148393 3:80.237947 
0.17725904228547862 1:0.967742 2:10.509372 3:19.036799 
2.370273611400838 1:0.444444 2:17.640634 3:36.988051 
0.8849445074602192 1:0.75 2:41.590856 3:58.478897 
8.0 1:0.5 2:5.23602 3:7.229137 
8.0 1:0.272727 2:2.751987 3:5.259941 
8.0 1:0.333333 2:3.074332 3:5.305136 
0.8669948111778475 1:0.666667 2:25.295807 3:42.552142 
0.6043646424817174 1:0.052632 2:20.710099 3:53.044417 
8.0 1:0.5 2:0.444101 3:0.97663 
5.4453044969459095 1:0.142857 2:2.18843 3:4.960457 
4.425922277572237 1:0.626761 2:4.278297 3:11.004813 
0.8791357086531282 1:0.931034 2:1.807336 3:12.775183 
3.374225957052725 1:0.2 2:8.882839 3:20.464587 
6.362412716787563 1:0.1 2:4.2175 3:8.54432 
0.4341362247227709 1:0.133333 2:10.863418 3:27.674492 
1.1285220316610916 1:0.142857 2:3.123938 3:9.74205 
8.0 1:0.2 2:0.790667 3:1.850781 
0.7659759892288899 1:0.666667 2:9.235659 3:29.562115 
8.0 1:0.052632 2:12.660167 3:29.430888 
8.0 1:0.2 2:1.212811 3:2.724997 
1.3529262904629455 1:0.076923 2:4.716225 3:9.474715 
0.7989705213866722 1:0.25 2:32.923193 3:84.443094 
8.0 1:0.538244 2:6.490845 3:10.170103 
0.5253207138646026 1:0.625 2:24.640888 3:61.903412 
0.31384737555431697 1:0.5 2:12.475954 3:38.096338 
1.0129111665801678 1:0.954545 2:29.347969 3:76.43249 
8.0 1:0.333333 2:118.04995 3:159.239541 
8.0 1:0.166667 2:56.078942 3:159.239541 
0.9717455320738447 1:0.142857 2:9.60319 3:19.80636 
2.2799979710335254 1:0.222222 2:4.446843 3:10.222768 
8.0 1:0.428571 2:0.198973 3:0.630829 
1.0496454948367566 1:0.666667 2:86.391489 3:199.535423 
8.0 1:0.529412 2:2.516413 3:4.556593 
1.0485904657211276 1:0.532407 2:55.03748 3:88.509873 
4.344219735781223 1:0.5 2:3.790331 3:10.9238 
6.266271950756857 1:0.142857 2:19.088769 3:46.099531 
5.6009513325943265 1:0.090909 2:1.542202 3:3.664895 
0.42335765045650225 1:0.142857 2:51.59331 3:104.886526 
8.0 1:0.333333 2:0.372851 3:0.964279 
8.0 1:0.007692 2:4.853938 3:13.381653 
7.107670498220181 1:0.992308 2:6.422905 3:13.381653 
2.904608149290345 1:0.4 2:10.190225 3:31.695915 
0.5519573018271492 1:0.354839 2:12.024776 3:19.677443 
8.0 1:0.814815 2:1.748004 3:2.658757 
7.9671113535916 1:0.090909 2:0.682897 3:1.955402 
1.0503518573591433 1:0.714286 2:44.092659 3:87.014225 
8.0 1:0.833333 2:2.848454 3:4.401185 
1.0490486388697218 1:0.9375 2:55.933786 3:127.508895 
0.5749302933571134 1:0.666667 2:23.784589 3:52.14313 
0.8245117926366257 1:0.75 2:43.773301 3:104.59279 
4.850595257392032 1:0.5 2:23.464224 3:41.353465 
1.0263069544511478 1:0.333333 2:85.233406 3:183.561082 
0.7713323924074966 1:0.25 2:42.91134 3:76.545649 
0.06111172862965123 1:0.962963 2:2.321517 3:6.697884 
0.6342477209171384 1:0.666667 2:8.845888 3:20.039022 
8.0 1:0.05 2:0.008466 3:0.135313 
1.04861461626902 1:0.741935 2:55.434587 3:114.404272 
0.9973148518325262 1:0.75 2:26.050449 3:68.017767 
1.7199973984719392 1:0.625 2:4.005037 3:7.980645 
0.5024323086550202 1:0.681818 2:27.102744 3:56.550848 
8.0 1:0.857143 2:10.138861 3:32.89693 
8.0 1:0.142857 2:10.727452 3:32.89693 
1.0478901864199741 1:0.333333 2:47.301815 3:91.794653 
1.6171012619677414 1:0.5 2:55.738395 3:110.53379 
8.0 1:0.5 2:2.664471 3:3.788843 
1.1093207230949558 1:0.5 2:60.619132 3:118.810889 
3.018131414159 1:0.5 2:1.682612 3:4.173051 
8.0 1:0.399632 2:9.392935 3:14.692365 
8.0 1:0.75 2:0.00399 3:0.089326 
0.9003629328599388 1:0.25 2:35.176326 3:85.555705 
0.8945407978061523 1:0.5 2:23.871032 3:54.589954 
2.0332032477443076 1:0.03125 2:15.951107 3:25.826388 
0.09579752495021787 1:0.925 2:10.235074 3:19.249042 
0.8655399281852658 1:0.947368 2:58.837821 3:143.531621 
0.19592127311742444 1:0.625 2:25.097593 3:54.331635 
4.73883576991087 1:0.5 2:0.647339 3:2.394642 
1.374185993794369 1:0.680851 2:28.074082 3:43.250194 
8.0 1:0.833333 2:3.669696 3:6.549486 
1.2294823177644927 1:0.875 2:29.463947 3:44.823096 
0.2334147912790031 1:0.777778 2:13.617776 3:32.799238 
7.642285704998687 1:0.090909 2:8.912341 3:17.137786 
0.7145890460375769 1:0.5 2:31.0763 3:71.847231 
0.4878612435987092 1:0.5 2:44.353499 3:105.804181 
1.0499461407092296 1:0.227273 2:62.405576 3:160.874306 
1.8702408163753135 1:0.857143 2:6.21646 3:20.965382 
0.5211946340103272 1:0.5 2:51.494901 3:104.85465 
1.6022323356452073 1:0.352941 2:4.593029 3:9.92646 
1.0503678479853116 1:0.984615 2:56.926712 3:99.82851 
8.0 1:0.333333 2:12.043684 3:17.915701 
5.0314951734820275 1:0.5 2:10.854943 3:26.550965 
8.0 1:0.611111 2:2.065073 3:3.520199 
8.0 1:0.153846 2:1.837588 3:3.451721 
2.6263496110086417 1:0.272727 2:22.408972 3:35.822332 
6.0451519161757465 1:0.5 2:4.018415 3:8.933192 
0.6996603876115252 1:0.923077 2:4.643575 3:9.609507 
0.8582367124878212 1:0.043478 2:8.095097 3:29.493028 
7.59793352536192 1:0.644809 2:5.710506 3:9.748624 
2.258779228361889 1:0.315789 2:3.275003 3:10.157055 
1.7392001616166508 1:0.52381 2:4.160794 3:7.170379 
1.7623930790196758 1:0.972574 2:32.385269 3:42.519025 
8.0 1:0.333333 2:0.514138 3:1.201613 
1.618691775559719 1:0.8 2:4.480873 3:16.693328 
8.0 1:0.5 2:4.188585 3:8.404356 
8.0 1:0.222222 2:4.87969 3:9.556109 
0.34924636905855655 1:0.4 2:12.705096 3:38.6859 
8.0 1:0.088235 2:7.88301 3:13.623583 
1.880166461023355 1:0.863636 2:8.092984 3:13.749717 
1.0472716846111492 1:0.974194 2:47.664724 3:75.180073 
0.3278803419761274 1:0.976744 2:6.501787 3:11.494416 
0.9835739979090923 1:0.6875 2:18.87067 3:60.748564 
0.9736030670911245 1:0.666667 2:20.74979 3:51.098081 
1.5982397597954119 1:0.058824 2:19.806319 3:42.062089 
0.009127632146258655 1:0.529412 2:5.747233 3:19.933383 
0.6299445821112029 1:0.545455 2:18.548366 3:34.943402 
7.193770676007348 1:0.2 2:5.648827 3:16.47631 
8.0 1:0.071429 2:2.080753 3:4.385135 
4.798963911256905 1:0.875 2:3.922847 3:7.025503 
7.26647522586592E-4 1:0.9 2:4.456731 3:12.457431 
3.29832721847907 1:0.5 2:5.293708 3:14.950318 
0.9471152689773282 1:0.142857 2:32.5366 3:85.772835 
8.0 1:0.090909 2:0.99717 3:2.749106 
8.0 1:0.25 2:6.437726 3:13.365551 
8.0 1:0.5 2:13.448816 3:21.859626 
8.0 1:0.388889 2:4.161152 3:6.581672 
8.0 1:0.75 2:0.83688 3:1.589927 
8.0 1:0.12766 2:4.274877 3:7.313195 
6.988981223508685 1:0.333333 2:20.952314 3:32.985138 
8.0 1:0.104651 2:19.428158 3:27.079477 
3.596918062788211 1:0.5 2:6.833391 3:10.826862 
6.451431254500292 1:0.916667 2:7.583559 3:9.867883 
0.4932386889903954 1:0.970588 2:15.772737 3:41.987416 
7.406175469749415 1:0.4 2:9.553414 3:16.792099 
8.0 1:0.8 2:7.415025 3:12.208331 
2.9048751864225526 1:0.746988 2:19.04573 3:30.80146 
0.536201163968964 1:0.857143 2:12.652651 3:36.077222 
3.0340517204499102 1:0.387097 2:15.03497 3:21.984994 
0.8874656354180778 1:0.25 2:43.358417 3:93.961724 
8.0 1:0.6 2:0.657566 3:2.418552 
0.5835746234820786 1:0.666667 2:3.529669 3:46.933353 
4.501843443895987 1:0.75 2:5.468529 3:9.246376 
1.756559514658474 1:0.354839 2:8.19115 3:13.572433 
6.984755472454415 1:0.075 2:1.086715 3:4.43185 
7.877121111036228 1:0.5 2:0.839302 3:4.983344 
7.789190101021511 1:0.5 2:0.839302 3:4.983344 
8.0 1:0.222222 2:2.848924 3:10.826293 
4.471354390157155 1:0.071429 2:7.977684 3:24.749608 
1.0498096739949772 1:0.733333 2:71.273101 3:215.699288 
1.0448465876371702 1:0.666667 2:43.748648 3:79.745711 
8.0 1:0.75 2:19.308888 3:46.796199 
8.0 1:0.25 2:19.308888 3:46.796199 
3.567087675837623 1:0.5 2:5.113826 3:14.007285 
0.8199409066756503 1:0.666667 2:20.410063 3:43.936021 
8.0 1:0.333333 2:9.72041 3:13.500462 
8.0 1:0.25 2:3.091152 3:8.274023 
0.2057241668594511 1:0.5 2:25.226425 3:54.01406 
0.8806321908042106 1:0.005495 2:42.000142 3:58.168536 
8.0 1:0.030303 2:1.996116 3:5.055922 
5.636655574376464 1:0.333333 2:2.148484 3:4.194309 
0.48453061833631866 1:0.90625 2:26.28315 3:44.391998 
3.387350303411036 1:0.15625 2:2.070797 3:7.250379 
1.0497340394450836 1:0.375 2:73.664894 3:245.376325 
0.7794912210125655 1:0.85 2:35.222396 3:77.781615 
4.621172403098628 1:0.5 2:12.222671 3:20.24319 
0.6520205065246829 1:0.818182 2:9.599219 3:24.611343 
0.6173964224787013 1:0.75 2:12.100083 3:29.983274 
0.5848428283476684 1:0.1 2:8.840647 3:37.927758 
8.0 1:0.622951 2:5.476015 3:7.3913 
0.8758061444587611 1:0.928571 2:52.262546 3:112.841896 
0.9649507992722468 1:0.125 2:4.283876 3:14.640372 
0.6583473990554638 1:0.833333 2:28.625618 3:66.688816 
1.8898575133850555 1:0.5 2:3.563642 3:8.042153 
8.0 1:0.25 2:1.269637 3:2.098413 
0.9251991582429367 1:0.982249 2:24.661197 3:41.648334 
8.0 1:0.26087 2:1.984442 3:3.216529 
0.525857380209555 1:0.5 2:18.526991 3:46.363002 
4.622841650300816 1:0.296296 2:18.787595 3:38.618481 
8.0 1:0.666667 2:3.133945 3:8.979034 
8.0 1:0.692982 2:11.769257 3:14.018024 
6.752254372205587 1:0.375 2:3.750238 3:7.386356 
0.11791737685396704 1:0.666667 2:0.764955 3:2.732264 
0.1054976517386174 1:0.727941 2:10.001632 3:17.219926 
8.0 1:0.576923 2:0.793214 3:2.707033 
8.0 1:0.181818 2:4.210621 3:7.619628 
3.8533782467662436 1:0.5 2:1.656645 3:4.476168 
8.0 1:0.2 2:0.0 3:0.0 
7.047817836733791 1:0.5 2:5.128255 3:11.32818 
3.0944864936529046 1:0.5 2:12.166595 3:21.78231 
0.8106773222662339 1:0.666667 2:12.082652 3:33.331015 
0.6535806059850212 1:0.666667 2:27.020876 3:48.51129 
1.0495127283427041 1:0.25 2:27.947485 3:89.80946 
1.102936567800406 1:0.8 2:5.684342 3:13.021936 
8.0 1:0.333333 2:2.437587 3:4.029229 
0.822714067603046 1:0.933333 2:8.945261 3:22.518909 
0.2978992630456504 1:0.6875 2:3.950999 3:10.20156 
0.7835235210507893 1:0.833333 2:23.448687 3:137.455584 
0.12386438049401982 1:0.857143 2:41.888276 3:98.947193 
0.38331293192003224 1:0.990476 2:5.986189 3:19.858387 
5.94550434072555 1:0.5 2:8.614002 3:21.637252 
8.0 1:0.125 2:7.6048 3:21.637252 
8.0 1:0.5 2:2.934085 3:5.178255 
8.0 1:0.5 2:11.102038 3:16.573966 
8.0 1:0.166667 2:6.254145 3:10.720457 
0.3532899584857029 1:0.9 2:4.595491 3:12.767862 
8.0 1:0.5 2:17.60767 3:39.398528 
8.0 1:0.5 2:16.483197 3:39.398528 
8.0 1:0.571429 2:1.033232 3:1.858923 
5.822885292089326 1:0.25 2:13.461733 3:26.05232 
8.0 1:0.224806 2:6.977332 3:10.908536 
0.037593467199878224 1:0.2 2:17.186323 3:28.859243 
1.0498944830321197 1:0.005618 2:158.160531 3:218.566523 
8.0 1:0.666667 2:8.688034 3:12.619909 
5.178683453905021 1:0.166667 2:4.71145 3:8.616379 
1.159277361894382 1:0.891892 2:47.614736 3:85.772835 
8.0 1:0.1875 2:6.632995 3:15.311578 
1.0500866184218012 1:0.333333 2:47.319285 3:123.83683 
0.9197640423416983 1:0.333333 2:18.7136 3:45.642844 
8.0 1:0.5 2:2.950763 3:6.506599 
0.3601323123414295 1:0.95 2:13.133732 3:29.068828 
0.38617489323296983 1:0.5 2:25.7222 3:64.186174 
0.3254322891308723 1:0.142857 2:10.286451 3:23.908417 
1.0155291034643958 1:0.875 2:24.73759 3:47.054166 
0.5402825259895156 1:0.75 2:1.921194 3:5.899002 
8.0 1:0.25 2:0.887764 3:1.870269 
1.0499897843559753 1:0.333333 2:74.108418 3:180.856521 
0.8146370078346296 1:0.1 2:49.308827 3:92.848856 
0.3715146061255001 1:0.714286 2:26.119753 3:59.935747 
2.8509226755011223 1:0.5 2:4.052295 3:11.187412 
1.0573233155885398 1:0.375 2:11.116566 3:28.442017 
0.08235627437303993 1:0.275862 2:9.675635 3:18.88106 
5.2789176517962115 1:0.5 2:4.921403 3:18.415813 
0.9241355975484828 1:0.881188 2:54.671965 3:86.556365 
8.0 1:0.2 2:1.0646 3:2.09685 
1.0566562452934718 1:0.90085 2:60.471706 3:88.509873 
4.436580250977362 1:0.058824 2:1.853004 3:4.645088 
0.8420790679628818 1:0.5 2:37.050908 3:65.368217 
8.0 1:0.333333 2:0.0 3:0.0 
0.14470594352710808 1:0.454545 2:21.164751 3:47.272776 
8.0 1:0.285714 2:28.544959 3:75.78678 
8.0 1:0.714286 2:31.512455 3:75.78678 
5.122026448158957 1:0.538462 2:0.267623 3:1.510912 
8.0 1:0.666667 2:0.205114 3:0.640491 
1.2004207080380442 1:0.142857 2:0.740184 3:4.349582 
8.0 1:0.470588 2:2.302676 3:4.315695 
0.9635621861193568 1:0.5 2:40.840157 3:88.509873 
0.9744704042344052 1:0.333333 2:45.260663 3:102.278475 
1.0467864825868334 1:0.75 2:18.048685 3:85.584305 
8.0 1:0.166667 2:1.444037 3:3.920055 
0.5514893928468079 1:0.963636 2:13.511911 3:20.40247 
8.0 1:0.5 2:1.947125 3:3.438863 
0.7179158283641681 1:0.766458 2:38.387024 3:59.253861 
8.0 1:0.444444 2:5.275244 3:9.699525 
1.6181272305713228 1:0.9 2:5.18435 3:10.381547 
8.0 1:0.153846 2:2.078632 3:3.487188 
2.002599076862958 1:0.5 2:26.438497 3:35.778445 
8.0 1:0.113208 2:0.718464 3:1.793719 
6.104265073751596 1:0.814815 2:1.599331 3:2.78282 
5.623718426147334 1:0.133333 2:7.039038 3:18.833736 
5.661566026692565 1:0.25 2:25.839358 3:39.606339 
0.5871950832901713 1:0.5 2:42.605128 3:99.336969 
1.0498886905338134 1:0.5 2:86.390005 3:193.082637 
8.0 1:0.2 2:7.223718 3:25.1738 
8.0 1:0.8 2:7.300908 3:25.1738 
1.0497314588387219 1:0.848101 2:60.038437 3:108.591586 
4.859228632515626 1:0.166667 2:11.072588 3:17.889925 
3.9100782969036056 1:0.666667 2:7.499238 3:18.90804 
0.45898673362370346 1:0.867647 2:22.452804 3:38.226402 
4.302491452492606 1:0.125 2:1.557365 3:5.467838 
8.0 1:0.438247 2:5.93778 3:9.963417 
0.7652998332899819 1:0.942857 2:0.187592 3:0.612523 
6.604153906161135 1:0.333333 2:15.33631 3:22.507228 
2.1402084502771554 1:0.888889 2:6.200854 3:14.801237 
0.3047518145776336 1:0.4 2:3.182509 3:15.817557 
8.0 1:0.043478 2:1.46358 3:3.07633 
8.0 1:0.25 2:5.31458 3:8.785066 
0.26318010578419404 1:0.916667 2:9.664811 3:23.83964 
1.3318329496021868 1:0.941176 2:4.747984 3:9.878294 
1.1819632968761264 1:0.5 2:13.004194 3:28.755437 
1.1140844633295435 1:0.2 2:30.869514 3:47.792637 
2.2634340196483 1:0.166667 2:19.348973 3:29.201323 
8.0 1:0.757576 2:4.265323 3:6.264928 
2.956670552639579 1:0.5 2:6.932026 3:22.772897 
8.0 1:0.246753 2:5.766655 3:8.691339 
6.04445234361673 1:0.5 2:23.834624 3:40.936132 
4.914662533026024 1:0.55814 2:5.648341 3:11.706906 
1.6100510545512852 1:0.4 2:26.48987 3:60.936517 
8.0 1:0.25 2:3.715673 3:5.007974 
0.5726068228989467 1:0.955224 2:3.558385 3:9.084848 
8.0 1:0.555556 2:2.11005 3:4.060461 
3.740421505772535 1:0.2 2:5.583535 3:10.753454 
0.6415892372619993 1:0.625 2:0.965781 3:4.111871 
0.5509506833681401 1:0.393701 2:16.34599 3:40.536763 
4.893808640693713 1:0.333333 2:2.553758 3:8.242027 
6.071285640817233 1:0.857143 2:16.500156 3:22.252598 
8.0 1:0.142857 2:3.763488 3:5.358791 
0.10710997068531862 1:0.666667 2:9.466522 3:20.272984 
8.0 1:0.333333 2:2.135654 3:3.308826 
0.7740084024832333 1:0.4 2:14.09857 3:28.425384 
8.0 1:0.5 2:7.880544 3:12.129202 
2.2935818603883833 1:0.761544 2:11.136513 3:15.431479 
8.0 1:0.157813 2:2.287672 3:3.506641 
8.0 1:0.655172 2:3.261358 3:5.183113 
1.0468903968784755 1:0.986667 2:39.433772 3:63.42697 
1.0240416612270753 1:0.8 2:34.724799 3:73.532323 
2.317576430587384 1:0.5 2:2.595616 3:7.310851 
1.048420104094166 1:0.333333 2:18.258277 3:66.235274 
8.0 1:0.5 2:1.325661 3:2.192062 
8.0 1:0.333333 2:4.580936 3:7.137464 
0.6316246478787504 1:0.714286 2:31.555283 3:66.565968 
8.0 1:0.5 2:0.490445 3:2.030168 
0.14332459683271584 1:0.5 2:20.764108 3:42.717992 
1.0498284702538727 1:0.2 2:48.65894 3:121.018006 
8.0 1:0.5 2:3.209026 3:6.519831 
0.0558957997911316 1:0.5 2:16.045612 3:35.31883 
0.6727913084545132 1:0.833333 2:13.996439 3:33.101981 
1.029106359557546 1:0.5 2:38.889677 3:93.277375 
0.5559252251050242 1:0.5 2:9.819431 3:33.053002 
8.0 1:0.155556 2:10.559423 3:24.339754 
8.0 1:0.022222 2:10.365875 3:24.339754 
8.0 1:0.044444 2:3.306638 3:6.554058 
8.0 1:0.196429 2:0.928779 3:2.117346 
0.5977812418662449 1:0.285714 2:36.50776 3:76.665027 
8.0 1:0.333333 2:13.957314 3:30.664934 
1.593022765442289 1:0.75 2:2.366335 3:5.285327 
8.0 1:0.52381 2:5.720299 3:8.349443 
8.0 1:0.459459 2:5.259128 3:9.531632 
1.0501088230135351 1:0.010309 2:45.084656 3:117.930223 
0.966283314257539 1:0.75 2:21.532059 3:48.40323 
0.6516333583983333 1:0.333333 2:25.258958 3:40.452393 
8.0 1:0.238095 2:5.160239 3:8.918666 
8.0 1:0.5 2:2.506215 3:7.51084 
8.0 1:0.5 2:2.506215 3:7.51084 
0.4194731798756501 1:0.986111 2:21.692484 3:35.158935 
8.0 1:0.526316 2:4.063167 3:6.374048 
6.799119024764135 1:0.571429 2:10.04719 3:31.655792 
7.143548054282302 1:0.428571 2:12.385135 3:31.655792 
7.376952881667587 1:0.5 2:3.527682 3:9.405372 
0.9529990750768892 1:0.333333 2:33.802188 3:72.116672 
1.6556945975408195 1:0.9375 2:2.981365 3:9.884404 
0.6882973582614453 1:0.333333 2:20.015042 3:42.948873 
8.0 1:0.960265 2:3.84738 3:5.23593 
0.906978748156716 1:0.166667 2:41.670655 3:103.648322 
0.6878738345280347 1:0.886792 2:28.877606 3:58.574264 
2.5614204273245864 1:0.333333 2:8.508967 3:19.614927 
2.8581287231691688 1:0.142857 2:4.828579 3:11.712232 
8.0 1:0.555218 2:10.59168 3:12.296728 
2.030995695019963 1:0.5 2:8.142547 3:21.325083 
1.0876215773451432 1:0.666667 2:24.710556 3:58.246242 
0.4724804278058869 1:0.111111 2:20.612001 3:51.702202 
8.0 1:0.263158 2:6.514967 3:9.607179 
8.0 1:0.666667 2:2.031408 3:3.338813 
8.0 1:0.2 2:1.17165 3:2.538813 
0.5999222309476248 1:0.666667 2:42.201991 3:99.758994 
8.0 1:0.272727 2:1.317329 3:3.705083 
8.0 1:0.895522 2:3.886474 3:4.781515 
