svm_type c_svc
kernel_type rbf
gamma 0.0625
nr_class 2
total_sv 5847
rho 3.295537166370227
label 1 -1
probA -2.2405378985195203
probB -0.4061657495565218
nr_sv 2910 2937
SV
0.25 1:-0.7009222331785058 2:0.7757704355213421 3:-0.31417630063632 
0.25 1:-0.8679793849169423 2:0.38251337754101333 3:1.5132924219364488 
0.25 1:-0.3207856469158002 2:-0.5018255879256194 3:-0.6080259549456679 
0.25 1:-0.710268564174516 2:0.3259835234526092 3:-0.5072938591062125 
0.25 1:-0.8809853247824634 2:0.36048970303117295 3:-0.540373986829263 
0.25 1:-0.42660659632551473 2:1.291458771865945 3:-0.5454488532861481 
0.25 1:-0.12592674255892272 2:-0.07549667548331909 3:-0.63280992954109 
0.25 1:-0.8876679866783289 2:0.7400867525531433 3:-0.5515382524563253 
0.25 1:-0.8404219194117422 2:0.15602568852232612 3:-0.3671435639349944 
0.25 1:-0.7879706575014866 2:1.1744159040748159 3:-0.044843935618294084 
0.25 1:-0.5612393316103387 2:2.2166856945413853 3:0.39841359309860097 
0.25 1:-0.8239771686444471 2:-0.08099169130161597 3:-0.4549431340019964 
0.25 1:0.23885968711697045 2:-0.666206030257261 3:-0.5571699248864873 
0.25 1:-0.3164143169375205 2:0.5555821473525543 3:-0.5817548598592153 
0.25 1:-0.8124909764930297 2:-0.20604448955804 3:-0.16755159188429697 
0.25 1:-0.8155751012976945 2:0.32113783049114825 3:-0.437817846880692 
0.25 1:-0.44441371753203723 2:0.2650343973833526 3:-0.2673224141228501 
0.25 1:-0.6673421507661004 2:1.0237778469818777 3:-0.5177755676072641 
0.25 1:-0.8711927000218787 2:-0.17762934603203265 3:-0.5614068287704242 
0.25 1:-0.8275944970520509 2:-0.31576066959143995 3:-0.18462004443259641 
0.25 1:-0.7540476335647239 2:0.2864911258167021 3:-0.03191696790784002 
0.25 1:-0.8542358858825981 2:0.7759642632398006 3:0.41187205048773745 
0.25 1:-0.8952878654798009 2:0.3932465874506493 3:-0.28706681934414474 
0.25 1:-0.7799984415174558 2:0.36588295929727893 3:-0.6512796067990955 
0.25 1:-0.8910598192890951 2:0.6818027576126905 3:-0.5759766952156877 
0.25 1:-0.699611538859387 2:0.08877716160317035 3:-0.04617997171668526 
0.25 1:-0.8036520110399042 2:0.48289190723767783 3:-0.3439202185896055 
0.25 1:-0.45977796760615197 2:-0.5237087373395772 3:0.6123150330008328 
0.25 1:-0.510141044481109 2:0.6702651626714518 3:-0.5734381351240653 
0.25 1:-0.8553892029268407 2:0.11506504591909608 3:-0.36793448632468045 
0.25 1:-0.7688082125993879 2:0.37829277897158076 3:0.018591174917055475 
0.25 1:-0.26287080976133254 2:-0.1546316872369386 3:-0.06954286169794058 
0.25 1:-0.8308547904479952 2:0.018776281081904676 3:-0.5664885580782537 
0.25 1:0.1374030209418845 2:-0.39887399526641903 3:-0.5273476857058824 
0.25 1:-0.8502591735487843 2:0.07185115608878696 3:0.7289564543367594 
0.25 1:-0.7595393957835407 2:0.0625231971379745 3:-0.6051508440328017 
0.25 1:-0.8915671848319797 2:0.8655756631760989 3:-0.09288179100947935 
0.25 1:-0.607188798045109 2:0.4677636538119965 3:0.5008888191872737 
0.25 1:-0.473796289642892 2:-0.2462782782170506 3:-0.14906585047148874 
0.25 1:-0.853629865928597 2:0.41111750309251754 3:-0.6044101305995301 
0.25 1:-0.6265884833167974 2:0.3079672370218972 3:0.0851730466454867 
0.25 1:-0.8518799245885548 2:-0.11713571510115355 3:-0.6083292421214708 
0.25 1:-0.31048330769778043 2:-0.041475065200901405 3:-0.3336168255959277 
0.25 1:-0.42660659632551473 2:0.6256072563386271 3:-0.6430446431893926 
0.25 1:-0.6978052235701354 2:0.29151126372477565 3:0.6806729766630137 
0.25 1:-0.3638670886845417 2:0.6954676117640104 3:-0.2636477217663905 
0.25 1:-0.820190718389215 2:0.19459740449555554 3:-0.36793448632468045 
0.25 1:-0.4119117868982617 2:1.2018909831662996 3:-0.3580937003205779 
0.25 1:-0.5274314044865452 2:0.6032153091637159 3:-0.47113414140277937 
0.25 1:-0.8816007403946661 2:0.03760179823718053 3:-0.5912372864268511 
0.25 1:-0.19715757629956313 2:-0.2862988563857571 3:-0.3116162199997614 
0.25 1:-0.7265982181288418 2:0.09786283590590954 3:0.1465484546320129 
0.25 1:-0.4831966456735612 2:-0.3691795887985859 3:-0.17810845283951576 
0.25 1:-0.6413302710350581 2:0.7158631334387999 3:-0.03775525451470146 
0.25 1:-0.6547214328868436 2:0.6045672574999634 3:0.31753843629061507 
0.25 1:-0.6432892657700852 2:0.6847973958628734 3:-0.4565470076856339 
0.25 1:-0.5642858737821973 2:-0.03546156023572834 3:-0.5288034234809901 
0.25 1:-0.21776225473560265 2:-0.1189237758039327 3:-0.3921797525389455 
0.25 1:-0.31558045227213133 2:1.000193859338447 3:-0.49141161221667695 
0.25 1:-0.7772549093225979 2:0.1610264436585538 3:1.1640172311201966 
0.25 1:-0.848382390823021 2:0.8285594146434982 3:-0.5123366819800471 
0.25 1:-0.7955858384738578 2:0.3287794882913722 3:4.126316937264643 
0.25 1:-0.2941959342053616 2:0.11168275223199642 3:-0.5235514107431883 
0.25 1:-0.5610138358135011 2:0.3835697386066118 3:-0.6670359330827873 
0.25 1:-0.8624077596034123 2:0.24440628244641308 3:-0.4840855103610352 
0.25 1:-0.31048330769778043 2:0.5414375695980496 3:-0.522829591331652 
0.25 1:-0.7019698490679807 2:0.9015161678712551 3:-0.540373986829263 
0.25 1:-0.8638335507355002 2:0.26708897119901226 3:0.47663865577813735 
0.25 1:-0.4831966456735612 2:0.3832741513359625 3:-0.3490515129320324 
0.25 1:-0.7943268202748476 2:0.8121955095126443 3:-0.5640808496779683 
0.25 1:-0.7739077060882891 2:0.47193094975885314 3:0.013836507056324625 
0.25 1:-0.6431835646153174 2:1.1944334616986112 3:0.9414863238234888 
0.25 1:0.9595700918701274 2:-0.49634510918620706 3:0.6123150330008328 
0.25 1:-0.15356876898793695 2:1.8942920504294618 3:-0.6173884256569228 
0.25 1:-0.7542966185070654 2:-0.6365600807190425 3:-0.5168946147803761 
0.25 1:-0.4195410613579353 2:0.2536373275379965 3:-0.35842493031417605 
0.25 1:-0.8420497171951639 2:-0.29421671868478433 3:0.3791130702982561 
0.25 1:-0.7411168589648154 2:-0.27588061651861584 3:-0.6426700670903243 
0.25 1:-0.7079313941968758 2:0.17811720273362674 3:0.2657871176714629 
0.25 1:-0.8840177734670196 2:0.8296884611035186 3:-0.5630857362910522 
0.25 1:-0.7465452004907714 2:0.3929073889433469 3:-0.5982577287631536 
0.25 1:-0.6815648283687245 2:0.8880548328243164 3:-0.3220013232829532 
0.25 1:-0.6934573827373597 2:0.5745288068318669 3:1.495327748836074 
0.25 1:-0.7190863893966879 2:0.5697897191155579 3:-0.403955438876552 
0.25 1:-0.7139375687022285 2:0.18519191445735989 3:-0.4973737690467543 
0.25 1:-0.5726386139233917 2:1.058637762146628 3:0.6101902943484931 
0.25 1:-0.8939395885278758 2:0.5953798236450336 3:-0.33072199034108835 
0.25 1:-0.8707135214535987 2:-0.007051262402682461 3:-0.04240814883772575 
0.25 1:-0.8342278317423582 2:0.13342053085711042 3:-0.6042905136493684 
0.25 1:-0.49172555440603494 2:0.2021518398224734 3:0.3597454101758344 
0.25 1:-0.5108316253589242 2:-0.10132421896790622 3:-0.2361035085211912 
0.25 1:-0.5551626896684744 2:0.6338594714519953 3:-0.5485079733308751 
0.25 1:-0.4572904670972867 2:0.49169653134865254 3:-0.3107922542536771 
0.25 1:-0.3985676033374842 2:-0.00765697402286502 3:-0.3308238824959718 
0.25 1:-0.8862539401189928 2:0.47004597519684466 3:-0.5402402713803713 
0.25 1:-0.7439144161943323 2:0.06308045182854266 3:-0.2361035085211912 
0.25 1:-0.7270633032098195 2:-0.10062159348849435 3:-0.2361035085211912 
0.25 1:-0.5062254039256053 2:0.34041399709184 3:0.9209125811925312 
0.25 1:-0.7377250263540492 2:0.013940279506366605 3:-0.6160803832122597 
0.25 1:-0.8247640550188284 2:0.15701905557942542 3:0.050991558435716636 
0.25 1:-0.8315453713258104 2:0.6530581069653039 3:-0.10457390307336477 
0.25 1:-0.8841352191945392 2:0.13697242379786126 3:-0.29750804549728066 
0.25 1:-0.7174585916132661 2:0.2531527582418502 3:0.050991558435716636 
0.25 1:-0.6574978498854069 2:-0.059060084958043345 3:-0.29009808129763126 
0.25 1:0.39014152873497365 2:0.4751533355782246 3:8.699592428836523 
0.25 1:-0.8497752971514035 2:0.6804168894257125 3:-0.31086767783281993 
0.25 1:-0.8777391248738216 2:0.9743323960031296 3:0.6078886805402127 
0.25 1:-0.825264373818062 2:1.0955910166707297 3:2.2490473183110775 
0.25 1:-0.614850957308488 2:0.13085715928049754 3:-0.25954509252660724 
0.25 1:-0.8825215148984198 2:-0.48981311507415753 3:0.6123150330008328 
0.25 1:-0.8763744055200438 2:1.0855701236264286 3:-0.26380924447058945 
0.25 1:-0.8134469847150393 2:-0.36133441189398063 3:-0.5750414157218188 
0.25 1:-0.5950918881105897 2:0.12663171501810364 3:-0.5688992149626484 
0.25 1:-0.7398014668165959 2:0.28808535880102265 3:-0.6181035347253134 
0.25 1:-0.20685389556358177 2:-0.14903975755941268 3:-0.6576862560813176 
0.25 1:-0.6213785908440277 2:1.7138529816235386 3:0.3199489745578329 
0.25 1:-0.8827352661225055 2:0.186350035075149 3:-0.5065660579999026 
0.25 1:-0.8002460849418358 2:1.5220652999018736 3:-0.38445167401639146 
0.25 1:-0.8502051485141253 2:0.22008574947284035 3:0.5007795897127388 
0.25 1:-0.5402682225044381 2:0.811211833841468 3:-0.15630663268637904 
0.25 1:-0.5818909883373861 2:0.8503117303474967 3:-0.07529825184351978 
0.25 1:-0.7994967812002607 2:0.40817132177194926 3:-0.025231432697616924 
0.25 1:-0.6433714777793489 2:-0.09963791781731772 3:-0.609893074035278 
0.25 1:-0.4205886772474101 2:0.048712972197810823 3:-0.6630172000776337 
0.25 1:-0.45222855624119174 2:-0.009406269181952443 3:-0.6014935036747788 
0.25 1:-0.7866153338059104 2:0.1887971100206867 3:0.5091640618011606 
0.25 1:-0.717026391335994 2:0.47221684564357924 3:2.2490473183110775 
0.25 1:-0.6613289295170965 2:-0.23864146610978806 3:-0.6529642418348326 
0.25 1:-0.7951066599055778 2:0.4373327020140214 3:0.5091640618011606 
0.25 1:-0.7357167044134638 2:1.1745467377847754 3:0.46683018448206104 
0.25 1:-0.4459968859390015 2:0.2296511473787645 3:-0.32473629647406893 
0.25 1:-0.8835620840442435 2:0.3215933256295255 3:-0.3671435639349944 
0.25 1:-0.8857324810888059 2:0.4762145423367846 3:-0.2200761928244118 
0.25 1:-0.6236711314452102 2:0.008624554327643816 3:-0.032682353713889126 
0.25 1:-0.4183407660226849 2:0.6790697867824265 3:-0.5490379040409481 
0.25 1:-0.7419154899119488 2:-0.27603567869338264 3:-0.6427539802702649 
0.25 1:-0.604097626496793 2:0.25143253724053155 3:-0.5879001277196718 
0.25 1:-0.8542123967370941 2:-0.1854260660070234 3:-0.6344653847513307 
0.25 1:-0.8826694965150944 2:0.24207065843898895 3:-0.5723033923747278 
0.25 1:-0.6541201107619431 2:0.4960140437773142 3:-0.3302098860981596 
0.25 1:-0.7718782439167504 2:0.28203308829215784 3:-0.49203843621489607 
0.25 1:-0.21576802628231978 2:0.13386633460956474 3:3.623785473301594 
0.25 1:-0.7923114515906111 2:-0.3444084063795974 3:-0.08480982434602999 
0.25 1:-0.8620483756772023 2:0.7334481531959418 3:-0.4006843160462362 
0.25 1:-0.8942472963339771 2:0.38527057683608457 3:1.1640172311201966 
0.25 1:-0.3459895000415074 2:0.5175967602276615 3:-0.2576914449592209 
0.25 1:-0.813822811043102 2:0.39909533885513276 3:-0.1950417665328019 
0.25 1:-0.7859505909881493 2:0.5195108089474385 3:0.050991558435716636 
0.25 1:-0.785858983320684 2:-0.21700544703686472 3:-0.6576862560813176 
0.25 1:-0.539974608185639 2:0.9275617675391081 3:-0.2028621800548503 
0.25 1:-0.8172733665176279 2:1.2919869523987437 3:-0.3334118212237708 
0.25 1:-0.44851727125157226 2:0.6755275852275985 3:-0.3766862819190739 
0.25 1:-0.7802662177762005 2:0.6635054209902137 3:2.0356775714312594 
0.25 1:-0.48175910996872123 2:1.6790027578447113 3:-0.16734157170009195 
0.25 1:1.3642058568934228 2:-0.9180415391573505 3:2.485104532022059 
0.25 1:-0.7204816446396207 2:0.35856111723251144 3:-0.5016408864201569 
0.25 1:-0.6423943293263857 2:0.0010943474655334224 3:-0.07790728748348073 
0.25 1:-0.865473093091674 2:0.5427992093202203 3:-0.3346170564667578 
0.25 1:-0.8205571490590762 2:0.5068005563095264 3:0.5805413040272811 
0.25 1:-0.8741217964662176 2:0.304192442204919 3:-0.35673629618504926 
0.25 1:-0.7473814140707111 2:0.01032539255711658 3:-0.4425916121068899 
0.25 1:-0.6433714777793489 2:0.1478073932596881 3:0.2887328818777956 
0.25 1:-0.40211681322312665 2:1.1728168253975335 3:-0.6553937757956517 
0.25 1:-0.4859824583303262 2:1.3179065640495988 3:-0.1989169896993214 
0.25 1:-0.3537526626305533 2:-0.020657968238465108 3:-0.04498920776926961 
0.25 1:-0.8342278317423582 2:0.47206178346881256 3:-0.21860090016044084 
0.25 1:-0.889908851159403 2:0.31272570751005185 3:-0.4970341511242242 
0.25 1:-0.3638670886845417 2:-0.07658211070668636 3:-0.32674855215216675 
0.25 1:-0.38707906227151645 2:0.2097983433156587 3:-0.6003263276002383 
0.25 1:-0.6751335003297508 2:0.531096860818292 3:2.0356775714312594 
0.25 1:-0.6213691951858261 2:0.08856395111286586 3:-0.48721468232132636 
0.25 1:-0.8764707110166097 2:0.07506385052223573 3:-0.6606785268742542 
0.25 1:-0.8829701575775447 2:0.41183466565081367 3:-0.15014426700715036 
0.25 1:-0.884877476192463 2:0.5175773774558157 3:0.023108438971048237 
0.25 1:-0.15977929905917362 2:-0.03624171680252367 3:-0.49304573328040213 
0.25 1:-0.859321285884197 2:0.5212019557909884 3:0.5007795897127388 
0.25 1:-0.5802913775285691 2:0.015234079527076776 3:-0.5746510296476124 
0.25 1:-0.7984609098835377 2:0.33063054300265027 3:1.1640172311201966 
0.25 1:0.041853874861034666 2:-0.32131383372527417 3:-0.565027177514592 
0.25 1:-0.4892051690934641 2:-0.019286637130371487 3:0.2657871176714629 
0.25 1:-0.8605756062541065 2:0.12494056817455379 3:-0.1739549537761902 
0.25 1:-0.7414527537455216 2:0.005382785736426528 3:-0.6374180204619004 
0.25 1:-0.7015399977052589 2:0.5216671423152889 3:-0.7134070646319346 
0.25 1:-0.658839080093681 2:0.3971764444423942 3:0.6194637682865153 
0.25 1:-0.47197118303723734 2:0.1804382896621666 3:-0.5888784483034132 
0.25 1:-0.3898390368682272 2:-0.05952042578938219 3:-0.29581158263448415 
0.25 1:-0.5323241934950119 2:0.17266579815198319 3:-0.5887940098188326 
0.25 1:-0.7403769508814418 2:0.25178627282671845 3:-0.393870487886633 
0.25 1:-0.3845868639335504 2:0.9465811124128423 3:-0.5034757585829845 
0.25 1:-0.593734215500463 2:-0.13725503227713956 3:-0.4906280610372643 
0.25 1:-0.8912782683422816 2:0.39536415527480784 3:-0.5386583588197554 
0.25 1:-0.6666703612046881 2:0.21920383335385463 3:-0.638146143529119 
0.25 1:-0.37165374041909155 2:0.17714321844837305 3:-0.2673224141228501 
0.25 1:-0.7939744830922888 2:0.6335832669531921 3:-0.22093525230952207 
0.25 1:-0.7059630038036472 2:0.33954177235877697 3:-0.4913099572961471 
0.25 1:-0.5188555174630637 2:-0.11735377128441937 3:-0.3335442996649613 
0.25 1:0.6055933669551388 2:-0.8069201081651268 3:-0.7034929901578718 
0.25 1:-0.30462276589455206 2:0.9599309965216674 3:-0.6870758136915261 
0.25 1:-0.5767844481048336 2:0.47697531613173383 3:-0.20878254974806718 
0.25 1:-0.8811708890319444 2:-0.029007097211062288 3:-0.16755159188429697 
0.25 1:-0.7977585844329704 2:0.4667848238337815 3:0.08488721313998654 
0.25 1:-0.865461348518922 2:0.07047982498069362 3:-0.6350316292628198 
0.25 1:-0.7202843358173878 2:0.3911047911616835 3:-0.5377485989642126 
0.25 1:-0.8452818236165035 2:0.36111964311616296 3:0.10948731416603574 
0.25 1:0.8639739674982697 2:-0.8118287951350869 3:-0.6488658658681036 
0.25 1:-0.46877900816325446 2:-0.019136420648566178 3:-0.34648550143663304 
0.25 1:-0.2811218758178792 2:0.1808259450990833 3:-0.20406465321214864 
0.25 1:-0.8928896237238505 2:0.44152422642568523 3:-0.50837115725135 
0.25 1:-0.739000486954912 2:0.6570897235092394 3:-0.08428096119054841 
0.25 1:-0.6460421936231447 2:0.45078434567503717 3:0.5805413040272811 
0.25 1:-0.8016601315011718 2:0.3139807419870703 3:0.9135938336018519 
0.25 1:-0.8752633689377083 2:0.842883283037577 3:-0.21860090016044084 
0.25 1:-0.3570012114537456 2:1.4932625009389495 3:-0.2344352257105435 
0.25 1:-0.6987870698521994 2:0.7644945080000224 3:-0.4721078359166251 
0.25 1:-0.5896564998409823 2:-0.2141900994262559 3:0.5152879277338576 
0.25 1:-0.8417842898509696 2:0.24328692737231566 3:-0.42980542604000327 
0.25 1:-0.45077222921994864 2:0.30063085787824523 3:-0.3116162199997614 
0.25 1:-0.865496582237178 2:1.1095466123997373 3:-0.3167155215950704 
0.25 1:-0.7436842225683941 2:-0.1598359614775478 3:-0.5093520535223595 
0.25 1:-0.7981719933938395 2:-0.15623561160718233 3:-0.6955571960134052 
0.25 1:-0.6192457764322716 2:0.1663179403724691 3:-0.42872421352803103 
0.25 1:-0.8239959599608503 2:0.16467525045853393 3:-0.18258659017047077 
0.25 1:-0.49667706627826147 2:0.17827711060135498 3:-0.4040902049347239 
0.25 1:0.17887310732905698 2:0.174303642372957 3:3.623785473301594 
0.25 1:-0.8307467403786771 2:-0.21157827092002834 3:5.242557813253226 
0.25 1:-0.8309463981154604 2:0.3262451908725281 3:-0.5358728886019388 
0.25 1:-0.38246579409454634 2:0.37148458036072807 3:0.3597454101758344 
0.25 1:-0.5612393316103387 2:2.1492869511404242 3:0.4264918208738178 
0.25 1:-0.7998397227246179 2:0.12554627979473634 3:-0.3714099696053361 
0.25 1:-0.42718912713401197 2:0.47449432133546604 3:-0.32201876000794494 
0.25 1:-0.7740838746795685 2:-0.05873057783666393 3:-0.08428096119054841 
0.25 1:-0.7673330942617416 2:0.7624253971054785 3:-0.34049585931215676 
0.25 1:-0.8452231007527437 2:0.3530709471071761 3:-0.4879819321115825 
0.25 1:-0.716361648518233 2:0.033836694806125465 3:-0.34648550143663304 
0.25 1:-0.7920624666482696 2:0.003366977464458618 3:0.050991558435716636 
0.25 1:-0.7880199847070448 2:0.0024075302580894562 3:-0.4973737690467543 
0.25 1:-0.5306940467970398 2:-0.2227282104243501 3:-0.6415290037399938 
0.25 1:-0.2932469727270032 2:1.1947290489692604 3:-0.5118970867227737 
0.25 1:-0.7344177546670971 2:0.4719987894603134 3:0.7152802666469249 
0.25 1:-0.41725321858585335 2:0.33883914687936506 3:0.4119491855432887 
0.25 1:-0.8903551449239774 2:0.12292475990258589 3:0.13445807692431827 
0.25 1:-0.8510437110086153 2:0.5423727883396116 3:-0.6276230206880483 
0.25 1:-0.7694095347242882 2:0.05691673038156429 3:-0.6051508440328017 
0.25 1:-0.4870770525108089 2:1.4176890735120036 3:-0.5454488532861481 
0.25 1:-0.8485703039870524 2:-0.34450047454586513 3:1.0000717880301013 
0.25 1:-0.845704628235574 2:0.2835594815750181 3:-0.4491311973536987 
0.25 1:-0.5411796013499902 2:0.3672203705546422 3:0.18100166090324235 
0.25 1:-0.717026391335994 2:0.20258795218900477 3:-0.467969350398822 
0.25 1:-0.7249986073200247 2:0.05510928690693928 3:-0.42759040277079713 
0.25 1:-0.8024846005083593 2:-0.29306828945291796 3:-0.6759607403022199 
0.25 1:-0.7139375687022285 2:0.3295111879285529 3:-0.3613122418509431 
0.25 1:-0.8389890815360029 2:0.5418494534997738 3:0.6194637682865153 
0.25 1:-0.8936882546709838 2:0.26847483938598987 3:-0.21166862427713312 
0.25 1:-0.7802662177762005 2:-0.18767446754114125 3:-0.4953210649113628 
0.25 1:-0.8213252441170544 2:0.02657784674985689 3:-0.4420916068159962 
0.25 1:-0.6860982334509812 2:0.020438353767685716 3:8.699592428836523 
0.25 1:-0.8678995218222291 2:0.5713064210124952 3:0.4153746971018837 
0.25 1:-0.7630416273781752 2:0.21484270968853966 3:-0.6756258670667624 
0.25 1:-0.31048330769778043 2:-0.1412236548125762 3:-0.33272782374632726 
0.25 1:-0.8826530541132418 2:0.03990350239387452 3:-0.4549431340019964 
0.25 1:-0.7754979212389045 2:-0.17946586366442632 3:-0.6872684818772944 
0.25 1:-0.7180505180799649 2:-0.135137464452981 3:-0.6402641379476911 
0.25 1:-0.8707135214535987 2:0.2972243357263381 3:-0.33272782374632726 
0.25 1:-0.8678149608984148 2:-0.3528980604480771 3:1.0000717880301013 
0.25 1:-0.7411168589648154 2:-0.020342998195969964 3:-0.41520256707427455 
0.25 1:-0.8859579768856435 2:-0.24149073357112716 3:-0.3987884068732821 
0.25 1:-0.5996252931928465 2:-0.243496850457172 3:-0.33272782374632726 
0.25 1:-0.5274314044865452 2:1.414549064472977 3:0.5785653790959102 
0.25 1:-0.7933167870181791 2:-0.24588093139421077 3:-0.5936851552141436 
0.25 1:-0.8585625864844204 2:0.35835275243516856 3:-0.025534397912511345 
0.25 1:-0.4107420274521664 2:0.3740721804021481 3:0.3199489745578329 
0.25 1:1.31303005558403 2:-0.4616547932751077 3:-0.6286277929022193 
0.25 1:-0.792142329742983 2:-0.20215824380294817 3:0.0851730466454867 
0.25 1:-0.8658066389578296 2:-0.15856154422868352 3:-0.5416318033722005 
0.25 1:-0.6434137582412559 2:0.4916044631823846 3:-0.28414953155226563 
0.25 1:-0.6467961951938205 2:0.7920665009507354 3:-0.3290820739810103 
0.25 1:-0.5560505793685225 2:0.28560920969771614 3:1.6835218302573185 
0.25 1:-0.6307906914474488 2:0.40274899134807424 3:-0.3719853815300618 
0.25 1:-0.8641929346617102 2:0.6165070449570034 3:-0.04617997171668526 
0.25 1:0.4176802029237708 2:-0.543013978098038 3:0.6123150330008328 
0.25 1:-0.29777333106560877 2:0.23640119767407958 3:3.623785473301594 
0.25 1:-0.7748919012849034 2:0.04948343737868295 3:0.0884591491307031 
0.25 1:-0.6271263847488371 2:0.0023396905566289345 3:0.1465484546320129 
0.25 1:-0.6488209595362586 2:0.45249972098339447 3:0.5805413040272811 
0.25 1:-0.7802662177762005 2:0.3399778847253086 3:0.09154451746212786 
0.25 1:-0.7925369473874488 2:-0.48480751424496843 3:-0.6150500235785187 
0.25 1:-0.2486692723896619 2:0.25046339864823947 3:-0.5842271807302424 
0.25 1:-0.866461986117389 2:0.6604138688808014 3:-0.7052672150527255 
0.25 1:-0.8258891850884662 2:0.429947865940755 3:-0.371091499430901 
0.25 1:-0.23519824744316323 2:0.18713503733490566 3:-0.5358728886019388 
0.25 1:-0.7802662177762005 2:-0.03190482160201591 3:-0.41063504322793454 
0.25 1:-0.8670515636695375 2:-0.3528980604480771 3:1.0000717880301013 
0.25 1:-0.7595393957835407 2:0.9020152742462857 3:0.7711996403515289 
0.25 1:-0.6674267116899144 2:-0.21334694885096164 3:-0.3116162199997614 
0.25 1:-0.7299313278758481 2:0.013383024815798436 3:-0.6663361764661385 
0.25 1:-0.8713195414075998 2:0.42191855270361406 3:0.9414863238234888 
0.25 1:-0.8613225610811311 2:0.4738498441715915 3:0.121688971730893 
0.25 1:-0.6213785908440277 2:1.7361819347899512 3:-0.24692429269482152 
0.25 1:-0.5207252534451757 2:0.6348334557372489 3:-0.4729515768406154 
0.25 1:-0.3698662164462431 2:0.312318669301289 3:-0.42123252209355666 
0.25 1:-0.3608181975981328 2:0.15229935063496253 3:-0.5143924701620357 
0.25 1:-0.32219499564603543 2:0.29636664807215957 3:-0.4619400562466678 
0.25 1:-0.8938103982276042 2:0.2420561213601047 3:1.495327748836074 
0.25 1:-0.8896081900969528 2:0.7048101077937072 3:-0.2856219435133711 
0.25 1:-0.6628204902565954 2:0.2274075915376081 3:0.5785653790959102 
0.25 1:-0.4545210968423744 2:0.20913448337993856 3:-0.08428096119054841 
0.25 1:-0.7721976962956036 2:0.18290959307251176 3:-0.6516983932144935 
0.25 1:-0.4769179970803631 2:0.18701389501086915 3:-0.5267371630968198 
0.25 1:-0.006296524507453104 2:-0.1979521823124001 3:-0.30267533168021515 
0.25 1:-0.5913312759154119 2:0.2580711365977333 3:-0.6243370876559416 
0.25 1:-0.720434666348613 2:-0.04383491767313299 3:-0.08428096119054841 
0.25 1:-0.7540664248811271 2:0.5281409881118008 3:-0.6325650359069017 
0.25 1:-0.31576366760706187 2:0.5058459547961186 3:-0.35673629618504926 
0.25 1:-0.29542676542976704 2:-0.36899060677308904 3:-0.6112466315852157 
0.25 1:-0.8706266116152341 2:0.09935530933803968 3:-0.6565902333675545 
0.25 1:-0.6241268208679864 2:1.7176471592123626 3:-0.18425768590274008 
0.25 1:-0.850418899738211 2:0.2659017764234543 3:-0.4827950063132297 
0.25 1:-0.6453516127453294 2:1.3710541244509031 3:0.41187205048773745 
0.25 1:0.14624903313866114 2:-0.5430963548783827 3:-0.7194102121692567 
0.25 1:-0.8836654362844608 2:-0.40108363125684515 3:1.0000717880301013 
0.25 1:-0.7411168589648154 2:-0.0876157535799332 3:-0.2458554502598599 
0.25 1:-0.8845157433517027 2:-0.3331130960864318 3:-0.08480982434602999 
0.25 1:-0.8951445816922269 2:0.8701306145598722 3:-0.4678043539058734 
0.25 1:-0.4805212320006646 2:1.3510898694496838 3:-0.31417630063632 
0.25 1:-0.7435197985498665 2:0.3130358318595854 3:-0.3007789480385538 
0.25 1:-0.8838674429357944 2:0.1885935909163054 3:-0.6598231953575581 
0.25 1:-0.26287080976133254 2:0.1287444371493006 3:-0.03091965163049741 
0.25 1:-0.5050603423086109 2:1.1289584584033499 3:-0.5984395688952098 
0.25 1:-0.36641096314261634 2:-0.059239375597617445 3:-0.0913293124540243 
0.25 1:-0.6703980885961605 2:0.0017775901730994342 3:-0.3622997976291651 
0.25 1:-0.7405507705581709 2:0.37927645464275733 3:-0.03191696790784002 
0.25 1:-0.8155751012976945 2:0.2912544419978181 3:-0.3407049475042582 
0.25 1:-0.8551402179844991 2:0.16529549915760103 3:0.025720999235691683 
0.25 1:-0.8941697821538143 2:0.3791020096961446 3:0.5785653790959102 
0.25 1:-0.8698514698136048 2:-0.49984854519734334 3:-0.6478990003145801 
0.25 1:1.3393496431211733 2:-1.2093452172285402 3:-0.6807232707872424 
0.25 1:-0.8625040650999783 2:1.1496592587347114 3:-0.33611332742571387 
0.25 1:-0.6219282368488195 2:-0.30139318996070813 3:-0.5140983334541585 
0.25 1:-0.6245825102907626 2:-0.3098343870995731 3:-0.08480982434602999 
0.25 1:-0.7751033035944386 2:0.781541655838442 3:-0.3513258447896457 
0.25 1:-0.405461667542885 2:0.8670972107659976 3:-0.43103843464767577 
0.25 1:-0.849101158675441 2:0.12463044382502025 3:-0.6118418864690913 
0.25 1:-0.8890890799813161 2:0.17213277192622248 3:-0.37938228089495063 
0.25 1:-0.771427252323075 2:0.12547844009327583 3:1.6835218302573185 
0.25 1:-0.2142929079446735 2:0.08938287322335292 3:-0.642166604955992 
0.25 1:-0.2795762900437212 2:-0.039672467419237994 3:-0.08480982434602999 
0.25 1:-0.4988404165791726 2:0.09130661332905285 3:-0.2012371586231179 
0.25 1:-0.7948647217068874 2:0.6184307850627033 3:-0.5978908119446454 
0.25 1:-0.8763579631181909 2:0.13714686874447402 3:-0.6119527596387906 
0.25 1:-0.8836771808572127 2:0.31604016149569125 3:1.3125041109310256 
0.25 1:-0.4572904670972867 2:0.07415770593844229 3:0.06833860884173067 
0.25 1:-0.68417447243421 2:1.3033888679370618 3:-0.12153039795206268 
0.25 1:-0.5586085473138995 2:0.5046829884853679 3:-0.45690967123108783 
0.25 1:-0.7619963604032508 2:0.007141772281436881 3:0.40070154898623683 
0.25 1:-0.49958972032074767 2:0.12527007529593293 3:-0.2012371586231179 
0.25 1:-0.6949278032459051 2:-0.18200985246919335 3:0.2657871176714629 
0.25 1:-0.8294125569140544 2:0.24132926741588537 3:-0.5147728246121459 
0.25 1:-0.7494789947642113 2:-0.6522649716071376 3:-0.6044704389612845 
0.25 1:-0.8243083655960524 2:0.08947978708258196 3:-0.5381091104551728 
0.25 1:-0.5435097245839792 2:-0.5903806267963192 3:0.6123150330008328 
0.25 1:-0.36281007713686525 2:0.4872433395170699 3:-0.3714099696053361 
0.25 1:-0.8592461206185845 2:0.931985885212922 3:-0.45660623154748614 
0.25 1:-0.7494930882515135 2:1.19101240246782 3:0.9209125811925312 
0.25 1:-0.8291306871680074 2:0.31840485966088417 3:0.025720999235691683 
0.25 1:-0.417490458955443 2:0.25698085568140444 3:-0.3348602725151599 
0.25 1:-0.6628204902565954 2:-0.20857394128392262 3:-0.5671161446154667 
0.25 1:-0.413668774981955 2:0.357117100729996 3:-0.5152692883330462 
0.25 1:-0.8916259076957396 2:0.5227913430823475 3:-0.33177436193378385 
0.25 1:-0.3556552834163709 2:0.13499538106958534 3:-0.3496630353144425 
0.25 1:-0.8324050740512539 2:-0.2661456193590408 3:-0.583822679211995 
0.25 1:-0.06868369496586722 2:-0.7036826196212003 3:-0.5571699248864873 
0.25 1:-0.8935097371651541 2:0.26124991118045165 3:0.4689259635979472 
0.25 1:-0.5760774248251657 2:0.02857911794294027 3:-0.3651920233061145 
0.25 1:-0.5673958366469164 2:-0.5597364645080399 3:0.40274571268489767 
0.25 1:-0.6300625279368273 2:0.25104488180361484 3:-0.26383234092944624 
0.25 1:-0.3150989247893009 2:1.6177531988118443 3:-0.4197348107831678 
0.25 1:-0.835897909987687 2:0.07191899579024749 3:-0.2458554502598599 
0.25 1:-0.8944939323617684 2:0.7483050478157813 3:-0.6467320275837712 
0.25 1:-0.7157532796496815 2:0.3981698114994937 3:-0.21860090016044084 
0.25 1:-0.7402430627520695 2:0.13779619160130963 3:-0.6679730087796195 
0.25 1:-0.7461693741627088 2:0.23831040070089524 3:-0.5699793260294075 
0.25 1:-0.8439875716992374 2:1.188749463854817 3:-0.00822150925341976 
0.25 1:-0.5341892316480232 2:0.7591351715846466 3:-0.18938808214368538 
0.25 1:-0.4279290352173854 2:0.27597112639737015 3:-0.5672747018902453 
0.25 1:-0.8570381409412159 2:0.224979899363916 3:0.0048758096682504325 
0.25 1:-0.8916259076957396 2:-0.27827438884157757 3:-0.6059135863703389 
0.25 1:-0.36233324748313567 2:0.29341562105862967 3:0.30564870801015714 
0.25 1:-0.8342278317423582 2:0.6858246827707031 3:-0.5207523334406601 
0.25 1:-0.3413903253518397 2:0.713983004569753 3:-0.49734013260447196 
0.25 1:-0.43738106736816323 2:0.724609609234237 3:-0.5132614045451794 
0.25 1:-0.7253345021007308 2:1.4671006046400215 3:0.5785653790959102 
0.25 1:-0.3556552834163709 2:0.4543265472298653 3:-0.43103843464767577 
0.25 1:-0.25788641308540045 2:1.6924107902690737 3:-0.6112365152345646 
0.25 1:-0.8637466408971358 2:0.05192566663125931 3:-0.5873063470778509 
0.25 1:-0.4754358319990657 2:-0.03303871375499784 3:-0.40779643251490516 
0.25 1:-0.6096363670066176 2:-0.10269070438303825 3:-0.6325175043096212 
0.25 1:-0.8925255419685398 2:0.9297714035295341 3:-0.31013455589886435 
0.25 1:-0.8916587924994451 2:0.1947718494421683 3:-0.48326464560685906 
0.25 1:-0.6281646049801105 2:0.04615929200712088 3:-0.6119527596387906 
0.25 1:-0.7165331192804116 2:0.41344343571401876 3:-0.025231432697616924 
0.25 1:-0.8303380292469089 2:0.019226930527320597 3:-0.6019581779922929 
0.25 1:-0.604097626496793 2:0.32398225225952587 3:-0.5376895106648482 
0.25 1:-0.8821386418267059 2:-0.28091044581261243 3:-0.3496630353144425 
0.25 1:-0.7883112501112935 2:0.8982937820518835 3:-0.20947498599037545 
0.25 1:-0.6367217006871888 2:0.07597484079899024 3:-0.29750804549728066 
0.25 1:-0.6106229111177822 2:-0.45147883805603967 3:-0.6882927073084629 
0.25 1:-0.5728617608056789 2:1.3072315024555001 3:0.00571617847535703 
0.25 1:-0.26472410334159185 2:0.21050581448803218 3:-0.7054640517849933 
0.25 1:-0.5383162745130622 2:0.36220507833953025 3:-0.5497068032463142 
0.25 1:0.6682318712704448 2:0.15236234464346146 3:8.699592428836523 
0.25 1:-0.8938385852022089 2:0.60830328677325 3:0.3177755011911337 
0.25 1:-0.2601484177974282 2:-0.3504316027306934 3:-0.14906585047148874 
0.25 1:-0.8691538421921383 2:0.29105092289343676 3:1.495327748836074 
0.25 1:-0.6286179454883362 2:0.795647468049255 3:1.1820230135449927 
0.25 1:-0.6142214482089828 2:-0.5679935253143693 3:-0.23970377707185542 
0.25 1:-0.8226335895216228 2:0.5906068160779945 3:-0.5134532593560209 
0.25 1:-0.7407574750386055 2:0.7463328507804665 3:0.2556948463072033 
0.25 1:-0.8729872707383783 2:0.059504330422984364 3:-0.6396569705102012 
0.25 1:-0.8668847907364595 2:0.3989499680662888 3:-0.21860090016044084 
0.25 1:-0.6158421992487535 2:0.24168784869503357 3:-0.5910269612270486 
0.25 1:-0.8310074698937707 2:0.16719985649145508 3:-0.6316758137682585 
0.25 1:-0.7824272191625612 2:-0.1023563515686975 3:0.5028603891737242 
0.25 1:-0.4279290352173854 2:0.4612558881647545 3:-0.010534103623211104 
0.25 1:-0.294611692080781 2:0.18079687094131452 3:-0.5350386201067827 
0.25 1:-0.886152936793326 2:0.5208143003540716 3:1.3016876986476265 
0.25 1:-0.6547214328868436 2:-0.4069033085035599 3:-0.08480982434602999 
0.25 1:-0.43592239143236977 2:0.6645133251261975 3:8.699592428836523 
0.25 1:-0.6213785908440277 2:0.8013411572789719 3:-0.5144997848164305 
0.25 1:-0.767215648534222 2:0.3260610545399924 3:-0.5888784483034132 
0.25 1:1.2376651322346992 2:-0.5073109123579932 3:-0.6808663400477912 
0.25 1:-0.34190003980927475 2:1.4609417288860045 3:-0.5793387126940651 
0.25 1:-0.6988622351178119 2:0.6199038757229877 3:0.6806729766630137 
0.25 1:-0.25788641308540045 2:1.404833450085248 3:-0.5627054496221859 
0.25 1:-0.8584005113804433 2:-0.020391455125584622 3:-0.6293607284377541 
0.25 1:-0.49995615099060886 2:1.0636239802039715 3:-0.07529825184351978 
0.25 1:-0.854294608746358 2:0.0018308927956754242 3:-0.3874053264456196 
0.25 1:-0.5548056546568148 2:-0.3090687676116622 3:-0.4549431340019964 
0.25 1:-0.7428386133302528 2:0.05792948021050945 3:-0.3107922542536771 
0.25 1:-0.20037793814815075 2:0.04033476906744458 3:-0.32083067341966304 
0.25 1:-0.8754630266744916 2:0.3543938212856551 3:-0.0508521498035973 
0.25 1:-0.6593652369529687 2:1.0867718554808705 3:-0.30937313529558313 
0.25 1:-0.3450264450758467 2:0.0265245441272809 3:-0.5176510195716092 
0.25 1:-0.8476706697142522 2:-0.34265911122050996 3:-0.4927705922661261 
0.25 1:0.2297670388924026 2:-0.6823373421259646 3:-0.5571699248864873 
0.25 1:-0.6628204902565954 2:-0.03573291904157016 3:0.5028603891737242 
0.25 1:-0.2990957699574795 2:0.2055195964306888 3:-0.34903416093359557 
0.25 1:-0.8940264983662404 2:-0.3849135538444498 3:1.0000717880301013 
0.25 1:-0.7735600667348311 2:0.4940273096631151 3:-0.6532386203101147 
0.25 1:-0.7979511954261027 2:0.26803388132649714 3:-0.35706854289730583 
0.25 1:-0.09943803317415105 2:1.944905313411922 3:-0.5676448213725275 
0.25 1:-0.4241026534147967 2:-0.028682435782644483 3:-0.6828917283418935 
0.25 1:-0.8170267304898369 2:0.8446616523544332 3:-0.4429074557581241 
0.25 1:-0.7477807295442778 2:0.31189709401364213 3:-0.6442783296095039 
0.25 1:0.005715824503252115 2:-0.6253907584428748 3:-0.5777470396343284 
0.25 1:-0.8295746320180315 2:0.14058731074711128 3:0.4119491855432887 
0.25 1:-0.7802662177762005 2:0.752666171481096 3:-0.5827514813788081 
0.25 1:-0.8244563472127271 2:-0.1940223253206552 3:-0.5423346270901356 
0.25 1:-0.8850583426128433 2:-0.4530779167333218 3:0.6123150330008328 
0.25 1:-0.4053348261571638 2:0.5538861548160429 3:-0.2524014916701496 
0.25 1:-0.8802900460755473 2:-0.05281883242368152 3:-0.5624689100263075 
0.25 1:-0.48061518858268026 2:0.5009857247557733 3:-0.5627081439266307 
0.25 1:-0.3580958056342283 2:0.4318376861957248 3:-0.5842271807302424 
0.25 1:-0.8400907224601368 2:0.7605065026927399 3:-0.4006843160462362 
0.25 1:-0.34190003980927475 2:1.5929384051562023 3:-0.5302550096549091 
0.25 1:-0.5497249524843166 2:-0.3909125217307386 3:-0.5658967600378167 
0.25 1:-0.2979894312042448 2:0.2195769517118871 3:-0.42980542604000327 
0.25 1:-0.880731642011021 2:-0.04960613799023303 3:-0.22093525230952207 
0.25 1:-0.870128641730551 2:0.08694064397077655 3:-0.3353082048654321 
0.25 1:-0.5924188233522434 2:0.9893201243329283 3:0.7711996403515289 
0.25 1:-0.8470576030165998 2:-0.0837101250529955 3:-0.33322855768559284 
0.25 1:1.4015770873901607 2:-0.4994948096111566 3:-0.6704889299357814 
0.25 1:-0.8649892166942931 2:0.7314904932395115 3:-0.5887940098188326 
0.25 1:-0.8924268875574234 2:0.25001274920282357 3:4.126316937264643 
0.25 1:-0.8342278317423582 2:0.017414641359733984 3:-0.6449357229487191 
0.25 1:-0.8596712741522055 2:0.3236575908311078 3:-0.44996527945043413 
0.25 1:-0.5313681852730024 2:0.05948010195817717 3:0.2556948463072033 
0.25 1:-0.8061183713178159 2:0.02624349393551615 3:-0.02526518775707607 
0.25 1:-0.5268300823616449 2:0.6137546913548935 3:-0.2738873665001862 
0.25 1:-0.8936060426617201 2:0.21285597557434055 3:-0.5365655959692227 
0.25 1:-0.48659317611342817 2:1.0151282850456695 3:-0.1688557030168141 
0.25 1:-0.7072596046354636 2:1.3782451328057115 3:0.2901072143789866 
0.25 1:-0.8404219194117422 2:-0.058212088689787764 3:-0.5992270005508353 
0.25 1:-0.7864485608728324 2:0.40689205883012336 3:-0.4200245756008139 
0.25 1:-0.8926993616452688 2:0.5481440086567115 3:-0.4944001719865104 
0.25 1:-0.5737238124456727 2:1.0925527671838935 3:0.5805413040272811 
0.25 1:-0.792088304708324 2:1.1024331351323124 3:-0.29581158263448415 
0.25 1:-0.5168072639751218 2:0.10066849213059545 3:-0.5176510195716092 
0.25 1:-0.8553351778921816 2:-0.10384397930786604 3:-0.1950417665328019 
0.25 1:-0.8454532943786821 2:-0.10280700101411343 3:-0.1950417665328019 
0.25 1:-0.5082243302079891 2:0.16952094341999493 3:-0.371091499430901 
0.25 1:-0.8315453713258104 2:0.03242175246137878 3:0.050991558435716636 
0.25 1:-0.4279290352173854 2:0.31269663335228304 3:0.1764886840129259 
0.25 1:-0.7721013907990375 2:0.39952175983574123 3:-0.15265524013250795 
0.25 1:-0.8797122130961509 2:0.12085564900804198 3:-0.6310918952974243 
0.25 1:-0.8934369208140919 2:0.7303178355428378 3:-0.5879001277196718 
0.25 1:-0.8806282897708039 2:0.8206318609585482 3:1.0071358645421604 
0.25 1:-0.6100897075148433 2:0.8022763760205338 3:0.4955345584430581 
0.25 1:-0.7411168589648154 2:-0.027756908427005445 3:-0.5868253374805584 
0.25 1:-0.8508581467591343 2:0.28857961948309163 3:-0.6566838053747499 
0.25 1:-0.4337285052423035 2:0.031748201139735706 3:-0.6619753006871198 
0.25 1:-0.330836652276928 2:0.49902321910638137 3:-0.2694634541643462 
0.25 1:-0.5621530593704412 2:0.5183623797155723 3:0.4898983277242443 
0.25 1:-0.48843237620638513 2:0.15701420988646408 3:1.0119422156013604 
0.25 1:-0.33063699454014467 2:-0.07828779462912072 3:-0.6746981112909658 
0.25 1:-0.6432305429063254 2:0.02670383476685473 3:-0.6186245183111923 
0.25 1:-0.11474121146995556 2:-0.15901219367409944 3:-0.6293470366264876 
0.25 1:-0.5363408373761824 2:0.5620802216138734 3:-0.0629550670414123 
0.25 1:-0.8755287962819025 2:0.4716402081811655 3:-0.025231432697616924 
0.25 1:-0.4255378402050863 2:0.2888122127452417 3:-0.42980542604000327 
0.25 1:-0.5099648758898295 2:0.6571721002895842 3:1.0384413098469607 
0.25 1:-0.8712255848255842 2:-0.4938205031532859 3:0.6123150330008328 
0.25 1:-0.6679270304891478 2:1.3181536943906336 3:-0.15368414246950518 
0.25 1:-0.7576673108868781 2:-0.16430369038801476 3:5.242557813253226 
0.25 1:-0.7541674282067939 2:0.5164241025309879 3:-0.3167155215950704 
0.25 1:-0.7915856369945401 2:-0.022208589986132565 3:-0.32674855215216675 
0.25 1:-0.8667156688888314 2:-0.15246566248316568 3:-0.41706605986733636 
0.25 1:-0.8862539401189928 2:0.3818543632982545 3:-0.07529825184351978 
0.25 1:-0.5812332922632762 2:0.5896522145645866 3:-0.1944492228986821 
0.25 1:-0.6873619494790921 2:0.1676795800946398 3:-0.1944492228986821 
0.25 1:-0.39782299742500987 2:1.1382912630471242 3:-0.3032975296085385 
0.25 1:-0.5300880268430387 2:0.3628834753541347 3:-0.38898986552943643 
0.25 1:-0.6703980885961605 2:0.4345173544034126 3:-0.48506686415544087 
0.25 1:-0.6855204004715847 2:0.8381732694790368 3:0.5990411100481973 
0.25 1:-0.6934573827373597 2:0.21826376891933105 3:-0.3174950228451603 
0.25 1:-0.8722943409460125 2:0.03898282073119708 3:-0.6760423489198679 
0.25 1:-0.8781008577145819 2:1.3062139069335936 3:0.1764886840129259 
0.25 1:-0.6060166896844633 2:-0.1945020489238398 3:-0.5288034234809901 
0.25 1:-0.2652173753971743 2:0.12494056817455379 3:-0.16755159188429697 
0.25 1:-0.1698796316258597 2:-0.13137236102192595 3:-0.517068982030293 
0.25 1:-0.8463623243096837 2:0.6655309206481043 3:-0.5302550096549091 
0.25 1:-0.4639707800786019 2:0.6218857641442251 3:-0.3116162199997614 
0.25 1:-0.8565025884237265 2:1.693268477923252 3:0.025720999235691683 
0.25 1:-0.5724765388194145 2:0.5085546971615752 3:-0.0508521498035973 
0.25 1:-0.8651489428837198 2:-0.28972960700247136 3:-0.08480982434602999 
0.25 1:-0.4192286557227331 2:-0.6512619131641152 3:-0.6056977878350919 
0.25 1:-0.5268300823616449 2:-0.04650004880193651 3:-0.6293607284377541 
0.25 1:-0.7431087385035479 2:0.36836395409354705 3:-0.6316758137682585 
0.25 1:-0.6780297119703843 2:0.17964844170944833 3:-0.5608418212666363 
0.25 1:-0.6414665080789809 2:0.05636916707691906 3:1.6045868437745494 
0.25 1:-0.7949469337161511 2:0.09821657149209642 3:0.4689259635979472 
0.25 1:-0.31048330769778043 2:1.140689881063047 3:-0.5693298800410388 
0.25 1:-0.8710188803451497 2:-0.48975496675862007 3:0.6123150330008328 
0.25 1:-0.7253345021007308 2:1.2300686877371954 3:-0.6361784540188813 
0.25 1:-0.626682439898813 2:0.2824837377375738 3:0.06116582815977672 
0.25 1:-0.8474827565502208 2:0.15493056191303592 3:-0.6361622543015907 
0.25 1:-0.3686776656837447 2:0.6052505002075295 3:-0.3032975296085385 
0.25 1:-0.7341805142975074 2:-0.7138004265247309 3:-0.5168946147803761 
0.25 1:-0.8685807070418426 2:-0.05808125497982832 3:-0.5632937399832514 
0.25 1:-0.8440556902211988 2:0.9631243081832703 3:0.25309543560387526 
0.25 1:-0.785858983320684 2:0.7135468922032213 3:-0.3352692645408151 
0.25 1:-0.7283880910162406 2:0.7563246696669991 3:0.07070581794878955 
0.25 1:-0.5544086880977984 2:-0.25013544981437363 3:-0.6135124230060983 
0.25 1:-0.6336540182843768 2:0.16877470670393 3:-0.459110019860991 
0.25 1:1.3620025750451548 2:-0.5658759574902109 3:-0.479732564987552 
0.25 1:-0.3638670886845417 2:-0.34325997714773104 3:0.3791130702982561 
0.25 1:-0.8754113505543829 2:0.13502445522735412 3:-0.27644105875450786 
0.25 1:-0.832099715159703 2:0.21016661598072983 3:0.4153746971018837 
0.25 1:-0.4957163602271511 2:0.23593116545681778 3:0.04043537529293675 
0.25 1:-0.8373730283253332 2:1.1361736952229657 3:1.756989005467039 
0.25 1:-0.7204816446396207 2:0.9491590210683397 3:-0.33724261378491793 
0.25 1:-0.8767384872753544 2:-0.5484459999078356 3:-0.09794377903002488 
0.25 1:-0.7363368178547675 2:0.05830259856854191 3:0.5091640618011606 
0.25 1:-0.38473014772112435 2:0.32970016995404966 3:-0.14603843510359305 
0.25 1:-0.5147378702562263 2:0.6445393787390552 3:1.756989005467039 
0.25 1:-0.480164196989005 2:1.513469040588242 3:-0.5488764491179929 
0.25 1:-0.5268300823616449 2:-0.301950444651276 3:-0.17810845283951576 
0.25 1:-0.8872616244611111 2:0.2646418962534743 3:-0.20968312524506239 
0.25 1:-0.4234120725369815 2:0.25554653056481214 3:0.7501125903605635 
0.25 1:-0.8374857762237521 2:0.518599818670684 3:-0.5989940533608832 
0.25 1:-0.8686182896746489 2:1.612951117087036 3:-0.2426155576376681 
0.25 1:-0.7740838746795685 2:-0.08585676703492284 3:-0.6313118623791708 
0.25 1:-0.8937563731929452 2:0.1857249406831206 3:1.0746943962138578 
0.25 1:-0.8558730793242214 2:0.4571709689982427 3:-4.365114313058028E-4 
0.25 1:-0.8599484460691517 2:-0.5526132958546921 3:-0.6812786025184644 
0.25 1:-0.3550516123769201 2:0.6093160366021954 3:-0.679063036999307 
0.25 1:-0.695933138673473 2:0.46552009797084015 3:0.9209125811925312 
0.25 1:-0.7778703249348006 2:0.019939247392655405 3:0.06566601134030826 
0.25 1:-0.7461693741627088 2:-0.15214100105474784 3:-0.3832425244065696 
0.25 1:-0.721141689628281 2:-0.2389418990733987 3:-0.6748581258624881 
0.25 1:-0.7294310090766147 2:0.49919281836003254 3:-0.5110000697410828 
0.25 1:-0.5621530593704412 2:0.9357606800299 3:0.5007795897127388 
0.25 1:-0.8436869106367871 2:1.1392361731746088 3:-0.3988060808326274 
0.25 1:-0.34923335103559894 2:0.3190881023684502 3:-0.30131114942029713 
0.25 1:-0.41203393045488207 2:0.09567258268732913 3:0.050991558435716636 
0.25 1:-0.7019698490679807 2:-0.1058016392642961 3:-0.20918745795377788 
0.25 1:-0.4870770525108089 2:0.9926103498537605 3:-0.5110000697410828 
0.25 1:-0.8243083655960524 2:0.1224547276853241 3:-0.2251523132343091 
0.25 1:-0.6584703005092694 2:-0.30341384392563736 3:-0.6965548681422783 
0.25 1:-0.8389021716976386 2:1.0790720493651091 3:-0.5135371894812725 
0.25 1:-0.7802662177762005 2:-0.2198595601911653 3:0.5201441996791853 
0.25 1:-0.4199662148915563 2:0.7204326219014575 3:-0.3191394127673354 
0.25 1:-0.7032147737796884 2:0.5516959015974624 3:1.6835218302573185 
0.25 1:-0.8146590246230416 2:-0.029045862754754015 3:-0.5824406874302439 
0.25 1:-0.5274314044865452 2:1.0559096370093255 3:-0.514726784202231 
0.25 1:-0.4892051690934641 2:0.5318673259991641 3:0.41725047524540115 
0.25 1:-0.569441741220308 2:0.2753896432419948 3:-0.03091965163049741 
0.25 1:-0.8161881679953469 2:0.3067412767026476 3:0.06116582815977672 
0.25 1:-0.8826530541132418 2:0.1251828528226268 3:-0.5035562149194865 
0.25 1:-0.8847764728667963 2:0.2626987733759285 3:-0.6926842710456546 
0.25 1:-0.6873619494790921 2:0.41515881102237606 3:-0.34903416093359557 
0.25 1:-0.8579001925812099 2:0.17386753000642535 3:-0.49708200468241337 
0.25 1:-0.47732435929758094 2:0.5592018799947656 3:-0.37142242440890166 
0.25 1:-0.7415701994730411 2:0.01844677396052527 3:-0.6402641379476911 
0.25 1:-0.42898134893596107 2:0.8372816619741281 3:-0.6529367395951227 
0.25 1:-0.5185572053151638 2:1.3280389080320136 3:-0.4282551673202858 
0.25 1:-0.6094367092698343 2:0.11876230964869089 3:-0.4927077759983475 
0.25 1:-0.895036531622909 2:-0.030378428319155645 3:-0.5534496835341309 
0.25 1:-0.5629375968302722 2:0.5761569596669178 3:-0.10457390307336477 
0.25 1:-0.8096276496561018 2:0.1162813148524228 3:-0.3407049475042582 
0.25 1:-0.8766774154970443 2:-0.2895067051262442 3:-0.6872168664600693 
0.25 1:-0.5265247234700938 2:1.0012017634744308 3:-0.2200761928244118 
0.25 1:-0.6952190686501538 2:0.4519182378280191 3:-0.482988267584882 
0.25 1:-0.8040677689153237 2:0.4596568094874724 3:-0.6958092914047572 
0.25 1:-0.6758734084131244 2:1.4862943944603684 3:0.7152802666469249 
0.25 1:-0.5749593414991789 2:0.7082990067259591 3:4.126316937264643 
0.25 1:-0.8648600263940216 2:0.4614787900409817 3:0.06700633460237573 
0.25 1:-0.46556804197286844 2:0.10317856108463233 3:1.0119422156013604 
0.25 1:-0.44281645563777056 2:0.15433938737173764 3:-0.24599189390381815 
0.25 1:-0.8921826004441825 2:0.8768418993114958 3:-0.40838335030578177 
0.25 1:-0.8608433825128512 2:0.3910417971531846 3:-0.5376895106648482 
0.25 1:-0.3698662164462431 2:0.7314953389324731 3:-0.45580470139313073 
0.25 1:-0.8337275129431247 2:0.8222842422584062 3:1.0119422156013604 
0.25 1:-0.8861411922205741 2:0.061132483258035275 3:-0.6160803832122597 
0.25 1:-0.5830255140652254 2:0.5538376978864284 3:0.1684970042328687 
0.25 1:-0.08069839289112277 2:-0.23198348398074073 3:0.006266968863238274 
0.25 1:-0.19303758017817543 2:-0.12194264251892283 3:-0.5864669610987807 
0.25 1:-0.8024846005083593 2:0.4886292077040475 3:-0.5134532593560209 
0.25 1:-0.6648640459154366 2:0.36634330012861777 3:-0.4574591229394021 
0.25 1:0.06594434248985602 2:-0.29749725281969347 3:-0.3921797525389455 
0.25 1:-0.41588380140297476 2:0.15270638884372512 3:-0.3628711426792571 
0.25 1:-0.7227929765572065 2:0.12010941229197705 3:0.050991558435716636 
0.25 1:-0.6353546324188607 2:0.8124717140114478 3:1.1201764242415386 
0.25 1:-0.889962876194062 2:0.5289211446785959 3:-0.4460285956410139 
0.25 1:-0.8362220601956412 2:0.14523433029715233 3:-0.6825833575727985 
0.25 1:-0.5442355391800503 2:0.3457394136564857 3:-0.24599189390381815 
0.25 1:-0.4805212320006646 2:1.4927440117920734 3:0.29101358517233483 
0.25 1:-0.6238754870110944 2:0.07738009175781399 3:-0.0913293124540243 
0.25 1:-0.3450264450758467 2:-0.21072058326584983 3:-0.6604126718903918 
0.25 1:-0.7453496029846219 2:1.256657005016732 3:0.2901072143789866 
0.25 1:-0.3450264450758467 2:0.3347203078621234 3:-0.33177436193378385 
0.25 1:-0.6639080376934271 2:0.20106155890614452 3:-0.3275103455522894 
0.25 1:-0.5163163408340898 2:0.6164198224836971 3:-0.6721809022911699 
0.25 1:-0.8558331477768648 2:0.3180850439254277 3:0.5809739347617444 
0.25 1:-0.2265941734450769 2:-0.42166328926417007 3:-0.4927705922661261 
0.25 1:-0.885727783259705 2:0.38017290784062757 3:-0.5094207498130457 
0.25 1:-0.8760807912012446 2:-0.16570409565387717 3:-0.6457819209428006 
0.25 1:-0.7108675373848659 2:0.1575230076474176 3:-0.5672747018902453 
0.25 1:-0.6796363695228526 2:0.028404672996327766 3:-0.6242018471290626 
0.25 1:-0.49958972032074767 2:0.5550588125127165 3:-0.5784995808946596 
0.25 1:-0.7096672420496155 2:0.666252928899362 3:-0.503269313859395 
0.25 1:-0.21385131200919988 2:-0.4583161108246611 3:0.40274571268489767 
0.25 1:-0.35869712775912865 2:0.6992714807387572 3:-0.35141773921105474 
0.25 1:-0.8252831651344651 2:-0.19730770514852583 3:-0.3720031402159619 
0.25 1:-0.6440291738534587 2:0.1249357224815922 3:-0.434906811908562 
0.25 1:-0.11474121146995556 2:-0.17283695569314764 3:-0.5438280681821591 
0.25 1:-0.8826225182240867 2:-0.014755914211405357 3:1.2609454943882636 
0.25 1:-0.5443365425057172 2:-0.04945107581546612 3:-0.4367813699896896 
0.25 1:-0.767215648534222 2:0.2535937163013432 3:0.7152802666469249 
0.25 1:1.4269876449963026 2:-0.4301384062537653 3:-0.686546730247002 
0.25 1:-0.3941939244446541 2:1.2486858400951286 3:-0.33611332742571387 
0.25 1:-0.5062254039256053 2:-0.1322833512986807 3:-0.5754642012306065 
0.04068671378014521 1:-0.29542676542976704 2:0.505734503858005 3:-0.45690967123108783 
0.25 1:1.3965762483123758 2:-0.4890620326651311 3:-0.702006818604256 
0.25 1:-0.5823678179911156 2:0.8810043495653908 3:-0.36793448632468045 
0.25 1:-0.8858428800726743 2:0.6319938796618326 3:1.0000717880301013 
0.25 1:-0.8087937849907125 2:0.41909351370708225 3:-0.37704548862108916 
0.25 1:-0.5363408373761824 2:-0.23650936120674523 3:-0.5340178854096747 
0.25 1:-0.8146261398193361 2:0.24910175892606903 3:-0.5093520535223595 
0.25 1:1.4230485152952952 2:-0.37978681069122416 3:-0.5612959386554139 
0.25 1:-0.8882011902812679 2:0.5257036045521857 3:-0.46009864319380434 
0.25 1:-0.856338164405199 2:1.0803028553773202 3:-0.6412624031624484 
0.25 1:-0.43272316981473574 2:0.6585531227836005 3:-0.2738873665001862 
0.25 1:-0.8445701025077347 2:0.13585791441672546 3:-0.41229783575782675 
0.25 1:-0.5402682225044381 2:0.06371523760649402 3:-0.544512472347066 
0.25 1:-0.7248247876432957 2:1.4865609075732489 3:-0.20809648494268485 
0.25 1:-0.8950083446483041 2:0.6304384122212039 3:-0.5438846146848776 
0.25 1:-0.754970756983028 2:0.7538630576425769 3:0.013836507056324625 
0.25 1:-0.717026391335994 2:0.5461524288495512 3:1.756989005467039 
0.25 1:-0.38095074420954345 2:0.18840460889080837 3:0.4153746971018837 
0.25 1:-0.8646274838535327 2:-0.31359464483766686 3:-0.5309427859366997 
0.25 1:-0.3998970889730061 2:0.9876532059541859 3:-0.41942223757695146 
0.25 1:-0.8749063339260486 2:0.33723037681616 3:0.2887328818777956 
0.25 1:-0.7072596046354636 2:0.10414769967692443 3:-0.6160803832122597 
0.25 1:-0.8907074821065363 2:0.20535968856296055 3:-0.5700756431769806 
0.25 1:-0.8234768498452135 2:1.2212349894684518 3:-0.4897556825377289 
0.25 1:1.2772091086905506 2:0.12655902962368176 3:3.623785473301594 
0.25 1:-0.7607490867769925 2:0.5471118760559206 3:-0.36317875090935825 
0.25 1:-0.08462577801937839 2:-0.15898796520929223 3:0.0884591491307031 
0.25 1:-0.5680394392337238 2:-0.006910737306800086 3:-0.31013455589886435 
0.25 1:-0.6367217006871888 2:-0.28359980540622326 3:-0.5596647152398652 
0.25 1:-0.6728151216685139 2:0.6567117594582453 3:0.009794355631405646 
0.25 1:-0.6106229111177822 2:0.8728199741534831 3:0.18999445271030016 
0.25 1:-0.8607987531363938 2:0.8037688494526637 3:0.46683018448206104 
0.25 1:-0.851095387128724 2:0.39187525634255593 3:1.1820230135449927 
0.25 1:-0.7626564053919109 2:0.9423653595363713 3:1.0384413098469607 
0.25 1:-0.8904303101895901 2:0.8282880558376564 3:-0.5936851552141436 
0.25 1:-0.7197628767872009 2:0.505051261150439 3:-0.6325650359069017 
0.25 1:1.3414354792419214 2:2.8840393748867554 3:0.121688971730893 
0.25 1:-0.7748919012849034 2:0.10865903982404469 3:0.5809739347617444 
0.25 1:-0.5919208534675603 2:0.543923410087279 3:-0.03091965163049741 
0.25 1:-0.8771636408089755 2:-0.3219050082665725 3:1.0000717880301013 
0.25 1:-0.8813869891705804 2:0.16789279058494402 3:1.756989005467039 
0.25 1:-0.8871794124518474 2:-0.16958065002304581 3:-0.6325650359069017 
0.25 1:-0.6628204902565954 2:0.9769829900530487 3:-0.22093525230952207 
0.25 1:-0.5621530593704412 2:0.37132951818596116 3:-0.2831914267245155 
0.25 1:-0.4572904670972867 2:0.45173410149548365 3:0.5091640618011606 
0.25 1:-0.717026391335994 2:0.8125831649495614 3:-0.18611906053193022 
0.25 1:-0.8353271237519417 2:0.7211352473808693 3:-0.3191394127673354 
0.25 1:-0.8037553632801215 2:0.25332235749550136 3:-0.5596647152398652 
0.25 1:-0.8194155765875857 2:-0.11467894876969265 3:-0.6628409857888208 
0.25 1:-0.8337087216267216 2:0.612160458370573 3:-0.5158700165523661 
0.25 1:-0.4192286557227331 2:0.6275649162950575 3:-0.5620929105211174 
0.25 1:1.3924797413364922 2:-0.2584700417080865 3:1.0000717880301013 
0.25 1:-0.7366445256608688 2:-0.12391968524719901 3:-0.29009808129763126 
0.25 1:0.2661634698507283 2:-0.5227783642909767 3:-0.5596227925405168 
0.25 1:-0.6817198567290503 2:0.7061959759806851 3:-0.31417630063632 
0.25 1:-0.8492350468048134 2:0.2937935851096238 3:0.18999445271030016 
0.25 1:-0.2694947487934382 2:1.5031622516592145 3:-0.5177755676072641 
0.25 1:-0.894348299659644 2:0.6533633856218758 3:-0.31417630063632 
0.25 1:-0.604097626496793 2:0.0802826618417292 3:0.013836507056324625 
0.25 1:-0.4279290352173854 2:0.5727601289009336 3:-0.6186067257346701 
0.25 1:-0.8423127956248078 2:-0.20217278088183255 3:-0.5423346270901356 
0.25 1:-0.8879662988262287 2:1.6642718512418695 3:1.3125041109310256 
0.25 1:-0.538069638485271 2:0.2999524608636405 3:-0.3945112748210942 
0.25 1:-0.8211161907220695 2:0.6872686992732183 3:-0.3098037834286625 
0.25 1:-0.8791672649204599 2:-0.11591944616782683 3:-0.5936851552141436 
0.25 1:-0.2897564857051205 2:-0.5476513062621561 3:-0.23970377707185542 
0.25 1:-0.761674559109847 2:0.5013152318771524 3:1.0071358645421604 
0.25 1:-0.6916675098499608 2:0.47450885841435025 3:-0.4102209167730542 
0.25 1:0.041853874861034666 2:-0.27490663223336215 3:-0.26946758882022376 
0.25 1:-0.12363889978684087 2:-0.22496692057254516 3:-0.4549431340019964 
0.25 1:-0.36860484933268256 2:0.4151975765660675 3:-0.283182140694102 
0.25 1:-0.8196645615299272 2:0.9992828690616922 3:-0.6330085963669428 
0.25 1:-0.4011748984884194 2:0.4665522305716314 3:-0.3602662078045517 
0.25 1:-0.6762985619467453 2:0.0476711482110966 3:-0.4161045829227025 
0.25 1:0.5100818035070952 2:0.9797934919706961 3:8.699592428836523 
0.25 1:-0.6753613450411389 2:1.2513655083028166 3:0.5092841023840966 
0.25 1:-0.5998413933314826 2:1.1801822786989542 3:0.018591174917055475 
0.25 1:-0.3595568304845722 2:0.7798311262230464 3:-0.3336981461432893 
0.25 1:-0.42588782847309475 2:0.9948054487653023 3:-0.5215007230998027 
0.25 1:-0.8888471417826257 2:0.7322415756485381 3:1.1201764242415386 
0.25 1:-0.3224674697338809 2:-0.07436762902329876 3:-0.26383234092944624 
0.25 1:-0.5671092690717685 2:0.8989964075312953 3:0.31753843629061507 
0.25 1:-0.6964498998745592 2:0.6059192058362112 3:1.1820230135449927 
0.25 1:-0.6061223908392309 2:0.006075719829915471 3:-0.6668552791224993 
0.25 1:-0.8587833844521572 2:0.24257461050698087 3:-0.21416512610691937 
0.25 1:-0.7521450127789063 2:0.2674911637148135 3:-0.5229624934056168 
0.25 1:-0.5197246158467087 2:-0.19151225636661845 3:-0.6708819933691216 
0.25 1:-0.8820446852446902 2:-0.3548896402552375 3:1.0000717880301013 
0.25 1:-0.7498383786904212 2:0.43420723005387907 3:0.2243653386608206 
0.25 1:-0.24081215321860036 2:0.3064796092827287 3:-0.6327490280934515 
0.25 1:-0.8917480512523599 2:-0.034143531750210974 3:-0.6902432481639954 
0.25 1:-0.7788521712168645 2:0.23465674820795374 3:-0.37811322961083754 
0.25 1:-0.7393575219665718 2:-0.13574802176612516 3:-0.43255014278492876 
0.25 1:-0.8035674501160901 2:0.41456279078811614 3:-0.522829591331652 
0.25 1:-0.6823094342811986 2:-0.05681168342392561 3:-0.5958072503979713 
0.25 1:-0.7305960706936092 2:0.18431484403133522 3:-0.3007789480385538 
0.25 1:-0.5332261766823625 2:0.07296566546992304 3:0.025720999235691683 
0.25 1:-0.3367770571748696 2:0.01681862112547436 3:-0.4491311973536987 
0.25 1:-0.8329429754832938 2:-0.2266871415738638 3:-0.49304573328040213 
0.25 1:-0.8419393182112955 2:0.14158067780421082 3:-0.6874813997096758 
0.25 1:-0.8745892304617456 2:0.3674141982731008 3:-0.31417630063632 
0.25 1:-0.2486692723896619 2:0.11775925120566841 3:-0.5075551896920452 
0.25 1:-0.45919543679765473 2:1.0172361614839052 3:-0.6253590932513726 
0.25 1:-0.830117231279172 2:0.5640233444914194 3:2.0356775714312594 
0.25 1:-0.6485837191666689 2:-0.08221280592790403 3:-0.6293607284377541 
0.25 1:-0.7328768667220399 2:0.9881087010925632 3:0.46683018448206104 
0.25 1:-0.8859274409964883 2:1.2482206535708285 3:-0.6289309445155344 
0.25 1:-0.8445935916532386 2:0.8466871520123238 3:0.41187205048773745 
0.25 1:-0.6092487961058028 2:-0.11079754870756241 3:-0.5803965237315831 
0.25 1:-0.7772549093225979 2:-0.31511619242756556 3:-0.7122782019055048 
0.25 1:1.3275745344800578 2:0.08203195700081663 3:8.699592428836523 
0.25 1:-0.8780139478762173 2:-0.06582951802520454 3:-0.6719020671991017 
0.25 1:-0.5309853122012885 2:-0.011703127645685102 3:-0.4663598508719412 
0.25 1:-0.8189998187121663 2:1.7726457743249453 3:-0.5767112066651431 
0.25 1:-0.8340305229201253 2:0.21196436806943192 3:-0.1739549537761902 
0.25 1:-0.8900356925451242 2:0.6799856227521426 3:-0.5365655959692227 
0.25 1:-0.8556898639892908 2:0.2183994483222521 3:-0.27644105875450786 
0.25 1:-0.8684021895360129 2:0.6790310212387347 3:0.034002884411480236 
0.25 1:-0.5529171273582995 2:0.21174631188616608 3:-0.6640297501895416 
0.25 1:-0.8889035157318352 2:0.19615287193618458 3:-0.41594489031208864 
0.25 1:-0.6835261720183018 2:0.346141606172287 3:1.756989005467039 
0.25 1:-0.4434624071391284 2:0.779835971916008 3:-0.5569390619697849 
0.25 1:-0.7138835436675695 2:0.7346741135151915 3:-0.491882064885233 
0.25 1:-0.604097626496793 2:0.29345923229528303 3:0.4119491855432887 
0.25 1:-0.7375582534209713 2:-0.02598338480311056 3:-0.5473482870837848 
0.25 1:-0.6807450571906376 2:0.5217931303322867 3:-0.03775525451470146 
0.25 1:-0.20685389556358177 2:-0.47401131032683325 3:-0.509513762624979 
0.25 1:1.3952749496514587 2:-0.9444021088676984 3:-0.649479099726922 
0.25 1:0.27674532990024464 2:-0.5410466267556848 3:-0.5880262686145581 
0.25 1:-0.8672065920298633 2:-0.10109647139871747 3:-0.5936851552141436 
0.25 1:-0.6421312508967418 2:0.7993011205421968 3:-0.24823203012388698 
0.25 1:-0.8826554030277921 2:0.07547573442395993 3:-0.5452773667390968 
0.25 1:-0.6753284602374334 2:0.27464340652592983 3:-0.263330742779321 
0.25 1:-0.48691497740683193 2:0.4795047678576166 3:0.08488721313998654 
0.25 1:-0.37895886467081097 2:1.0164027022945339 3:-0.5746510296476124 
0.25 1:-0.5168072639751218 2:0.16632763175839202 3:-0.22421640676393417 
0.25 1:-0.6467961951938205 2:1.1027771793325765 3:2.1713286493046713 
0.25 1:-0.28873470787569994 2:-0.055532420482099706 3:-0.5267371630968198 
0.25 1:-0.806411985636615 2:0.8895763804142152 3:-0.42980542604000327 
0.25 1:-0.8265327876752736 2:-0.03430343961793921 3:0.2657871176714629 
0.25 1:-0.8678901261640275 2:1.0238166125255694 3:-0.6565902333675545 
0.25 1:-0.893281892453766 2:0.8633224159490195 3:-0.5177755676072641 
0.25 1:-0.7252922216388239 2:1.2725218037725552 3:0.3177755011911337 
0.25 1:-0.8938973080659687 2:0.15742609378818828 3:0.050991558435716636 
0.25 1:-0.6628204902565954 2:0.6472432754115505 3:-0.3334118212237708 
0.25 1:-0.7059113276835386 2:0.638249669275079 3:0.031004021892574857 
0.25 1:-0.8847036565157341 2:0.33017504786427304 3:1.495327748836074 
0.25 1:-0.2737815178479039 2:0.18560379835908408 3:-0.18909521633413118 
0.25 1:-0.8018621381525054 2:0.6728963739495252 3:1.1820230135449927 
0.25 1:-0.8902776307438146 2:0.4445091732899452 3:0.13445807692431827 
0.25 1:-0.8623889682870092 2:-0.092839410592388 3:-0.09746820887755477 
0.25 1:-0.3556552834163709 2:0.2512968578376108 3:-0.5422928399532752 
0.25 1:-0.5305625075822179 2:1.646749825493227 3:-0.21416512610691937 
0.25 1:-0.7097987812644374 2:0.3872960764939751 3:-0.5500157840466042 
0.25 1:-0.5514584514225059 2:0.2917390112939644 3:-0.6032044547784577 
0.25 1:-0.8262931983911337 2:-0.25637185665577383 3:1.6045868437745494 
0.25 1:-0.7115416758608284 2:0.7469385624006493 3:-0.6168868613974193 
0.25 1:-0.8926030561487027 2:0.17726436077240956 3:-0.3998526910195919 
0.25 1:-0.845704628235574 2:0.3978209216062685 3:-0.41706605986733636 
0.25 1:-0.8898289880646896 2:-0.029670957146782438 3:-0.3834678462065836 
0.25 1:-0.010548059843662754 2:1.992897056502232 3:-0.5627054496221859 
0.25 1:-0.5406769336362063 2:0.34705259644904146 3:-0.35842493031417605 
0.25 1:-0.16367614829827418 2:0.025691084937909583 3:-0.5685119298803502 
0.25 1:-0.7809145181921088 2:0.4187494695068186 3:0.5092841023840966 
0.25 1:-0.8937023481582862 2:0.6178444562143667 3:2.0356775714312594 
0.25 1:-0.8737436212236046 2:0.21185776282427968 3:-0.3671435639349944 
0.25 1:-0.7793407454433461 2:0.3137142288741898 3:-0.08428096119054841 
0.25 1:-0.893274845710115 2:-0.22658538202167314 3:-0.5423346270901356 
0.25 1:-0.5022745296518458 2:0.7266981029006265 3:-0.24364264682639122 
0.25 1:0.021427713930824877 2:-0.32911539939322637 3:-0.6059135863703389 
0.25 1:-0.8510202218631113 2:0.2852603198044909 3:-0.3007789480385538 
0.25 1:-0.546725388603466 2:-0.40637028227779914 3:-0.5063031345548386 
0.25 1:-0.8865052739758847 2:0.6136238576449341 3:0.5007795897127388 
0.25 1:-0.4706369995726146 2:-0.021258834165686066 3:-0.5231452316391545 
0.25 1:-0.29153931184886817 2:0.9820418935048139 3:-0.5596227925405168 
0.25 1:-0.27133394888639534 2:0.08612172186028949 3:-0.6479427700528246 
0.25 1:-0.8538060345198765 2:0.6147480584119931 3:-0.5627054496221859 
0.25 1:-0.8249284790373559 2:-0.30309887388314233 3:-0.33272782374632726 
0.25 1:-0.6303561422556263 2:-0.469446667557137 3:-0.6286277929022193 
0.25 1:-0.7037644197844802 2:0.4023807186830034 3:-0.5402402713803713 
0.25 1:1.4464671933627045 2:-0.40524608151074015 3:-0.3720031402159619 
0.25 1:-0.43125979604984144 2:0.5148347152396288 3:-0.35652380198544215 
0.25 1:-0.33955347417343307 2:0.20746756500119592 3:-0.6825833575727985 
0.25 1:-0.5841435973912121 2:1.0840534217294913 3:-0.3450635865022284 
0.25 1:0.03389105453520544 2:-0.33799270889862293 3:-0.6398203910892293 
0.25 1:-0.21439156235579007 2:-0.1564342850186023 3:-0.362439003358812 
0.25 1:-0.765951932506111 2:0.2991238473672308 3:1.0119422156013604 
0.25 1:-0.8669646538311729 2:0.5830329979792307 3:-0.49675716307105217 
0.25 1:-0.8135479880407062 2:0.5900495613874263 3:0.2243653386608206 
0.25 1:1.1380147813488648 2:-0.3792295560006561 3:1.6045868437745494 
0.25 1:-0.6344714405479132 2:0.4397749312665978 3:-0.5592689405567691 
0.25 1:-0.8820940124502484 2:-0.046567888503397034 3:-0.31013455589886435 
0.25 1:-0.4457643433985127 2:0.5098824170330154 3:-0.6476996048403556 
0.25 1:-0.7753734287677337 2:-0.6364728582457362 3:-0.6044704389612845 
0.25 1:-0.5441110467088796 2:0.30327660623520286 3:-0.6958092914047572 
0.25 1:-0.8487770084674869 2:0.5478096558423708 3:-0.6276230206880483 
0.25 1:-0.8526527174756339 2:0.32814470251342087 3:1.1640172311201966 
0.25 1:-0.8946090291747375 2:0.13575130917157321 3:-0.27644105875450786 
0.25 1:-0.7197628767872009 2:0.12778498994293142 3:-0.5110000697410828 
0.25 1:-0.8196739571881287 2:1.8160050349440982 3:-0.14260617931123068 
0.25 1:-0.5050603423086109 2:1.3628164464164192 3:0.3199489745578329 
0.25 1:-0.328278684331551 2:0.1461695490387143 3:2.2490473183110775 
0.25 1:-0.5208098143689899 2:0.6171999790504924 3:-0.27644105875450786 
0.25 1:-0.6180783659007268 2:0.37634965609403465 3:-0.3671435639349944 
0.25 1:-0.8146942583412975 2:0.22767410465048832 3:-0.511219562354122 
0.25 1:-0.2616164893914232 2:0.383153009011926 3:-0.5626325170037562 
0.25 1:-0.5453747627369905 2:0.06276548178604752 3:0.025720999235691683 
0.25 1:-0.7384625855228723 2:0.14537485539303469 3:0.5809739347617444 
0.25 1:1.1801730996993023 2:-0.5713467448437004 3:-0.479732564987552 
0.25 1:-0.5621530593704412 2:0.17437632776737888 3:-0.03091965163049741 
0.25 1:-0.08819847705052475 2:-0.17603026735475052 3:-0.49472140424663413 
0.25 1:-0.768413594954922 2:0.27449803573708614 3:-0.47207547037266573 
0.25 1:0.07184716475499134 2:-0.34116663778837997 3:-0.6919749233829948 
0.25 1:-0.6859643453216088 2:0.8110906915174315 3:-0.1950417665328019 
0.25 1:-0.6457016010133378 2:1.2894914205235917 3:-0.6486478813877411 
0.25 1:-0.7652096755081871 2:0.21011331335815359 3:-0.4915542917350734 
0.25 1:0.062428017407918986 2:-0.2969157696643181 3:-0.5961088599879878 
0.25 1:-0.8243083655960524 2:-0.2876217305642359 3:-0.5813756746355623 
0.25 1:-0.7836463058142147 2:0.35149609689470124 3:-0.1921409326378781 
0.25 1:-0.6466200266025411 2:-0.04179972662931921 3:-0.08480982434602999 
0.25 1:-0.3905601536351975 2:0.2912156764541263 3:-0.48124239219528686 
0.25 1:-0.8681649491664233 2:0.27163907688982397 3:0.9135938336018519 
0.25 1:-0.8330204896634568 2:0.1007460232179789 3:-0.05718042702256721 
0.25 1:-0.4927261920045019 2:0.45617760194114343 3:-0.3622997976291651 
0.25 1:-0.37573145607857217 2:0.2126088452333062 3:1.0384413098469607 
0.25 1:-0.705512012209972 2:0.17401774648823065 3:-0.4641952060122591 
0.25 1:-0.653316781985709 2:0.1636382721647813 3:0.47663865577813735 
0.25 1:-0.8275639611628959 2:0.12831801616869212 3:-0.5005065842489047 
0.25 1:-0.5188555174630637 2:0.3311781063072952 3:0.5119781357039003 
0.25 1:-0.6890179342371185 2:0.7734396572068795 3:-0.15630663268637904 
0.25 1:-0.3595568304845722 2:0.546351102260971 3:-0.5614068287704242 
0.25 1:-0.49116886165759194 2:0.12004157259051654 3:-0.3275103455522894 
0.25 1:-0.7727708314458993 2:-0.21857060586341656 3:-0.4953689523601738 
0.25 1:-0.7652096755081871 2:-0.3755613664288301 3:-0.5140983334541585 
0.25 1:1.3952749496514587 2:-0.42161483233455554 3:-0.705243898304826 
0.25 1:-0.8924104451555706 2:-0.02076941917657869 3:-0.5756093547644051 
0.25 1:-0.08177419575520238 2:-0.16397418326663563 3:-0.3272234783828198 
0.25 1:1.2376651322346992 2:-0.629732499336344 3:-0.23970377707185542 
0.25 1:-0.8783005154513652 2:0.06591033651803575 3:-0.678207671591989 
0.25 1:-0.6299591756966101 2:1.2463066048510512 3:-0.35695738165731994 
0.25 1:-0.6243476188357232 2:0.08392662294874775 3:-0.05718042702256721 
0.25 1:-0.8175059090581168 2:-0.1812200045164752 3:-0.6082633248617841 
0.25 1:-0.8213088017152016 2:0.5939309614495565 3:-0.18258659017047077 
0.25 1:-0.8617030852382946 2:-0.26933893102064355 3:-0.5063031345548386 
0.25 1:-0.885283838409681 2:0.30514219802536546 3:-0.5358728886019388 
0.25 1:-0.8593306815423986 2:0.44635538230826194 3:-0.009770293731082532 
0.25 1:-0.8513396742419648 2:0.1958330562007281 3:-0.42980542604000327 
0.25 1:-0.604097626496793 2:0.5557469009132439 3:0.041839785721105846 
0.25 1:-0.14805821545271705 2:-0.11409261992135596 3:-0.362439003358812 
0.25 1:-0.08462577801937839 2:-0.2889009935060615 3:-0.5140983334541585 
0.25 1:-0.6513413448488293 2:0.524235359584863 3:-0.26949488771620195 
0.25 1:-0.7527181479292019 2:0.4303549041495176 3:-0.1309152534191134 
0.25 1:-0.8930282096823237 2:1.015234890290822 3:-0.103308511976422 
0.25 1:-0.3799923870729835 2:0.41380201699316693 3:-0.09031606758436651 
0.25 1:-0.731906765012728 2:0.924693117305923 3:0.47663865577813735 
0.25 1:-0.8841563594254926 2:0.42395858944038917 3:-0.18611906053193022 
0.25 1:1.024127659373104 2:-0.7336774590526439 3:-0.643872336903891 
0.25 1:-0.8864653424285281 2:-0.3417142010930251 3:1.0000717880301013 
0.25 1:-0.7774733583757844 2:1.0252703204140075 3:-0.04240814883772575 
0.25 1:-0.8773703452894099 2:-0.4565232044289205 3:0.6123150330008328 
0.25 1:-0.6019225316231298 2:0.1285360723519577 3:0.2843623981074549 
0.25 1:-0.7702715863642822 2:0.49781179586601626 3:-0.5856222542920649 
0.25 1:-0.8478374426473301 2:0.6402121749244707 3:-0.23005159237888742 
0.25 1:-0.6437754910820164 2:0.4691010650693598 3:-0.324113844366081 
0.25 1:-0.850681978167855 2:0.13180691510094403 3:0.5809739347617444 
0.25 1:-0.3237264879328911 2:0.9501959993620923 3:-0.5201458099249872 
0.25 1:-0.4813480499224026 2:0.7563246696669991 3:-0.20947498599037545 
0.25 1:-0.88282217596087 2:0.17610624015462042 3:0.5201441996791853 
0.25 1:-0.546617338534148 2:0.3135591666994232 3:1.0119422156013604 
0.25 1:-0.8735416145722708 2:0.45508732102481453 3:-0.4630613274737813 
0.25 1:-0.8037553632801215 2:0.09890950558558509 3:-0.6350316292628198 
0.25 1:-0.7695904011446684 2:-0.11050196143691339 3:-0.5721317872104997 
0.25 1:-0.3673129463299669 2:-0.5372039922372461 3:0.6123150330008328 
0.25 1:-0.8801819960062293 2:0.5955058116620314 3:0.2658205168793915 
0.25 1:-0.25492208292280566 2:0.11648483395680437 3:-0.6830787198484856 
0.25 1:-0.7968260653564648 2:0.16562985197194174 3:-0.648470531763093 
0.25 1:-0.7439379053398364 2:1.1568066558528665 3:0.21195069548233797 
0.25 1:-0.4523178149941066 2:1.5888825601474594 3:-0.52720437921098 
0.25 1:-0.5363408373761824 2:0.5284268839965268 3:-0.4432030328174341 
0.25 1:-0.8509497544265996 2:0.15146104575262986 3:0.41725047524540115 
0.25 1:-0.7019698490679807 2:0.4330684922079358 3:2.0356775714312594 
0.25 1:-0.6740060213455626 2:0.1872416425800579 3:-0.3496630353144425 
0.25 1:-0.8627577478714207 2:0.03565867535963474 3:-0.517647325493817 
0.25 1:-0.7112504104565798 2:0.23912932281138227 3:-0.3613122418509431 
0.25 1:-0.2825194799753625 2:-0.5505829505038401 3:-0.3209640330170241 
0.25 1:-0.42898134893596107 2:1.243941906685858 3:-0.5693298800410388 
0.25 1:-0.3638670886845417 2:0.3559735171910914 3:-0.27644105875450786 
0.25 1:-0.4875844180536936 2:-0.38758837635917637 3:-0.5063031345548386 
0.25 1:-0.09564453617526772 2:-0.07362623800019515 3:-0.5494329331303612 
0.25 1:-0.36295805875354 2:0.40730394273184756 3:-0.5138786036067656 
0.25 1:-0.8014440313625356 2:1.104623388350893 3:-0.5870812455668795 
0.25 1:-0.480164196989005 2:1.7356634456430744 3:-0.16725789575450498 
0.25 1:-0.4279290352173854 2:0.37980948086851807 3:-0.28414953155226563 
0.25 1:-0.6460421936231447 2:-0.18142352362085665 3:-0.4758495808686067 
0.25 1:-0.6516913331168377 2:0.35808623932228834 3:-0.5300959270754904 
0.25 1:-0.8951445816922269 2:0.15100070492129103 3:-0.6679622315618403 
0.25 1:-0.7378095872778633 2:1.4295028729520458 3:0.5091640618011606 
0.25 1:-0.2209051024040273 2:-0.10811303480691302 3:-0.6286277929022193 
0.25 1:-0.6879209911420855 2:0.9119586362032037 3:1.1201764242415386 
0.25 1:-0.8073679938586246 2:0.46294703500830436 3:-0.38225759515154845 
0.25 1:-0.785858983320684 2:0.2295009308969592 3:-0.6141669186971371 
0.25 1:-0.8625721836219398 2:0.4287945910159272 3:0.2044475490176456 
0.25 1:-0.31739146539048363 2:0.29443321658053645 3:-0.3174950228451603 
0.25 1:-0.8679793849169423 2:0.3697546679734863 3:0.5007795897127388 
0.25 1:-0.6779028705846631 2:0.9825216171079986 3:-0.5912493175976423 
0.25 1:0.39574368993765874 2:-0.8280134096263666 3:-0.6529642418348326 
0.25 1:-0.6538922660505552 2:1.4345617764038112 3:0.011758774696625392 
0.25 1:-0.7509047858962993 2:0.29211212965199684 3:0.5785653790959102 
0.25 1:-0.5714735523063971 2:0.35537749695683146 3:-0.025534397912511345 
0.25 1:-0.332783902439203 2:-0.13136751532896435 3:-0.49304573328040213 
0.25 1:-0.4503000973953198 2:0.5495492596155354 3:-0.5134532593560209 
0.25 1:-0.8417842898509696 2:-0.10974603333492552 3:-0.6647760555754345 
0.25 1:-0.7109380048213777 2:1.0347630329255095 3:0.5990411100481973 
0.25 1:-0.5396903895250416 2:1.3859207104566653 3:-0.29449028895664 
0.25 1:-0.8128104288718832 2:0.2958530046182447 3:-0.4575240065351195 
0.25 1:-0.6576012021256243 2:0.3010282047010849 3:-0.5216742261388599 
0.25 1:-0.8884642687109118 2:0.7134209041862235 3:-0.3191394127673354 
0.25 1:0.30765234755430393 2:-0.567601024184491 3:-0.5571699248864873 
0.25 1:-0.6526003630478394 2:1.1322002269945675 3:0.6628797562190686 
0.25 1:-0.8485021854650909 2:0.46746322084838593 3:-0.3032975296085385 
0.25 1:-0.828834723934658 2:1.37714516050346 3:1.1201764242415386 
0.25 1:-0.48096987467978947 2:0.32808655419788324 3:-0.576397820084 
0.25 1:-0.4146012940584607 2:-0.12067307096302012 3:-0.39130828908620263 
0.25 1:-0.8231433039790579 2:0.5163029602069514 3:-0.20346117985245102 
0.25 1:1.0898314971766716 2:-0.5374075113416276 3:0.04875925094931758 
0.25 1:-0.5315889832407392 2:0.11246290879879174 3:-0.32462527079657083 
0.25 1:-0.821736304163373 2:0.07326609843353366 3:-0.08946941206688887 
0.25 1:-0.2452351593169886 2:-0.6050969963202762 3:-0.685289794860235 
0.25 1:-0.5363408373761824 2:0.38549832440527304 3:0.18999445271030016 
0.25 1:-0.788548490480883 2:0.8277647209978186 3:-0.4570624162642026 
0.25 1:-0.42150945175116383 2:-0.13031115426336587 3:-0.02526518775707607 
0.25 1:-0.8831134413651186 2:0.04689583733726287 3:-0.5873063470778509 
0.25 1:-0.7357167044134638 2:0.17631945064492466 3:1.756989005467039 
0.25 1:-0.7272418207156492 2:1.2616335316881524 3:-0.06584615738252637 
0.25 1:-0.6706799583422074 2:0.4335772899688893 3:1.1640172311201966 
0.25 1:-0.3556552834163709 2:0.09051676537633485 3:0.5091640618011606 
0.25 1:-0.821029280883705 2:0.8037979236104326 3:-0.33731522444243917 
0.25 1:-0.8565166819110289 2:0.7620668158263303 3:-0.646934557940526 
0.25 1:-0.8837711374392283 2:-0.22820384347080114 3:-0.5936851552141436 
0.25 1:-0.8853167232133865 2:0.12269701233339712 3:-0.3107922542536771 
0.25 1:-0.8703987669038461 2:0.39982703849231344 3:0.9414863238234888 
0.25 1:-0.6990477993672928 2:0.11775440551270708 3:-0.4380307308224515 
0.25 1:-0.6423943293263857 2:-0.004831935026333256 3:-0.5756093547644051 
0.25 1:-0.704889549854118 2:0.3018713552763791 3:0.18999445271030016 
0.25 1:-0.895024787050157 2:0.14713384193804505 3:-0.04545761005519787 
0.25 1:-0.8705044680586138 2:0.7918920560041229 3:1.756989005467039 
0.25 1:-0.6810645095694909 2:0.2505360840426613 3:-0.3466320105953095 
0.25 1:-0.7871743754689037 2:1.3499511316037405 3:2.1713286493046713 
0.25 1:-0.44818842321451735 2:0.23332418264355184 3:-0.5381091104551728 
0.25 1:-0.8107151970929334 2:-0.415451110887577 3:-0.5880262686145581 
0.25 1:-0.7786431178218796 2:0.2294718567391904 3:0.2887328818777956 
0.25 1:-0.8831016967923666 2:0.31339441313873334 3:-0.48829782659874965 
0.25 1:-0.7868196893717944 2:-0.3296726540837944 3:0.006266968863238274 
0.25 1:-0.8631688079177393 2:0.3582703756548238 3:-0.6337882670701426 
0.25 1:-0.34718509754765703 2:-0.0037804196536963776 3:0.46229899138244823 
0.25 1:-0.7845107063687591 2:1.3110935197457847 3:-0.6377277129652513 
0.25 1:-0.6662921859620751 2:0.16004276798737715 3:-0.4970341511242242 
0.25 1:-0.4892051690934641 2:0.13541695635723247 3:-0.3372153487795616 
0.25 1:-0.31048330769778043 2:0.5514196970986592 3:-0.46707912848683153 
0.25 1:-0.8226335895216228 2:-0.14740191333843883 3:-0.6551699960189362 
0.25 1:-0.8827517085243582 2:0.22902120729377448 3:0.10948731416603574 
0.25 1:-0.8804145385467181 2:0.3361546329787157 3:-0.3671435639349944 
0.25 1:-0.8224268850411883 2:0.06399144210529717 3:1.3016876986476265 
0.25 1:-0.38095074420954345 2:0.4302095333606739 3:-0.00822150925341976 
0.25 1:-0.834472118855599 2:-0.16142050307594566 3:-0.44572342753569294 
0.25 1:-0.7945499671571349 2:0.2373897190382178 3:-0.6512796067990955 
0.25 1:-0.8784978242735981 2:0.7374070843454555 3:1.5132924219364488 
0.25 1:-0.7445227850628838 2:0.015893093769835324 3:-0.4565470076856339 
0.25 1:-0.8927815736545325 2:0.37394619238515003 3:1.495327748836074 
0.25 1:-0.6158421992487535 2:1.0925188473331633 3:-0.10977274142533186 
0.25 1:-0.6861992367766481 2:-0.03723992955258456 3:0.050991558435716636 
0.25 1:-0.7059630038036472 2:0.6439578955836799 3:-0.2344352257105435 
0.25 1:-0.792849353022651 2:0.1509570936846377 3:-0.5005065842489047 
0.25 1:-0.8786152700011177 2:-0.1630583472969195 3:8.699592428836523 
0.25 1:-0.3820970145101348 2:-0.06867393979358216 3:-0.5400895597845735 
0.25 1:-0.29896892857175833 2:0.06613323839426292 3:-0.1860786120746366 
0.25 1:-0.5703930516132167 2:0.17714321844837305 3:-0.6334560034125749 
0.25 1:-0.7916960359784084 2:-0.33992129469728444 3:1.6045868437745494 
0.25 1:-0.15356876898793695 2:1.9538989195483936 3:-0.36293624656401713 
0.25 1:-0.5062254039256053 2:0.28492596699015016 3:0.5805413040272811 
0.25 1:-0.4503000973953198 2:0.6456345053483454 3:-0.3385657545016582 
0.25 1:-0.6280213211925365 2:0.28513917748045436 3:-0.4135829850873646 
0.25 1:-0.8243083655960524 2:0.5900301786155804 3:-0.05446297528299801 
0.25 1:-0.7551469255743074 2:-0.2030304685360112 3:-0.5721317872104997 
0.25 1:0.12681411414871688 2:-0.36816199327667914 3:-0.6146278481009261 
0.25 1:-0.34476571556075314 2:-0.3784687822057067 3:-0.509513762624979 
0.25 1:-0.6644858706728235 2:-0.1170339555489629 3:-0.5624689100263075 
0.25 1:-0.30058733069697846 2:0.6495255967963987 3:-0.5437615578365883 
0.25 1:-0.45823707966109467 2:0.9579781822581986 3:-0.45148112224356457 
0.25 1:-0.880731642011021 2:-0.3439916767849117 3:1.0000717880301013 
0.25 1:-0.5588129028797837 2:-0.023531464164611264 3:-0.24599189390381815 
0.25 1:-0.6616389862377482 2:0.5452802041164881 3:-0.5637787995098665 
0.25 1:-0.6875850963613794 2:0.19187412505121443 3:-0.2251523132343091 
0.25 1:-0.8786152700011177 2:0.7477090275815215 3:2.1713286493046713 
0.25 1:-0.7217876411296388 2:0.1646897875374182 3:0.7289564543367594 
0.25 1:-0.20685389556358177 2:0.23542721338882588 3:-0.6475330493787974 
0.25 1:-0.604097626496793 2:-0.19193383165426545 3:0.5201441996791853 
0.25 1:-0.8544919175685908 2:1.0867427813231019 3:0.6101902943484931 
0.25 1:-0.8148093551542668 2:-0.09650275447125269 3:-0.4007627728360433 
0.25 1:-0.2529114120676701 2:0.17784099823482333 3:-0.14260617931123068 
0.25 1:-0.6898377054152054 2:1.2195050770812106 3:-0.5624337823966595 
0.25 1:-0.6187783424367437 2:-0.5918731002284492 3:-0.479732564987552 
0.25 1:-0.3976209907736762 2:0.04279638109186681 3:-0.6396529375261896 
0.25 1:-0.7197628767872009 2:0.09252288226237956 3:-0.5745079264964414 
0.25 1:-0.40320436065995824 2:-0.28854241222691346 3:-0.6996616892373955 
0.25 1:-0.8511987393689412 2:1.0840534217294913 3:-0.3450635865022284 
0.25 1:-0.8167143248546348 2:0.44581751038953965 3:-0.6226281191536467 
0.25 1:-0.5612393316103387 2:1.7071562339507995 3:-0.6189529353831689 
0.25 1:-0.8793363867680881 2:0.015195313983385049 3:0.5201441996791853 
0.25 1:-0.8079716648980754 2:0.7675957514953573 3:-0.28414953155226563 
0.25 1:-0.42361877701741596 2:-0.35963357366450777 3:-0.09701324422322849 
0.25 1:-0.888081395639198 2:0.6245218211152599 3:-0.4910578280141731 
0.25 1:-0.6409990740834529 2:0.3784236126815402 3:-0.3926432067940695 
0.25 1:-0.8909188844160716 2:0.5623467347267539 3:1.1640172311201966 
0.25 1:-0.38351575889857165 2:1.4550881317885596 3:-0.103308511976422 
0.25 1:-0.8618111353076127 2:0.3224267848188968 3:-0.06584615738252637 
0.25 1:-0.5306940467970398 2:0.9988322196162764 3:-0.5688992149626484 
0.25 1:-0.895271423077948 2:-0.12124970842543388 3:5.242557813253226 
0.25 1:-0.5753116786817378 2:0.358187998874479 3:-0.24735697426521774 
0.25 1:-0.24001587118601736 2:0.10516044950586985 3:-0.6774459290277993 
0.25 1:-0.5341892316480232 2:0.6866969075037661 3:0.6806729766630137 
0.25 1:0.8639739674982697 2:-0.6980228502422138 3:2.485104532022059 
0.25 1:-0.8507336542879634 2:-0.07976573098236633 3:-0.5700756431769806 
0.25 1:-0.2932469727270032 2:1.386444045296503 3:-0.47488756167402163 
0.25 1:-0.7268824367894393 2:0.6212509783662737 3:-0.5996617325038593 
0.25 1:-0.33223190751986087 2:0.4406229275348534 3:-0.4157851977014748 
0.25 1:-0.68417447243421 2:0.10020815129925686 3:-0.6168868613974193 
0.25 1:-0.5567411602463378 2:-0.07206107917364317 3:1.0119422156013604 
0.25 1:-0.7471394758720208 2:-0.3237269888200817 3:-0.6183277381348032 
0.25 1:-0.711983271796302 2:-0.23090774014329637 3:-0.6759607403022199 
0.25 1:-0.5845241215483756 2:-0.6040309438687548 3:-0.5585793172360825 
0.25 1:-0.15356876898793695 2:1.905446835626745 3:-0.2831914267245155 
0.25 1:0.021427713930824877 2:-0.34526124834081445 3:-0.631784043469446 
0.25 1:-0.865527118126333 2:0.378254013427889 3:-0.5699793260294075 
0.25 1:-0.8707464062573043 2:0.7912572702261715 3:-0.6189529353831689 
0.25 1:-0.89055010483166 2:-0.3255392779876682 3:-0.3116162199997614 
0.25 1:-0.8889011668172847 2:0.5853831590655394 3:-0.33153750037699686 
0.25 1:-0.2483051906343511 2:0.0673155874768595 3:-0.6138071697451707 
0.25 1:-0.5991696037700703 2:-0.5189793410091914 3:-0.7004818253431998 
0.25 1:-0.12363889978684087 2:-0.15365770295168518 3:-0.5035562149194865 
0.25 1:-0.8825567486166757 2:0.7742731163962505 3:1.5132924219364488 
0.25 1:-0.7948647217068874 2:0.7950611392009184 3:-0.6418871937233507 
0.25 1:-0.5163938550142527 2:0.2230900791089462 3:-0.47581165726264807 
0.25 1:-0.6245825102907626 2:0.03411774499789021 3:-0.3302098860981596 
0.25 1:-0.723718448890061 2:-0.08255200443520637 3:-0.44572342753569294 
0.25 1:-0.6674267116899144 2:0.49252514484506227 3:0.121688971730893 
0.25 1:-0.44430566746271916 2:1.6430234876058631 3:-0.46707912848683153 
0.25 1:-0.5774045615461372 2:0.21031683246253513 3:2.2490473183110775 
0.25 1:-0.8861599835369772 2:0.4743004936170074 3:0.2556948463072033 
0.25 1:-0.4333926104615975 2:0.41601649867655455 3:1.3016876986476265 
0.25 1:-0.7634879211427498 2:0.18132989716707523 3:-0.23565874494407088 
0.25 1:-0.6573028899777246 2:0.8391278709924446 3:0.025720999235691683 
0.25 1:-0.4927261920045019 2:0.3221941915567467 3:1.6835218302573185 
0.25 1:-0.8936342296363248 2:0.20158004805302096 3:-0.575630468621878 
0.25 1:-0.6767049241639631 2:0.6674062038241898 3:0.1652466563538063 
0.25 1:-0.7449174027073499 2:0.4127311188486839 3:0.025720999235691683 
0.25 1:-0.7451241071877843 2:0.18323425450092956 3:-0.5093520535223595 
0.25 1:-0.8382468245380791 2:0.7495455452139153 3:-0.14906585047148874 
0.25 1:-0.6792088670746811 2:0.7455139286699797 3:-0.2780295291504705 
0.25 1:-0.7227929765572065 2:1.6576429432705913 3:0.7711996403515289 
0.25 1:-0.8449388820921462 2:0.0961716890623597 3:-0.5745079264964414 
0.25 1:-0.8493337012159298 2:0.14424580893301436 3:-0.6002395337174322 
0.25 1:-0.3015409900044377 2:0.028695414574015178 3:-0.4663598508719412 
0.25 1:-0.8014440313625356 2:0.7903656627212626 3:-0.6283750705343613 
0.25 1:-0.7972911504374424 2:0.7545220718853357 3:0.21195069548233797 
0.25 1:-0.3827781997297485 2:0.3358590457080667 3:0.2657871176714629 
0.25 1:-0.5983404369337818 2:0.22552746266856125 3:1.1640172311201966 
0.25 1:-0.6253740944942446 2:-0.5952505482225874 3:-0.5168587754476672 
0.25 1:-0.5098991062824186 2:0.5536971727905461 3:-0.36317875090935825 
0.25 1:-0.3966109575170076 2:0.8749326962846802 3:-0.6529367395951227 
0.25 1:-0.712965118078366 2:-0.08663207790875657 3:-0.4040902049347239 
0.25 1:-0.4163770734585571 2:0.03649698024196739 3:0.006266968863238274 
0.25 1:-0.20371339680970746 2:-0.03425013699536296 3:0.050991558435716636 
0.25 1:-0.7850932371772562 2:0.03147684233389388 3:-0.6388583549493333 
0.25 1:-0.7991561885904538 2:0.5349831065733835 3:0.11965502605474916 
0.25 1:-0.2869941621938594 2:0.07550965427469006 3:0.30564870801015714 
0.25 1:-0.8407977457398048 2:0.44156783766233826 3:-0.025231432697616924 
0.25 1:-0.6195511353238227 2:-0.00143994995331066 3:-0.08428096119054841 
0.25 1:-0.6635157689635115 2:0.39595048412314454 3:-0.3302098860981596 
0.25 1:-0.6559123325638924 2:0.3884784255765717 3:-0.1807848630359072 
0.25 1:-0.8312893396398177 2:0.15845822638897958 3:-0.2012371586231179 
0.25 1:-0.8327245264301073 2:-0.021627106830757203 3:-0.3471160364579553 
0.25 1:-0.5128963212487189 2:-0.0593169066850009 3:-0.3335442996649613 
0.25 1:-0.38141348037597067 2:1.688703835153556 3:-0.324113844366081 
0.25 1:-0.4726711595732542 2:0.08369402968659766 3:-0.3302098860981596 
0.25 1:-0.7479498513919061 2:0.41448525970073297 3:-0.599170386266873 
0.25 1:-0.7429936416905787 2:-0.198456134380392 3:-0.4953689523601738 
0.25 1:-0.7722517213302627 2:0.6083905092465564 3:-0.32749382387409026 
0.25 1:-0.7539020008625996 2:0.07314980180245848 3:0.013836507056324625 
0.25 1:-0.7525537239106744 2:0.5523549158402212 3:-0.2856219435133711 
0.25 1:-0.8928121095436876 2:0.8164548736257686 3:-0.471206514825947 
0.25 1:-0.8839590506032597 2:-0.0054182638746702195 3:-0.5795054714993548 
0.25 1:-0.6490041748711892 2:0.09408804108893155 3:-0.3490515129320324 
0.25 1:-0.624256011168258 2:0.41371479451986054 3:0.11965502605474916 
0.25 1:-0.7587219735200041 2:0.2461071206758861 3:-0.4152950884721896 
0.25 1:-0.6198823322754279 2:0.4379820248708573 3:-0.5191249227200804 
0.25 1:-0.4214342864855513 2:0.3170286828598292 3:-0.40838335030578177 
0.25 1:-0.7357167044134638 2:-0.2416651785177398 3:-0.3272234783828198 
0.25 1:-0.7220930000211897 2:-0.008582501378504056 3:-0.26383234092944624 
0.25 1:-0.8455143661569923 2:0.12334148949727168 3:0.21105271261792163 
0.25 1:-0.5062254039256053 2:0.21203220777089216 3:0.6628797562190686 
0.25 1:-0.5028922941785989 2:0.978552994572562 3:0.1764886840129259 
0.25 1:-0.6204084891347157 2:0.19510620225650904 3:-0.6615571412482278 
0.25 1:-0.8947640575350634 2:-0.19080963088720657 3:-0.4177167767540281 
0.25 1:-0.4279290352173854 2:0.348244636917561 3:1.208063296550676 
0.25 1:-0.7802662177762005 2:0.4320218225282602 3:-0.2524014916701496 
0.25 1:-0.49399225694716326 2:-0.13985716939744416 3:-0.032682353713889126 
0.25 1:-0.8931456554098433 2:0.31384506258414924 3:-0.3407049475042582 
0.25 1:-0.8234768498452135 2:1.2906253126765734 3:-0.660923742469351 
0.25 1:-0.3181102332429036 2:0.0038467010676433333 3:-0.5526258533505346 
0.25 1:-0.4545210968423744 2:0.5042468761188365 3:-0.09238746239776179 
0.25 1:-0.24365668873912524 2:0.271144816207755 3:3.623785473301594 
0.25 1:-0.6851398763144212 2:0.6712197641848595 3:-0.45148112224356457 
0.25 1:-0.1289756336453317 2:-0.3625022238976927 3:-0.6530956866120536 
0.25 1:-0.11474121146995556 2:-0.2784730622529975 3:-0.3272234783828198 
0.25 1:-0.8498809983061711 2:0.5770243387070192 3:-0.5699793260294075 
0.25 1:-0.6504581529778819 2:-0.04368470119132768 3:0.1652466563538063 
0.25 1:-0.8479478416311985 2:0.12226089996686573 3:-0.34560992027332366 
0.25 1:-0.717026391335994 2:0.525611536385918 3:-0.4973737690467543 
0.25 1:-0.6092487961058028 2:0.37286075716178274 3:-0.18425768590274008 
0.25 1:-0.7877616041065018 2:0.2083494811201819 3:-0.5120921780880111 
0.25 1:-0.8745328565125363 2:-0.29620829849194474 3:-0.40682190768082177 
0.25 1:-0.5918198501418934 2:-0.017648792909397644 3:-0.6980580697334225 
0.25 1:-0.39108396157993497 2:0.3882700607792288 3:-0.6010746155875151 
0.25 1:-0.8492796761812708 2:-0.23359225404394576 3:-0.5063031345548386 
0.25 1:-0.6647771360770721 2:0.3176731600237035 3:1.0119422156013604 
0.25 1:-0.8665535937848542 2:0.1288074311577995 3:-0.44583838452533686 
0.25 1:-0.8902189078800546 2:-0.34066268572038805 3:-0.4391963309830716 
0.25 1:-0.8768324438573701 2:-9.166151134728865E-4 3:-0.5879001277196718 
0.25 1:-0.2875602506005039 2:1.1087616101399806 3:-0.5694057950342 
0.25 1:-0.8256848295225822 2:0.16464617630076514 3:-0.14603843510359305 
0.25 1:-0.4279290352173854 2:-0.03243300213481528 3:0.023108438971048237 
0.25 1:-0.658839080093681 2:-0.3565081017043655 3:-0.5585793172360825 
0.25 1:-0.8688202963259828 2:1.046276399401941 3:-0.3352692645408151 
0.25 1:-0.6158421992487535 2:-0.28639577024498625 3:-0.5063031345548386 
0.25 1:-0.7349627028427881 2:0.647015527842362 3:0.013836507056324625 
0.25 1:-0.7955858384738578 2:-0.6105823207526501 3:0.40274571268489767 
0.25 1:-0.8911584737002115 2:0.17193894420776384 3:1.495327748836074 
0.25 1:-0.8450892126233713 2:0.4165640619811995 3:1.5132924219364488 
0.25 1:-0.37133663695478863 2:-0.06521896071206038 3:-0.6630172000776337 
0.25 1:-0.37045109616929073 2:0.42750079099521704 3:-0.6036700949786973 
0.25 1:-0.8643714521675401 2:0.5840312107292919 3:-0.6564109519774554 
0.25 1:-0.8913722249242972 2:0.1773031263161013 3:-0.5700756431769806 
0.25 1:-0.6982115857873533 2:0.336881486922935 3:1.0000717880301013 
0.25 1:-0.8205078218535179 2:1.1193155294100428 3:-0.50837115725135 
0.25 1:-0.8755287962819025 2:0.6711761529482065 3:-0.3580937003205779 
0.25 1:-0.48981588687656613 2:0.028777791354360233 3:-0.5423346270901356 
0.25 1:-0.7201011204824572 2:-0.31309069276967494 3:1.0000717880301013 
0.25 1:-0.8663938675954277 2:0.2635855351878758 3:-0.5313064323101901 
0.25 1:-0.6305511021633088 2:-0.7238116281831092 3:-0.7427987404060149 
0.25 1:-0.49503987283663814 2:0.4893754444201127 3:0.25309543560387526 
0.25 1:-0.7354747662147736 2:0.059586707203329155 3:0.1465484546320129 
0.25 1:-0.6520742061885516 2:0.17672164316072592 3:0.5028603891737242 
0.25 1:-0.6580263556592453 2:0.3097843718824449 3:-0.45849244800256345 
0.25 1:-0.8494675893453021 2:0.26326571945241933 3:-0.04545761005519787 
0.25 1:-0.835897909987687 2:-0.4665198690084146 3:-0.5340178854096747 
0.25 1:-0.8047888856822941 2:0.1494307004017777 3:-0.5204694145286473 
0.25 1:-0.8864653424285281 2:-0.48393528951190534 3:0.6123150330008328 
0.25 1:-0.7703608451171969 2:-0.2957431119676446 3:-0.6882901316211949 
0.25 1:-0.46038868538925387 2:0.7513239145307714 3:-0.5138786036067656 
0.25 1:-0.8766915089843467 2:0.18083563648500625 3:-0.48326464560685906 
0.25 1:-0.7006333166888076 2:0.7803883809136145 3:0.6078886805402127 
0.25 1:1.3642058568934228 2:-0.15378853666164463 3:5.242557813253226 
0.25 1:-0.6703980885961605 2:0.25325936348700245 3:-0.6366857796841155 
0.25 1:1.2941682717443816 2:2.1203533184675405 3:8.699592428836523 
0.25 1:-0.6367217006871888 2:0.6122525265368407 3:-0.15953813737963896 
0.25 1:-0.7634879211427498 2:0.47784269517183553 3:-0.22421640676393417 
0.25 1:-0.6758734084131244 2:1.4384577135448255 3:-0.24831482491330326 
0.25 1:-0.8362220601956412 2:0.12719866109459446 3:-0.19042254254268184 
0.25 1:-0.5209437024983623 2:-0.02902647998290815 3:-0.5594130604265984 
0.25 1:-0.8936906035855343 2:0.457655538294389 3:-0.3353082048654321 
0.25 1:-0.4570955071896042 2:1.3073235706217683 3:-0.4114970511971542 
0.25 1:-0.8724423225626873 2:0.07370705649302664 3:-0.41706605986733636 
0.25 1:-0.8811145150827349 2:0.17077597789701338 3:-0.5881269407070515 
0.25 1:-0.893467456703247 2:0.36354733528985483 3:0.6194637682865153 
0.25 1:-0.09237014929202113 2:-0.5782567030067438 3:0.40274571268489767 
0.25 1:-0.8826295649677378 2:0.10503446148887201 3:-0.36193781189615015 
0.25 1:-0.5441110467088796 2:0.1039054150288514 3:0.19716457297843124 
0.25 1:-0.4083555302689681 2:0.042776998320020944 3:-0.6037261500673975 
0.25 1:-0.8450445832469139 2:0.7118799738244788 3:-0.20947498599037545 
0.25 1:-0.881426920717937 2:0.02759059657880231 3:-0.6478190015014745 
0.25 1:-0.8651583385419214 2:-0.25587759597370485 3:-0.3116162199997614 
0.25 1:-0.3827781997297485 2:0.3660913240946218 3:-0.463016202110659 
0.25 1:-0.8809336486623547 2:0.20787460320995876 3:2.2490473183110775 
0.25 1:1.328474168752858 2:2.277785037092447 3:8.699592428836523 
0.25 1:-0.2545556522529445 2:-0.12720506507506935 3:-0.6708819933691216 
0.25 1:-0.7037644197844802 2:0.07884349103217533 3:0.06566601134030826 
0.25 1:-0.3290279880731261 2:-0.05484917777453369 3:-0.5152692883330462 
0.25 1:-0.42442210579365003 2:0.38499921803024273 3:1.1640172311201966 
0.25 1:-0.40211681322312665 2:1.1337993056718498 3:-0.5693298800410388 
0.25 1:-0.3711816085944627 2:1.152062722443596 3:-0.5630857362910522 
0.25 1:-0.7703303092280419 2:0.6399941187412048 3:-0.5768837099308528 
0.25 1:-0.795287526325958 2:0.22307069633710033 3:-0.578610420173737 
0.25 1:-0.7080488399243954 2:0.7960593519509792 3:0.46229899138244823 
0.25 1:-0.8923540712063612 2:0.3144313914324862 3:-0.05718042702256721 
0.13699629856769527 1:1.3089124083771924 2:2.8840393748867554 3:0.121688971730893 
0.25 1:-0.5957096526373428 2:-0.18007642097757048 3:0.0884591491307031 
0.25 1:-0.7647539860854111 2:0.4301804592029051 3:-0.482988267584882 
0.25 1:-0.6859150181160507 2:0.5351963170636878 3:-0.31013455589886435 
0.25 1:-0.7539020008625996 2:-0.18128299852497426 3:-0.5534353986369803 
0.25 1:-0.7061697082840817 2:-0.222621605179198 3:-0.18258659017047077 
0.25 1:-0.8650127058397971 2:0.41207210460592536 3:-0.5122401614887423 
0.25 1:1.3393496431211733 2:-0.4389381846717786 3:0.40274571268489767 
0.25 1:-0.806411985636615 2:0.6532713174556081 3:0.869370062695194 
0.25 1:-0.5695544891187267 2:-0.07044261772451518 3:-0.63280992954109 
0.25 1:-0.6740060213455626 2:0.1824734807059801 3:2.2490473183110775 
0.25 1:-0.7944630573187703 2:-0.1383550045793911 3:-0.2712929207729734 
0.25 1:-0.4761123193895786 2:0.22664681774265863 3:-0.4619400562466678 
0.25 1:-0.5768854514305005 2:-0.10091718075914363 3:-0.4765397464392445 
0.25 1:-0.4180048712419788 2:-0.44018352776287406 3:-0.23970377707185542 
0.25 1:-0.4694390531519147 2:0.27192981846751163 3:0.06833860884173067 
0.25 1:-0.5402682225044381 2:0.2397834913611795 3:-0.14015714129748108 
0.25 1:-0.7195185896739601 2:0.5956657195297597 3:-0.30676313377289666 
0.25 1:-0.883031229355855 2:0.1486844636857125 3:-0.5035562149194865 
0.25 1:-0.6277206601300863 2:0.06552752677408036 3:0.3199489745578329 
0.25 1:-0.7145388908271287 2:0.6862365666724273 3:0.5990411100481973 
0.25 1:-0.8722262224240511 2:0.31315697418362193 3:-0.15265524013250795 
0.25 1:-0.6793826867514102 2:0.053946320596188556 3:-0.5067561674437138 
0.25 1:-0.7347818364224079 2:0.6108569669639399 3:-0.482988267584882 
0.25 1:-0.582489961547736 2:-0.4107653257938442 3:0.40274571268489767 
0.25 1:-0.4825553920013041 2:0.35366212164847444 3:0.5008888191872737 
0.25 1:-0.8286256705396731 2:0.3335670329372956 3:0.013836507056324625 
0.25 1:-0.8607893574781922 2:0.42322204411024716 3:0.869370062695194 
0.25 1:-0.44835519614759517 2:0.07871750301517721 3:-0.11517414402467567 
0.25 1:-0.5657445497179907 2:0.9838347999005547 3:-0.427778834628822 
0.25 1:-0.8362220601956412 2:0.3153084618585106 3:0.9593652536503375 
0.25 1:-0.8687122462566645 2:-0.09871723615464029 3:-0.65758324553591 
0.25 1:-0.49663243690180403 2:1.4032052972501972 3:-0.27396240033717667 
0.25 1:-0.6460750784268503 2:1.1749295475287305 3:0.9209125811925312 
0.25 1:-0.887578727925414 2:-0.24304135531879462 3:-0.583822679211995 
0.25 1:-0.34034270946236483 2:0.2891756397173515 3:-0.025231432697616924 
0.25 1:-0.6231637659023256 2:0.06677286986517587 3:-0.5594130604265984 
0.25 1:-0.16381238534219691 2:1.6220997853982744 3:-0.6846831527273852 
0.25 1:-0.7460213925460341 2:0.39332411853803273 3:0.4898983277242443 
0.25 1:0.09405145399984784 2:-0.2736419063704209 3:-0.6457819209428006 
0.25 1:-0.8764660131875089 2:-0.22728316180812355 3:-0.5754642012306065 
0.25 1:-0.7595393957835407 2:0.19124418496622467 3:-0.5405835494900716 
0.25 1:-0.8779105956360002 2:-0.011591676707571521 3:-0.48299316477975335 
0.25 1:-0.1913933399929009 2:1.4857904423923765 3:-0.6319153018482464 
0.25 1:-0.318753835829711 2:1.3155757857351358 3:-0.37331785911314846 
0.25 1:-0.68417447243421 2:-0.4032448103176568 3:-0.08480982434602999 
0.25 1:-0.8850583426128433 2:-0.3794669949557677 3:1.0000717880301013 
0.25 1:-0.6628204902565954 2:0.30199734329337724 3:-0.32473629647406893 
0.25 1:-0.6913222194110532 2:0.07498147374189068 3:-0.434906811908562 
0.25 1:-0.8630912937375763 2:0.37958657899229065 3:-0.24735697426521774 
0.25 1:0.3670892813374256 2:-0.5062836254501635 3:-0.7284701074077694 
0.25 1:-0.8328255297557742 2:-0.43632635616555104 3:-0.586889475482593 
0.25 1:-0.8923493733772604 2:0.30054848109790044 3:-0.36809567012266 
0.25 1:-0.8466488918848316 2:0.3997785815626988 3:0.7152802666469249 
0.25 1:-0.8298964333114353 2:-0.5406444342398834 3:0.40274571268489767 
0.25 1:-0.8679793849169423 2:0.7212030870823298 3:-0.324113844366081 
0.25 1:-0.894935528297242 2:1.1235264365935524 3:0.06116582815977672 
0.25 1:-0.8540526705476675 2:0.2292683376348091 3:0.5785653790959102 
0.25 1:-0.8090733058222093 2:-0.16652301776436396 3:-0.4773507151318121 
0.25 1:-0.4870770525108089 2:1.2975110423748095 3:-0.6458257754075998 
0.25 1:-0.6628204902565954 2:0.16907998536050195 3:0.04043537529293675 
0.25 1:-0.8507336542879634 2:0.024513581548274592 3:-0.32462527079657083 
0.25 1:-0.8639369029757176 2:0.9067785904274016 3:0.5091640618011606 
0.25 1:-0.6468572669721308 2:0.3774060171596332 3:0.08488721313998654 
0.25 1:-0.3580958056342283 2:0.18928652500979434 3:-0.5105585596636695 
0.25 1:-0.8160519309514241 2:-0.1856731963480579 3:-0.18462004443259641 
0.25 1:1.409258037969943 2:-0.4617662442132213 3:-0.5449636920876673 
0.25 1:-0.5714735523063971 2:0.11420735826491757 3:0.47663865577813735 
0.25 1:-0.37573145607857217 2:0.24842336191146436 3:-0.5035754986833744 
0.25 1:-0.4430842318965153 2:-0.11347237122228887 3:5.242557813253226 
0.25 1:-0.5028922941785989 2:0.5629039894173218 3:-0.4581534062206065 
0.25 1:-0.8617124808964962 2:-0.07725566202832944 3:-0.6293607284377541 
0.25 1:-0.5651220873621369 2:0.1332460859104979 3:-0.20968312524506239 
0.25 1:-0.21913636974758202 2:-0.1736510321106731 3:-0.3177092793571087 
0.25 1:-0.8912124987348705 2:0.5768159739096763 3:0.3177755011911337 
0.25 1:-0.3853643546497302 2:0.26203006774724674 3:-0.4850933496764924 
0.25 1:-0.3425131065069271 2:-0.5928761586714716 3:-0.23970377707185542 
0.25 1:-0.6423943293263857 2:0.04478796089902725 3:-0.3769969233598392 
0.25 1:0.027617103771108056 2:0.1797938124982923 3:8.699592428836523 
0.25 1:-0.5062254039256053 2:-0.03370257369071799 3:-0.37400327999671373 
0.25 1:-0.8688907637624944 2:0.9177589306780722 3:0.04043537529293675 
0.25 1:-0.8376502002422795 2:0.6204611304135556 3:4.126316937264643 
0.25 1:-0.8301876987156838 2:0.07646910148105922 3:0.4153746971018837 
0.25 1:-0.873243302424371 2:-0.23236144803173464 3:-0.4085708162810811 
0.25 1:-0.33397245320170144 2:0.40736693674034674 3:-0.45690967123108783 
0.25 1:-0.8120024022665482 2:-0.12573197441478534 3:-0.6708819933691216 
0.25 1:-0.831411483196438 2:-0.028042804311731527 3:-0.25954509252660724 
0.25 1:-0.4076250178437961 2:0.8422581886455486 3:-0.5620620361645239 
0.25 1:-0.1460592891703334 2:0.0043748816004424386 3:-0.4913099572961471 
0.25 1:-0.8785659427955594 2:0.8786348057072363 3:-0.5768966730937476 
0.25 1:-0.7595393957835407 2:0.47065653250998885 3:-0.45169514152115936 
0.25 1:-0.8603548082863696 2:0.4615805495931723 3:-0.47207547037266573 
0.25 1:-0.7817154980537924 2:1.2573063278735677 3:0.011758774696625392 
0.25 1:-0.31048330769778043 2:-0.0023364031511809 3:-0.612341925650607 
0.25 1:-0.8030530378295542 2:0.15513892671037854 3:-0.5273203190286603 
0.25 1:-0.6846583488315907 2:-0.2992126281280506 3:-0.38562393368422415 
0.25 1:-0.33397245320170144 2:0.1928093437927764 3:0.13543312706304186 
0.25 1:-0.7270304184061139 2:0.8416573227183274 3:-0.5824406874302439 
0.25 1:-0.59784951379275 2:0.022134346304197146 3:-0.5120921780880111 
0.25 1:-0.8180884398666142 2:0.7129217978111929 3:-0.18938808214368538 
0.25 1:-0.7772549093225979 2:0.08528341697795684 3:-0.4565470076856339 
0.25 1:-0.6562740654046527 2:-0.07091749563473856 3:-0.6278994156553364 
0.25 1:-0.4982367455397218 2:0.31983918477747675 3:-0.283182140694102 
0.25 1:-0.6934573827373597 2:0.03411774499789021 3:-0.3302098860981596 
0.25 1:-0.6017862945792071 2:0.1757428131825109 3:3.623785473301594 
0.25 1:-0.8300467638426604 2:0.5587027736197351 3:-0.35288213604006974 
0.25 1:-0.27133394888639534 2:-0.042497506415769756 3:-0.4367813699896896 
0.25 1:-0.552099705094763 2:1.1085241711848692 3:-0.48473600695868413 
0.25 1:-0.2615483708694618 2:-0.6744970109143207 3:-0.6044704389612845 
0.25 1:-0.7184052041770741 2:0.01895072602851718 3:-0.6712425387507038 
0.25 1:-0.4572904670972867 2:0.2670259771905131 3:0.9593652536503375 
0.25 1:-0.8850465980400913 2:-0.3548896402552375 3:1.0000717880301013 
0.25 1:-0.10075812315147142 2:-0.2312275558787527 3:-0.14906585047148874 
0.25 1:-0.8745469499998386 2:0.05890831018872474 3:-0.3416449716851997 
0.25 1:-0.7207682122147686 2:1.2889293201400622 3:-0.4006843160462362 
0.25 1:-0.8172686686885273 2:0.2193395127567754 3:0.06566601134030826 
0.25 1:-0.8598263025125313 2:0.7559467056160053 3:-0.3179522581711571 
0.25 1:-0.8565025884237265 2:-0.10660117860293729 3:-0.5571699248864873 
0.25 1:-0.8927510377653775 2:1.2302576697626924 3:1.208063296550676 
0.25 1:-0.4319785639022614 2:-0.5338265442431078 3:-0.6665875601544298 
0.25 1:-0.7909420344077326 2:0.6952107900370529 3:-0.5569390619697849 
0.25 1:-0.5600554786769412 2:0.04755969727298302 3:-0.02526518775707607 
0.25 1:-0.7652096755081871 2:0.3499503208399954 3:1.0871448109438053 
0.25 1:-0.37229734300589895 2:-0.15694792847251712 3:-0.02526518775707607 
0.25 1:-0.604097626496793 2:-0.015516688006354822 3:0.41725047524540115 
0.25 1:-0.32644887989679555 2:0.9864853939504736 3:-0.4312641292445313 
0.25 1:-0.8906370146700244 2:0.5093687735791006 3:-0.5207523334406601 
0.25 1:-0.08864242190054898 2:-0.5283557568896184 3:-0.479732564987552 
0.25 1:-0.5621530593704412 2:1.2297779461595073 3:-0.37331785911314846 
0.25 1:-0.8946090291747375 2:0.43938727582968107 3:-0.3271328887503557 
0.25 1:0.39945027709817765 2:-0.5184802346341608 3:-0.7004818253431998 
0.25 1:-0.8712255848255842 2:-0.3517254027514034 3:1.0000717880301013 
0.25 1:-0.8519527409396169 2:1.0165674558552238 3:-0.4850128086134356 
0.25 1:-0.33939139906945603 2:0.8243969643896032 3:-0.5620620361645239 
0.25 1:-0.3156015925030848 2:0.3141891067844132 3:-0.6877995987591353 
0.25 1:-0.5780364195601927 2:0.45578510081126505 3:-0.025231432697616924 
