svm_type c_svc
kernel_type rbf
gamma 2.0
nr_class 2
total_sv 4886
rho 0.24489824722180462
label 1 -1
probA -2.233545357529011
probB 0.4320977341297762
nr_sv 2459 2427
SV
8.0 1:-0.48820762563960873 2:-1.2018186826097745 3:-0.7462451727261475 
8.0 1:0.5290349041608815 2:1.3818722546657376 3:2.298410215437609 
8.0 1:-0.4928642702147071 2:-1.3867725536897022 3:-1.291374394533867 
8.0 1:0.0013099976447525194 2:-1.4327723475902012 3:-1.3623539954501374 
7.200359467682164 1:0.6798122426514178 2:-0.5621149706296384 3:1.6356353654067195 
6.313206983391838 1:0.0766986668900207 2:-0.5621149706296384 3:1.6356353654067195 
8.0 1:0.6798122426514178 2:-1.4833158967630606 3:-1.4184691150775968 
8.0 1:3.5638035259665504 2:-1.3297720048853605 3:-1.2635457585812484 
8.0 1:1.5844847171931395 2:-1.436885292378326 3:-1.359730421269698 
8.0 1:-0.2175016357938431 2:-1.4148872802751362 3:-1.335938459563042 
8.0 1:0.41176176453524127 2:-1.085579409822636 3:-0.7908273382000006 
8.0 1:0.599399632296116 2:-1.1884902942887658 3:-0.9577310434278344 
8.0 1:-0.012018222594218806 2:-1.4314132819026957 3:-1.3614724652827295 
8.0 1:0.8808501012385501 2:-1.1863450750535172 3:-0.9128024387438355 
8.0 1:-0.418163754247536 2:-1.5082241768560143 3:-1.4650957505352884 
8.0 1:0.0766986668900207 2:-1.0967535085899582 3:-0.6033245566967983 
8.0 1:-0.4661022847554611 2:-1.06865170572622 3:-0.8118797508405591 
8.0 1:0.0766986668900207 2:-1.5015724321521893 3:-1.4550331136583459 
8.0 1:0.8808501012385501 2:0.05041353376247184 3:2.1708496697720268 
6.765510727005722 1:1.2829258184128147 2:0.8735539430352012 3:3.2035884212596053 
8.0 1:-0.5120059080238601 2:-1.2579241747619916 3:-0.9259168436034356 
3.1375394828996006 1:2.006664642406043 2:-0.39483262904115984 3:0.7018193952434094 
8.0 1:0.17721970708321294 2:-1.130003339640026 3:-0.585169095469523 
8.0 1:1.5844847171931395 2:-1.4237032740979911 3:-1.3467891534903467 
8.0 1:1.1623047919802363 2:-1.5125756176642409 3:-1.4711275999370301 
0.6703054202030057 1:2.288119333147729 2:3.994159831066432 3:7.483714033258484 
8.0 1:1.5844847171931395 2:-1.5026251226391265 3:-1.4555016345911078 
8.0 1:0.3782575656703453 2:-1.1643407789388605 3:-0.8241734188195879 
8.0 1:1.5844847171931395 2:-1.3503735436478794 3:-1.2172364035626406 
8.0 1:1.0973524104862311 2:-1.1377168451492259 3:-1.00485871459885 
8.0 1:1.5844847171931395 2:-0.5060278562468056 3:-0.16626588289408298 
8.0 1:1.1623047919802363 2:-1.4116167487223201 3:-1.3213778346753162 
8.0 1:-0.4736424182197636 2:-1.3886052915622968 3:-1.2859671480148926 
8.0 1:0.41176176453524127 2:-1.4336693605855184 3:-1.3169257304665443 
0.004749656952362263 1:2.8510244928318498 2:2.0349778067612907 3:7.257418807850257 
8.0 1:2.006664642406043 2:-1.2802469398351335 3:-1.133748240026269 
8.0 1:0.3782575656703453 2:-1.0985950796484825 3:-0.8228709020179039 
8.0 1:1.5844847171931395 2:-1.2889058333713193 3:-1.0975387130718453 
8.0 1:1.5844847171931395 2:-1.3390828942527868 3:-1.21585042665586 
8.0 1:1.5844847171931395 2:-1.1456235543694655 3:-0.8659613487774651 
8.0 1:1.5844847171931395 2:-1.258758406925768 3:-1.0682627017435684 
8.0 1:0.28547086170705344 2:-1.5047982049440864 3:-1.4435919271087612 
8.0 1:0.17721970708321294 2:-1.3362258625111094 3:-1.207716174844 
8.0 1:0.31794494155443 2:-1.456538716090015 3:-1.3945321297473194 
1.5711542687153195 1:2.796297309126501 2:3.1848229643779766 3:6.413125106303576 
8.0 1:1.5844847171931395 2:-1.4067124334712724 3:-1.3009576722178604 
8.0 1:2.288119333147729 2:-1.3783332448560908 3:-1.2554132672989617 
8.0 1:1.5844847171931395 2:-0.608104864247921 3:-0.3615043763269321 
8.0 1:0.8808501012385501 2:-0.9567382041532975 3:-0.6454612915764358 
8.0 1:2.006664642406043 2:-1.0850601489128493 3:-0.895165178393226 
8.0 1:0.44784548274318814 2:-1.5090832486500227 3:-1.4505205462620319 
8.0 1:0.5290349041608815 2:-0.3559986238390924 3:0.714812873727926 
8.0 1:0.8808501012385501 2:-1.4557412987481333 3:-1.3685105673688558 
8.0 1:0.8808501012385501 2:-1.517657130182026 3:-1.4554017245378086 
8.0 1:1.5844847171931395 2:-1.161780399964916 3:-1.0181047190440735 
8.0 1:1.5844847171931395 2:-1.0455807875897705 3:-0.7749634262789025 
8.0 1:-0.5130106962458668 2:-1.4394454935028893 3:-1.2316844095742079 
8.0 1:0.0013099976447525194 2:-1.1857669459985745 3:-0.8733082037375534 
8.0 1:0.31794494155443 2:-0.1959897883908862 3:0.24268428577036802 
8.0 1:1.0973524104862311 2:-1.11768780354458 3:-0.8576962676116702 
8.0 1:-0.47429257530459146 2:-1.4604754714245622 3:-1.3457747033401355 
8.0 1:3.54980403964649 2:-1.3072834249058738 3:-1.217976101066279 
8.0 1:0.9858715794345119 2:-1.14173932388548 3:-0.8506651526272889 
5.462706054762651 1:3.1987023266424317 2:0.7017801931755427 3:2.6031879236556508 
8.0 1:1.8273310537741054 2:-0.08254571504391722 3:0.47952777913509226 
8.0 1:0.31794494155443 2:-1.2519546602841998 3:-1.058367810325056 
8.0 1:2.543985698622261 2:-1.3759208365672506 3:-1.278904893663679 
8.0 1:-0.30421317063332126 2:-0.9992321124866119 3:-0.3491883716289387 
8.0 1:0.3718404308071092 2:-0.5020813784794229 3:0.03539089618190304 
8.0 1:-0.3010510429934766 2:-1.339414227649841 3:-1.1887091674686163 
8.0 1:1.5844847171931395 2:-0.6666528212343901 3:0.6357817108732031 
8.0 1:-0.3345130238658513 2:-1.4153661100922783 3:-1.2741515188316326 
8.0 1:1.5844847171931395 2:-1.519917299400615 3:-1.4973750052498516 
8.0 1:0.8808501012385501 2:-1.136911068886431 3:-0.22902810199269205 
3.9020642412263733 1:0.8808501012385501 2:0.7325050965616389 3:2.1032080329272143 
8.0 1:0.5290349041608815 2:-1.5199401234045273 3:-1.4953665711057214 
1.6735026656519487 1:3.6615803966458587 2:-1.0935834619374831 3:-0.9516719608342518 
8.0 1:0.5290349041608815 2:-1.5022291706335933 3:-1.4492909263880027 
8.0 1:1.0087832839758162 2:-1.282533134346495 3:-1.1333517357563752 
8.0 1:-0.0573265721680676 2:-1.383225881331111 3:-1.2613363489829872 
8.0 1:0.8808501012385501 2:-1.3824487981018057 3:-1.2613363489829872 
8.0 1:2.6399345302253976 2:-1.3447794099305364 3:-1.2171730244979926 
8.0 1:0.17721970708321294 2:-1.4399451316976242 3:-1.3266094133527793 
8.0 1:-0.30421317063332126 2:-1.1335874789349096 3:-0.7982736080644455 
8.0 1:0.17721970708321294 2:-0.8689280363743124 3:-0.2984834143975598 
8.0 1:3.5615237543704006 2:-1.452140797310185 3:-1.399019884679956 
8.0 1:0.599399632296116 2:-1.5017587590204917 3:-1.4470330472099198 
8.0 1:1.4358309437264243 2:-1.4495852202695312 3:-1.3634237922488173 
8.0 1:-0.29752161881869676 2:-0.7698622555283182 3:-0.2188228622202913 
8.0 1:1.5844847171931395 2:-1.3153072183020271 3:-1.226259282676752 
8.0 1:1.5844847171931395 2:-0.3552913761334462 3:0.20086461126361782 
8.0 1:0.41176176453524127 2:-1.3397873556514621 3:-1.1597664463952329 
8.0 1:-0.16274067769447742 2:-0.056187962494714604 3:1.095927859470407 
4.756831270197319 1:3.167659436741527 2:-1.5025692779334503 3:-1.459047451185344 
8.0 1:2.288119333147729 2:-1.3557999653988122 3:-1.2672992076320655 
8.0 1:0.6867444370234136 2:-1.1657674273911973 3:-1.0075664640995252 
8.0 1:0.0599465674575727 2:-1.4889802809859518 3:-1.423856115506475 
0.20500450740646553 1:3.0922707674962586 2:1.7249910780933924 3:5.427121923041053 
8.0 1:0.26517245090281705 2:-1.1456157882798226 3:-0.37162136955445846 
8.0 1:-0.004448536535151498 2:-1.4200866476494869 3:-1.3367216201405276 
8.0 1:2.288119333147729 2:-1.2893412086563374 3:-1.1285887330282232 
8.0 1:0.027265619446841752 2:-1.2800437765587505 3:-1.1415831467940758 
4.4373210400945675 1:1.9865604343674044 2:-1.2408033855207898 3:-1.0519134338256613 
8.0 1:0.9813711414317423 2:-1.4532303026190172 3:-1.3617732957736106 
8.0 1:3.375692816689437 2:-1.270746285178036 3:-1.178733896871761 
8.0 1:1.5844847171931395 2:-1.5055669885356053 3:-1.4611702647352056 
1.1926696690180174 1:3.273204418044753 2:2.2939045709366415 3:3.5839793892149623 
8.0 1:-0.10423498365847327 2:-1.2480659242825591 3:-0.9852275444730921 
8.0 1:0.8808501012385501 2:-1.2321514873935955 3:-1.082490421492245 
8.0 1:-0.41531403975234893 2:0.5864605795382523 3:1.9245191226678136 
8.0 1:0.5290349041608815 2:-0.8951002327358644 3:-0.5094844242513803 
8.0 1:1.5844847171931395 2:-1.4742958504169168 3:-1.4025005616799704 
8.0 1:0.8808501012385501 2:-1.4686870144840667 3:-1.3772529721152804 
1.6957130127056341 1:1.8079909914001027 2:5.530225965327569 3:10.521384630372262 
8.0 1:1.5844847171931395 2:-1.2924206114075605 3:-1.1086201464063838 
8.0 1:-0.4960432850515602 2:-1.493828395832561 3:-1.4294333081458466 
8.0 1:2.006664642406043 2:-1.4233737191947484 3:-1.3325496051835979 
8.0 1:0.5290349041608815 2:-1.2272531004552518 3:-1.0554425253889486 
8.0 1:1.5844847171931395 2:-1.2621598356230992 3:-1.1022727220785824 
8.0 1:1.7252099516643564 2:0.435057638510654 3:0.8702005698992994 
8.0 1:-0.2783715374110395 2:-0.40598674939466783 3:0.541402636312081 
8.0 1:3.307666965339882 2:-1.073201448594412 3:-0.933250714657919 
8.0 1:2.288119333147729 2:-1.4170308395828275 3:-1.3201684608913828 
0.9693515809511353 1:1.5844847171931395 2:5.201101635436399 3:8.053478015289649 
8.0 1:1.5844847171931395 2:-1.3858393779868876 3:-1.2585017313199178 
8.0 1:1.5844847171931395 2:-1.3514692736850513 3:-1.2236247051864777 
8.0 1:-0.262552455613312 2:-0.7129485565050975 3:-0.1492780378899182 
0.7512821471528779 1:2.7211239516430914 2:2.53815306998817 3:10.363639255002607 
8.0 1:0.44784548274318814 2:2.3974626493007207 3:6.362949793391091 
8.0 1:0.8808501012385501 2:-1.5083013634874267 3:-1.451642113633484 
8.0 1:1.5844847171931395 2:-1.5201065904252695 3:-1.4992845196385673 
8.0 1:0.5290349041608815 2:-1.3507776767249449 3:-1.1851863477919347 
8.0 1:0.3854937295884944 2:-1.4329325305994767 3:-1.3402246888760556 
8.0 1:0.5290349041608815 2:-1.4735524400037732 3:-1.4012864564728083 
8.0 1:1.5844847171931395 2:-1.5053434318635188 3:-1.458542179197734 
8.0 1:-0.40914176924573625 2:-1.1591812498258842 3:-0.8559180777258314 
8.0 1:1.5844847171931395 2:-1.3905046043865632 3:-1.2712123697251334 
6.848427333046009 1:2.757207669851038 2:0.20038182311558267 3:0.9537350023535256 
8.0 1:-0.01979899861589266 2:-1.4787920013382603 3:-1.3732940912698492 
8.0 1:0.5290349041608815 2:-1.4591933552359608 3:-1.3808726759350567 
8.0 1:0.6798122426514178 2:-1.2514018451245055 3:-1.0463289239852498 
8.0 1:2.428844567618946 2:-1.3890612380923997 3:-1.299535549438273 
8.0 1:1.5844847171931395 2:-1.4470314217226887 3:-1.3673645176330211 
1.232890626533191 1:3.0922707674962586 2:4.893697991180103 3:18.053268607846675 
8.0 1:0.5290349041608815 2:-1.39502636561879 3:-1.26658993428012 
8.0 1:0.0013099976447525194 2:-1.4620971613648768 3:-1.3679262366000833 
8.0 1:0.0013099976447525194 2:-0.9405005556556847 3:-0.5209223098080147 
8.0 1:1.5844847171931395 2:-1.4418157514884007 3:-1.3549397452173115 
8.0 1:1.662668217543317 2:-1.4153494515335787 3:-1.3265937336362648 
8.0 1:2.006664642406043 2:-1.5107959974734784 3:-1.4722848730488962 
6.816180985031994 1:0.5290349041608815 2:-0.7579870745005625 3:0.5710719609503992 
8.0 1:0.08553911452397882 2:-0.4687860772709116 3:0.06798060928345244 
8.0 1:2.6399345302253976 2:-1.1951386598543492 3:-0.14002711517948202 
8.0 1:0.17721970708321294 2:-1.1320493189206013 3:-0.6477058567496188 
8.0 1:0.17721970708321294 2:-1.1320493189206013 3:-0.6477058567496188 
8.0 1:0.17721970708321294 2:-1.1320493189206013 3:-0.6477058567496188 
8.0 1:0.17721970708321294 2:-1.1320493189206013 3:-0.6477058567496188 
8.0 1:0.17721970708321294 2:-1.1320493189206013 3:-0.6477058567496188 
8.0 1:0.17721970708321294 2:-1.1320493189206013 3:-0.6477058567496188 
8.0 1:0.8808501012385501 2:-1.1599528790075013 3:-0.916169616602905 
7.9344646125070195 1:1.5844847171931395 2:-0.6637482444248225 3:0.7007803526957174 
8.0 1:1.1623047919802363 2:-1.2122149867502667 3:-0.954695395294085 
8.0 1:-0.17459971179370784 2:-1.304071346516324 3:-1.1898102136672266 
8.0 1:3.226296006554347 2:-1.5178480811342379 3:-1.4873747571396714 
8.0 1:2.006664642406043 2:-1.509690189304709 3:-1.4648607748537683 
8.0 1:1.5844847171931395 2:-1.5069176360190706 3:-1.46646368201394 
8.0 1:1.349938437941859 2:-1.2696998787025657 3:-1.1807918459101472 
8.0 1:1.334955272396053 2:-0.8147316980454511 3:-0.42780581003387647 
8.0 1:0.8808501012385501 2:-1.3811116078881795 3:-1.2681334235671842 
8.0 1:0.03649025081274378 2:-1.2344356662786373 3:-0.9126947163405535 
8.0 1:3.3706308793861344 2:-1.4176980711777187 3:-1.3360468421649139 
8.0 1:2.870347668008844 2:-0.8048143422883548 3:-0.5086470723729587 
8.0 1:-0.418163754247536 2:-0.4976064509175616 3:-0.06886568456819296 
8.0 1:2.187598292954537 2:-1.3695390079408614 3:-1.2423762157074996 
8.0 1:1.5844847171931395 2:-1.1645002505506115 3:-0.9216745174966624 
8.0 1:0.8808501012385501 2:-0.5414751942501757 3:0.12800107865399696 
8.0 1:0.3531251947224211 2:-1.364013168385874 3:-1.236645912011778 
8.0 1:2.4104881844706894 2:-1.3640991289200892 3:-1.2529158460657772 
8.0 1:1.5844847171931395 2:-0.7047265796152328 3:-0.42280012930731997 
8.0 1:2.991749727303066 2:-0.7100272025705762 3:-0.2814265236241822 
8.0 1:2.288119333147729 2:-1.252390094852345 3:-1.0755136078418983 
8.0 1:-0.3187868216516707 2:-1.352727143074691 3:-1.1510256371287342 
8.0 1:1.7763866021986647 2:-1.3755052025635384 3:-1.29014928601687 
0.21312864219763125 1:0.8808501012385501 2:0.24516026603270144 3:1.596073239978757 
8.0 1:-0.3345130238658513 2:-0.9591559479235718 3:-0.592458513152274 
8.0 1:1.5844847171931395 2:-1.1864139620471434 3:-0.9394028302361541 
8.0 1:0.03649025081274378 2:-1.4349990218420097 3:-1.337198833688059 
8.0 1:-0.10423498365847327 2:-1.5004602806888259 3:-1.4370428121116896 
8.0 1:1.5844847171931395 2:-1.2778262319085067 3:-1.0932755907094842 
8.0 1:1.5844847171931395 2:-1.5071933025598294 3:-1.4583253039608917 
8.0 1:-0.47493006699166296 2:-1.4518091674974956 3:-1.3242327534450307 
6.355837969566426 1:1.5844847171931395 2:-0.603017008435542 3:2.014927707891629 
8.0 1:1.5844847171931395 2:-0.603017008435542 3:2.014927707891629 
8.0 1:0.5290349041608815 2:-1.3260877956720247 3:-1.1766438731852065 
8.0 1:0.5290349041608815 2:-1.4705145354414817 3:-1.393812128168285 
8.0 1:0.8808501012385501 2:-1.3009064574959022 3:-1.1196615827096736 
8.0 1:0.6660027372977037 2:-1.222207691361837 3:-1.0920185725939666 
8.0 1:1.1623047919802363 2:-1.4773971879251464 3:-1.4124299484748148 
8.0 1:1.5844847171931395 2:-1.5197536186868439 3:-1.4961172169026455 
8.0 1:2.288119333147729 2:-1.519982155141602 3:-1.497953009115469 
8.0 1:0.31794494155443 2:1.6854574134259406 3:3.281818653191459 
8.0 1:-0.386850669194495 2:-1.393163215502021 3:-1.1842021567437688 
8.0 1:1.5116966762871829 2:-1.4168567843218236 3:-1.303072728434289 
8.0 1:0.5290349041608815 2:-1.223427323134533 3:-1.0462701663107323 
8.0 1:1.0567598106770104 2:-0.936497106803212 3:-0.7352942936627975 
8.0 1:0.0013099976447525194 2:-1.0072889265845295 3:-0.49778906124461386 
8.0 1:-0.4850243890035035 2:-1.2466262335422724 3:-0.9101785344641007 
8.0 1:-0.4436338691356304 2:-1.2618025954995262 3:-0.9101785344641007 
8.0 1:2.6399345302253976 2:-1.5174656456816709 3:-1.4858978928936564 
8.0 1:0.9813711414317423 2:-1.1905957938288942 3:-0.919733148525975 
8.0 1:3.286764837242591 2:-1.4561977195432523 3:-1.3908503672600754 
8.0 1:1.5844847171931395 2:-1.3701933158140565 3:-1.239037261338156 
6.404785089057214 1:1.4221058743577526 2:0.11477165218123557 3:1.892379995103996 
8.0 1:-0.10423498365847327 2:-1.3939519182242273 3:-1.2553908205468989 
8.0 1:3.273204418044753 2:-1.3237926494084795 3:-1.2693373507127492 
8.0 1:0.42348992285765574 2:0.018323754942419623 3:0.7761536302455376 
8.0 1:1.3925828321876144 2:-1.374606292508156 3:-1.2420668576514966 
8.0 1:0.8808501012385501 2:-1.428496492768957 3:-1.3360468421649139 
8.0 1:1.5844847171931395 2:-1.269514085382407 3:-1.181940536440342 
8.0 1:-0.4909391297557362 2:-1.1773173219008575 3:-0.7973152747943911 
8.0 1:-0.3345130238658513 2:-0.7596959699207603 3:0.030499099712135803 
8.0 1:0.31794494155443 2:-1.1358806095721354 3:-1.000088394669658 
8.0 1:1.5844847171931395 2:-1.4156012269741387 3:-1.3093797155984477 
8.0 1:0.8808501012385501 2:-1.4749819340462083 3:-1.407526213413877 
0.9318521170800806 1:-0.4346372149293435 2:-0.8007273635098758 3:0.4808057035392955 
8.0 1:-0.31532494626492485 2:-1.0865213001451262 3:-0.6414456336522576 
8.0 1:1.5844847171931395 2:-1.498258149651614 3:-1.4405446154665866 
3.784230234535228 1:0.0013099976447525194 2:-1.171369208631929 3:-0.30464130671345835 
4.141303769687342 1:0.31794494155443 2:-0.5442880600622045 3:0.9633747270169712 
8.0 1:0.31794494155443 2:-0.8853378430728637 3:-0.4404808527317766 
8.0 1:-0.0573265721680676 2:-1.2442252076138247 3:-1.0643339149505355 
7.620186418046495 1:2.288119333147729 2:2.442481959563023 3:6.342177470002374 
8.0 1:0.5290349041608815 2:-1.2160300931081176 3:-0.9537767289559848 
8.0 1:1.8937230688130868 2:-0.9700196995208137 3:-0.6290680654357388 
8.0 1:0.0766986668900207 2:-1.2120380858991646 3:-0.5553826956145633 
8.0 1:1.5844847171931395 2:-1.4085666318358574 3:-1.2910894088091478 
8.0 1:2.288119333147729 2:-1.2632142453207207 3:-1.1652511562154437 
8.0 1:0.8808501012385501 2:-1.4711312578121303 3:-1.3889922383282876 
8.0 1:1.5844847171931395 2:-1.3960191801474118 3:-1.2949748975779813 
8.0 1:2.6399345302253976 2:-1.4504639147785914 3:-1.3808832941290472 
8.0 1:3.2445130703272835 2:-0.7851806598579719 3:-0.47138915005748344 
8.0 1:1.5844847171931395 2:-1.4657311577696053 3:-1.4071862661565335 
8.0 1:1.5844847171931395 2:-1.3442483516784678 3:-1.218039810230222 
8.0 1:1.4603131575895205 2:-1.331764985050358 3:-1.15845853797173 
8.0 1:0.31794494155443 2:-0.7294362019494588 3:-0.10168443156395181 
8.0 1:2.8510244928318498 2:-1.0159769281360944 3:-0.8780561319312318 
8.0 1:1.5844847171931395 2:-1.4980676729644187 3:-1.445090247808954 
8.0 1:0.0013099976447525194 2:-1.4869807203938525 3:-1.4076518161956402 
1.1762236197877471 1:2.7357018244606928 2:4.527772415230111 3:6.5459554121317485 
8.0 1:2.006664642406043 2:-1.5031104736002434 3:-1.4545949618607275 
8.0 1:-0.30421317063332126 2:-1.0622409469338325 3:-0.8510179737571391 
2.7022450574133217 1:0.8808501012385501 2:1.0795303816459207 3:3.4493788158840317 
8.0 1:1.5844847171931395 2:-1.3534097882826137 3:-1.2327588277630184 
8.0 1:0.6382190764194425 2:-1.2155816755351496 3:-1.0791833217048732 
8.0 1:1.5844847171931395 2:-1.5172318330286056 3:-1.4854624919234969 
8.0 1:-0.4533102330215102 2:-1.1541468081109725 3:-0.6181993260803051 
8.0 1:-0.17459971179370784 2:-1.4160957668199476 3:-1.262059321455677 
8.0 1:0.8808501012385501 2:-1.2917621537154722 3:-1.1110089649715 
8.0 1:-0.24115637700352205 2:-0.25660299167422024 3:0.6106027269453326 
8.0 1:0.2607015654948124 2:-1.1157771676430486 3:-0.9415927639760078 
4.9059448025563235 1:1.5844847171931395 2:0.8970246665804418 3:3.4278840151715695 
8.0 1:1.7468635600285263 2:-1.264934463818184 3:-1.093123965099962 
8.0 1:0.31794494155443 2:-1.3811025968528687 3:-1.239279114088323 
0.7773614017668139 1:2.288119333147729 2:-0.5828477622354349 3:3.2523900809723245 
8.0 1:1.3925828321876144 2:-1.5134825309417745 3:-1.4687842250415317 
8.0 1:1.5844847171931395 2:-0.6286799627357778 3:-0.22098495758626327 
8.0 1:1.5844847171931395 2:-1.4689521286282117 3:-1.3988660033919174 
5.174564431634674 1:1.5844847171931395 2:-0.09958913980432502 3:0.760269912366737 
8.0 1:0.5290349041608815 2:-1.064215549329446 3:-0.8510933464295067 
8.0 1:0.9813711414317423 2:-1.447186150684276 3:-1.347646036243725 
8.0 1:3.3787493993479787 2:-0.9806665934393249 3:-0.7079714798632808 
8.0 1:0.8808501012385501 2:-1.4234964352677315 3:-1.318353409917598 
8.0 1:1.1623047919802363 2:-1.336511429334085 3:-1.1740354285557897 
8.0 1:1.5844847171931395 2:-1.4062439782013632 3:-1.2841074236031786 
8.0 1:-0.10423498365847327 2:-1.233364479456062 3:-0.9842039615757181 
8.0 1:1.5844847171931395 2:-1.5174028648501303 3:-1.4857578207594606 
8.0 1:-0.42086992756815067 2:-1.2421494089203458 3:-0.9923787605843193 
8.0 1:0.31794494155443 2:-1.039431941652668 3:-0.7160143491869638 
8.0 1:0.7725989466147097 2:-1.3314166373958416 3:-1.1708569574603855 
8.0 1:0.31794494155443 2:-1.2175360031013136 3:-0.6807475858191782 
8.0 1:1.5844847171931395 2:-1.177821880595137 3:-0.9507183039708773 
8.0 1:1.5844847171931395 2:-1.384107184297761 3:-1.2763301191623564 
8.0 1:0.8808501012385501 2:-1.151486181369195 3:-0.9354980306585607 
8.0 1:1.5844847171931395 2:-0.77629619402338 3:-0.48507567201193963 
0.2643219474825875 1:0.8808501012385501 2:0.555890760812506 3:5.405501024397884 
2.89939955969371 1:0.0013099976447525194 2:0.4860858272471059 3:3.057241759663571 
8.0 1:1.4719019965366147 2:-0.8676631122925542 3:-0.5235990299749559 
8.0 1:2.14738987687726 2:-1.4276076015620447 3:-1.3398741234247218 
8.0 1:3.4943464846705234 2:-1.355886755896806 3:-1.2601857328735715 
8.0 1:0.8808501012385501 2:-0.9353735136963289 3:-0.8272766272757228 
8.0 1:-0.0573265721680676 2:-1.3795881500893785 3:-1.2574339701335575 
3.750490264061892 1:0.8808501012385501 2:-0.003717296711004799 3:2.0183442906118563 
8.0 1:2.006664642406043 2:-1.1305412154517047 3:-0.908637740987946 
8.0 1:-0.38083460526021107 2:-1.236254887598266 3:-1.0156775539441836 
8.0 1:1.886043615973464 2:-1.4551637032413343 3:-1.37528717579676 
8.0 1:2.7157411575966264 2:-1.1710616477688198 3:-1.0409721276418675 
8.0 1:0.4630692908463654 2:-0.8581609755572809 3:-0.47648555307362717 
8.0 1:2.0698396464149016 2:-1.1327592936500916 3:-0.9249846982107881 
8.0 1:2.058250807467807 2:-1.2634160450851817 3:-1.1837101987610588 
8.0 1:0.8808501012385501 2:-1.342915429849989 3:-1.19296876877183 
8.0 1:1.5844847171931395 2:-1.5128648007579661 3:-1.470849546297507 
8.0 1:1.5844847171931395 2:-0.9044027038992503 3:0.197368639662933 
8.0 1:2.9277852468340595 2:-0.93914528408831 3:-0.7133207389394262 
8.0 1:1.1623047919802363 2:-1.4087140689728181 3:-1.2995341740245436 
8.0 1:2.4640248207869373 2:-1.1897418796669388 3:-1.1195646435500297 
8.0 1:-0.437533369216304 2:-1.4173585567091322 3:-1.2510672900135456 
8.0 1:0.5290349041608815 2:-0.9847035965417053 3:-0.6369356520337549 
8.0 1:-0.1426153606595783 2:-1.2407802058181152 3:-0.9139077212167324 
8.0 1:1.5844847171931395 2:-1.2607716026370877 3:-1.0471839911925052 
8.0 1:0.8808501012385501 2:-1.0277423168125628 3:-0.8299004765389083 
8.0 1:1.0567598106770104 2:-0.8603775123943646 3:0.9117776764407431 
7.999325337090534 1:0.0013099976447525194 2:-0.2752055626759103 3:0.5884157080111679 
5.166376819262386 1:2.006664642406043 2:-0.6240627556690086 3:0.6043661059475667 
8.0 1:0.9420366377996563 2:-1.3851169538007178 3:-1.2983540140282215 
8.0 1:-0.10423498365847327 2:-1.5081280789070743 3:-1.4557010145653129 
8.0 1:2.6399345302253976 2:-1.4977235344119226 3:-1.45540695110998 
8.0 1:0.3702488124890565 2:-0.7336377157293887 3:-0.1288084705713045 
8.0 1:0.41176176453524127 2:-1.4709997678363445 3:-1.3843328867787785 
8.0 1:1.9569951742047444 2:-1.516596495756065 3:-1.4833490862035437 
8.0 1:1.2447987493668378 2:-1.274835457432216 3:-1.0942447072231767 
7.077982383493831 1:0.8808501012385501 2:-0.01895181541588998 3:1.060888589533454 
4.533672818613718 1:0.5290349041608815 2:-0.3828903395135892 3:0.964223137221777 
8.0 1:2.426083510908054 2:-0.5384924822791629 3:-0.10731961164615214 
3.4031875273616845 1:1.5844847171931395 2:-0.08771135031897925 3:1.723181934725977 
8.0 1:1.5844847171931395 2:-1.5201352834587591 3:-1.4994406015885728 
8.0 1:1.0797052896123318 2:-0.883391874427613 3:-0.5695700882326957 
8.0 1:2.288119333147729 2:-0.5728183613682237 3:-0.05039794940780852 
8.0 1:1.5844847171931395 2:-1.1938589742739567 3:-1.0592906029043443 
8.0 1:-0.262552455613312 2:-1.4174422644845195 3:-1.2583624844339596 
8.0 1:1.1623047919802363 2:-0.909103737307661 3:-0.6995834367100829 
8.0 1:0.8808501012385501 2:-1.2075818918054497 3:-0.9532310748212814 
0.12224416733446215 1:3.4974875033141073 2:2.3600936487341886 3:5.709573860587914 
8.0 1:2.3851700543556715 2:-1.4403157698079092 3:-1.3714341467919386 
8.0 1:1.5844847171931395 2:-1.45728390499697 3:-1.378669098091008 
8.0 1:0.49263877280827717 2:-1.0442198841253265 3:-0.800569393644909 
8.0 1:2.006664642406043 2:-1.5085151977266777 3:-1.4672186741182487 
8.0 1:0.5290349041608815 2:-0.2616721140184531 3:0.18250118748046637 
8.0 1:1.5844847171931395 2:-1.518793884143113 3:-1.4856933963803782 
8.0 1:0.5749258620315241 2:-1.1381513311873386 3:-0.8501064595704314 
8.0 1:2.288119333147729 2:-1.4912344626087093 3:-1.435445351589886 
8.0 1:0.17721970708321294 2:-1.5142057258085961 3:-1.4745106225622617 
8.0 1:3.365556276685075 2:-1.3843545727869198 3:-1.2921710891824492 
8.0 1:2.288119333147729 2:-1.0122026678527773 3:-0.7564438105126473 
8.0 1:0.13324122427378476 2:-1.5137009892649351 3:-1.455292846786994 
8.0 1:1.5844847171931395 2:-1.497134437978477 3:-1.440229260606724 
8.0 1:0.5290349041608815 2:-1.44249946379261 3:-1.3298099460844022 
8.0 1:1.886043615973464 2:-1.4623035259301203 3:-1.3916381492276917 
8.0 1:1.5844847171931395 2:-0.2884568829317605 3:1.4475152982217898 
8.0 1:1.5844847171931395 2:-1.4799646215912095 3:-1.4124766575250634 
2.9221484027750972 1:0.0766986668900207 2:-1.2460767975208196 3:-0.9293480057091941 
8.0 1:2.349326978705096 2:-1.1116641635717965 3:-0.9739388087812674 
8.0 1:0.12309201887166663 2:-0.8284812929841142 3:-0.5565103698229737 
8.0 1:1.5844847171931395 2:-1.2690557675272225 3:-1.1433485728405064 
8.0 1:1.5844847171931395 2:-1.1087377112883494 3:-0.871430268848063 
0.26969218953339286 1:3.167659436741527 2:2.6846853092977545 3:5.197027804912392 
8.0 1:1.5844847171931395 2:-0.8706400738002436 3:-0.5525698645049666 
8.0 1:2.288119333147729 2:-1.480768204378304 3:-1.419886121318111 
8.0 1:1.5844847171931395 2:-1.192809307226499 3:-0.481889443583102 
8.0 1:1.5844847171931395 2:-1.5176083994515952 3:-1.486715218748179 
8.0 1:-0.49579419889568466 2:-1.441883452819486 3:-1.348666758280542 
8.0 1:2.5147117426079983 2:-1.447956475637098 3:-1.3898674966090896 
8.0 1:-0.29186862962009597 2:-0.9305242131871788 3:-0.5918976744499989 
4.382351644773538 1:1.5844847171931395 2:-1.1314574361801844 3:-0.04079503081576006 
8.0 1:-0.23187264044809033 2:-1.3973268473637694 3:-1.258408863384913 
8.0 1:3.226296006554347 2:-1.336159406125692 3:-1.2435584113161409 
8.0 1:2.352083813616736 2:-1.282336729346595 3:-1.136797642297312 
8.0 1:0.1943813210431174 2:-1.1570244703808616 3:-0.8092462736812681 
8.0 1:2.8461229839001274 2:-1.4251511459098103 3:-1.35767989946545 
8.0 1:2.594043572354755 2:-1.4181764267298442 3:-1.3460042873998366 
8.0 1:3.2161510229514807 2:-1.4824228557372556 3:-1.4277921644839993 
8.0 1:0.8808501012385501 2:-0.7164184572141655 3:0.7583929127585829 
8.0 1:1.1623047919802363 2:-1.4681750453989064 3:-1.3857219446123126 
8.0 1:1.251186331635309 2:-0.5716356037005499 3:0.07395166539835744 
8.0 1:1.1851236169379937 2:-1.3117315564943108 3:-1.1637595475342501 
8.0 1:0.8808501012385501 2:-1.4431052187847555 3:-1.370226533537579 
8.0 1:2.8510244928318498 2:-1.3949669046423638 3:-1.3131244170179461 
8.0 1:0.8808501012385501 2:-1.3494138091041488 3:-1.1926412002380506 
8.0 1:0.0766986668900207 2:-1.185213478724483 3:-0.8034413125283181 
8.0 1:0.31794494155443 2:-1.4204485711400963 3:-1.2940601374148726 
8.0 1:1.5844847171931395 2:-1.485876335020132 3:-1.4307401712549155 
8.0 1:0.8808501012385501 2:-1.5175793507193431 3:-1.4853215945410634 
8.0 1:2.6399345302253976 2:-1.2454214225513378 3:-1.120374982302807 
8.0 1:0.5290349041608815 2:-1.108370274466925 3:-0.8407705362915222 
8.0 1:1.5844847171931395 2:-1.3066302434120924 3:-1.1341015012885123 
8.0 1:0.8808501012385501 2:-0.21229828022531771 3:0.2555731227783567 
8.0 1:1.5844847171931395 2:-1.4913232687330225 3:-1.4377484543713897 
5.339778769663012 1:0.41176176453524127 2:1.0120399206434831 3:4.164771658594164 
8.0 1:-0.0573265721680676 2:-1.3155032083200378 3:-1.100186769616667 
8.0 1:0.6798122426514178 2:-0.3137273236478319 3:0.13769026319514951 
8.0 1:0.17721970708321294 2:-1.413381014583178 3:-1.2691195401945712 
8.0 1:0.5290349041608815 2:-0.9584430090377294 3:-0.5408200901310675 
8.0 1:1.5844847171931395 2:-1.3228377760811665 3:-1.1510580418761975 
8.0 1:1.5844847171931395 2:-1.443617721418059 3:-1.3477073246795044 
8.0 1:1.7533566872783009 2:-1.5189022536993513 3:-1.491384143177244 
8.0 1:0.6798122426514178 2:-1.4955371726865048 3:-1.436172505320313 
8.0 1:0.3782575656703453 2:-1.402439187107618 3:-1.274430287686295 
8.0 1:1.5844847171931395 2:-1.295843322747501 3:-1.1353684223828813 
8.0 1:0.41176176453524127 2:-1.5084845483499956 3:-1.463936331778005 
8.0 1:2.288119333147729 2:-1.467542672282718 3:-1.3964778450253916 
8.0 1:0.8808501012385501 2:-1.4662998608073476 3:-1.3983781166338463 
8.0 1:0.0766986668900207 2:-1.4917424004412303 3:-1.4379576272913475 
8.0 1:-0.0573265721680676 2:0.5242709193405388 3:1.884358417184843 
8.0 1:0.27230306983966296 2:-1.269557836330166 3:-1.0201037453582948 
8.0 1:0.8808501012385501 2:-0.9235733258242851 3:0.9745899605991001 
8.0 1:0.8808501012385501 2:-0.9235733258242851 3:0.9745899605991001 
8.0 1:0.8808501012385501 2:-0.9235733258242851 3:0.9745899605991001 
0.23374982900055857 1:1.8190309964444202 2:-0.107608605532204 3:1.2594147619118168 
8.0 1:0.0766986668900207 2:-1.0173157782772775 3:-0.5258319316397141 
8.0 1:1.0973524104862311 2:-1.3753762024790885 3:-1.256078747477765 
8.0 1:-0.29186862962009597 2:-1.3602007297687402 3:-1.1858852780326357 
3.941070823462236 1:-0.46478086158954474 2:-1.2615703242077643 3:-0.7832768119748719 
8.0 1:2.8510244928318498 2:-1.1421999537826193 3:-0.9964858009966748 
8.0 1:0.11325100481495386 2:-1.2404966546214593 3:-1.0443549852174516 
8.0 1:1.5844847171931395 2:-1.2741151081554927 3:-1.0653387372046412 
8.0 1:0.8808501012385501 2:-1.3987684944472487 3:-1.2852808715805015 
8.0 1:1.4603131575895205 2:0.9893915133534831 3:2.0544933543787387 
8.0 1:1.0289845933972537 2:-1.3211748250844284 3:-1.1569425569592524 
8.0 1:-0.37005212997027354 2:-1.3204322446350631 3:-1.145066904720844 
8.0 1:2.1973253184314423 2:-1.3727939480312645 3:-1.2684502088573255 
8.0 1:0.31794494155443 2:-0.5277857716854631 3:-0.2600770216180866 
8.0 1:1.4672115775674992 2:-1.5186232080203506 3:-1.490251847578703 
8.0 1:1.2829258184128147 2:-1.042943992665065 3:-0.8464349301613338 
8.0 1:1.7051057436257182 2:-1.5099978687340723 3:-1.4700617093133417 
8.0 1:1.7252099516643564 2:-1.4637187920220645 3:-1.3885941385784677 
0.44906502998649017 1:3.6572108344199052 2:1.3487318602681946 3:2.3977178375233468 
8.0 1:1.5844847171931395 2:-1.0845579615436514 3:-0.017467133701383055 
8.0 1:2.288119333147729 2:-1.5202717532172167 3:-1.5033912299516279 
8.0 1:1.5844847171931395 2:-0.35034662978975367 3:0.33091872700394254 
1.2447891354045468 1:1.2829258184128147 2:8.426744182303338 3:15.389997841532898 
8.0 1:1.5414054776244148 2:-0.7845231506959164 3:-0.37969328761610505 
0.5615204039713181 1:2.8510244928318498 2:1.7694221218860278 3:7.018028653440838 
8.0 1:1.2829258184128147 2:-1.4887292169429165 3:-1.4229449314190628 
8.0 1:1.5844847171931395 2:-1.2338897872448076 3:-1.058762774131573 
8.0 1:-0.02973289225615225 2:-1.0516968499576171 3:-0.6644197193388993 
8.0 1:1.5844847171931395 2:-1.2253211819111112 3:-1.069596743027929 
8.0 1:0.740124866767333 2:-0.7692185593348642 3:-0.3983446680176308 
5.027487815768603 1:0.20781086446413993 2:0.9041899217307299 3:3.1530748666028012 
8.0 1:1.5844847171931395 2:-1.4911844276494832 3:-1.4375062165053785 
8.0 1:0.8808501012385501 2:-1.5035205942731407 3:-1.4491897509540725 
1.025925726154832 1:1.5844847171931395 2:0.2798721375619519 3:3.4589293037047186 
8.0 1:0.763581183412162 2:-1.4828777351710714 3:-1.4227204088818852 
8.0 1:2.4891571917348614 2:-0.5806212065498806 3:-0.21401491097146474 
8.0 1:0.599399632296116 2:-1.1972838790895977 3:-0.6194633312975676 
8.0 1:2.4891571917348614 2:-1.420586641542984 3:-1.3540891893670883 
8.0 1:-0.5263220292878297 2:-0.7256311737232054 3:0.4088476332959732 
8.0 1:1.3925828321876144 2:-0.8206466127632343 3:0.27033499820295903 
8.0 1:0.17721970708321294 2:-1.2508271544909317 3:-1.099273549916935 
8.0 1:0.5290349041608815 2:-0.4921410208690332 3:0.9633747270169712 
4.474033129664201 1:2.6399345302253976 2:-0.6211845598509761 3:0.9633747270169712 
8.0 1:0.5290349041608815 2:-1.5187102949339797 3:-1.4907640516515088 
8.0 1:0.31794494155443 2:-1.5037454551740221 3:-1.4282183226738978 
8.0 1:0.11325100481495386 2:-1.3185958904917188 3:-1.1415831467940758 
8.0 1:2.006664642406043 2:0.730689610079014 3:1.283819883059012 
8.0 1:-0.38568967440015944 2:-1.4795556272977264 3:-1.4267731479602066 
8.0 1:0.01833229222933681 2:-1.1588126866250457 3:-0.8075733304539984 
8.0 1:1.2829258184128147 2:-1.2974490655266406 3:-1.1821389811332113 
8.0 1:0.17721970708321294 2:0.07490499418917232 3:0.7150869111593596 
2.1799592746777066 1:1.364330551592367 2:-0.5269879986448193 3:0.23699436422174 
4.385641929177582 1:1.9092381810646608 2:-0.9061134370963865 3:0.11921339528760225 
8.0 1:-0.33156198618861316 2:-0.9978846070088804 3:-0.27840072345273476 
8.0 1:2.006664642406043 2:-0.8001272404147997 3:0.26137846904715084 
8.0 1:2.9277852468340595 2:-1.4365118679610698 3:-1.3728529135620264 
8.0 1:-0.36403606603598965 2:-1.379861801003818 3:-1.1607530031550133 
8.0 1:0.8808501012385501 2:-1.4156360854528411 3:-1.2944255023179343 
8.0 1:2.006664642406043 2:-1.4443926704547907 3:-1.367691591017858 
8.0 1:2.220296128162276 2:4.062440358302998 3:3.446911433686697 
8.0 1:1.5844847171931395 2:-0.6382049827580905 3:0.6283752729903599 
8.0 1:-0.4759559642099303 2:-1.3693414765615477 3:-1.2160708779683986 
8.0 1:1.5844847171931395 2:-1.4994879781221617 3:-1.4573226273522035 
8.0 1:1.5844847171931395 2:-0.4106531614568842 3:0.2142656523444123 
8.0 1:1.5844847171931395 2:-0.10230229139666439 3:1.7050121141793673 
3.295932895229709 1:1.7855225757802717 2:0.33038379241246113 3:2.2887586071995423 
8.0 1:0.31794494155443 2:-1.3257716980386212 3:-1.186913372287042 
7.6092347192425756 1:0.5290349041608815 2:-0.8109608761835027 3:0.1359324844490543 
8.0 1:-0.02973289225615225 2:-1.4411654748678446 3:-1.3652292153264969 
8.0 1:0.5290349041608815 2:-1.3171416753853062 3:-1.1532633802498198 
8.0 1:0.6798122426514178 2:-1.4179297496382102 3:-1.2986610613891592 
8.0 1:2.757207669851038 2:-1.2137718802327213 3:-1.0454479439833337 
8.0 1:1.5844847171931395 2:-1.4465313685460646 3:-1.3552684690986236 
0.6441258202900297 1:0.8808501012385501 2:1.24669836608233 3:5.762731345548352 
8.0 1:-0.38568967440015944 2:-1.1004127596068078 3:-0.7990476358947682 
8.0 1:2.288119333147729 2:-0.9253125149224029 3:-0.6184135055062376 
8.0 1:0.8808501012385501 2:-1.433803162603259 3:-1.3500137834705075 
8.0 1:1.5844847171931395 2:-0.5923374495140288 3:-0.134508350115333 
8.0 1:2.8510244928318498 2:-1.034197893648996 3:-0.838111586469964 
7.964908157859811 1:1.5844847171931395 2:-1.4880302688750564 3:-1.4207130200521896 
0.9962136475943515 1:0.0766986668900207 2:2.002321814794832 3:7.673902227543396 
8.0 1:-0.316637925832337 2:-1.2894536094652147 3:-1.1586355812269704 
8.0 1:1.5844847171931395 2:-1.4558152248075582 3:-1.369933075264287 
4.408833783396513 1:2.006664642406043 2:-1.29600984905137 3:-0.21395708857828333 
8.0 1:0.5290349041608815 2:-1.4456285458042968 3:-1.3330657704479445 
8.0 1:-0.262552455613312 2:-1.4422426492862515 3:-1.302799241168347 
8.0 1:3.0922707674962586 2:-1.3313242742839058 3:-1.2208065374716113 
8.0 1:2.5080033035963654 2:-0.802290541003797 3:-0.5234941684322312 
0.21382609713735934 1:2.006664642406043 2:-0.09550079751392389 3:1.852897478622688 
8.0 1:0.31794494155443 2:-1.1159294067132997 3:-0.8699598965548504 
8.0 1:0.0766986668900207 2:-1.4417769803233134 3:-1.3363137274449548 
8.0 1:0.5290349041608815 2:-1.5101261574209974 3:-1.4558443326759098 
8.0 1:0.6204030835754579 2:-1.3569860429216005 3:-1.2501886207066946 
8.0 1:-0.4544543406188371 2:0.04167917280555772 3:1.6272274062627206 
8.0 1:3.1560705977944328 2:-0.7500375035794694 3:-0.5543213713644563 
8.0 1:2.3295098530156024 2:-1.2658578578050363 3:-1.099245601509955 
8.0 1:-0.347524609160913 2:-1.1403941304497032 3:-0.6417289688805015 
8.0 1:0.31794494155443 2:0.16900859945212265 3:1.6277339986475108 
8.0 1:1.232669520115471 2:-1.2402320147423307 3:-1.1027288092712315 
8.0 1:1.5844847171931395 2:-1.304988930756726 3:-1.1854034430949736 
8.0 1:-0.20166144499985494 2:-1.1949818559833152 3:-0.9469234824750817 
8.0 1:-0.2449602181296903 2:-0.8169260629930201 3:-0.45705546843509876 
8.0 1:0.8808501012385501 2:-1.462284436763212 3:-1.3735797371931584 
8.0 1:0.9512148293737845 2:-1.4318775280705847 3:-1.3254993994566535 
8.0 1:1.5844847171931395 2:-1.5193727838787072 3:-1.4938102629626997 
8.0 1:1.5844847171931395 2:-1.0785004116221981 3:-0.8446614166821749 
8.0 1:0.5290349041608815 2:-1.3520341233195357 3:-1.1935944719855809 
8.0 1:2.288119333147729 2:-1.4256775800779693 3:-1.3521020466274885 
8.0 1:1.5844847171931395 2:-1.3659704008252633 3:-1.2771226875697506 
8.0 1:2.6399345302253976 2:-1.120695710844587 3:-1.0023927628317926 
8.0 1:1.7468635600285263 2:-1.4544865120810997 3:-1.3687578667573908 
8.0 1:2.288119333147729 2:-1.1586397577434553 3:-0.9477925789023764 
8.0 1:0.5290349041608815 2:-1.476879409093536 3:-1.3938100375394162 
8.0 1:0.3293564649329347 2:-1.3304389400646164 3:-1.135913856451388 
8.0 1:-0.17459971179370784 2:-1.2333730755094838 3:-0.9864263000630349 
8.0 1:1.5844847171931395 2:-1.4075155419933503 3:-1.2951500702705498 
8.0 1:3.35864519130934 2:-1.4019323163713837 3:-1.3157590495247697 
8.0 1:2.288119333147729 2:-1.4226887026617439 3:-1.3280024323778539 
8.0 1:1.1623047919802363 2:-1.4480944867568588 3:-1.3669905701482885 
8.0 1:2.2053382934119834 2:-0.9676537692035767 3:-0.6859301447513276 
8.0 1:-0.40579388243879794 2:-0.7907501910775911 3:-0.22399073173381165 
8.0 1:2.6399345302253976 2:-1.291644476708288 3:-1.1972471857348612 
1.0994109190332715 1:1.5844847171931395 2:3.6382410691122473 3:5.019113912781199 
8.0 1:0.6922496632481899 2:-1.4385580843741534 3:-1.3547849286479372 
8.0 1:0.8808501012385501 2:-1.472892855932271 3:-1.4118035850624737 
8.0 1:2.6399345302253976 2:-1.519655030846568 3:-1.4918565702849973 
8.0 1:1.2829258184128147 2:-0.21231547233216075 3:0.515949724985875 
8.0 1:1.506301216842962 2:-1.1467237306411657 3:-0.8586569665933388 
8.0 1:0.5290349041608815 2:-1.1300498176116291 3:-0.8138512688801935 
2.1006489167070264 1:2.8158442396638583 2:-1.5167237173467032 3:-1.4812047611829549 
8.0 1:-0.02973289225615225 2:-0.34763833941383215 3:0.24268428577036802 
8.0 1:2.288119333147729 2:-1.5134512887338218 3:-1.470557573471043 
8.0 1:-0.1426153606595783 2:-1.150093383582401 3:-0.8691199588986176 
8.0 1:2.2479109170704525 2:-1.436534810531236 3:-1.3630494046316912 
8.0 1:-0.4510262396261084 2:-1.1287927189026408 3:-0.7420134097968154 
8.0 1:3.2766916242270114 2:-1.4050060279424104 3:-1.3284625907951417 
8.0 1:0.8808501012385501 2:-1.1274643025918176 3:-0.872446204445102 
8.0 1:-0.17459971179370784 2:-1.4836906254091118 3:-1.3922872894913905 
8.0 1:-0.1426153606595783 2:-0.982763496926032 3:-0.6242628650143709 
8.0 1:0.17721970708321294 2:-1.2938597093165767 3:-1.106373050471939 
8.0 1:2.006664642406043 2:-1.2231247420540956 3:-1.04793925837956 
8.0 1:1.5844847171931395 2:-1.2065765092538943 3:-1.0243492624249202 
8.0 1:1.886043615973464 2:-1.5084291186262087 3:-1.467711017216803 
8.0 1:2.0535730538964483 2:-1.2987054528381043 3:-1.155995282015582 
8.0 1:1.240851367066097 2:-1.5057143071063122 3:-1.4600533737704333 
8.0 1:1.5844847171931395 2:-0.958483499413501 3:-0.6971983592703106 
8.0 1:0.8808501012385501 2:-1.0313889998064791 3:-0.6934535478177138 
8.0 1:1.5844847171931395 2:3.7961400773520504 3:12.027410233227151 
8.0 1:1.5844847171931395 2:2.0404349964551605 3:12.027410233227151 
8.0 1:2.288119333147729 2:-1.4750638633277844 3:-1.411842371729641 
8.0 1:-0.31532494626492485 2:-0.9974731821071884 3:-0.5181147602871385 
8.0 1:1.5844847171931395 2:-1.0623726740421267 3:-0.7498528279216546 
8.0 1:2.006664642406043 2:-1.4501026434023794 3:-1.3681471830615644 
8.0 1:2.288119333147729 2:-1.4783316678567562 3:-1.415776440111395 
8.0 1:1.8190309964444202 2:-1.2013192222644207 3:-0.32666701712544627 
8.0 1:-0.20166144499985494 2:0.45195415968224417 3:2.3213472199701077 
8.0 1:-0.0573265721680676 2:-1.4038947657259528 3:-1.259160499479722 
8.0 1:2.4891571917348614 2:-1.5191441288576948 3:-1.4918087058872163 
8.0 1:0.5290349041608815 2:-0.2661447295383597 3:0.409748034139748 
8.0 1:1.5844847171931395 2:-1.1903166295836396 3:-0.4281722202513724 
8.0 1:1.1623047919802363 2:-1.0603301331829196 3:-0.15366423227278037 
8.0 1:0.31794494155443 2:-1.073570782475902 3:-0.7548630750217925 
8.0 1:0.0766986668900207 2:-1.4759241800674607 3:-1.3916762756962688 
5.60351669343316 1:1.5844847171931395 2:-0.48986769079624054 3:1.240899327403299 
8.0 1:0.8808501012385501 2:-1.3227818720923632 3:-1.1515378962180893 
8.0 1:0.8808501012385501 2:-0.5503007326564849 3:-0.04757015379683663 
8.0 1:0.49263877280827717 2:-1.3606667544304405 3:-1.2033463753927913 
8.0 1:0.8808501012385501 2:-1.5020590873421014 3:-1.4443964891238752 
8.0 1:0.8808501012385501 2:-1.1910321769270722 3:-1.0228630453655456 
8.0 1:-0.09341029037601443 2:-1.3621487733234374 3:-1.2341504163578143 
8.0 1:3.4565444941669603 2:-1.2113115711772287 3:-1.0762609526458717 
8.0 1:-0.1426153606595783 2:-1.0111053964543024 3:-0.4632391084960104 
8.0 1:0.5290349041608815 2:0.32457884789534625 3:1.4783793072254119 
8.0 1:1.5844847171931395 2:-1.2959659795373568 3:-1.1348232633971203 
8.0 1:1.5844847171931395 2:-1.3703265842836534 3:-1.2571342949902091 
8.0 1:1.1623047919802363 2:-1.5070697565230677 3:-1.4559803335854669 
8.0 1:0.5290349041608815 2:-1.4583620872285363 3:-1.3544132368417205 
8.0 1:1.5844847171931395 2:-0.7883660608403514 3:-0.4182037166900655 
8.0 1:0.5290349041608815 2:-1.3443208549428438 3:-1.2225456656075366 
8.0 1:2.757207669851038 2:-1.4267868266681074 3:-1.3406572840022073 
4.752445894171847 1:2.288119333147729 2:0.2768413469749058 3:1.323987960759572 
8.0 1:0.14018608404353705 2:-1.512089377456218 3:-1.4612010189861937 
0.16283500686097827 1:3.5591975429824774 2:1.874793137558269 3:4.994417038873737 
8.0 1:1.5844847171931395 2:-1.4127456180275102 3:-1.3165828673320945 
8.0 1:1.5844847171931395 2:-0.9619946611789925 3:-0.6238095836657298 
8.0 1:1.5844847171931395 2:-1.1618587129757425 3:-0.9475183764212954 
8.0 1:0.25539898563413826 2:-1.1402314575490917 3:-0.9378199490998815 
8.0 1:1.5844847171931395 2:-1.4960831702865889 3:-1.4342319615978631 
8.0 1:0.0013099976447525194 2:-1.4226788616626544 3:-1.32603685612553 
8.0 1:1.5844847171931395 2:-0.57874264282008 3:-0.08456295136184447 
8.0 1:0.0766986668900207 2:-1.4537844220075065 3:-1.3717156664740597 
8.0 1:1.1623047919802363 2:-1.4919011013723296 3:-1.4252087523844563 
8.0 1:-0.12645431312242839 2:2.6778654969287574 3:5.081438695297329 
8.0 1:1.5844847171931395 2:1.0979642921511683 3:2.000899533166805 
8.0 1:1.5844847171931395 2:-1.4661582334168373 3:-1.3876240867834395 
8.0 1:0.31794494155443 2:-1.5162643323952318 3:-1.475861663960317 
8.0 1:2.288119333147729 2:-1.2765305398838123 3:-1.1316494136918467 
8.0 1:2.8510244928318498 2:-1.3913557915246746 3:-1.2914690229984453 
8.0 1:-0.04392235954255794 2:-1.4853423126117113 3:-1.3976673578350731 
8.0 1:2.1122096237092687 2:-1.5121031311416926 3:-1.470649231041966 
0.8211636777774378 1:1.5844847171931395 2:0.018569542787147918 3:4.850848162845475 
8.0 1:-0.1426153606595783 2:-0.5810478672152231 3:0.03522760706395595 
8.0 1:1.5844847171931395 2:0.5324499752464228 3:1.1954699070721728 
0.18533708493431472 1:3.484294380651204 2:2.7785709897856883 3:4.9180901594770905 
8.0 1:3.273204418044753 2:-1.243930511189284 3:-1.0993780813603649 
4.5728084744194595 1:1.5844847171931395 2:-0.7387273500355791 3:-0.2635999513278664 
8.0 1:-0.42589386867818424 2:-1.409387643862303 3:-1.1961485602644142 
8.0 1:0.5290349041608815 2:-1.4543537771596462 3:-1.381105120855315 
8.0 1:3.1987023266424317 2:-1.05042528616563 3:-0.8636801425825326 
8.0 1:0.17721970708321294 2:-1.175441840893663 3:-0.6560972559123164 
8.0 1:1.5844847171931395 2:-0.900713692752624 3:-0.6685741290000933 
8.0 1:0.740124866767333 2:-1.4970455132879097 3:-1.4316389216022147 
8.0 1:0.03649025081274378 2:-1.4424254784500579 3:-1.3542912651522028 
8.0 1:-0.12433919169711172 2:-1.4851884136139026 3:-1.3932037551675236 
8.0 1:1.5844847171931395 2:-1.3575897230042995 3:-1.2106402494160255 
8.0 1:0.5290349041608815 2:-1.3022732299899238 3:-1.100544322169746 
8.0 1:1.5844847171931395 2:-1.076375882198288 3:-0.7843394566221591 
8.0 1:1.5844847171931395 2:-1.0730369971999891 3:-0.8171975404505771 
8.0 1:0.8808501012385501 2:-1.0488933508796614 3:-0.6879274655525246 
8.0 1:2.288119333147729 2:-0.16946485742341663 3:0.3199939257849011 
8.0 1:0.31794494155443 2:-0.9924366061997032 3:-0.5631070741350807 
8.0 1:1.5844847171931395 2:-1.4964875404961624 3:-1.449384509538147 
8.0 1:1.924951717881085 2:-1.459639282917593 3:-1.3994031299614988 
5.197870667458096 1:2.6399345302253976 2:-0.13284649981152752 3:0.3691491218426098 
8.0 1:-0.035508313633064795 2:-0.9435777649312072 3:-0.4317269495265746 
8.0 1:2.8510244928318498 2:-0.9170662319504499 3:0.39657833764822803 
8.0 1:0.6798122426514178 2:-1.0942839513666465 3:-0.9163412682363266 
0.7614221321347558 1:2.991749727303066 2:-1.1769297288162375 3:0.7079178696862002 
8.0 1:3.6913229723771077 2:-0.9510772583517748 3:-0.8032907322332301 
4.2201657615723445 1:2.244140850338301 2:-0.666524947529354 3:-0.12253955485917374 
8.0 1:1.5844847171931395 2:-1.3062818957575764 3:-1.1591247333656727 
8.0 1:3.480718516684651 2:-1.4677439384990356 3:-1.4175869797281477 
8.0 1:0.5290349041608815 2:-0.4050638296728319 3:1.1046112864761177 
8.0 1:1.5844847171931395 2:-1.020120107319012 3:-0.7186255996603885 
8.0 1:0.4787743840642854 2:-1.4838778415243197 3:-1.438677683886931 
8.0 1:0.31794494155443 2:-0.3250910691385707 3:0.5564816271261197 
8.0 1:1.5844847171931395 2:-1.5108369028311395 3:-1.4675381552192996 
8.0 1:-0.1426153606595783 2:-1.3255421537707033 3:-1.1486550290413946 
8.0 1:1.5844847171931395 2:-1.3274665433577093 3:-1.1861779110576898 
8.0 1:-0.30421317063332126 2:-1.427920320057207 3:-1.34952897763919 
1.077337083166558 1:1.5844847171931395 2:5.692291925284234 3:7.706209650731136 
1.2436316274851857 1:1.5844847171931395 2:5.766334713186443 3:12.314707753342473 
8.0 1:1.5844847171931395 2:-1.1750476673819414 3:-0.9822686444254397 
8.0 1:1.5844847171931395 2:-1.0898068303290844 3:-0.14868006301695078 
8.0 1:1.5844847171931395 2:-1.0786187407437797 3:-0.14868006301695078 
0.2160711620318135 1:2.7211239516430914 2:-0.6054610146310972 3:-0.08684344234163768 
8.0 1:0.8808501012385501 2:-1.4903707667307913 3:-1.411137389668531 
8.0 1:2.8510244928318498 2:-0.8219648916593328 3:-0.6095903364656261 
8.0 1:2.8510244928318498 2:-1.1078567047373344 3:-0.9137483382737766 
8.0 1:0.39136625234820593 2:-1.0355001661007925 3:-0.6079337881700101 
8.0 1:-0.34285952098731043 2:-1.4912829562066319 3:-1.3952359564608967 
8.0 1:0.8808501012385501 2:-0.824068553422523 3:-0.4236840802028916 
8.0 1:0.0766986668900207 2:-1.4273793615229218 3:-1.3643649053389804 
8.0 1:-0.10423498365847327 2:-1.5194133928207327 3:-1.4925799828900805 
8.0 1:0.17721970708321294 2:-1.1719385045009416 3:-0.7241931644036546 
8.0 1:0.17721970708321294 2:-1.0568166593754735 3:-0.1465206084453393 
8.0 1:0.8808501012385501 2:-1.1358678044166939 3:-0.818147511205157 
8.0 1:-0.17459971179370784 2:-1.3834458217324475 3:-1.21688759864088 
8.0 1:1.5844847171931395 2:-1.1286948424598897 3:-0.8437738897109069 
8.0 1:3.0922707674962586 2:-1.5155421453415703 3:-1.479927386944243 
8.0 1:2.991749727303066 2:-1.1847615634470192 3:-1.041205562860011 
4.667259693520721 1:-0.1426153606595783 2:-1.0060842341598488 3:-0.45143349232470015 
8.0 1:0.9981232408641905 2:-0.31365707314228347 3:0.44442964149052344 
8.0 1:2.288119333147729 2:-1.4144515492913559 3:-1.346139132961861 
8.0 1:1.5844847171931395 2:-1.2094737942388352 3:-0.5232417525046228 
8.0 1:0.3672513350200449 2:-1.0826751294287036 3:-0.7571934660116862 
8.0 1:0.17721970708321294 2:-1.3722438006122872 3:-1.220740242529857 
8.0 1:3.452753318438548 2:-1.1172743630165687 3:-0.9339649945158395 
8.0 1:1.5844847171931395 2:-1.1883985832912272 3:-0.9448052903153504 
0.3279671577879829 1:3.226296006554347 2:2.7422189319804846 3:7.486091078282077 
8.0 1:1.886043615973464 2:-0.6811585131753845 3:-0.5179451442660364 
8.0 1:-0.22485601009105183 2:-1.2005260733076861 3:-0.9496665526003263 
8.0 1:2.006664642406043 2:-1.150566996484363 3:-1.008066619548062 
8.0 1:2.288119333147729 2:-0.6598004031455179 3:-0.2575765194581483 
0.2473105243729367 1:2.006664642406043 2:0.9901314853452581 3:3.940341879318766 
8.0 1:2.8510244928318498 2:-1.203305562719189 3:-1.056850728981595 
8.0 1:1.0567598106770104 2:-1.2877588827123807 3:-1.0905153554208975 
8.0 1:1.3609784429861764 2:-1.4134405348427312 3:-1.323894346651064 
8.0 1:-0.28167298442620436 2:-1.3585367709588425 3:-1.167041284692453 
8.0 1:-0.35050519943291614 2:-1.469592386400297 3:-1.3924111867601292 
8.0 1:1.1623047919802363 2:-1.2483732480131602 3:-1.155361216286357 
8.0 1:-0.17459971179370784 2:-1.2786614718854432 3:-1.0956141241486554 
1.2372930408452916 1:0.9845459344693435 2:7.446698705698841 3:10.276564067476668 
8.0 1:0.44784548274318814 2:-0.8446492245243221 3:0.18150918408231784 
8.0 1:0.8808501012385501 2:-1.3642322195403052 3:-1.21936669936319 
8.0 1:0.5290349041608815 2:-1.5066368711293856 3:-1.4434614828706707 
8.0 1:2.288119333147729 2:-1.0399996961603775 3:-0.7703913309763828 
8.0 1:0.31794494155443 2:-1.515193560554546 3:-1.4792744505386513 
8.0 1:0.17721970708321294 2:-1.1134323421190393 3:-0.6930082988852522 
8.0 1:1.5844847171931395 2:-0.8826970168955192 3:-0.5192433147603359 
8.0 1:1.5844847171931395 2:-1.5072502143617925 3:-1.4613637029221 
8.0 1:0.5137393254704181 2:-1.1298510412866474 3:-0.8734139455450649 
8.0 1:1.5844847171931395 2:-1.072651538307943 3:-0.7687378085909713 
8.0 1:1.5844847171931395 2:-1.3584997782875665 3:-1.2541966863470866 
8.0 1:2.006664642406043 2:-1.3996136939895285 3:-1.2929187640857178 
8.0 1:-0.22485601009105183 2:-1.4236137565761533 3:-1.341243540350201 
8.0 1:2.1122096237092687 2:0.1513486301704475 3:0.8184082105735049 
8.0 1:1.4437594827219224 2:-1.13590218863038 3:-0.3500075680461331 
8.0 1:1.631393128683545 2:-1.1509025982665644 3:-0.3500075680461331 
8.0 1:1.5844847171931395 2:-1.506967255996407 3:-1.4538312221251002 
8.0 1:1.5844847171931395 2:-1.455266322334249 3:-1.3718473760927814 
5.141677801477997 1:0.0013099976447525194 2:3.2117201933832886 3:5.76175089562553 
8.0 1:-0.16964331947170838 2:-1.4918798780128477 3:-1.436583643992287 
8.0 1:0.5290349041608815 2:-1.4291675184839787 3:-1.3141055271393582 
8.0 1:-0.4266875669375845 2:0.40808405283770827 3:2.7791557153929274 
8.0 1:2.991749727303066 2:-1.4378484653434251 3:-1.3726790062500889 
8.0 1:0.8808501012385501 2:-1.4808487701479578 3:-1.4114688093607528 
8.0 1:1.5844847171931395 2:-1.4528427688175243 3:-1.38699095633555 
8.0 1:0.0013099976447525194 2:-1.502672015592619 3:-1.4371974636314162 
8.0 1:2.288119333147729 2:-1.476524895993807 3:-1.412614528997292 
8.0 1:2.288119333147729 2:-0.8192643080899271 3:-0.4904641578876458 
8.0 1:1.0567598106770104 2:-1.4386829939228372 3:-1.3380195705686302 
8.0 1:0.5290349041608815 2:-1.4634862243146671 3:-1.3645317705326236 
8.0 1:2.4104881844706894 2:-0.440783870060609 3:-0.2226219750069225 
8.0 1:-0.41531403975234893 2:-1.2206665079080496 3:-0.9707601176196666 
2.1584110302278425 1:0.3782575656703453 2:0.0013228361841031541 3:1.6543318593785674 
8.0 1:1.5844847171931395 2:-0.14638427613725902 3:0.4240817707786817 
8.0 1:1.5844847171931395 2:-0.9002288753396503 3:-0.5427181060610062 
8.0 1:0.8067828551591983 2:-0.15249921212569195 3:0.35802345520253537 
8.0 1:0.8808501012385501 2:-1.5131434907382044 3:-1.476411719418954 
8.0 1:2.6399345302253976 2:-1.485589760383997 3:-1.4317992948430558 
8.0 1:3.0458774155146124 2:-0.858779654271122 3:-0.7358223975183146 
8.0 1:3.437077777815393 2:-0.6956776623862181 3:-0.4285719704976674 
8.0 1:0.8808501012385501 2:-1.0520240335357782 3:-0.7175667511549942 
8.0 1:1.5844847171931395 2:-0.5828545797950451 3:-0.3921485392000568 
2.4747226973799377 1:3.0922707674962586 2:-0.4347418523184413 3:0.08845518310804078 
8.0 1:1.5844847171931395 2:-1.33095826025753 3:-1.1588419483029204 
8.0 1:0.8808501012385501 2:-1.474820683940646 3:-1.4065277730794752 
8.0 1:0.71529224356631 2:-1.3155845447703434 3:-1.1385006245604303 
8.0 1:0.8808501012385501 2:-0.9608534609833771 3:0.07327446669457997 
8.0 1:0.17721970708321294 2:-1.2536222353648472 3:-1.0270713162283804 
8.0 1:0.31794494155443 2:-0.8110425090494435 3:0.31332388441274595 
7.202043949320261 1:0.17721970708321294 2:-0.7670174953939392 3:0.3816010174170618 
8.0 1:0.8808501012385501 2:-0.7906829640115223 3:-0.44939776997217995 
8.0 1:0.5290349041608815 2:-1.2734723604920712 3:-1.0647509403932711 
8.0 1:2.288119333147729 2:-0.5838430073722656 3:-0.10738563150516045 
8.0 1:0.17721970708321294 2:-1.4392929580170026 3:-1.344326612749338 
4.961474877704746 1:0.8808501012385501 2:-1.292373659170941 3:-1.0892123434702707 
6.724593018977298 1:0.8808501012385501 2:1.5775068703297193 3:3.8166711137128524 
8.0 1:0.17721970708321294 2:-0.8426362659455107 3:-0.38816264522898153 
8.0 1:0.2186102269510859 2:-1.4997797696734771 3:-1.439267901426465 
8.0 1:0.740124866767333 2:-1.4987174160368315 3:-1.437948604577283 
8.0 1:0.31794494155443 2:-1.271595278840447 3:-1.0605126304945873 
8.0 1:1.5844847171931395 2:-0.9668292001895084 3:-0.6158665143622478 
8.0 1:-0.1426153606595783 2:-1.4639357089839218 3:-1.374983154346027 
8.0 1:-0.17459971179370784 2:-1.3487055535853427 3:-1.1913323565332117 
8.0 1:0.05590208377403302 2:1.0798803892279942 3:1.729379053841436 
1.3383971723396173 1:-0.0573265721680676 2:0.32464506714825553 3:3.5549943053987154 
8.0 1:0.31794494155443 2:-1.4815398928430479 3:-1.4082982056318805 
8.0 1:1.5844847171931395 2:-0.2921068264976643 3:-0.08551638815902216 
8.0 1:0.03649025081274378 2:-1.3697000801970423 3:-1.2299073750359018 
8.0 1:1.5844847171931395 2:0.39958148890754 3:6.706028702746586 
8.0 1:1.5844847171931395 2:0.3701959099276432 3:6.706028702746586 
8.0 1:1.5844847171931395 2:-1.4668229158372654 3:-1.3960843666657021 
8.0 1:3.684361225410347 2:-1.1447666167680306 3:-1.0818956375791298 
8.0 1:-0.10423498365847327 2:-1.1902930348990757 3:-1.0011792628066714 
0.818609547834516 1:2.891232908909126 2:2.405033875305013 3:7.722063934756129 
8.0 1:1.5844847171931395 2:-1.5075010412723198 3:-1.457557988149568 
8.0 1:0.25299256006042475 2:-1.324447194414183 3:-1.156147732873342 
8.0 1:0.8808501012385501 2:-1.2441732755945334 3:-1.056463357458864 
8.0 1:2.288119333147729 2:-1.5119645864737885 3:-1.4712998017359435 
8.0 1:1.5844847171931395 2:-1.4723366616343352 3:-1.4081899330631067 
8.0 1:1.5844847171931395 2:-1.467293327450367 3:-1.3910478766716083 
8.0 1:0.8808501012385501 2:-1.2817298479750359 3:-1.1336234624927433 
2.0266551071113605 1:0.8808501012385501 2:-0.6730214890065753 3:-0.08335313744551771 
8.0 1:0.9813711414317423 2:-1.3453898482897184 3:-1.1904086286725875 
8.0 1:0.8808501012385501 2:-0.06532562656491542 3:2.10813454483951 
3.4117503373560027 1:2.991749727303066 2:-0.9763089279027587 3:0.0332159269434247 
8.0 1:1.5844847171931395 2:-1.0547453661996498 3:-0.7352818599226844 
8.0 1:0.0766986668900207 2:-1.3472591638516997 3:-1.2268845457581097 
2.864041330296703 1:1.7998809150367625 2:-1.4674726589096778 3:-1.391277570764408 
8.0 1:1.5844847171931395 2:-1.476164691713882 3:-1.4134746577270716 
8.0 1:3.321577793875647 2:-1.0696015399877343 3:-0.8817736551754385 
8.0 1:0.17721970708321294 2:-0.8447532071291589 3:-0.461661343898811 
8.0 1:1.5844847171931395 2:-1.4692063939601074 3:-1.3943633389744547 
1.123032829243776 1:1.7086562767967586 2:1.23610962891145 3:11.202977340882478 
8.0 1:2.339127111711952 2:-0.9013225897505027 3:-0.8032907322332301 
8.0 1:2.39637048777157 2:-1.3091742602429728 3:-1.1734732694563341 
8.0 1:0.31794494155443 2:-1.1126854340013999 3:-0.6852566321563449 
7.063155400051635 1:1.349938437941859 2:-1.3518261581098618 3:-1.1893736023329853 
8.0 1:1.2440177165051935 2:-1.017651202210098 3:-0.7337461829856027 
8.0 1:0.8808501012385501 2:-1.3500039133507542 3:-1.1921969966200232 
8.0 1:-0.0820156541945182 2:-1.465853281011318 3:-1.366622399401219 
8.0 1:0.5290349041608815 2:0.7923639813364529 3:1.9052295502958747 
8.0 1:2.288119333147729 2:-0.8083741755011502 3:0.34116858519772314 
8.0 1:-0.4800215568897306 2:-1.3574483327462972 3:-1.187326381521688 
0.3956506649871437 1:1.1623047919802363 2:2.4391129587361857 3:7.257418807850257 
8.0 1:1.6525781173307283 2:-1.2690890846446217 3:-1.1477434048215887 
8.0 1:1.5844847171931395 2:-1.3295174431378294 3:-1.2395512809570846 
8.0 1:1.5844847171931395 2:-1.468525112264107 3:-1.397615312179555 
3.4793022003920844 1:0.5290349041608815 2:-0.738593962999728 3:-0.16015739543934246 
8.0 1:1.5844847171931395 2:-1.5053965495453512 3:-1.455579978157131 
8.0 1:2.8510244928318498 2:-1.0659107503472964 3:-0.8400153241210168 
8.0 1:0.2411841875522199 2:-1.2691776536364265 3:-1.1338260884433498 
8.0 1:1.2700957704855949 2:-0.06520854238900174 3:0.5903581222962896 
8.0 1:2.682152522746688 2:-1.3588613460794137 3:-1.2443853100502198 
8.0 1:1.448297916917961 2:-0.8381874822426763 3:-0.447285354550112 
8.0 1:1.5844847171931395 2:-1.0848597126603101 3:-0.8439844930611433 
8.0 1:1.5844847171931395 2:-1.157051681336175 3:-0.9753346336503498 
8.0 1:1.5844847171931395 2:-1.3385932156233955 3:-1.238474882172504 
7.175839397726305 1:0.624983735764018 2:2.427516586254922 3:6.192091443592112 
8.0 1:1.7763866021986647 2:1.9760614051402372 3:6.192091443592112 
2.7565602391830257 1:-0.46340455503335065 2:0.035955031190605204 3:1.7485239877055978 
8.0 1:-0.1426153606595783 2:-0.8518381336423013 3:-0.4854616681209413 
8.0 1:0.8808501012385501 2:-1.0958161237851232 3:-0.8703433619025901 
8.0 1:0.5290349041608815 2:-1.3051773918176017 3:-1.1146534812549533 
8.0 1:-0.3204755413525223 2:-1.1595416319551903 3:-0.8516332788430961 
0.24101036222280617 1:-0.22485601009105183 2:-0.3720716430929015 3:0.9188784973929273 
8.0 1:0.8808501012385501 2:-1.2059686793523023 3:-1.065144583802608 
8.0 1:0.31794494155443 2:-0.9550289530343375 3:-0.46547090982978523 
8.0 1:0.047749789418171915 2:0.22053429219073586 3:0.8934833534433538 
8.0 1:3.167659436741527 2:-1.4038194168714786 3:-1.3189208506057741 
8.0 1:1.5844847171931395 2:-1.5072914161350888 3:-1.4634700115072097 
8.0 1:0.41176176453524127 2:-1.493695245929218 3:-1.4392886426655034 
8.0 1:2.1122096237092687 2:-1.0969516920836693 3:-0.9236339318954788 
8.0 1:1.5844847171931395 2:-1.4841844538573963 3:-1.4303698548624282 
8.0 1:-0.35050519943291614 2:-1.467806482198068 3:-1.387317754637641 
8.0 1:0.17721970708321294 2:-1.4754155308374148 3:-1.3822024259285814 
0.8828593931375746 1:2.6399345302253976 2:0.428949579364958 3:2.4458875771522584 
0.24215436162277437 1:1.5844847171931395 2:2.1460681621151942 3:5.982576540764568 
8.0 1:0.26517245090281705 2:-1.0163912579110117 3:-0.7427072785149924 
8.0 1:1.8238649565881078 2:-1.4486641976077608 3:-1.3903486163316126 
8.0 1:0.8808501012385501 2:-0.7473813230722203 3:-0.46280788878358803 
8.0 1:0.3971036775318493 2:-1.424473184068924 3:-1.2968468356636118 
8.0 1:0.09025064248935485 2:-1.2434683992139688 3:-0.9846015661765953 
8.0 1:1.5844847171931395 2:-1.3372813393050178 3:-1.1931946117061873 
3.432672234727702 1:-0.10423498365847327 2:-0.6483550247888381 3:0.8045239591413191 
2.507946054971431 1:0.39136625234820593 2:3.606558209676231 3:8.446710451004154 
8.0 1:2.288119333147729 2:-1.0727251086686056 3:-0.8551433346803693 
8.0 1:1.5844847171931395 2:-1.1527206339236522 3:-0.9661200768789175 
8.0 1:0.44784548274318814 2:-1.1301006232515067 3:-1.0119894645537846 
8.0 1:0.8808501012385501 2:-1.484132758970613 3:-1.4045046495167157 
8.0 1:1.5844847171931395 2:-0.40835131619998283 3:0.13422306524968253 
8.0 1:0.41176176453524127 2:-1.3506590511877279 3:-1.19526945082517 
8.0 1:1.5844847171931395 2:-1.4007484323242958 3:-1.2784558485893245 
8.0 1:2.006664642406043 2:0.07040030649753445 3:0.7981441300660544 
0.41689221943828775 1:2.288119333147729 2:0.46913666265869963 3:3.5983107051257326 
8.0 1:-0.39770069327246654 2:-1.4578229664711897 3:-1.3288696032259275 
6.8208889354586875 1:1.2717591593909336 2:1.524066391870681 3:3.20278127346668 
8.0 1:3.556985320174362 2:-0.6683191513693696 3:-0.5342224505376247 
1.2470990521004612 1:0.5290349041608815 2:-0.15031492530972065 3:2.5120652786401116 
8.0 1:1.5844847171931395 2:-1.2840490631881616 3:-1.0879639629529734 
8.0 1:2.288119333147729 2:-1.4009209462239967 3:-1.3160938802430397 
8.0 1:2.9404464227911946 2:-0.29687597621904965 3:-0.049735605172307934 
1.8540655804167965 1:0.49263877280827717 2:-0.6634223057923294 3:0.6117204981748917 
8.0 1:2.41471420552207 2:-1.3714947583020742 3:-1.3179330284653628 
8.0 1:0.0013099976447525194 2:-0.8907399587417081 3:-0.6213724055538903 
8.0 1:1.1507370620294028 2:1.4027045233587152 3:3.20278127346668 
8.0 1:0.0013099976447525194 2:-1.4857872324801835 3:-1.4257604033230196 
8.0 1:0.5290349041608815 2:-1.1381474185009535 3:-0.4783275071399581 
8.0 1:-0.1426153606595783 2:-1.4441883215158668 3:-1.3200944086161954 
8.0 1:1.5844847171931395 2:-0.603017008435542 3:2.014927707891629 
8.0 1:1.5844847171931395 2:-0.603017008435542 3:2.014927707891629 
8.0 1:0.8808501012385501 2:-1.3829340897797957 3:-1.2521418732520033 
8.0 1:2.991749727303066 2:-0.9260724653279921 3:-0.708625791682602 
0.12971955828946904 1:3.56745116052039 2:1.8429496801310887 3:4.704838642662776 
8.0 1:1.2829258184128147 2:-1.1945496819871573 3:-0.9295781399343871 
5.772281303322254 1:2.102254621072748 2:0.08937357489263663 3:0.8565845241443346 
8.0 1:2.991749727303066 2:-1.516761599264885 3:-1.4844588800334726 
8.0 1:1.5844847171931395 2:-1.4736109524501666 3:-1.4073278787541064 
8.0 1:1.5844847171931395 2:-1.4818664243068114 3:-1.4154385834829202 
8.0 1:0.5290349041608815 2:-1.4925958403381694 3:-1.4445486648988894 
8.0 1:1.5844847171931395 2:-1.289807648299927 3:-1.1067443021457621 
8.0 1:-0.1426153606595783 2:-0.9054099835108711 3:-0.39629695205739096 
8.0 1:0.8808501012385501 2:-1.4383444279842834 3:-1.3388949388825309 
8.0 1:0.0766986668900207 2:-0.9056334216167035 3:-0.6657248219183945 
3.250845821988058 1:0.5290349041608815 2:1.0803464138896945 3:2.7114190649676924 
0.026332728296156852 1:2.006664642406043 2:-0.8961999940256753 3:-0.46536802888283063 
1.8062961552568522 1:2.757207669851038 2:-1.0212605961171028 3:0.022111936823724695 
8.0 1:0.41176176453524127 2:-0.9699611870744204 3:0.022111936823724695 
8.0 1:0.6798122426514178 2:-1.2833067791544317 3:-1.1232954257825873 
8.0 1:0.3623836004823401 2:-0.6505205781366632 3:-0.3978739464229019 
8.0 1:1.5844847171931395 2:-1.291104940969052 3:-1.1233084096881922 
0.7021385289847616 1:3.226296006554347 2:-0.5345354521151663 3:3.2523900809723245 
8.0 1:-0.1426153606595783 2:-1.3669489281202674 3:-1.213363018434625 
8.0 1:0.0013099976447525194 2:-1.2443551562283073 3:-0.9470760983824893 
8.0 1:0.31794494155443 2:-1.2097353513953575 3:-0.9079336391916228 
8.0 1:1.5844847171931395 2:-1.1893881965309885 3:-0.9584422973755503 
8.0 1:-0.4989985445280506 2:-1.088251181792298 3:-0.7795847063763832 
8.0 1:2.6399345302253976 2:-1.2253073689425096 3:-1.0601704275587278 
8.0 1:1.5274313220998676 2:-1.3960401663743858 3:-1.279277025602289 
8.0 1:0.17721970708321294 2:-1.4617437153614348 3:-1.3656048133077048 
2.620825009872986 1:0.44784548274318814 2:2.515988116599221 3:5.75153894383413 
8.0 1:1.5844847171931395 2:-1.2878232049052245 3:-1.1711231275252871 
8.0 1:2.006664642406043 2:-1.3488357393323334 3:-0.6785572119469311 
8.0 1:-0.23774516320780176 2:-1.4500102210073162 3:-1.372212520929646 
8.0 1:0.31794494155443 2:-0.9008894672243123 3:-0.5872058631364775 
8.0 1:1.5844847171931395 2:-1.4214962225612346 3:-1.3260279984611132 
3.2585870101839287 1:2.6399345302253976 2:-1.4611262223101344 3:-1.3888222371913412 
8.0 1:0.44784548274318814 2:-1.1148354551699393 3:-0.8079492585345014 
8.0 1:1.5844847171931395 2:-0.8769215360925456 3:-0.4969418614038901 
8.0 1:0.8808501012385501 2:-0.6232215280962408 3:0.9419055089998741 
8.0 1:0.5290349041608815 2:-1.0531840857657941 3:-0.7616346219271729 
4.336939403525531 1:3.5410986895886003 2:-0.6364837564474672 3:-0.3414577212218156 
8.0 1:2.7907118687159342 2:-1.4386383537281722 3:-1.366905129447422 
8.0 1:2.6399345302253976 2:-1.21032551492509 3:-1.0169000766833691 
8.0 1:2.6399345302253976 2:-1.1783152940615322 3:-1.0355199876187675 
0.8023336453257977 1:2.991749727303066 2:3.565467532960071 3:8.533899907902727 
8.0 1:0.5290349041608815 2:-0.457599469763783 3:0.16917210804599098 
8.0 1:0.05590208377403302 2:-1.4299813572520519 3:-1.3594387785425286 
0.42638375898369907 1:2.991749727303066 2:-1.5150652125844937 3:-1.4790134520293718 
1.578747680636509 1:0.5290349041608815 2:5.9241678578721 3:15.423845287965104 
8.0 1:0.5290349041608815 2:-1.4411187597637332 3:-1.3333109241910617 
8.0 1:-0.437533369216304 2:-1.2908924109585957 3:-1.069999244101683 
0.42952078518682973 1:3.4369089058453084 2:-0.12549343571476076 3:3.2523900809723245 
8.0 1:2.1272856688386215 2:-0.8685821193280051 3:-0.5439439297931423 
1.2450480585101562 1:1.5844847171931395 2:5.734310323655522 3:20.66385651696973 
8.0 1:0.2411841875522199 2:-1.3751294068212003 3:-1.2605072495869418 
8.0 1:-0.17459971179370784 2:-1.4988611776199154 3:-1.412578933289977 
8.0 1:0.5290349041608815 2:-1.434109537803827 3:-1.3254096674649516 
8.0 1:0.17721970708321294 2:-1.4274721988998742 3:-1.3560409564655695 
8.0 1:0.4906207527657595 2:-1.195616126159569 3:-1.0246742451808883 
8.0 1:-0.40579388243879794 2:-1.4059135933343416 3:-1.1935210799089835 
8.0 1:0.497050553026752 2:-1.2093781705549118 3:-0.9698618074047608 
8.0 1:2.57313300065896 2:-1.4970430826797008 3:-1.4458674665991287 
8.0 1:-0.46936151377810476 2:-1.2188931717287539 3:-0.6398913061050061 
8.0 1:0.8808501012385501 2:-1.2229155911818808 3:-1.036894246000574 
0.7305042987351188 1:0.3623836004823401 2:0.08407467114797766 3:4.850848162845475 
8.0 1:0.8808501012385501 2:-1.2341056963935053 3:-1.0582994797709824 
8.0 1:0.0013099976447525194 2:-1.0897023141761044 3:-0.5885504675982794 
8.0 1:-0.28904424592042166 2:-1.4455988449576473 3:-1.3140485299944142 
8.0 1:-0.41231234048408516 2:-1.30732723513676 3:-1.1315698597617418 
8.0 1:-0.25404130832101984 2:-1.431107736665906 3:-1.3180235857053026 
8.0 1:-0.19193441952294965 2:-1.0782304362616353 3:-0.7417656702758869 
8.0 1:1.5844847171931395 2:-1.4819325842765938 3:-1.4158343175211257 
0.027210851317296794 1:3.4315218899995914 2:0.7159380117270372 3:3.160639862180363 
8.0 1:0.8808501012385501 2:-1.5034226585472623 3:-1.4452415983357305 
8.0 1:0.31794494155443 2:-1.034420738923558 3:-0.8971953990908288 
8.0 1:1.2829258184128147 2:-1.1393676431049198 3:-0.8855337062121563 
8.0 1:2.991749727303066 2:-1.2055057374132083 3:-1.0796696679995674 
8.0 1:-0.30421317063332126 2:-1.4682832963888908 3:-1.3476760752795738 
8.0 1:0.0766986668900207 2:-1.505872296639887 3:-1.4279107251474683 
1.0408900963763237 1:3.6593006250497093 2:1.0849865635266303 3:2.155702128337718 
0.5512374628395416 1:1.5844847171931395 2:0.5229729152738896 3:5.405501024397884 
8.0 1:0.0766986668900207 2:-0.7779675632241584 3:-0.25083710221748534 
8.0 1:0.8808501012385501 2:-1.1841553934729847 3:-1.0182034187332907 
8.0 1:0.5290349041608815 2:-0.9934202318436328 3:-0.5793589627609508 
8.0 1:1.5844847171931395 2:0.12483875711724744 3:1.0882850154757648 
8.0 1:1.5844847171931395 2:-1.40697428704343 3:-1.3197550665408928 
8.0 1:1.5844847171931395 2:-1.2916547919723937 3:-1.0919288956188138 
8.0 1:-0.12320774949754118 2:-1.4277607891623292 3:-1.2923522036623285 
8.0 1:2.8510244928318498 2:-1.4824580699147203 3:-1.4352725446089318 
8.0 1:1.2829258184128147 2:-1.2400589080113595 3:-1.0442634376796267 
8.0 1:2.543985698622261 2:-1.2261930588605612 3:-1.0426260351431231 
8.0 1:-0.43046607726824 2:-1.405693534366751 3:-1.2637595528913368 
7.990822421386981 1:0.31794494155443 2:-0.6915335346732677 3:0.3423387321820955 
8.0 1:1.5844847171931395 2:-1.4983316607291497 3:-1.453161670721658 
8.0 1:3.3282693456902717 2:-1.4778431156067786 3:-1.4339027975841576 
3.2523369126058723 1:1.5844847171931395 2:0.521155887429962 3:2.6734639179245407 
8.0 1:0.5290349041608815 2:-1.1962652764007113 3:-0.9207844597641324 
0.37647408455955356 1:3.167659436741527 2:1.2211987367971033 3:4.577796462923508 
8.0 1:2.288119333147729 2:-1.3128173862492662 3:-1.1782759391164401 
8.0 1:2.6399345302253976 2:-1.468770425843819 3:-1.4054885104655865 
8.0 1:3.6372037277640654 2:-0.5536873405720549 3:-0.3853445875472134 
8.0 1:-0.3902281085961982 2:-1.1267913205336033 3:-0.5402695945400368 
8.0 1:2.006664642406043 2:-0.8640876283342189 3:0.22226956995128028 
8.0 1:1.4345981783448025 2:-1.4856708597017942 3:-1.4170572803927048 
8.0 1:-0.3902281085961982 2:-1.466348057989635 3:-1.3448810145153602 
8.0 1:2.9037969834834625 2:-1.3867432678249418 3:-1.284058678940611 
8.0 1:3.573011270135444 2:-1.4356043025691387 3:-1.373515917996117 
8.0 1:1.349938437941859 2:-1.5041351231680884 3:-1.4497648939591332 
8.0 1:0.17721970708321294 2:-1.4039573094249853 3:-1.287570220224712 
8.0 1:0.4553982816052469 2:-1.4752156874161464 3:-1.373871820052721 
8.0 1:0.02425547658007379 2:-1.4152803866905714 3:-1.3217674068600143 
8.0 1:0.03202358720399125 2:-1.449648593932342 3:-1.3403916641027975 
8.0 1:-0.34483110123805466 2:-1.4130731573044337 3:-1.3279500016064916 
8.0 1:0.71529224356631 2:-1.5129743559767452 3:-1.4670383298700578 
8.0 1:1.5844847171931395 2:-0.76408967959857 3:-0.30822035330339526 
8.0 1:0.0766986668900207 2:-1.329570916518424 3:-1.1437854592574936 
8.0 1:0.9850947683721201 2:-1.4183573588335856 3:-1.3043181380579307 
8.0 1:2.6399345302253976 2:-1.1454154705935375 3:-0.9419392582027029 
8.0 1:0.0766986668900207 2:-1.5202058303799428 3:-1.4998839799583625 
8.0 1:0.5290349041608815 2:-1.466060416257213 3:-1.3945192008582636 
8.0 1:-0.17459971179370784 2:-1.43312164377475 3:-1.3550249658519813 
8.0 1:2.991749727303066 2:-1.500730611748151 3:-1.4558084618858487 
8.0 1:0.8808501012385501 2:-1.0454817847676054 3:-0.7189373784445551 
8.0 1:2.6399345302253976 2:-1.3947866839361474 3:-1.3000505593550866 
8.0 1:2.187598292954537 2:-0.36178358994239324 3:0.2514332374861444 
0.8057338612274518 1:0.6798122426514178 2:1.7411162664990008 3:4.886889999358019 
8.0 1:1.0087832839758162 2:-1.2953545926481422 3:-1.151210657783605 
8.0 1:1.5844847171931395 2:-1.5096671281682883 3:-1.4676948423513458 
0.03070436670272181 1:0.6798122426514178 2:-0.2242370720483927 3:1.669249651703528 
8.0 1:-0.2851686342069672 2:-0.5317644401908312 3:0.1232382409754926 
8.0 1:2.4029987125974124 2:-1.3907926018177477 3:-1.2751310334731187 
3.6104466534621067 1:3.636659115660541 2:-0.3640308354392861 3:-0.10932738559169215 
8.0 1:1.5844847171931395 2:-1.3149454133776717 3:-1.1471211676504358 
8.0 1:0.8808501012385501 2:-1.3509581938467967 3:-1.2098177520058808 
8.0 1:2.296322289094616 2:-1.3840631962174939 3:-1.2758523554493333 
8.0 1:2.288119333147729 2:-1.4374057982337807 3:-1.3567871459220107 
8.0 1:-0.2449602181296903 2:-1.151289657803041 3:-0.9206059310620642 
8.0 1:-0.2449602181296903 2:-1.480300341939665 3:-1.4142975402530606 
8.0 1:2.6399345302253976 2:-1.5013231466029653 3:-1.4576460146282457 
8.0 1:0.0013099976447525194 2:-1.1757483346604856 3:-0.9028284335276112 
8.0 1:1.5844847171931395 2:-1.4347368718542168 3:-1.3384535961250603 
8.0 1:1.5844847171931395 2:-1.3925116346526702 3:-1.261710571550466 
0.6202281274944442 1:0.6798122426514178 2:-0.35111434628498583 3:3.2523900809723245 
8.0 1:1.5844847171931395 2:-1.5131791198975584 3:-1.4732954170241161 
8.0 1:3.273204418044753 2:-1.36431758724325 3:-1.2605691982213112 
8.0 1:1.1623047919802363 2:-1.5119791701230416 3:-1.4661231295745556 
8.0 1:0.0766986668900207 2:-1.4281204006109836 3:-1.314917901504455 
8.0 1:0.8808501012385501 2:-0.48654089955585883 3:0.2859831352181986 
8.0 1:-0.0909025416202498 2:-1.3880073026597946 3:-1.279981677564104 
8.0 1:0.14018608404353705 2:-1.1819462670267815 3:-1.0104765094515114 
8.0 1:-0.3833719066107406 2:-0.4867757793052108 3:0.0968886149143069 
8.0 1:1.2829258184128147 2:-1.1329451462533775 3:-0.9559496075655947 
8.0 1:2.288119333147729 2:-1.4963878855595998 3:-1.4513784743298443 
8.0 1:1.5844847171931395 2:-1.386781149743124 3:-1.3069275729852328 
8.0 1:1.5844847171931395 2:-1.1156847452479854 3:-0.9137483382737766 
8.0 1:1.8190309964444202 2:-1.1505461288236432 3:-0.9907693614713451 
3.279428446508724 1:1.5844847171931395 2:-0.3711802619946535 3:1.3368755323869297 
8.0 1:-0.2743692717200212 2:-1.5023575186036455 3:-1.4298045598196698 
1.786280744199844 1:0.8808501012385501 2:1.5373032470435326 3:4.3083363533646875 
8.0 1:1.5844847171931395 2:-1.5196959954873561 3:-1.4855014986568609 
3.984026095151786 1:1.251186331635309 2:-0.7718377471708372 3:-0.3577834420566768 
8.0 1:1.5844847171931395 2:-1.5168523617323908 3:-1.48296055933328 
8.0 1:0.31794494155443 2:-1.3945282687853582 3:-1.2448632938294395 
8.0 1:1.5844847171931395 2:-1.4252161795001785 3:-1.3313716458492428 
8.0 1:-0.40914176924573625 2:-1.0679102516562686 3:-0.050747029412314744 
8.0 1:-0.17459971179370784 2:-1.4194345925351193 3:-1.3117557703241554 
8.0 1:0.8808501012385501 2:-1.2027118422018337 3:-1.1631029250198637 
8.0 1:3.541862835253236 2:-0.8507447749302113 3:-0.6460199296167441 
8.0 1:-0.03928260216446812 2:-1.2047527231334831 3:-0.8740813513030894 
2.132855947437691 1:0.8808501012385501 2:-0.4478092763141982 3:1.2084402235894878 
8.0 1:0.8808501012385501 2:-1.304783396155261 3:-1.1787420393210386 
0.15224117882502922 1:2.288119333147729 2:0.2853101195226585 3:2.1599468751726545 
1.4122636559491863 1:3.3435691461799872 2:-1.4543844265363284 3:-1.3870339792770037 
6.266469496651212 1:2.288119333147729 2:-0.45624935582846116 3:0.9065091816587846 
8.0 1:1.9802783970802362 2:-0.9629463925005721 3:-0.6666267632255459 
8.0 1:2.8510244928318498 2:-0.8444969854540706 3:-0.5377592444177964 
8.0 1:2.577848750423588 2:-1.2910889938078767 3:-1.1362173277366294 
8.0 1:0.8808501012385501 2:-1.4661984866601008 3:-1.3966153313817762 
8.0 1:1.251186331635309 2:-1.2770777231464372 3:-1.1058583156378712 
8.0 1:0.8808501012385501 2:-0.18400979479451499 3:0.36276148041736256 
8.0 1:0.2411841875522199 2:-1.4303254958045477 3:-1.304256409489758 
2.184030784688087 1:0.2186102269510859 2:1.9313013399925025 3:3.493618668388927 
8.0 1:3.194493192788059 2:-1.315951981591768 3:-1.2242380846932137 
8.0 1:0.0766986668900207 2:-1.432433070254123 3:-1.3202139595775495 
3.1459098819610323 1:2.288119333147729 2:1.9519973760595308 3:4.548829259485742 
8.0 1:1.5844847171931395 2:-1.4263793144528005 3:-1.3476193532173757 
8.0 1:1.353670508480741 2:-1.3446522476230252 3:-1.1807278066469091 
8.0 1:1.5844847171931395 2:-0.9929386750026468 3:-0.6824599759122052 
8.0 1:1.8190309964444202 2:-0.8181633018544482 3:-0.35705876407096254 
8.0 1:0.5290349041608815 2:-1.175209213903139 3:-0.8674769996906476 
8.0 1:1.5844847171931395 2:-1.313693116601974 3:-1.13666263168564 
8.0 1:1.5844847171931395 2:-0.9413161136344421 3:0.14100137919061131 
8.0 1:2.527651557315774 2:-1.4733074228396963 3:-1.4234411806926082 
8.0 1:1.5844847171931395 2:-0.9827942055858415 3:-0.7395036648566159 
8.0 1:1.5844847171931395 2:-1.1421031444361551 3:-0.8835851300735271 
8.0 1:1.5844847171931395 2:-0.5981483223438481 3:-0.06922989412372184 
8.0 1:0.26517245090281705 2:-1.0840672751011005 3:-0.6638025436902704 
8.0 1:-0.42823274546386375 2:-1.0253178147658053 3:-0.6633681330179958 
8.0 1:2.6399345302253976 2:-0.4542595769523244 3:1.0593112100520987 
8.0 1:2.8510244928318498 2:-1.3632499574082975 3:-1.2719196624813087 
8.0 1:0.17721970708321294 2:-1.175713239049275 3:-0.9962564370031702 
8.0 1:2.591223410454333 2:-1.051674025953705 3:-0.8186080547382888 
8.0 1:-0.16863430945044952 2:-1.423450965109288 3:-1.3551625072249152 
8.0 1:1.5844847171931395 2:-1.3697344644107283 3:-1.2663631010478773 
8.0 1:0.6798122426514178 2:-1.493600392925946 3:-1.4119042103309123 
8.0 1:2.006664642406043 2:-0.9344627470155374 3:-0.5834232553145985 
8.0 1:0.5290349041608815 2:-1.2596136253165184 3:-1.0723322208693877 
8.0 1:-0.40579388243879794 2:-1.1328847960300459 3:-0.5427141448694658 
8.0 1:0.5290349041608815 2:-1.3242827430197601 3:-1.142745261362269 
8.0 1:1.5844847171931395 2:-1.5112025018756254 3:-1.4715128808308928 
8.0 1:1.5844847171931395 2:-1.0691039767024457 3:-0.8757173784258636 
8.0 1:2.9611585699221394 2:-1.239797350854837 3:-1.1039512219773189 
0.3428090970759888 1:2.6399345302253976 2:-0.6443017781096475 3:2.262308410886467 
8.0 1:0.31794494155443 2:-1.1247160553882676 3:-0.4118808847597447 
1.1055141901124765 1:-0.4074910457381538 2:1.5360606727006703 3:6.413125106303576 
8.0 1:1.5844847171931395 2:-1.160294290536153 3:-1.0722137152224678 
3.0527113707640936 1:1.5844847171931395 2:0.3086828480588936 3:1.2213843522293957 
1.2332627810269998 1:2.006664642406043 2:5.959355772911521 3:18.053268607846675 
8.0 1:0.17721970708321294 2:-1.3943955338639047 3:-1.2393649399050337 
8.0 1:1.5844847171931395 2:-0.8358883047264918 3:-0.46215462227870124 
8.0 1:1.2829258184128147 2:-1.0858056342354394 3:-0.7611526219398633 
8.0 1:1.6955855863121672 2:-1.4062342557685277 3:-1.2966794203044767 
8.0 1:0.31794494155443 2:-1.4657163962709712 3:-1.3635630391347757 
5.417205294765399 1:0.31794494155443 2:0.7035317131640858 3:2.3074426674312773 
8.0 1:0.8808501012385501 2:0.4678087206128924 3:1.7866707573895213 
8.0 1:-0.418163754247536 2:-1.0872564702036107 3:-0.5801537868468613 
8.0 1:0.31794494155443 2:-1.3172498670921633 3:-1.1836172207929554 
8.0 1:1.5844847171931395 2:-1.2602466505471044 3:-1.0712049867933706 
8.0 1:1.975393775345523 2:-1.438339863183501 3:-1.3507878113008305 
8.0 1:-0.39448368224234426 2:-1.3397387434872852 3:-1.0905281192603058 
8.0 1:-0.316376174278705 2:-0.512271673753434 3:0.3091616073850203 
8.0 1:0.466949124359072 2:-1.2377402263463773 3:-1.073056568755807 
8.0 1:1.886043615973464 2:-1.1814386256098957 3:-0.9932431806049343 
8.0 1:0.17721970708321294 2:-1.501979707234988 3:-1.4356331230722155 
8.0 1:0.8808501012385501 2:-1.489837811418657 3:-1.4219542484180943 
8.0 1:1.0567598106770104 2:-1.4592210404562909 3:-1.384441764529593 
8.0 1:2.288119333147729 2:-1.4964044255520454 3:-1.445408243463177 
8.0 1:2.9611585699221394 2:-1.3665628763969504 3:-1.2594791003159862 
8.0 1:1.5844847171931395 2:-0.9703509736347409 3:-0.6879176175902225 
8.0 1:3.4731826050196006 2:-1.1592287948937743 3:-0.9931623612941983 
8.0 1:0.26517245090281705 2:-0.944244818676717 3:-0.7887564602725585 
1.1246122741709281 1:1.848347170451204 2:2.5175553253457816 3:6.43240367536568 
8.0 1:2.7358833618285345 2:-1.2408593487927204 3:-1.0781881273468723 
8.0 1:0.8808501012385501 2:-1.1748575463935083 3:-0.9513187545885575 
8.0 1:1.5844847171931395 2:-1.4855519377489423 3:-1.4348268555440769 
8.0 1:1.0567598106770104 2:-0.9112610503008268 3:-0.6565848125710924 
8.0 1:-0.24179809048984566 2:-1.4714148090087862 3:-1.3877953533010168 
8.0 1:0.6463080437865218 2:-1.2832449468529237 3:-1.0734228689402046 
8.0 1:0.8808501012385501 2:-1.501409759251578 3:-1.457225193043617 
8.0 1:0.31794494155443 2:-1.115501026837273 3:-0.7991452902695514 
1.3012016652681386 1:-0.0573265721680676 2:4.026936049214537 3:9.774483314801492 
8.0 1:0.5290349041608815 2:-1.4978314889862716 3:-1.4306222157734874 
8.0 1:0.5290349041608815 2:-1.5196426406730157 3:-1.4873528605531003 
8.0 1:0.8808501012385501 2:-1.4947636464448224 3:-1.4235306376015644 
8.0 1:-0.0740786716005156 2:-0.8497493519439994 3:-0.394084131433081 
8.0 1:0.8808501012385501 2:-1.2538836739551156 3:-1.0368534787376364 
8.0 1:-0.30421317063332126 2:-1.239980476434279 3:-0.8824313780208084 
8.0 1:2.6739833411938183 2:-1.0628127919773085 3:-0.8248950708950976 
8.0 1:0.31794494155443 2:-1.4437674113138477 3:-1.3586156209337938 
8.0 1:1.5844847171931395 2:-1.259984678408693 3:-1.0499040644001953 
0.1603212188881511 1:0.8808501012385501 2:0.01150174909772154 3:1.7759126012979263 
8.0 1:0.0013099976447525194 2:-1.4971562541692296 3:-1.4214443000238046 
8.0 1:2.288119333147729 2:-1.5109665550299867 3:-1.4656259450196742 
8.0 1:0.8808501012385501 2:-0.9964989231973314 3:-0.7956309431414427 
8.0 1:0.5290349041608815 2:-1.474828805729051 3:-1.3944551615950256 
8.0 1:0.5290349041608815 2:-0.8381902092665203 3:-0.3661034297385469 
8.0 1:2.39637048777157 2:-1.3527118480279134 3:-1.22044315316432 
8.0 1:0.5290349041608815 2:-1.4595077929418074 3:-1.3603753252591102 
8.0 1:1.6817971899547137 2:-0.7925082322101094 3:-0.46330050696488806 
8.0 1:0.8808501012385501 2:-1.3318893610508982 3:-1.1812091464356287 
1.467105588722057 1:0.6361081767933779 2:4.49185365780048 3:8.135335488308517 
8.0 1:1.5844847171931395 2:-1.4861888756659132 3:-1.427670412860678 
8.0 1:0.5290349041608815 2:-0.8617745192831789 3:0.4141297721821268 
8.0 1:0.5290349041608815 2:-0.8125000440109709 3:0.4141297721821268 
8.0 1:1.5844847171931395 2:-1.0162768414758148 3:-0.001263164489843081 
8.0 1:-0.13790383269420234 2:-0.8217424613666603 3:-0.19359656406013154 
8.0 1:1.0567598106770104 2:0.6955695149369323 3:1.1036892091119685 
8.0 1:0.15451909250451504 2:-0.590508565044692 3:-0.13223550643587476 
8.0 1:2.7686487458243074 2:-1.0739390492611052 3:-0.9009177637913627 
8.0 1:0.12309201887166663 2:-0.6578142405401308 3:-0.0032283556263227745 
8.0 1:2.288119333147729 2:-1.3324510093965218 3:-1.2382037606181766 
8.0 1:0.5290349041608815 2:-1.2754008406148436 3:-1.1097906785066007 
8.0 1:0.31794494155443 2:-1.4990003151190898 3:-1.4378606881317035 
8.0 1:2.6399345302253976 2:-1.4601156228433991 3:-1.3876247469820295 
8.0 1:0.41176176453524127 2:-1.377891585559606 3:-1.2278382576380333 
8.0 1:0.8808501012385501 2:-1.4916803902903413 3:-1.413985486386148 
8.0 1:1.5844847171931395 2:-1.3987240913850918 3:-1.2736832179650672 
8.0 1:0.2411841875522199 2:-1.33319874747794 3:-1.2226146013436512 
8.0 1:0.5290349041608815 2:-1.3994718887496371 3:-1.2747274320683815 
8.0 1:0.17721970708321294 2:-1.5051584685071386 3:-1.4447769835779596 
8.0 1:3.2368378392869133 2:-1.0668516328566269 3:-0.9366273553634464 
8.0 1:1.5844847171931395 2:-1.0870980064050193 3:-0.9774069970246196 
8.0 1:0.8808501012385501 2:-1.460575719192395 3:-1.3767895127050425 
8.0 1:-0.41231234048408516 2:-1.1702160925277778 3:-0.8372528331539139 
8.0 1:1.0887441618111402 2:-1.3739809740840856 3:-1.287709137011375 
8.0 1:0.5290349041608815 2:-0.7826328489069609 3:0.21453424313747754 
8.0 1:0.03649025081274378 2:-1.3725448403314215 3:-1.2052847734698235 
8.0 1:-0.0820156541945182 2:-1.4309346892180619 3:-1.3060056056541822 
8.0 1:1.5844847171931395 2:-1.2891127314847062 3:-1.1454926227783493 
8.0 1:0.8808501012385501 2:-1.145566227585613 3:-0.911856759280091 
8.0 1:1.3562795804185568 2:-1.1586098790474249 3:-0.9147578369345623 
8.0 1:1.5844847171931395 2:-1.5178300590636162 3:-1.4853172482336787 
8.0 1:0.7049446135993419 2:-1.3211473769966067 3:-1.196571912610305 
8.0 1:2.1122096237092687 2:-1.5099046756583576 3:-1.4671957872337926 
8.0 1:3.3706308793861344 2:-1.1841367192879655 3:-1.0848449097306767 
8.0 1:0.31794494155443 2:-1.3064312299546026 3:-1.1772386570983218 
8.0 1:2.006664642406043 2:-1.4703308170307692 3:-1.4117106621109197 
8.0 1:1.1824090000188747 2:-1.4768976682966657 3:-1.3994049455076216 
8.0 1:1.0087832839758162 2:-1.4468849923988876 3:-1.3676601215517306 
8.0 1:0.0013099976447525194 2:-1.511276724350686 3:-1.4664217043869205 
0.30499068870224855 1:3.6586715769611415 2:1.576181358892121 3:3.20278127346668 
0.19544105130461775 1:0.8808501012385501 2:-1.477466252768154 3:-1.390258444207517 
8.0 1:2.288119333147729 2:-1.0551111430935172 3:-0.8367762798049725 
8.0 1:0.2411841875522199 2:-1.1085633596117104 3:-0.88525587263883 
8.0 1:-0.5028277164497316 2:-1.4420394267267413 3:-1.3223431550471154 
8.0 1:0.02425547658007379 2:0.22763801145515156 3:1.8362506812068502 
8.0 1:1.5844847171931395 2:-0.6048509319706776 3:-0.15740156147468948 
8.0 1:2.6399345302253976 2:-1.3668584027852697 3:-1.264597124835955 
8.0 1:0.8808501012385501 2:-1.4400493514349693 3:-1.3479913201063383 
8.0 1:1.1367164667130822 2:-0.8261696660112503 3:-0.4372181512995877 
8.0 1:0.8808501012385501 2:-1.1113205585674442 3:-0.8599234475553142 
8.0 1:0.8808501012385501 2:-1.0289757022707333 3:-0.7201832832171396 
8.0 1:1.5844847171931395 2:-1.463646881588959 3:-1.3837458051825475 
8.0 1:0.8808501012385501 2:-1.3963987700098808 3:-1.284970358176966 
8.0 1:0.8808501012385501 2:-1.2396762947094113 3:-1.0267747220117858 
8.0 1:2.288119333147729 2:-1.3908870398391302 3:-1.2881186251868737 
8.0 1:2.8510244928318498 2:-1.2747652662097948 3:-1.123277600420655 
8.0 1:0.0766986668900207 2:-0.9304000743191467 3:-0.4196096095876467 
1.0521957940233282 1:2.288119333147729 2:3.1145461371212986 3:7.883276177971958 
8.0 1:1.5844847171931395 2:-1.1438035030860585 3:-0.8622120809843852 
8.0 1:3.0922707674962586 2:-1.2630310604581518 3:-1.1423627863124144 
8.0 1:-0.4219169337826787 2:-1.0711281397922687 3:-0.6451344382577957 
8.0 1:-0.35754293878621524 2:-1.389118564876252 3:-1.2337525916907404 
8.0 1:-0.262552455613312 2:-0.3260694778673207 3:0.7140751018035085 
2.045351906001258 1:0.03649025081274378 2:-0.6140267150915685 3:0.04304930985996122 
8.0 1:0.09140741548443819 2:-1.4362336522458479 3:-1.3112375694474896 
8.0 1:1.0087832839758162 2:-0.9020109854217486 3:-0.6063680721970799 
8.0 1:3.273204418044753 2:-1.2324591668229588 3:-1.1200936826868826 
8.0 1:3.0458774155146124 2:-1.2197904811397062 3:-1.1012663593610998 
8.0 1:0.994674030875201 2:-1.4486336667973325 3:-1.3662043836605982 
8.0 1:1.5844847171931395 2:-0.4969248728059259 3:0.13484915357927763 
8.0 1:0.5290349041608815 2:-1.3183064702654854 3:-1.1896563873957373 
8.0 1:-0.44197892382879583 2:-1.5202717532172167 3:-1.5033912299516279 
8.0 1:1.5844847171931395 2:-1.1535922737405941 3:-0.8929701831308483 
8.0 1:0.17721970708321294 2:-0.9883299454230451 3:-0.44326810114600756 
8.0 1:0.8808501012385501 2:-1.178956085381761 3:-0.94723581142474 
8.0 1:1.5844847171931395 2:-0.29272497166336203 3:1.4857478387058745 
8.0 1:-0.36403606603598965 2:-0.9391380515468105 3:-0.726379191968517 
8.0 1:1.5844847171931395 2:-1.1525726039554207 3:-0.8780744524421066 
8.0 1:0.8808501012385501 2:-1.4700849106197869 3:-1.3979876641843614 
7.200654197878855 1:0.466949124359072 2:2.286638653036631 3:6.781575007343557 
8.0 1:1.9569951742047444 2:2.3342818937850702 3:6.781575007343557 
8.0 1:1.5844847171931395 2:-1.0198249366294552 3:-0.8838043160054347 
7.998490561575795 1:2.288119333147729 2:-1.5076715988288283 3:-1.4599608359347234 
8.0 1:-0.2449602181296903 2:-1.1333078404246386 3:-0.7471541561515931 
7.357072874661787 1:1.5844847171931395 2:-0.8735394929777582 3:0.19071202232877615 
8.0 1:3.6092258641202064 2:-1.3756212789262925 3:-1.2923169930708573 
8.0 1:1.5844847171931395 2:-0.8859121187245481 3:-0.5375945248695707 
8.0 1:2.288119333147729 2:-1.462738189817614 3:-1.3884326099900939 
8.0 1:1.5844847171931395 2:-1.5198577791410617 3:-1.4968897042695914 
8.0 1:-0.20166144499985494 2:-0.954802847187788 3:-0.5271363740206193 
4.991901802957234 1:1.5844847171931395 2:-1.4781875505749098 3:-1.4042046992906216 
8.0 1:0.5290349041608815 2:-0.8091922826543706 3:-0.37014995194681144 
8.0 1:0.35721611819773413 2:-1.391935343374666 3:-1.2760088225151827 
8.0 1:0.0013099976447525194 2:-0.018938595278558845 3:0.6672723033553629 
8.0 1:2.288119333147729 2:-1.3182036733231897 3:-1.173663406650278 
8.0 1:2.288119333147729 2:-1.363878477121228 3:-1.2350870731074943 
2.8100339133126493 1:1.7955746797995913 2:3.186036964253603 3:7.064821383860485 
8.0 1:1.5844847171931395 2:-1.1769760289384597 3:-0.9208597774199512 
8.0 1:-0.3204755413525223 2:-1.2087424775836086 3:-0.9308135915626286 
8.0 1:-0.1426153606595783 2:-1.0282650754268452 3:-0.7247140060746807 
8.0 1:-0.3984817261341104 2:-1.4242681237324755 3:-1.2569773327754168 
8.0 1:0.740124866767333 2:-1.3199591652812448 3:-1.2091478705031435 
8.0 1:-0.1426153606595783 2:-1.4774955979160411 3:-1.3817233968349274 
5.845140934233305 1:0.8808501012385501 2:-1.3110219374635825 3:1.0787198932529984 
8.0 1:-0.22485601009105183 2:-1.461667536543182 3:-1.3367216201405276 
8.0 1:1.1623047919802363 2:-0.9050109487827315 3:-0.5684476956130057 
8.0 1:0.6195038403347544 2:-1.196274050303514 3:-1.045173686485703 
8.0 1:1.5844847171931395 2:-1.4921653262695689 3:-1.4371085018714027 
8.0 1:1.5844847171931395 2:-1.5061697793713984 3:-1.4534906696857157 
8.0 1:3.167659436741527 2:-0.9888979963463898 3:-0.7356283541493794 
8.0 1:-0.262552455613312 2:-1.3042573176858643 3:-1.0777345709154857 
8.0 1:1.5844847171931395 2:-1.0703501673160578 3:-0.7927986361734385 
8.0 1:-0.17459971179370784 2:-1.1732008201251098 3:-0.9999781965216632 
8.0 1:0.5290349041608815 2:-1.4675551217393974 3:-1.3830671760484916 
8.0 1:1.5844847171931395 2:-1.4538048154032097 3:-1.3852187082370222 
5.228538919661972 1:0.8808501012385501 2:-0.9393818237652194 3:0.04263294461581575 
8.0 1:0.41176176453524127 2:-1.3889251240327045 3:-1.2802477375959074 
8.0 1:0.7327198308790988 2:-1.4978790933372887 3:-1.449687540690995 
8.0 1:0.5290349041608815 2:-1.4444644030385152 3:-1.3446513754391096 
8.0 1:2.3402163359190014 2:-1.0450070454862295 3:-0.8551710080046037 
8.0 1:1.5844847171931395 2:-0.7925773563362438 3:-0.3857041206960626 
8.0 1:0.8394595813706771 2:-1.0553143063699004 3:-0.08770758727950677 
8.0 1:1.0087832839758162 2:-1.0871667155492646 3:-0.8727616693380632 
8.0 1:3.226296006554347 2:-0.8995424360115968 3:-0.6769429713776296 
8.0 1:3.07171060513839 2:-1.3093511018109476 3:-1.21839543720408 
8.0 1:1.8915235114027276 2:-1.3767752249942224 3:-1.2499326837199392 
8.0 1:2.4891571917348614 2:-1.0663158912375217 3:-0.8499808567886682 
8.0 1:3.3435691461799872 2:-1.3583656205710635 3:-1.2651450346491748 
8.0 1:0.0766986668900207 2:-1.488959709740867 3:-1.4003681202340033 
8.0 1:0.0013099976447525194 2:-1.1326880946145108 3:-0.883345422968778 
8.0 1:1.0973524104862311 2:-1.4327897768295526 3:-1.3280726334945996 
8.0 1:2.4891571917348614 2:-1.5068239686783396 3:-1.466334393123382 
8.0 1:-0.418163754247536 2:-0.6221043968502056 3:-0.07855481409279647 
8.0 1:2.6399345302253976 2:-1.4790680828609084 3:-1.4190257175055858 
8.0 1:1.5844847171931395 2:0.8816262893124044 3:3.689491502633748 
8.0 1:1.5844847171931395 2:0.9283464324896263 3:3.689491502633748 
8.0 1:0.5290349041608815 2:-0.9835937571202967 3:-0.11266600986174048 
2.533143137951839 1:1.8190309964444202 2:-0.17630281042928977 3:1.0196669449162203 
8.0 1:0.8808501012385501 2:-1.5041835574828843 3:-1.4555085666763037 
8.0 1:2.4708810227723945 2:-0.967914081414431 3:-0.7228465793460825 
8.0 1:0.0013099976447525194 2:-1.4325850129087392 3:-1.299593866980397 
1.6812074510666783 1:1.5844847171931395 2:0.15571429892916486 3:2.1380367545304804 
4.877329829065627 1:1.5844847171931395 2:1.050551603483807 3:2.7432278181537226 
8.0 1:-0.20166144499985494 2:-1.3492830305258874 3:-1.2677268512687916 
8.0 1:0.993432821895075 2:-1.386169525721401 3:-1.2578399372499092 
8.0 1:1.5844847171931395 2:-0.7254071427861025 3:-0.3694558631624379 
0.2522417694323174 1:3.5693594137823523 2:3.2823390249998883 3:7.064821383860485 
8.0 1:0.3531251947224211 2:-1.3531732486057044 3:-1.1788846972330458 
8.0 1:0.31794494155443 2:-0.9570245416569247 3:-0.5254989714841157 
2.8187269114829627 1:3.3115847950458575 2:0.49222619569704074 3:2.2658253988089365 
3.806834281528632 1:0.29448862490960104 2:1.353076246384303 3:4.6906483341675385 
8.0 1:1.5844847171931395 2:-1.2665332111883325 3:-1.0870923357644169 
8.0 1:-0.0573265721680676 2:-1.4895745350514504 3:-1.4295052697921655 
8.0 1:-0.38083460526021107 2:-1.4014186873586663 3:-1.2720054332814703 
8.0 1:0.8808501012385501 2:-0.7441308884994725 3:-0.4233303237917055 
8.0 1:2.8510244928318498 2:-1.2932329680974575 3:-1.1645089279505432 
1.24067166413181 1:2.288119333147729 2:-0.018098375518950747 3:7.673902227543396 
8.0 1:0.8808501012385501 2:-1.099944837885042 3:-0.37168067739446753 
8.0 1:1.5844847171931395 2:-1.413850359099993 3:-1.3143436937807305 
8.0 1:2.4891571917348614 2:-1.489908891887984 3:-1.4338625804867118 
8.0 1:1.349938437941859 2:-1.4737074653809956 3:-1.3931373501926712 
8.0 1:0.8808501012385501 2:-1.027415429650037 3:-0.780448411181859 
1.8407389673938737 1:3.226296006554347 2:3.5409333293987713 3:4.625600452533513 
8.0 1:0.5290349041608815 2:-0.9376188621331566 3:-0.5407783325702449 
8.0 1:0.8808501012385501 2:-1.2117288058253712 3:-0.6273969927711411 
8.0 1:0.5290349041608815 2:-1.0309798276636148 3:-0.12102494926042566 
8.0 1:0.5290349041608815 2:-1.0309798276636148 3:-0.12102494926042566 
8.0 1:0.5290349041608815 2:-1.0309798276636148 3:-0.12102494926042566 
8.0 1:0.5290349041608815 2:-1.0309798276636148 3:-0.12102494926042566 
8.0 1:-0.5074843610248299 2:-1.3733355586799472 3:-1.100964923688178 
8.0 1:-0.4812627658698565 2:-1.1711963390334659 3:-0.8756491028883393 
8.0 1:3.226296006554347 2:0.11084728702024084 3:0.622418136062396 
8.0 1:-0.10423498365847327 2:-1.395081617493196 3:-1.2768383070270726 
8.0 1:1.5844847171931395 2:-0.6254769546646659 3:-0.2314635745915072 
8.0 1:2.860654416925956 2:-1.4328056054244733 3:-1.3678190643622932 
8.0 1:-0.1426153606595783 2:-1.2932885163874985 3:-1.0246251154024764 
8.0 1:2.288119333147729 2:-0.9491127933708864 3:-0.6254042933600747 
8.0 1:1.5844847171931395 2:-0.3763565682325836 3:0.26087429739052437 
8.0 1:1.5844847171931395 2:-1.2128582679618316 3:-1.0385560208683615 
8.0 1:0.03649025081274378 2:-1.487208308318578 3:-1.4155664969597488 
8.0 1:1.5844847171931395 2:-1.4772858542125562 3:-1.4165399047642766 
8.0 1:0.8808501012385501 2:-1.0556946669130207 3:-0.23510220410419913 
8.0 1:0.8808501012385501 2:-1.071902614563984 3:-0.23510220410419913 
8.0 1:-0.45234766279202476 2:-1.5025091055594995 3:-1.4310358852067233 
8.0 1:-0.13869753095360257 2:-1.045320534662043 3:-0.8394180644631886 
8.0 1:0.8808501012385501 2:-1.2559094376893687 3:-1.047158298464041 
8.0 1:1.5844847171931395 2:0.6712002963181984 3:3.262727085379996 
8.0 1:1.8190309964444202 2:-0.9320404384444806 3:-0.58888793911091 
8.0 1:1.5844847171931395 2:-1.493586757806726 3:-1.435416522918119 
8.0 1:2.991749727303066 2:-1.4921844154364774 3:-1.4493462180199221 
8.0 1:0.17721970708321294 2:-0.6118204342354635 3:-0.06108683966399398 
8.0 1:1.7086562767967586 2:-1.4685035924889898 3:-1.400473917058064 
8.0 1:-0.35050519943291614 2:-1.4256827377100223 3:-1.257778758847228 
8.0 1:0.8808501012385501 2:-1.2315240347769516 3:-1.0017815289704743 
8.0 1:0.0766986668900207 2:-1.402837154739471 3:-1.3071101729119399 
8.0 1:0.41176176453524127 2:-0.7318909383910092 3:-0.2039386850068761 
8.0 1:0.41176176453524127 2:-0.17222336060794546 3:0.22705111325650373 
8.0 1:0.8808501012385501 2:-0.8555426176850864 3:-0.532300942541189 
8.0 1:2.8510244928318498 2:-0.5157470285101904 3:-0.17115382820540803 
2.6118097034821686 1:1.3085014782822124 2:1.0283035351507415 3:2.459354638092061 
8.0 1:1.5844847171931395 2:-1.5175708732321755 3:-1.4867841544842932 
8.0 1:1.5844847171931395 2:-0.9093945210458164 3:0.1562458047680151 
8.0 1:2.288119333147729 2:-1.4455622672682606 3:-1.3602551691157152 
8.0 1:1.5844847171931395 2:-1.4269309439499538 3:-1.3217707078529646 
8.0 1:0.0013099976447525194 2:-0.8120905161693442 3:3.2523900809723245 
8.0 1:1.5844847171931395 2:-1.4365298307485643 3:-1.3375328391580916 
8.0 1:0.22412811857361853 2:-1.4279128503831993 3:-1.3014227821245736 
8.0 1:0.17721970708321294 2:-1.2844306093938227 3:-1.1180131218467861 
8.0 1:0.5290349041608815 2:-1.479952053568276 3:-1.3933248465922548 
8.0 1:0.0766986668900207 2:-1.3932963654053643 3:-1.2518124891721012 
8.0 1:0.8808501012385501 2:-1.2536620736262216 3:-1.1175298564788456 
8.0 1:0.8808501012385501 2:1.214138887046701 3:4.058591754301509 
8.0 1:1.723728100126859 2:-0.776762989365732 3:-0.4523523787289969 
8.0 1:0.41176176453524127 2:-1.0138747484510804 3:-0.8546203473639254 
8.0 1:2.006664642406043 2:-1.4824081535217482 3:-1.430586565049623 
8.0 1:2.6399345302253976 2:-1.2917954708328714 3:-1.1520692460500075 
8.0 1:1.1623047919802363 2:-1.4433412841966486 3:-1.3509062619312011 
8.0 1:3.188768433002172 2:-0.81074105434842 3:-0.5909763123009892 
5.460558217404195 1:-0.13369047704057757 2:-1.4264847791358133 3:-1.279681507271813 
8.0 1:0.17721970708321294 2:-1.187554391562107 3:-0.7720425426667289 
8.0 1:2.288119333147729 2:-0.9636843488660276 3:-0.7754870187773872 
8.0 1:2.288119333147729 2:-1.0139636731416477 3:-0.7924665012660778 
8.0 1:0.8808501012385501 2:-1.2894588856635218 3:-1.1526220523361037 
8.0 1:2.4891571917348614 2:-1.4532888743485375 3:-1.3854226545848085 
8.0 1:0.5417509635082942 2:-1.271402608677551 3:-1.1453088124875601 
8.0 1:-0.18867096870105393 2:-1.048705541933183 3:-0.6156447976690783 
8.0 1:0.8808501012385501 2:-1.4505109262983382 3:-1.3503300185951572 
8.0 1:1.7823815571366879 2:-1.0858931361309578 3:-0.8718374463284965 
8.0 1:1.5844847171931395 2:0.0408827039937087 3:0.8425361033294148 
8.0 1:1.1623047919802363 2:-1.4888212243560903 3:-1.422871154226621 
8.0 1:0.34189943051101 2:-1.272231031094877 3:-1.0587204113887094 
8.0 1:1.5844847171931395 2:-1.5103324627031138 3:-1.4706937944467968 
8.0 1:1.5844847171931395 2:-1.4466769086229598 3:-1.3599065842601514 
8.0 1:-0.22485601009105183 2:-1.2238150347854069 3:-1.0483761447965474 
8.0 1:1.5844847171931395 2:-1.3073690297413267 3:-1.1882357500629777 
8.0 1:0.6798122426514178 2:-1.4862801716815623 3:-1.4071748227143055 
8.0 1:-0.1426153606595783 2:-1.4909689927658019 3:-1.4150715130668343 
8.0 1:0.8808501012385501 2:-0.6917944989985195 3:-0.14824713779150403 
8.0 1:2.6399345302253976 2:0.9453642469391509 3:1.7139158824645184 
8.0 1:1.5844847171931395 2:-1.2098641143472992 3:-1.1056690587087141 
8.0 1:0.624983735764018 2:-1.3571253582701561 3:-1.214007427275095 
8.0 1:0.8808501012385501 2:-1.3380157386828506 3:-1.2115209543351957 
8.0 1:1.5844847171931395 2:-1.4322504189396974 3:-1.3405770148569631 
8.0 1:1.5844847171931395 2:-1.4939440572134257 3:-1.4496604175322525 
8.0 1:1.886043615973464 2:-1.3427712532850156 3:-1.195292667808921 
8.0 1:0.0766986668900207 2:-1.390534779498229 3:-1.2304840034877897 
8.0 1:-0.10423498365847327 2:-1.2702451649051252 3:-1.0333122285169816 
8.0 1:-0.35050519943291614 2:-1.3823628968507176 3:-1.1769429431465142 
8.0 1:2.7317122241674308 2:-1.3924723892225663 3:-1.291509185079342 
8.0 1:2.6399345302253976 2:-1.4727088411059235 3:-1.4119689097927404 
8.0 1:0.31794494155443 2:-1.4733985410059645 3:-1.4015676460556343 
8.0 1:-0.30421317063332126 2:-0.7697374645458886 3:0.11579466692195717 
8.0 1:0.31794494155443 2:-1.4483725246226997 3:-1.3534712985033202 
8.0 1:0.8808501012385501 2:-1.2513569677973326 3:-1.0234196477935344 
8.0 1:-0.20166144499985494 2:-1.240679187369631 3:-0.9821251062486459 
8.0 1:1.745943207791562 2:-1.1354741644531154 3:-0.9438672581519412 
8.0 1:1.5844847171931395 2:-1.2222295075525897 3:-0.5448401493791797 
8.0 1:0.8808501012385501 2:5.478098430283194 3:7.257418807850257 
8.0 1:0.17721970708321294 2:1.8042632899153632 3:7.257418807850257 
8.0 1:0.0766986668900207 2:-0.9509646204103894 3:-0.4137136510623636 
8.0 1:1.2829258184128147 2:-1.5084760115797013 3:-1.4686851952530193 
0.79354228175944 1:2.288119333147729 2:3.6012858647724886 3:9.474359181395295 
8.0 1:1.7086562767967586 2:-1.3710909216406442 3:-1.2527032071032211 
8.0 1:1.721300565556885 2:1.7425221658568721 3:3.3661165502985675 
8.0 1:-0.1426153606595783 2:-1.4288451961222353 3:-1.3017613539681876 
8.0 1:0.8808501012385501 2:-1.4981679800153787 3:-1.450339926931095 
8.0 1:0.6798122426514178 2:-1.4803603364642344 3:-1.4128780582678335 
8.0 1:-0.49394082902399994 2:-1.232515130094889 3:-0.7671788596535893 
6.5875657683896245 1:1.1623047919802363 2:-0.9161633499255551 3:0.24040863624690195 
