svm_type c_svc
kernel_type rbf
gamma 2.0
nr_class 2
total_sv 1355
rho -0.7164699803070201
label 1 -1
probA -3.110947980563301
probB 0.10037205126859787
nr_sv 781 574
SV
8.0 1:0.20597438892412012 2:-0.7535403692596556 3:1.126947140917546 
2.243055919897136 1:1.6037702846042403 2:-0.216791908189365 3:1.126947140917546 
8.0 1:-0.7961892718025061 2:2.548306857391615 3:1.126947140917546 
0.5708520590849913 1:-0.7962378040230121 2:1.3807448001690499 3:1.126947140917546 
8.0 1:-0.515461922118904 2:-0.5608030408587509 3:1.126947140917546 
2.6398481855875766 1:0.052379617466883834 2:-0.07049163269939417 3:1.126947140917546 
1.5838805492939292 1:1.6285702492827816 2:1.193223132868767 3:1.126947140917546 
1.1575400327738978 1:1.5702927588992346 2:-0.2759769006536385 3:1.126947140917546 
0.053504207042476 1:0.6300610647602534 2:3.4191390259247125 3:1.126947140917546 
2.260804832024102 1:1.4511437309460977 2:-0.2791900620092287 3:1.126947140917546 
0.19247549425492638 1:0.8912784618004631 2:-0.7605098536663839 3:1.126947140917546 
8.0 1:-0.5266971311660317 2:-0.3299593202509175 3:1.126947140917546 
8.0 1:-0.7681036757957119 2:1.3276523804584515 3:1.126947140917546 
0.22379482574896412 1:-0.6686029173144095 2:1.3077713535780378 3:1.126947140917546 
8.0 1:-0.7954807013831192 2:0.783116420379704 3:1.126947140917546 
8.0 1:-0.7962742031883916 2:0.7230021633278668 3:1.126947140917546 
8.0 1:-0.7962887628545434 2:1.7882207776989534 3:1.126947140917546 
8.0 1:-0.7903775383969185 2:-0.1984356605265735 3:1.126947140917546 
0.18720225884236616 1:1.5654565231258164 2:-0.21771462866011496 3:1.126947140917546 
2.3435920891841624 1:1.6224624693321077 2:1.0398617553366742 3:1.126947140917546 
8.0 1:-0.7820469827470719 2:0.7106468707833568 3:1.126947140917546 
8.0 1:-0.7946532270234928 2:0.7615797319453912 3:1.126947140917546 
8.0 1:-0.7867861540794779 2:1.324406498518792 3:1.126947140917546 
8.0 1:-0.3918843290445988 2:-0.7334237541739438 3:1.126947140917546 
8.0 1:-0.6165715237099786 2:-0.7156106682067 3:1.126947140917546 
8.0 1:-0.5495461005802339 2:-0.5756712742597715 3:1.126947140917546 
2.9334072113251635 1:0.41698520385092264 2:-0.7594038979248467 3:1.126947140917546 
8.0 1:-0.6992558677859687 2:-0.7109708893856951 3:1.126947140917546 
8.0 1:-0.5912546908830488 2:0.24279487152906262 3:1.126947140917546 
8.0 1:-0.7457667213078476 2:0.6399769533108127 3:1.126947140917546 
8.0 1:-0.795194361282134 2:0.7935150219968791 3:1.126947140917546 
8.0 1:-0.796269349966341 2:0.7895689195581398 3:1.126947140917546 
8.0 1:-0.7963033225206951 2:0.7871672286874642 3:1.126947140917546 
8.0 1:-0.7614523349753711 2:-0.7422648559894275 3:1.126947140917546 
0.13651971292347775 1:1.6191938242810315 2:3.2678979422403005 3:1.126947140917546 
8.0 1:-0.5620213078612888 2:-0.3276165264315666 3:1.126947140917546 
1.9635570116106773 1:-0.7957621882620538 2:2.183747197926805 3:1.126947140917546 
8.0 1:-0.7154340834916276 2:-0.606003255691871 3:1.126947140917546 
8.0 1:-0.4929939306356735 2:-0.591684728103212 3:1.126947140917546 
8.0 1:-0.4496619375569344 2:-0.7406419150195978 3:1.126947140917546 
8.0 1:-0.7951506822836788 2:0.7677312017503909 3:1.126947140917546 
7.201402324175226 1:-0.6335626541091123 2:0.6098412953831281 3:1.126947140917546 
8.0 1:-0.7527941868371094 2:-0.6384031780371404 3:1.126947140917546 
0.15283024746911195 1:1.5325759437330342 2:-0.19509161683470658 3:1.126947140917546 
8.0 1:-0.7961892718025061 2:0.6399769533108127 3:1.126947140917546 
8.0 1:-0.7955898988792577 2:-0.7148122859554129 3:1.126947140917546 
8.0 1:-0.4390722070425358 2:-0.18974507339780794 3:1.126947140917546 
0.5269727876940052 1:-0.29578325260973837 2:-0.662629498481937 3:1.126947140917546 
8.0 1:-0.7383728375137657 2:0.46039329970570525 3:1.126947140917546 
8.0 1:-0.7945488827494049 2:2.1051916196935965 3:1.126947140917546 
1.0604457128554376 1:1.4460381413488714 2:-0.22557411295352417 3:1.126947140917546 
8.0 1:-0.7906905712191818 2:0.6399769533108127 3:1.126947140917546 
8.0 1:-0.7269896051940947 2:0.6399769533108127 3:1.126947140917546 
8.0 1:-0.546522543242713 2:-0.658369278436134 3:1.126947140917546 
0.15653414918419822 1:0.006079879104205856 2:2.3251066652223344 3:1.126947140917546 
8.0 1:-0.6615075066764393 2:-0.45796224512942135 3:1.126947140917546 
0.13734321434505847 1:1.6270390577258187 2:-0.3544604936018949 3:1.126947140917546 
8.0 1:-0.796252363689164 2:-0.691135671322978 3:1.126947140917546 
8.0 1:-0.7939737759364095 2:1.3085762799461387 3:1.126947140917546 
8.0 1:-0.5629919522714077 2:0.3325016248130365 3:1.126947140917546 
8.0 1:-0.7881838820300494 2:1.8480405494941687 3:1.126947140917546 
1.4616587140305952 1:1.5567571226001247 2:1.182078501934816 3:1.126947140917546 
8.0 1:-0.5757195270990936 2:-0.5852649495088454 3:1.126947140917546 
0.04527124672695468 1:-0.7933841094572621 2:1.2567992277151203 3:1.126947140917546 
8.0 1:-0.7925056762661044 2:1.32917061555926 3:1.126947140917546 
8.0 1:-0.7113986293565577 2:-0.5147259143725779 3:1.126947140917546 
2.8736607040472673 1:-0.7858640418898649 2:1.7665924716292472 3:1.126947140917546 
6.416338813214402 1:1.5997299772471196 2:-0.3001377799302968 3:1.126947140917546 
8.0 1:-0.3306827723755683 2:-0.6558497934628097 3:1.126947140917546 
5.362164538986576 1:1.321201137152437 2:-0.34332240678475723 3:1.126947140917546 
8.0 1:-0.6507236472800169 2:-0.7596002214292616 3:1.126947140917546 
4.464395718653784 1:1.2297445942199963 2:0.1341952530035631 3:1.126947140917546 
8.0 1:-0.45155469415666655 2:-0.2611348437198733 3:1.126947140917546 
8.0 1:-0.18966755247347478 2:-0.1899544851358505 3:1.126947140917546 
0.02997950490622646 1:1.618708502075972 2:-0.2864802081398347 3:1.126947140917546 
8.0 1:-0.7642672037647162 2:-0.41083805995303546 3:1.126947140917546 
5.067299911966361 1:1.0651063159866305 2:-0.591684728103212 3:1.126947140917546 
0.596282444366763 1:1.5067737887010448 2:-0.23101227402581642 3:1.126947140917546 
3.050677798293483 1:-0.7571814995708473 2:0.7544466446183172 3:1.126947140917546 
4.009557400531996 1:-0.47277298096186865 2:1.261072535994551 3:1.126947140917546 
8.0 1:-0.7696542802408769 2:1.329550174334462 3:1.126947140917546 
8.0 1:-0.796106767027646 2:0.7539885564413491 3:1.126947140917546 
8.0 1:-0.6789038811167977 2:-0.6730935412672503 3:-0.6167306793233271 
8.0 1:-0.7606345670598459 2:0.28694148355515603 3:-0.6167306793233271 
8.0 1:-0.7959150647566475 2:0.1700570131433483 3:-0.6167306793233271 
8.0 1:-0.740534947937306 2:0.3122737597414897 3:-0.6167306793233271 
8.0 1:0.0914650412513522 2:0.3345761098430204 3:-0.6167306793233271 
8.0 1:-0.503452624154706 2:-0.20465911561652525 3:-0.6167306793233271 
8.0 1:-0.7154340834916276 2:0.2775114112264278 3:-0.6167306793233271 
8.0 1:-0.41499537244953305 2:-0.6447182507624858 3:-0.6167306793233271 
8.0 1:-0.7513818992203861 2:0.20614127325480397 3:-0.6167306793233271 
8.0 1:-0.5623755930709822 2:-0.6615628074412828 3:-0.6167306793233271 
8.0 1:-0.794182464484585 2:0.4393605082660573 3:-0.6167306793233271 
2.4687541066633494 1:1.02363796017532 2:-7.771562816690937E-4 3:-0.6167306793233271 
8.0 1:-0.589657980828403 2:-0.6275792088270665 3:-0.6167306793233271 
8.0 1:-0.7847089750418232 2:0.020857693904851052 3:-0.6167306793233271 
8.0 1:-0.7041697551121963 2:-0.6432392803625604 3:-0.6167306793233271 
3.2613500280409156 1:0.9575661951785173 2:-0.4353915862385236 3:-0.6167306793233271 
8.0 1:-0.5536592062681133 2:-0.06148692796356484 3:-0.6167306793233271 
8.0 1:-0.5343021301193144 2:-0.15940000373208082 3:-0.6167306793233271 
8.0 1:-0.7839227530696269 2:-0.6011213445487541 3:-0.6167306793233271 
0.5212913433652524 1:1.335161430380974 2:0.5157107191330055 3:-0.6167306793233271 
3.643350122470927 1:0.9831936342166852 2:0.2492342824738707 3:-0.6167306793233271 
8.0 1:-0.7639663039975795 2:0.06302143853635415 3:-0.6167306793233271 
8.0 1:-0.772279873370249 2:-0.5208839282943913 3:-0.6167306793233271 
8.0 1:-0.4229959089999392 2:-0.7032291991949349 3:-0.6167306793233271 
8.0 1:-0.6125554824631111 2:-0.6080122995537165 3:-0.6167306793233271 
8.0 1:-0.7834592703637949 2:0.2819025136085072 3:-0.6167306793233271 
8.0 1:-0.6598234386248827 2:-0.668656630067474 3:-0.6167306793233271 
8.0 1:-0.7606345670598459 2:-0.06148692796356484 3:-0.6167306793233271 
8.0 1:-0.7955389400477264 2:-0.7140662566386363 3:-0.6167306793233271 
8.0 1:-0.44407102575464874 2:-0.6570015580220437 3:-0.6167306793233271 
8.0 1:-0.7072709640025266 2:-0.6984519939208393 3:-0.6167306793233271 
7.771819314027151 1:-0.34133074155457416 2:-0.7605098536663839 3:-0.6167306793233271 
8.0 1:-0.7928478284206714 2:-0.5255106188817688 3:-0.6167306793233271 
8.0 1:-0.6774649007787962 2:-0.7403277974125339 3:-0.6167306793233271 
8.0 1:-0.5941035322267482 2:-0.03499634310118321 3:-0.6167306793233271 
8.0 1:-0.5134987937994382 2:-0.6461645005783421 3:-0.6167306793233271 
8.0 1:-0.7279651028262644 2:0.07645651035514597 3:-0.6167306793233271 
8.0 1:-0.7675140093165644 2:-0.5907096546979514 3:-0.6167306793233271 
6.439218578453835 1:-0.003277133009341579 2:0.5915439447716611 3:-0.6167306793233271 
8.0 1:0.21750321790530897 2:-0.224350363109338 3:-0.6167306793233271 
8.0 1:-0.7664608601315853 2:-0.5904348017917707 3:-0.6167306793233271 
8.0 1:-0.709656322640394 2:0.12100885762369668 3:-0.6167306793233271 
8.0 1:-0.7439467630388743 2:-0.7100023600972483 3:-0.6167306793233271 
5.1793796037051445 1:0.9516671037760189 2:-0.14247037353470413 3:-0.6167306793233271 
8.0 1:-0.5757195270990936 2:-0.5208839282943913 3:-0.6167306793233271 
8.0 1:-0.7877762113777994 2:-0.23399639129292263 3:-0.6167306793233271 
8.0 1:-0.7945852819147844 2:0.2653197216022635 3:-0.6167306793233271 
8.0 1:-0.7918747573995271 2:0.1264404745791751 3:-0.6167306793233271 
8.0 1:-0.7485961497633445 2:0.15571885320424803 3:-0.6167306793233271 
0.08756385486472609 1:1.2533409598299898 2:0.41924389318034566 3:-0.6167306793233271 
8.0 1:-0.6807675183842262 2:0.002881005017261588 3:-0.6167306793233271 
8.0 1:-0.6086170927690531 2:-0.6689118506232132 3:-0.6167306793233271 
8.0 1:-0.6686029173144095 2:0.10926216794287288 3:-0.6167306793233271 
8.0 1:-0.6972757531893258 2:0.0920511407225015 3:-0.6167306793233271 
8.0 1:-0.7632310408569143 2:0.26451479523416244 3:-0.6167306793233271 
8.0 1:-0.5941035322267482 2:-0.650234941236544 3:-0.6167306793233271 
4.4572171189164065 1:1.0704448602422854 2:-0.23381970013894923 3:-0.6167306793233271 
8.0 1:-0.7712388572403963 2:0.22765178522186122 3:-0.6167306793233271 
8.0 1:-0.5669764475749465 2:-0.6784073641200797 3:-0.6167306793233271 
8.0 1:-0.7690549073176285 2:0.460406387939333 3:-0.6167306793233271 
8.0 1:-0.7942358499271416 2:0.43640911158302037 3:-0.6167306793233271 
8.0 1:-0.6206530834545291 2:-0.5480158366045282 3:-0.6167306793233271 
2.3939814373088133 1:1.3493158524915347 2:0.3886239706084378 3:-0.6167306793233271 
8.0 1:-0.5266971311660317 2:-0.5940013454553077 3:-0.6167306793233271 
8.0 1:-0.7911128015375837 2:-0.06148692796356484 3:-0.6167306793233271 
1.4514710644106188 1:0.8677888670755824 2:-0.42749938136104526 3:-0.6167306793233271 
0.7870839306134354 1:0.5517980059723556 2:-0.7506086049270599 3:-0.6167306793233271 
8.0 1:-0.7047497151472424 2:-0.35501674353107043 3:-0.6167306793233271 
1.0502154573959401 1:-0.6570886479993724 2:3.1332461946789456 3:1.1012223119737965 
1.2053859649412684 1:0.11692019090672391 2:-0.7555690454719426 3:1.1012223119737965 
6.967352445646656 1:1.4777903466148903 2:2.805791677548548 3:1.1012223119737965 
8.0 1:-0.6704107425282562 2:-0.7605098536663839 3:1.1012223119737965 
2.144948193540728 1:-0.6886370179392665 2:2.6144286136785477 3:1.1012223119737965 
8.0 1:-0.7628257968156895 2:-0.7038116255913656 3:1.1012223119737965 
2.7151944732802082 1:1.5247865223418289 2:1.2411915091141368 3:1.1012223119737965 
8.0 1:-0.6554506855572966 2:-0.7214741968718913 3:1.1012223119737965 
8.0 1:0.09214206572741017 2:-0.7605098536663839 3:1.1012223119737965 
8.0 1:-0.21604481431845957 2:-0.7347522098871513 3:1.1012223119737965 
0.02660327503625633 1:1.4922359620484869 2:-0.12297544954630625 3:1.1012223119737965 
1.1938615107006743 1:1.628133459298228 2:-0.5236782661738966 3:1.1012223119737965 
2.297156266721633 1:1.241729626073941 2:-0.3865855630409836 3:1.1012223119737965 
0.07957370759485591 1:1.278963545646107 2:2.733570804391127 3:1.1012223119737965 
8.0 1:-0.38318735512993224 2:-0.6986875821261372 3:1.1012223119737965 
8.0 1:-0.21833796173736578 2:-0.18579897095906883 3:1.1012223119737965 
0.8584171283480362 1:0.8253886926305575 2:0.3089035395823676 3:1.1012223119737965 
8.0 1:-0.7571814995708473 2:-0.662439719094336 3:1.1012223119737965 
1.478481031981048 1:-0.43682273862208487 2:1.3087464269832982 3:1.1012223119737965 
8.0 1:-0.7569412650793429 2:-0.6882758922753346 3:1.1012223119737965 
2.0519218593859656 1:1.2498878923409915 2:-0.3153397632888225 3:1.1012223119737965 
8.0 1:-0.7542089010648579 2:-0.7388357387789808 3:1.1012223119737965 
0.2412047079874359 1:1.6262358494764453 2:2.6517955206855137 3:1.1012223119737965 
2.9328777579398517 1:1.2443697788694648 2:0.31387052424406403 3:1.1012223119737965 
8.0 1:-0.3341091471432885 2:-0.7533244134047992 3:1.1012223119737965 
0.37935556285393496 1:1.6250637963512264 2:-0.4826139331671168 3:1.1012223119737965 
3.183153533013723 1:-0.7913506094180628 2:1.3022677513376073 3:1.1012223119737965 
0.32542372619869453 1:1.2680073968668886 2:2.759086315848248 3:1.1012223119737965 
8.0 1:-0.2697918219177759 2:0.27231538247624715 3:1.1012223119737965 
1.2513897223722807 1:-0.6807675183842262 2:1.2836759154695176 3:1.1012223119737965 
4.064257840200247 1:-0.24014106179966468 2:-0.2475688895648049 3:1.1012223119737965 
0.06513596847670865 1:1.5746922046880991 2:-0.04069626884602872 3:1.1012223119737965 
8.0 1:-0.778176538161722 2:-0.7377297830374436 3:1.1012223119737965 
5.268535307830653 1:-0.08261032725939575 2:-0.7605098536663839 3:1.1012223119737965 
3.6105213385066413 1:-0.6548585924671239 2:1.265980623604923 3:1.1012223119737965 
0.892593096655228 1:1.1053395267860644 2:-0.4608285682938786 3:1.1012223119737965 
8.0 1:1.2201279347267417 2:-0.3707095356506334 3:1.1012223119737965 
0.1561490647252562 1:1.5194455514751488 2:-0.10562699587284441 3:1.1012223119737965 
0.8015390820684212 1:1.523621749049686 2:-0.24415940470479974 3:1.1012223119737965 
1.5605037330630278 1:-0.7903702585638425 2:2.123685293809478 3:1.1012223119737965 
8.0 1:-0.7773053848036403 2:1.7844382781805601 3:1.1012223119737965 
0.24067708978290311 1:1.533087958659372 2:0.04323857340814768 3:1.1012223119737965 
0.34850331554804787 1:1.6282208172951387 2:-0.5395542935642468 3:1.1012223119737965 
0.3810446241004004 1:1.6285338501174023 2:2.8441402020775883 3:1.1012223119737965 
8.0 1:-0.7956821100982189 2:1.0835437350689856 3:1.7030233175304554 
8.0 1:1.0290007705412278 2:0.05434393964121626 3:1.7030233175304554 
8.0 1:-0.12365645275230451 2:2.0953558121224103 3:1.7030233175304554 
8.0 1:-0.5408879524419721 2:-0.7605098536663839 3:1.7030233175304554 
6.093492209737672 1:-0.7316098725862614 2:0.5651449775446731 3:1.7030233175304554 
8.0 1:-0.7513818992203861 2:2.104288531573288 3:1.7030233175304554 
4.94583114108075 1:-0.1878354611493751 2:2.139842718222823 3:1.7030233175304554 
8.0 1:0.09587662009534319 2:-0.6777267759714415 3:1.7030233175304554 
8.0 1:-0.7313429453734787 2:-0.7215069174559605 3:1.7030233175304554 
0.021101613514766606 1:1.624415891207472 2:1.9361243618083124 3:1.7030233175304554 
1.3111889978909348 1:-0.31099810373835424 2:0.12159128402012753 3:1.7030233175304554 
8.0 1:-0.7891278337188901 2:0.05656239524110439 3:1.7030233175304554 
8.0 1:-0.7868079935787057 2:1.2235616584176805 3:1.7030233175304554 
8.0 1:-0.7771015494775153 2:-0.4361965126066247 3:1.7030233175304554 
8.0 1:-0.6465304634283026 2:-0.5347967206405928 3:1.7030233175304554 
8.0 1:-0.7922072031099928 2:1.102652556165368 3:1.7030233175304554 
8.0 1:-0.3341091471432885 2:-0.7542798544596183 3:1.7030233175304554 
6.979989861908974 1:0.2952033029353378 2:-0.5424991461304699 3:1.7030233175304554 
3.1611188399695047 1:1.2036342595877942 2:-0.6100475198828175 3:1.7030233175304554 
8.0 1:-0.3650387312717316 2:-0.45576342187997465 3:1.7030233175304554 
8.0 1:-0.7873127286719676 2:0.0979604782053894 3:1.7030233175304554 
1.4564621142413314 1:1.1673200255942158 2:-0.6985370674394191 3:1.7030233175304554 
8.0 1:-0.7956165916005359 2:0.6916623879064375 3:1.7030233175304554 
8.0 1:1.2041365680700307 2:-0.5838317879266167 3:1.7030233175304554 
8.0 1:-0.7338496345626111 2:-0.7198905206029446 3:1.7030233175304554 
8.0 1:-0.3918843290445988 2:-0.6017234032956263 3:1.7030233175304554 
8.0 1:-0.791598123742643 2:0.62173849975067 3:1.7030233175304554 
0.2707443336085429 1:0.03152289570445114 2:-0.6598024400183626 3:1.7030233175304554 
8.0 1:-0.7962547903001892 2:-0.7597441919991658 3:1.7030233175304554 
8.0 1:-0.7903484190646148 2:-0.45094040778818234 3:1.7030233175304554 
0.12420784302305787 1:0.9329555061599492 2:3.3195441121350426 3:1.7030233175304554 
8.0 1:-0.6284449314567597 2:0.33393478639526514 3:1.7030233175304554 
7.408425309803517 1:0.7814379137403678 2:-0.16013948893204355 3:1.7030233175304554 
8.0 1:-0.47148687711846093 2:-0.44704011416714 3:1.7030233175304554 
4.1666575924123395 1:1.087312233479129 2:-0.5366356174652789 3:1.7030233175304554 
8.0 1:-0.7948206631842383 2:1.873510252133593 3:1.7030233175304554 
8.0 1:-0.07616524837620536 2:-0.0922311887549355 3:1.7030233175304554 
8.0 1:-0.7905304148915122 2:-0.5523545860520971 3:1.7030233175304554 
8.0 1:-0.6206530834545291 2:-0.45365621626592156 3:1.7030233175304554 
8.0 1:-0.789028342666853 2:1.8247762142210044 3:1.7030233175304554 
8.0 1:-0.7960946339725196 2:0.28595986603308154 3:1.7030233175304554 
3.5984993997324826 1:-0.24769510192141603 2:-0.6814961872562073 3:1.7030233175304554 
8.0 1:-0.6972757531893258 2:-0.45365621626592156 3:1.7030233175304554 
8.0 1:-0.7949007413480731 2:0.691642755555996 3:1.7030233175304554 
2.06530766836676 1:1.0999039180893981 2:-0.7203878734807956 3:1.7030233175304554 
8.0 1:-0.48929577543312 2:-0.7167755209995618 3:1.7030233175304554 
0.09996346445225339 1:1.6264930702451266 2:2.3490385004105088 3:1.7030233175304554 
8.0 1:-0.657656474979292 2:-0.686188319011723 3:1.7030233175304554 
8.0 1:-0.624705523866776 2:-0.46192797991860196 3:1.7030233175304554 
8.0 1:0.17893223565820382 2:-0.40654511932316345 3:1.7030233175304554 
8.0 1:-0.43531338656434976 2:-0.5138228262522694 3:1.7030233175304554 
8.0 1:-0.4390722070425358 2:0.13972503171124886 3:1.7030233175304554 
8.0 1:-0.7798120739927727 2:1.2232213643433614 3:1.7030233175304554 
0.9511200102770796 1:1.0734465780805784 2:0.6342704834491534 3:1.7030233175304554 
4.095734155372001 1:-0.748739319813837 2:1.946889433967062 3:1.7030233175304554 
8.0 1:-0.784454180884167 2:1.2085298220963143 3:1.7030233175304554 
2.464470716387901 1:-0.7936728761692725 2:0.6910406968091238 3:1.7030233175304554 
3.859749118910115 1:0.6596463063806816 2:0.7213334135403402 3:1.7030233175304554 
8.0 1:-0.5408879524419721 2:0.015059606407798092 3:1.7030233175304554 
8.0 1:-0.2687969113974039 2:-0.7539591927357406 3:1.7030233175304554 
8.0 1:-0.2936648211846536 2:-0.7605098536663839 3:1.7030233175304554 
8.0 1:0.2033512224057734 2:-0.6495543530879058 3:1.7030233175304554 
0.14861766514371827 1:1.6252943243986298 2:3.0377348097811048 3:1.7030233175304554 
8.0 1:-0.7783730936547713 2:-0.7394181651754116 3:1.7030233175304554 
8.0 1:-0.7924619972676491 2:-0.719910152953386 3:1.7030233175304554 
6.09456094152528 1:-0.7435682117189278 2:1.2187451884427019 3:1.7030233175304554 
0.0809009820002188 1:1.625932523098283 2:1.6892737314738522 3:1.7030233175304554 
3.6076859825531353 1:-0.6033586266772332 2:2.505796274568979 3:1.7030233175304554 
8.0 1:-0.7961868451914808 2:1.0751868978977257 3:1.7030233175304554 
0.8785708432922424 1:1.02363796017532 2:-0.05274398790028868 3:1.7030233175304554 
8.0 1:-0.7684288416731017 2:1.1532843879539663 3:1.7030233175304554 
0.12937149483312263 1:0.1636567192539555 2:3.0377348097811048 3:1.7030233175304554 
8.0 1:-0.7889215717817398 2:1.3296483360866693 3:1.7030233175304554 
8.0 1:-0.7960873541394436 2:0.6897384175631717 3:1.7030233175304554 
5.300555823952371 1:-0.003277133009341579 2:-0.3130885871048652 3:1.7030233175304554 
2.6192446059657777 1:0.09343787601491917 2:-0.4496054079581612 3:1.7030233175304554 
4.306187978021925 1:0.3715663252904277 2:-0.7326580925067259 3:1.7030233175304554 
8.0 1:-0.7896544083113798 2:1.0953820423852032 3:1.7030233175304554 
0.04757009804957191 1:0.7458904888307833 2:2.6156065547050376 3:1.7030233175304554 
8.0 1:-0.7813893711592161 2:-0.3438917449475604 3:1.7030233175304554 
0.2909604333624049 1:0.17432410132116372 2:2.076456402764071 3:1.7030233175304554 
8.0 1:-0.704388150104473 2:2.1025412523839955 3:1.7030233175304554 
5.533582853584196 1:0.09890260404388927 2:0.05656239524110439 3:1.7030233175304554 
2.36064337790325 1:-0.7958980784794704 2:1.767567545034508 3:1.7030233175304554 
8.0 1:-0.7932263797406177 2:-0.6567005286486075 3:1.7030233175304554 
8.0 1:0.046298530237488186 2:-0.693897288618414 3:1.7030233175304554 
8.0 1:-0.6594084881395569 2:-0.36305946309526677 3:1.7030233175304554 
8.0 1:-0.16540144222049888 2:-0.1970221312947863 3:1.7030233175304554 
8.0 1:-0.7802488639773263 2:0.16933061617701325 3:0.3512978546454591 
8.0 1:-0.6619612829381699 2:-0.6446986184120443 3:0.3512978546454591 
1.810975185315046 1:0.22285632182711543 2:-0.22190286342096582 3:0.3512978546454591 
8.0 1:-0.7064459162539254 2:0.08146275971772542 3:0.3512978546454591 
8.0 1:-0.7873952334468276 2:-0.7348438275225448 3:0.3512978546454591 
0.1188086425144872 1:0.03648046202913402 2:1.2225211438442816 3:0.3512978546454591 
8.0 1:-0.5266971311660317 2:-0.2531510212070014 3:0.3512978546454591 
8.0 1:-0.3918843290445988 2:-0.7495942668209163 3:0.3512978546454591 
0.039840594506642076 1:1.2208995970327865 2:-0.14728029939286874 3:0.3512978546454591 
8.0 1:-0.6320533020513771 2:-0.6465702358207995 3:0.3512978546454591 
8.0 1:-0.7948279430173143 2:-0.6570211903724852 3:0.3512978546454591 
8.0 1:-0.7900669321856804 2:0.19870715655429375 3:0.3512978546454591 
3.5505508653680797 1:0.821421183604196 2:0.08164599498851265 3:0.3512978546454591 
8.0 1:-0.7949880993449838 2:0.35181985764746093 3:0.3512978546454591 
0.2572246491230378 1:0.012549224097649234 2:-0.6048122264317538 3:0.3512978546454591 
8.0 1:-0.4361190214247486 2:-0.7554905160701767 3:0.3512978546454591 
8.0 1:-0.6195077230505887 2:-0.5814955382240796 3:0.3512978546454591 
8.0 1:0.012549224097649234 2:-0.48724716787130806 3:0.3512978546454591 
8.0 1:-0.7843668228872563 2:0.13922767883339787 3:0.3512978546454591 
1.6827145941455957 1:1.1449685114401997 2:0.1320684150390684 3:0.3512978546454591 
8.0 1:-0.7953302514995507 2:0.1071026093943092 3:0.3512978546454591 
8.0 1:-0.7844080752746864 2:-0.46444092077511245 3:0.3512978546454591 
8.0 1:-0.7611514352082343 2:-0.0881411157462921 3:0.3512978546454591 
8.0 1:-0.7767691037670496 2:-0.7605098536663839 3:0.3512978546454591 
8.0 1:-0.7125973752030549 2:-0.7420423560177571 3:0.3512978546454591 
8.0 1:-0.46754848742440297 2:-0.38085946082888283 3:0.3512978546454591 
8.0 1:-0.424803734213786 2:-0.7474412523891665 3:0.3512978546454591 
7.013152302845619 1:-0.7926876720930016 2:0.3921970583887886 3:0.3512978546454591 
8.0 1:-0.6345454315743577 2:-0.41938467651189676 3:0.3512978546454591 
0.34402613677498856 1:1.02363796017532 2:0.249149208955291 3:0.3512978546454591 
0.02878327741630012 1:1.623552017682466 2:1.9788836210698741 3:0.3512978546454591 
8.0 1:-0.7724521627530451 2:-0.6386256780088106 3:0.3512978546454591 
8.0 1:-0.7595522985425631 2:0.15834304404659372 3:0.3512978546454591 
8.0 1:-0.790537694724588 2:-0.7605098536663839 3:0.3512978546454591 
3.0793452704037394 1:-0.7809622876187639 2:1.6889268932827195 3:0.3512978546454591 
2.7131455056735354 1:-0.7692466095886271 2:0.8688378065240558 3:0.3512978546454591 
8.0 1:-0.77868855308806 2:0.20881781703166016 3:0.3512978546454591 
8.0 1:-0.7323305760607748 2:-0.7370950037065022 3:0.3512978546454591 
8.0 1:-0.5757195270990936 2:-0.6301903114357844 3:0.3512978546454591 
8.0 1:0.2205461881310321 2:-0.7178422120402159 3:0.3512978546454591 
8.0 1:-0.7771986139185272 2:-0.4664106999360751 3:0.3512978546454591 
8.0 1:-0.7624156995524143 2:0.30530427533476145 3:0.3512978546454591 
8.0 1:-0.7830952787100003 2:-0.5149353261106204 3:0.3512978546454591 
8.0 1:-0.7939276703269288 2:-0.5055248861323337 3:0.3512978546454591 
3.035903460237965 1:-0.535571247685545 2:-0.10861765725676445 3:0.3512978546454591 
1.6668687170424679 1:0.03659208613629782 2:-0.6811362608314466 3:0.3512978546454591 
2.6421254022656218 1:-0.3918843290445988 2:-0.7338425776500289 3:0.3512978546454591 
8.0 1:-0.7942455563712428 2:-0.524502824892439 3:0.3512978546454591 
8.0 1:-0.7822119922967921 2:0.14520900160123798 3:0.3512978546454591 
3.460261798981852 1:0.9516671037760189 2:-0.21769499630967346 3:0.3512978546454591 
3.0333938552157442 1:0.916580734961241 2:-0.6378338398743373 3:0.3512978546454591 
8.0 1:-0.5835671871549061 2:-0.7378279447896511 3:0.3512978546454591 
8.0 1:-0.7809622876187639 2:-0.6115592108668121 3:0.3512978546454591 
0.8977277855077773 1:1.0887827597604594 2:-0.7412963267009807 3:0.3512978546454591 
8.0 1:-0.785611674343234 2:0.06266805622840736 3:0.3512978546454591 
8.0 1:-0.5543046848008424 2:-0.7605098536663839 3:0.3512978546454591 
8.0 1:-0.7544831081107165 2:-0.7399286062868904 3:0.3512978546454591 
8.0 1:-0.6446571197167729 2:-0.7550062514259533 3:0.3512978546454591 
8.0 1:-0.791964542007463 2:0.33337199234927584 3:0.3512978546454591 
8.0 1:-0.720158695157882 2:-0.5904151694413291 3:0.3512978546454591 
8.0 1:0.040443117833445105 2:-0.6678517036993729 3:0.3512978546454591 
8.0 1:-0.709656322640394 2:-0.1645044148468678 3:0.3512978546454591 
8.0 1:-0.7958277067597368 2:0.4700916808238004 3:-0.6158573407627033 
8.0 1:-0.7957403487628261 2:-0.7492277962793419 3:-0.6158573407627033 
1.4969163370698662 1:1.0734465780805784 2:0.34212802064617964 3:-0.6158573407627033 
5.12012135174251 1:0.35920759533858704 2:-0.4285006312335612 3:-0.6158573407627033 
8.0 1:-0.7951895080600835 2:-0.7555494131215013 3:-0.6158573407627033 
8.0 1:-0.5964476384771856 2:-0.6629828807898838 3:-0.6158573407627033 
5.496775283996413 1:-0.5728367132010401 2:0.07947989232313511 3:-0.6158573407627033 
8.0 1:-0.6949728993263183 2:-0.650424720624145 3:-0.6158573407627033 
8.0 1:-0.7936995688905507 2:0.598755561500501 3:-0.6158573407627033 
8.0 1:-0.7961601524702026 2:-0.7466690466051346 3:-0.6158573407627033 
8.0 1:-0.7826560621144215 2:0.11163768234629298 3:-0.6158573407627033 
8.0 1:-0.7884362495766803 2:0.995630069792001 3:-0.6158573407627033 
0.056037224566367054 1:1.6239548351126654 2:3.9457768265176365 3:-0.6158573407627033 
8.0 1:-0.7961577258591773 2:0.6199584999773083 3:-0.6158573407627033 
8.0 1:-0.7945367496942786 2:-0.5643041433541496 3:-0.6158573407627033 
8.0 1:-0.7269896051940947 2:-0.5307328240992046 3:-0.6158573407627033 
3.540796194618879 1:-0.796228097578911 2:0.7104767237461972 3:-0.6158573407627033 
8.0 1:-0.6774649007787962 2:-0.7605098536663839 3:-0.6158573407627033 
0.5826105263577253 1:1.3502962033457553 2:1.3535867153916574 3:-0.6158573407627033 
8.0 1:-0.37507034125031186 2:-0.7605098536663839 3:-0.6158573407627033 
8.0 1:-0.7939956154356371 2:1.0489646218247113 3:-0.6158573407627033 
8.0 1:-0.7949856727339586 2:-0.7605098536663839 3:-0.6158573407627033 
8.0 1:-0.7864949607564422 2:1.0151511702476543 3:-0.6158573407627033 
8.0 1:-0.6800977737412441 2:-0.011823625463413244 3:-0.6158573407627033 
8.0 1:0.09890260404388927 2:0.41783036394855855 3:-0.6158573407627033 
8.0 1:-0.7949541267906297 2:0.9201109617604093 3:-0.6158573407627033 
8.0 1:-0.7931729942980612 2:-0.4947925345576534 3:-0.6158573407627033 
8.0 1:-0.3918843290445988 2:-0.742205958938103 3:-0.6158573407627033 
8.0 1:-0.7830176271571908 2:0.9761809546213001 3:-0.6158573407627033 
8.0 1:-0.7897563259744422 2:-0.6740817029061386 3:-0.6158573407627033 
8.0 1:-0.7905304148915122 2:-0.6233517093653327 3:-0.6158573407627033 
0.18751143336952966 1:1.274003552710399 2:1.3748223744525339 3:-0.6158573407627033 
8.0 1:-0.7583486994740155 2:-0.5957878893454831 3:-0.6158573407627033 
0.0797388869333021 1:1.4110197176428019 2:1.3224039987737604 3:-0.6158573407627033 
1.4109765024067749 1:1.211909003184059 2:2.4930548791324534 3:-0.6158573407627033 
8.0 1:-0.4789147334668969 2:-0.7392349299046244 3:-0.6158573407627033 
8.0 1:-0.7959490373110016 2:0.5638688747659764 3:-0.6158573407627033 
8.0 1:-0.7171108717101082 2:-0.4947925345576534 3:-0.6158573407627033 
8.0 1:-0.5283520798852847 2:-0.6911553036734195 3:-0.6158573407627033 
8.0 1:-0.7946435205793916 2:-0.7605098536663839 3:-0.6158573407627033 
8.0 1:-0.6078454304630084 2:-0.6691736152957665 3:-0.6158573407627033 
8.0 1:-0.7940756935994719 2:0.9607433830574764 3:-0.6158573407627033 
1.2780540931769029 1:-0.46754848742440297 2:-0.23816499370333197 3:-0.6158573407627033 
1.9122959330092344 1:1.4516557458724355 2:1.1599070341695616 3:-1.062154125987775 
2.361944651590239 1:1.4954779143782846 2:0.9048369931169314 3:-1.062154125987775 
0.3986069799549288 1:-0.7957549084289779 2:1.3093092210292876 3:-1.062154125987775 
8.0 1:-0.7546214249391585 2:2.095172576851623 3:-1.062154125987775 
8.0 1:-0.7960679412512413 2:1.2779236367901616 3:-1.062154125987775 
7.863508009000882 1:0.41698520385092264 2:-0.6847551574294943 3:-1.062154125987775 
8.0 1:-0.6681539942747294 2:0.09889628690976704 3:-1.062154125987775 
3.278840521153675 1:0.8699534041101479 2:-0.6097137699253121 3:-1.062154125987775 
0.20283060300174427 1:-0.7646773010279917 2:1.697048142248682 3:-1.062154125987775 
8.0 1:-0.7961844185804555 2:0.617635338508399 3:-1.062154125987775 
8.0 1:-0.7890962877755613 2:-0.1490406668157889 3:-1.062154125987775 
8.0 1:-0.7954443022177398 2:1.0892109402297623 3:-1.062154125987775 
5.554357428428115 1:1.4744561830661316 2:1.2757379017743427 3:-1.062154125987775 
8.0 1:-0.7832044762061388 2:0.567409241962258 3:-1.062154125987775 
8.0 1:-0.7745244885686493 2:0.5380915986363022 3:-1.062154125987775 
1.591560185964481 1:1.6199290874216967 2:1.2657973883341358 3:-1.062154125987775 
5.84070314893412 1:1.399350145222146 2:0.9885166148153683 3:-1.062154125987775 
5.420336903340801 1:-0.7960752210843172 2:0.6472409229741634 3:-1.062154125987775 
1.3220723362159512 1:-0.7256428360750546 2:1.1825038695277146 3:-1.062154125987775 
0.6873358848964709 1:-0.7238204511950561 2:1.8413655503440625 3:-1.062154125987775 
7.6087016172080695 1:-0.04137492610651372 2:-0.5099356208648548 3:-1.062154125987775 
8.0 1:-0.7916005503536685 2:-0.7402427238939541 3:-1.062154125987775 
1.2925712199922321 1:-0.2829998657284707 2:2.4516044432336574 3:-1.062154125987775 
8.0 1:-0.7957816011502562 2:0.6398984239090466 3:-1.062154125987775 
8.0 1:0.5305894256112546 2:-0.5389064259996776 3:-1.062154125987775 
2.3717712074508794 1:1.3269643383375187 2:0.8568228080538649 3:-1.062154125987775 
3.434162577357925 1:1.609550472066499 2:1.3224432634746435 3:-1.062154125987775 
8.0 1:-0.7643909609270065 2:-0.32624226190066236 3:-1.062154125987775 
0.15635183571574715 1:1.549404491193473 2:1.2448693027635092 3:-1.062154125987775 
8.0 1:-0.7921149918910315 2:1.2100873218980055 3:-1.062154125987775 
0.9157061975681777 1:-0.0464295568722086 2:-0.023622668078747713 3:-1.062154125987775 
8.0 1:-0.7962111113017338 2:-0.6496786913073684 3:-1.062154125987775 
8.0 1:-0.7529883157191332 2:-0.6497310442418792 3:-1.062154125987775 
0.46305878871012124 1:0.6878799256600192 2:0.046562984749572996 3:-1.062154125987775 
8.0 1:-0.7928526816427219 2:-0.46624709701572936 3:-1.062154125987775 
0.16942718877747048 1:1.3967463915920018 2:0.7102738561249685 3:-1.062154125987775 
8.0 1:-0.7892176183268261 2:1.2329393778118982 3:-1.062154125987775 
3.4173009524585933 1:-0.5933148836435265 2:1.5503224991658118 3:-1.062154125987775 
8.0 1:-0.42458533922150915 2:-0.7197334617994127 3:-1.062154125987775 
8.0 1:-0.7877373856013946 2:1.2003889407799104 3:-1.062154125987775 
0.09074024625490701 1:-0.1571630977896136 2:2.905825047164745 3:-0.7634070464039605 
2.378588091793449 1:-0.36809383455258127 2:-0.5527341448272992 3:-0.7634070464039605 
1.1992266782774519 1:0.43093093741330774 2:3.188969349348704 3:-0.7634070464039605 
8.0 1:0.21750321790530897 2:-0.12301471424718917 3:-0.7634070464039605 
0.22241042215609935 1:-0.5051269857621614 2:1.1973132058774107 3:-0.7634070464039605 
0.74453874839724 1:1.047904070428296 2:2.2683626283296197 3:-0.7634070464039605 
8.0 1:-0.6451497217549083 2:-0.6232862681971943 3:-0.7634070464039605 
0.31317627002056897 1:1.0622283553106275 2:2.4593199569571627 3:-0.7634070464039605 
8.0 1:-0.5964476384771856 2:-0.4274208519592793 3:-0.7634070464039605 
8.0 1:0.233460612007666 2:-0.4943148140302439 3:-0.7634070464039605 
8.0 1:-0.7453905965989264 2:-0.5757563477783512 3:-0.7634070464039605 
8.0 1:-0.5163257956439098 2:-0.5928561250128875 3:-0.7634070464039605 
8.0 1:-0.5757195270990936 2:-0.7483574287431026 3:-0.7634070464039605 
8.0 1:0.05299355005628413 2:2.7207966883705312 3:-0.7634070464039605 
2.317298894415008 1:0.5272868080058246 2:-0.671608026750511 3:-0.7634070464039605 
2.4063822125883667 1:-0.768227432958002 2:2.688979192421693 3:-0.7634070464039605 
8.0 1:0.012549224097649234 2:2.6652633130883747 3:-0.7634070464039605 
8.0 1:-0.5818127473836159 2:-0.7605098536663839 3:-0.7634070464039605 
0.448811602242481 1:-0.7635537801232789 2:3.7903867727732563 3:-0.7634070464039605 
8.0 1:-0.7583486994740155 2:-0.6182407541337319 3:-0.7634070464039605 
8.0 1:-0.5807571715876114 2:-0.2405470522235659 3:-0.7634070464039605 
8.0 1:-0.7926682592047994 2:2.6949605151895333 3:-0.7634070464039605 
0.1838559597363669 1:0.17432410132116372 2:2.4116853306692976 3:-0.7634070464039605 
0.9847576098936891 1:-0.3918843290445988 2:1.254620036816115 3:-0.7634070464039605 
4.633482720538226 1:-0.4270532026342368 2:1.4974329470764425 3:-0.7634070464039605 
1.3613752829352233 1:0.9002763354822665 2:0.11341768211965456 3:-0.7634070464039605 
0.465445979608102 1:1.5152596474565105 2:-0.05679479620804907 3:-0.7634070464039605 
0.13446712911357883 1:1.5917124544195365 2:4.480457346674757 3:-0.7634070464039605 
0.6454611545592512 1:1.550741553868412 2:-0.2676789605337027 3:-0.7634070464039605 
6.645530217283886 1:-0.5941035322267482 2:1.0505155775095887 3:-0.7634070464039605 
8.0 1:-0.4858499877771974 2:-0.47431599304718114 3:-0.7634070464039605 
8.0 1:-0.5757195270990936 2:0.046968719992030464 3:-1.408211477586909 
0.09189758568740676 1:1.5335490147541786 2:1.507124784077724 3:-1.408211477586909 
8.0 1:-0.7470940775386853 2:-0.2536352858512248 3:-1.408211477586909 
5.726118267633711 1:0.5843388598215962 2:-0.4833076095493827 3:-1.408211477586909 
8.0 1:-0.775696541693868 2:0.6916231232055546 3:-1.408211477586909 
0.09653613404072976 1:1.623552017682466 2:4.136825772780574 3:-1.408211477586909 
8.0 1:-0.7953666506649303 2:0.046968719992030464 3:-1.408211477586909 
8.0 1:-0.7961334597489244 2:0.5541312289469982 3:-1.408211477586909 
8.0 1:-0.5536592062681133 2:0.046968719992030464 3:-1.408211477586909 
8.0 1:-0.7378195701999979 2:0.3162394945306703 3:-1.408211477586909 
8.0 1:0.5699830289959358 2:-0.661667513310304 3:-1.408211477586909 
8.0 1:-0.7727894616855615 2:-0.6512427352258737 3:-1.408211477586909 
0.16818471101343951 1:1.5602781351978314 2:4.929383760103456 3:-1.408211477586909 
0.0762172087642331 1:1.5378538227130563 2:3.6444987766425565 3:-1.408211477586909 
0.11548189378262906 1:1.5578126983961291 2:0.8831825105799698 3:-1.408211477586909 
2.8221900990908844 1:0.8645930203552654 2:-0.5635973787382561 3:-1.408211477586909 
7.134349604809042 1:-0.2150960094075682 2:-0.6522963380329003 3:-1.408211477586909 
8.0 1:-0.7796664773312548 2:-0.7605098536663839 3:-1.408211477586909 
0.0897429380009967 1:1.6245493548138634 2:3.0814887747983684 3:-1.408211477586909 
8.0 1:-0.795633577877713 2:0.046968719992030464 3:-1.408211477586909 
0.5397373283354703 1:0.10374611965038326 2:2.0398224368402538 3:-1.408211477586909 
0.2394113409364343 1:0.6378504861514588 2:4.929383760103456 3:-1.408211477586909 
1.7006404911331725 1:-0.08675255227957876 2:3.1243265634616963 3:-1.408211477586909 
0.0073686885821061905 1:1.449971677820879 2:0.7903738459262408 3:-1.408211477586909 
8.0 1:-0.795633577877713 2:0.046968719992030464 3:-1.408211477586909 
0.12833917317116508 1:1.2558986078506535 2:2.6568475788657904 3:-0.45685438748548163 
7.958070912894667 1:-0.7886303784587042 2:1.4179873689565532 3:-0.45685438748548163 
8.0 1:-0.7774679677423352 2:1.5737700697097627 3:-0.45685438748548163 
4.972622688026248 1:-0.79312203546653 2:0.91924059422417 3:-0.45685438748548163 
8.0 1:-0.7560604052771599 2:2.1467729379286684 3:-0.45685438748548163 
5.7120213627898195 1:1.370296331416258 2:1.4065155321819103 3:-0.45685438748548163 
8.0 1:-0.5815749395031367 2:-0.7605098536663839 3:-0.45685438748548163 
8.0 1:-0.39419688935170744 2:-0.6489261178737782 3:-0.45685438748548163 
0.26909558742147266 1:1.4471495291984577 2:1.4086096495623355 3:-0.45685438748548163 
8.0 1:-0.371663379370794 2:-0.7332601512535981 3:-0.45685438748548163 
0.3766776866684986 1:0.20878440449141472 2:-0.1471625052902198 3:-0.45685438748548163 
8.0 1:-0.3918843290445988 2:-0.5801670825108722 3:-0.45685438748548163 
8.0 1:-0.7672592151589083 2:-0.5670134077150751 3:-0.45685438748548163 
8.0 1:-0.6535773418457669 2:-0.7163043445889661 3:-0.45685438748548163 
8.0 1:-0.6952107072067976 2:-0.6917115536025951 3:-0.45685438748548163 
8.0 1:-0.7788632690818814 2:1.7757215145845393 3:-0.45685438748548163 
2.3445127428154593 1:0.35366036253475674 2:-0.746348384881257 3:-0.45685438748548163 
8.0 1:-0.45772313938297304 2:-0.7230644172576518 3:-0.45685438748548163 
3.5728320468899564 1:0.09890260404388927 2:0.4726962393157046 3:-0.45685438748548163 
8.0 1:-0.37087473078757227 2:-0.6711892032744259 3:-0.45685438748548163 
0.8411716120511947 1:1.504776687827225 2:1.3885519315279484 3:-0.45685438748548163 
8.0 1:-0.7803556348624394 2:1.5597329391440986 3:-0.45685438748548163 
8.0 1:-0.7848933974797458 2:1.4765310379730712 3:-0.45685438748548163 
8.0 1:0.96284892738059 2:-0.4261643815310241 3:-0.45685438748548163 
8.0 1:-0.49957489973628055 2:-0.4017875463995094 3:-0.45685438748548163 
8.0 1:-0.7224858151311425 2:0.1914824515918259 3:-0.45685438748548163 
4.240741150400503 1:-0.4929939306356735 2:0.9367526508179778 3:-0.6635305084067136 
8.0 1:-0.6194931633844368 2:-0.6504508970914004 3:-0.6635305084067136 
8.0 1:-0.5894007600597215 2:-0.7605098536663839 3:-0.6635305084067136 
1.814684744428836 1:-0.7895330777601148 2:0.971848749290545 3:-0.6635305084067136 
7.445148418249593 1:-0.6096581088989057 2:1.02375668385784 3:-0.6635305084067136 
8.0 1:-0.43410008105170095 2:-0.6289534733579707 3:-0.6635305084067136 
8.0 1:-0.46541792294419165 2:-0.45878025973114994 3:-0.6635305084067136 
8.0 1:-0.7942431297602174 2:1.5222286056840422 3:-0.6635305084067136 
5.583811090281077 1:-0.5995682602557183 2:3.014601356844218 3:-0.6635305084067136 
0.11626782112897507 1:1.5947796907555125 2:-0.22200102517317327 3:-0.6635305084067136 
2.819774834268666 1:0.9786995505978341 2:2.4678207646983266 3:-0.6635305084067136 
8.0 1:-0.7954176094964616 2:0.9366544890657703 3:-0.6635305084067136 
8.0 1:-0.6055352967669251 2:-0.3269424823997421 3:-0.6635305084067136 
8.0 1:-0.727545299118888 2:-0.6182800188346149 3:-0.6635305084067136 
8.0 1:0.40483516244725765 2:-0.6053684763609294 3:-0.6635305084067136 
2.294509638829063 1:-0.7907536631058395 2:1.4435421451145571 3:-0.6635305084067136 
2.9120527728375585 1:-0.7929861452491134 2:1.036484991060738 3:-0.6635305084067136 
0.3137128579582738 1:1.1449685114401997 2:1.4674739803027312 3:-0.6635305084067136 
5.4228770115897635 1:0.1288251445968338 2:0.19231355442718234 3:-0.6635305084067136 
4.158411124544563 1:0.3618356150789843 2:2.622144127402053 3:-0.6635305084067136 
8.0 1:-0.7659876709816523 2:-0.3412282894043318 3:-0.6635305084067136 
8.0 1:-0.6206530834545291 2:-0.5861745817459677 3:-0.6635305084067136 
0.752202888901546 1:-0.7924474376014973 2:1.6958243924044956 3:-0.6635305084067136 
8.0 1:-0.789273430380408 2:1.4910720655334 3:-0.6635305084067136 
1.8060237769499214 1:1.4644172932544754 2:-0.08647236595876565 3:-0.6635305084067136 
8.0 1:-0.79108368220528 2:1.4715640533113747 3:-0.6635305084067136 
8.0 1:-0.7926828188709512 2:0.9704941171100823 3:-0.6635305084067136 
8.0 1:0.34272847986579114 2:-0.510308635523243 3:0.5869889291928743 
8.0 1:-0.7962717765773663 2:1.389252152027028 3:0.5869889291928743 
8.0 1:-0.7525418192904785 2:0.011682842131862176 3:0.5869889291928743 
1.2269658680621072 1:-0.06833700120859533 2:-0.7605098536663839 3:0.5869889291928743 
8.0 1:-0.7534469452029143 2:-0.7025289786958551 3:0.5869889291928743 
1.0435103509934223 1:0.2388865142602313 2:-0.759469339092985 3:0.5869889291928743 
8.0 1:-0.7453444909894458 2:-0.5125205470063173 3:0.5869889291928743 
8.0 1:-0.43410008105170095 2:-0.7470551494971506 3:0.5869889291928743 
8.0 1:-0.589657980828403 2:-0.6761954526370054 3:0.5869889291928743 
8.0 1:0.09587662009534319 2:-0.6801480991925584 3:0.5869889291928743 
8.0 1:-0.5336348120873575 2:-0.4775618749868405 3:0.5869889291928743 
8.0 1:-0.7697901704582936 2:-0.6329911934321034 3:0.5869889291928743 
0.007313512742996334 1:1.0481103323654464 2:2.0939946358251342 3:0.5869889291928743 
8.0 1:-0.4838625933474787 2:-0.697241332310281 3:0.5869889291928743 
0.14337151601018552 1:1.1726415835726933 2:3.680471786768177 3:0.5869889291928743 
0.02466956750187905 1:1.5917731196951688 2:3.2706268389516673 3:0.5869889291928743 
8.0 1:-0.33094241975527516 2:-0.7333648571226195 3:0.5869889291928743 
8.0 1:-0.7950099388442116 2:-0.18297191249549452 3:0.5869889291928743 
2.7586603912605474 1:-0.28939883900218044 2:-0.6610916310306871 3:0.5869889291928743 
0.06122960241686204 1:0.6825438080153896 2:3.4647711524675455 3:0.5869889291928743 
0.007482652513767667 1:1.6250637963512264 2:-0.5852191406911486 3:0.5869889291928743 
8.0 1:-0.7637794549486316 2:0.08566408271220395 3:0.5869889291928743 
8.0 1:-0.7808652231777519 2:2.2349156472941374 3:0.5869889291928743 
0.3132105724270921 1:-0.49656347545388624 2:2.901689165338405 3:0.5869889291928743 
0.006742679846371228 1:1.6265828548530628 2:2.887108873077193 3:0.5869889291928743 
5.9532639817563 1:-0.7887128832335643 2:2.089466106989964 3:0.5869889291928743 
8.0 1:-0.4974758811993981 2:-0.6941786856414087 3:0.5869889291928743 
8.0 1:-0.7956141649895107 2:0.8036780354087562 3:0.5869889291928743 
8.0 1:-0.7773709033013233 2:-0.4962322402566958 3:0.5869889291928743 
8.0 1:-0.5942175829449372 2:-0.7605098536663839 3:0.5869889291928743 
1.8277578093504023 1:-0.5779253165210891 2:2.6418353748948653 3:0.5869889291928743 
0.05612706250669065 1:-0.7962086846907086 2:0.8831759664631561 3:0.5869889291928743 
8.0 1:-0.6086170927690531 2:-0.6832369223286859 3:0.5869889291928743 
8.0 1:0.19835483030468573 2:-0.6673608949383357 3:0.5869889291928743 
0.18023924583484827 1:0.9780783381753578 2:-0.7509816195854483 3:0.5869889291928743 
8.0 1:-0.7278728916073032 2:-0.6859200102223559 3:0.5869889291928743 
0.09717495056651852 1:1.0360185296263884 2:2.3755487176233316 3:0.5869889291928743 
8.0 1:-0.5401696755784839 2:-0.5319565739433908 3:0.5869889291928743 
7.016497053352436E-4 1:1.31918705000144 2:1.4247670739756804 3:0.5869889291928743 
0.19638077760810332 1:0.41939968182109366 2:-0.35093975875605465 3:0.5869889291928743 
0.8329712701215268 1:1.173585535261534 2:-0.32514285027593903 3:0.5869889291928743 
8.0 1:-0.7934714674541729 2:0.8036780354087562 3:0.5869889291928743 
5.41618081404185 1:-0.7941751846515092 2:1.5306639722570683 3:0.5869889291928743 
6.726078250765806 1:-0.7754004951487817 2:0.8036780354087562 3:0.5869889291928743 
8.0 1:-0.7850438473633143 2:-0.6082347995253867 3:0.5869889291928743 
8.0 1:1.0063046776216193 2:-0.7605098536663839 3:0.5869889291928743 
0.46990078373188 1:1.19589579702812 2:-0.4694668024881335 3:0.5869889291928743 
2.9359896480843286 1:1.1051284116268638 2:-0.6737021441309364 3:0.5869889291928743 
8.0 1:-0.6380640175610394 2:-0.6732898647716651 3:0.5869889291928743 
8.0 1:-0.7852840818548188 2:2.241086749449578 3:0.5869889291928743 
2.0051736057301937 1:-0.25146120223267787 2:-0.07269045594884078 3:0.5869889291928743 
0.12496415445641018 1:1.6252215260678708 2:2.802225133885011 3:0.5869889291928743 
8.0 1:-0.2173648907162215 2:-0.7605098536663839 3:-0.2780965920429022 
8.0 1:0.3236528905959268 2:-0.724405961204487 3:-0.2780965920429022 
3.0369811876286836 1:-0.7641944054339574 2:1.861900988905859 3:-0.2780965920429022 
8.0 1:-0.43232865500323375 2:-0.584283331986771 3:-0.2780965920429022 
8.0 1:-0.7940902532656238 2:1.076737853582603 3:-0.2780965920429022 
8.0 1:-0.783549054971731 2:0.38241360375211364 3:-0.2780965920429022 
0.16866970265883038 1:-0.7873442746152964 2:1.456892143414769 3:-0.2780965920429022 
1.2374777667635648 1:0.4978714291571671 2:1.0307719770822654 3:-0.2780965920429022 
4.222527185152444 1:0.37654087789228774 2:-0.7605098536663839 3:-0.2780965920429022 
8.0 1:-0.6971253033057574 2:-0.7413486796354913 3:-0.2780965920429022 
1.6981503240486806 1:0.2116575119453671 2:-0.7557522807427298 3:-0.2780965920429022 
0.6183397154786154 1:1.6231734663625197 2:1.4559759670608328 3:-0.2780965920429022 
8.0 1:-0.34133074155457416 2:-0.6619881750341817 3:-0.2780965920429022 
8.0 1:-0.5682479917522023 2:-0.7605098536663839 3:-0.2780965920429022 
1.6619011865712003 1:1.0420219653029748 2:-0.13588699201999166 3:-0.2780965920429022 
8.0 1:0.8544958918790023 2:-0.638344280985816 3:-0.2780965920429022 
0.21789072089086056 1:0.41698520385092264 2:1.0531855771696308 3:-0.2780965920429022 
8.0 1:-0.6569090787835004 2:-0.7424153706761455 3:-0.2780965920429022 
8.0 1:-0.34833151436255766 2:-0.575455318404915 3:-0.2780965920429022 
8.0 1:-0.7895791833695955 2:0.07254967261728971 3:-0.2780965920429022 
6.067209176021359 1:-0.772922925291953 2:1.08645586705114 3:-0.2780965920429022 
1.269928381597386 1:0.8708827961328369 2:-0.5611760555171392 3:-0.2780965920429022 
8.0 1:-0.6086170927690531 2:-0.5752459066668725 3:-0.2780965920429022 
8.0 1:-0.7558759828392373 2:1.0181876404492713 3:-0.2780965920429022 
8.0 1:-0.39605567339708536 2:-0.4997660633361638 3:-0.2780965920429022 
8.0 1:-0.7192851151887749 2:0.8910289066397513 3:-0.2780965920429022 
8.0 1:-0.40264149571974306 2:-0.5095495179728388 3:-0.2780965920429022 
0.2642699516585956 1:-0.2570739535341912 2:0.6994826074989637 3:-0.2780965920429022 
8.0 1:-0.7665457915174708 2:-0.2180091139167373 3:-0.2780965920429022 
2.123840419717733 1:0.38231863874352123 2:1.1703449004876194 3:-0.2780965920429022 
8.0 1:-0.6221624355122642 2:-0.5938835513526588 3:-0.2780965920429022 
0.21935514797401878 1:1.5834352842122463 2:3.006650254915415 3:-2.648997731435898 
0.12240589460172278 1:1.6132923062675077 2:1.701478509331644 3:-2.648997731435898 
2.759866445992498 1:-0.4496619375569344 2:-0.24523263986226776 3:-2.648997731435898 
0.10274228874013408 1:1.6014019122435497 2:1.1638269601410451 3:-2.648997731435898 
5.307466671076349 1:-0.14719215308666572 2:0.6957982697327778 3:-2.648997731435898 
0.214004773744032 1:1.5930398106503743 2:-0.7605098536663839 3:-2.648997731435898 
8.0 1:-0.7901931159589958 2:0.26876192704633783 3:-0.6775269884015683 
8.0 1:-0.7348469716940084 2:-0.6401570013432467 3:-0.6775269884015683 
8.0 1:-0.6075833564722762 2:-0.06748133896503261 3:-0.6775269884015683 
7.543084118625083 1:1.0623593923059937 2:-0.08437824857834023 3:-0.6775269884015683 
8.0 1:-0.5495461005802339 2:-0.6002117123116318 3:-0.6775269884015683 
5.948004517175617 1:0.9462800272998583 2:-0.14752897583179425 3:-0.6775269884015683 
8.0 1:-0.7510421736768446 2:-0.4042677666719508 3:-0.6775269884015683 
8.0 1:-0.7684288416731017 2:0.4232816132544785 3:-0.6775269884015683 
8.0 1:-0.6414855391067089 2:-0.6239341357617635 3:-0.6775269884015683 
8.0 1:0.12105756270485633 2:-0.19988845445924364 3:-0.6775269884015683 
0.24542201328089305 1:1.5330103071065624 2:-0.07223236777187271 3:-0.6775269884015683 
1.9734943189010565 1:0.863993647432017 2:1.4320768524567278 3:-0.6775269884015683 
8.0 1:-0.4968085631674414 2:-0.6611505280820116 3:-0.6775269884015683 
2.077643377717834 1:0.81277031529901 2:1.3766809036276615 3:-0.6775269884015683 
8.0 1:-0.7707778011455898 2:-0.3170346895436044 3:-0.6775269884015683 
8.0 1:-0.7737431198185035 2:-0.7394705181099223 3:-0.6775269884015683 
0.8611346237238805 1:0.7121144899696661 2:1.1918423242210494 3:-0.6775269884015683 
0.11828856120594661 1:1.2227001424135573 2:0.46761800466817294 3:-0.6775269884015683 
1.9284597913928163 1:0.5903156027769041 2:1.178426884752699 3:-0.6775269884015683 
8.0 1:-0.7488048383115201 2:-0.5480158366045282 3:-0.6775269884015683 
8.0 1:-0.5620213078612888 2:-0.062102074944064785 3:-0.6775269884015683 
8.0 1:-0.6148923088804726 2:-0.0420312686760499 3:-0.6775269884015683 
8.0 1:-0.44548573998239727 2:-0.593261860255345 3:-0.6775269884015683 
0.5745528066601978 1:0.6596463063806816 2:1.1400325514059615 3:-0.6775269884015683 
0.15923420694672671 1:1.3520530697280706 2:0.5884158569346506 3:-0.6775269884015683 
7.8927044099736845 1:-0.6615075066764393 2:0.22176862420622867 3:-1.746209036058084 
8.0 1:-0.7959611703661282 2:0.2600386193335032 3:-1.746209036058084 
1.4971003236901117 1:-0.559577710558814 2:1.5660283795190026 3:-1.746209036058084 
8.0 1:-0.5999468115756648 2:-0.6177172247886256 3:-1.746209036058084 
8.0 1:0.62037160693624 2:-0.7563085306719054 3:-1.746209036058084 
6.562354858614964 1:-0.7856966057291194 2:0.5132501312110056 3:-1.746209036058084 
8.0 1:-0.5024965394107389 2:-0.4571834952285756 3:-1.746209036058084 
0.04761012701335316 1:0.9759235075848935 2:1.072981530531465 3:-1.746209036058084 
0.061381189893860266 1:1.6095941510649543 2:1.5660283795190026 3:-1.746209036058084 
8.0 1:-0.762617108267514 2:0.3294782428450474 3:-1.746209036058084 
0.05589062907218422 1:0.6469575573294006 2:-0.6177172247886256 3:-1.746209036058084 
4.767062676129319 1:-0.6992558677859687 2:0.8138475929374471 3:-1.746209036058084 
7.038670973028786 1:-0.4411469594691652 2:-0.5036270922563232 3:-1.746209036058084 
0.32652630394626697 1:0.9519801365982824 2:-0.6502218530029164 3:-1.746209036058084 
0.09334757740913315 1:1.6152797006972266 2:0.7525619389759343 3:-1.746209036058084 
0.12170899952180957 1:1.5602781351978314 2:2.252309909785296 3:-1.746209036058084 
8.0 1:-0.7956190182115612 2:0.34929382855732277 3:-1.746209036058084 
4.131595340661287 1:-0.5474373755992502 2:1.2526502576551521 3:-1.746209036058084 
8.0 1:-0.6354408510426927 2:-0.36196659558735733 3:-1.746209036058084 
8.0 1:-0.7921149918910315 2:-0.18229132434685621 3:-1.746209036058084 
8.0 1:-0.7888948790604615 2:0.381366545061901 3:-1.746209036058084 
8.0 1:-0.7738523173146418 2:-0.04034288653808185 3:-2.6840495786365977 
0.3408529275118272 1:0.3866525660347027 2:-0.7605098536663839 3:-2.6840495786365977 
0.28368210411456746 1:1.0681905385997839 2:7.266844124251125 3:-2.6840495786365977 
0.06446749812880892 1:1.4393431215300754 2:2.236571308848036 3:-2.6953415986449576 
0.1341671290876931 1:1.612316808635338 2:0.327613169553106 3:-2.6953415986449576 
8.0 1:-0.7706419109281731 2:0.2563084727496203 3:-0.8189043185438205 
8.0 1:-0.6807675183842262 2:0.24183288635742964 3:-0.8189043185438205 
8.0 1:-0.7578027119933235 2:0.4208275694492925 3:-0.8189043185438205 
8.0 1:-0.7902610610677041 2:0.25842876659730113 3:-0.8189043185438205 
8.0 1:-0.5692356224394984 2:-0.5770062740897927 3:-0.8189043185438205 
8.0 1:0.42602918314220684 2:-0.4460715848786932 3:-0.8189043185438205 
1.6449265799384467 1:0.39043079940109116 2:-0.010730757955503725 3:-0.8189043185438205 
0.1332724587705557 1:1.3547902869646062 2:0.5340931432630524 3:-0.8189043185438205 
8.0 1:-0.7953884901641579 2:0.6764931251319809 3:-0.8189043185438205 
8.0 1:0.32596059768098473 2:-0.4938370935028342 3:-0.8189043185438205 
8.0 1:-0.7929958516932145 2:0.35441787202255126 3:-0.8189043185438205 
0.4944285923890892 1:0.9170927498875787 2:1.371942963054449 3:-0.8189043185438205 
8.0 1:-0.7961698589143037 2:-0.422597837867487 3:-0.8189043185438205 
1.2750443653047208 1:0.17432410132116372 2:0.3209905233375105 3:-0.8189043185438205 
8.0 1:-0.5317372022655747 2:-0.2910480016758877 3:-0.8189043185438205 
8.0 1:-0.34133074155457416 2:-0.7462567672458634 3:-0.8189043185438205 
8.0 1:-0.43967157996578426 2:-0.7561580159851873 3:-0.8189043185438205 
8.0 1:-0.3473438836752616 2:-0.7448170615468209 3:-0.8189043185438205 
0.7685312831406668 1:0.5308175270476326 2:-0.474473051850713 3:-0.8189043185438205 
8.0 1:-0.7693582336957907 2:0.2712945002532898 3:-0.8189043185438205 
8.0 1:-0.7663613690795481 2:0.48588917881238464 3:-0.8189043185438205 
8.0 1:-0.794051427489219 2:-0.03230016697388551 3:-0.8189043185438205 
8.0 1:-0.6469915195231092 2:-0.46610967056263897 3:-0.8189043185438205 
1.9037813755525073 1:-0.15175175520319995 2:0.8640671453667741 3:-0.8189043185438205 
8.0 1:-0.4087371426152906 2:-0.5718625982741228 3:-0.8189043185438205 
8.0 1:-0.6086170927690531 2:-0.5101319443692696 3:-0.8189043185438205 
8.0 1:-0.7834811098630227 2:0.2110755373324312 3:-0.8189043185438205 
8.0 1:-0.7940126017128143 2:0.3824594125698105 3:-0.8189043185438205 
3.9655974654273742 1:0.6121332625053549 2:-0.7605098536663839 3:-0.8189043185438205 
8.0 1:-0.5941035322267482 2:-0.7605098536663839 3:-0.8189043185438205 
0.48258265883136864 1:-0.6535773418457669 2:0.29337435038315024 3:-0.8189043185438205 
1.6657280654008646 1:0.916580734961241 2:0.36225117984870514 3:-0.8189043185438205 
1.50118478105578 1:1.536994802410101 2:-0.21030668842686007 3:-0.8189043185438205 
8.0 1:-0.3348177175626754 2:-0.7605098536663839 3:-0.8189043185438205 
1.0722896813570812 1:1.504466081615987 2:-0.1737185313207397 3:-0.8189043185438205 
8.0 1:0.1858796230236308 2:-0.39835188507224895 3:-0.8189043185438205 
8.0 1:-0.7958883720353692 2:0.23928722491684998 3:-0.8189043185438205 
8.0 1:-0.7944639513635195 2:0.5918318859114695 3:-0.8189043185438205 
8.0 1:-0.7850681134735673 2:0.49135351635193225 3:-0.8189043185438205 
8.0 1:-0.7946605068565686 2:0.42562440707382937 3:-0.8189043185438205 
8.0 1:-0.7687443011063905 2:0.24086435706898282 3:-0.8189043185438205 
3.584948942262724 1:0.6378504861514588 2:2.71677860064684 3:-0.8189043185438205 
0.5641448271301946 1:0.05390110257974553 2:0.0034176225959955935 3:-0.8189043185438205 
8.0 1:-0.796196551635582 2:0.1655939254763167 3:-0.8189043185438205 
0.09202864028411001 1:0.7815616709026577 2:2.2426049845503866 3:-2.6388683788384286 
1.1825782066901742E-4 1:1.5873202884637478 2:-0.16019838598336808 3:-2.6388683788384286 
8.0 1:-0.709656322640394 2:0.3341507422501216 3:-2.6388683788384286 
1.715618773253328 1:0.41698520385092264 2:0.4824927821860072 3:-2.6388683788384286 
0.11434176132428164 1:0.6023540200734054 2:3.0086854752445165 3:-2.6388683788384286 
8.0 1:-0.6441815039558146 2:1.1534545349911256 3:-2.6388683788384286 
0.6916457636821858 1:0.22630696270508868 2:1.3263042923948027 3:-2.6388683788384286 
0.34260101413925514 1:0.1267212728379009 2:3.61085547210266 3:-2.6388683788384286 
8.0 1:-0.7954564352728662 2:-0.7025355228126688 3:-0.2958544004778553 
8.0 1:-0.7938936977725746 2:0.11559032890184592 3:-0.2958544004778553 
0.5409302138628658 1:1.0860042901364935 2:0.1760514241448161 3:-0.2958544004778553 
8.0 1:-0.5233265684518934 2:-0.7223052997072477 3:-0.2958544004778553 
8.0 1:-0.7565408742601688 2:0.8810425843818478 3:-0.2958544004778553 
4.071418881300833 1:-0.7956165916005359 2:0.4407544051474031 3:-0.2958544004778553 
8.0 1:-0.7960897807504689 2:0.2522249438577908 3:-0.2958544004778553 
8.0 1:-0.7833791921999602 2:0.22233796236903167 3:-0.2958544004778553 
8.0 1:-0.788416836688478 2:0.2756005291167895 3:-0.2958544004778553 
8.0 1:-0.3503286152363776 2:-0.6367802370673107 3:-0.2958544004778553 
8.0 1:-0.7955268069925998 2:0.11559032890184592 3:-0.2958544004778553 
8.0 1:-0.39336213515900503 2:-0.6311850171914866 3:-0.2958544004778553 
8.0 1:-0.7782784558247846 2:-0.7322785337315237 3:-0.2958544004778553 
8.0 1:-0.7939228171048782 2:0.37022191412794936 3:-0.2958544004778553 
0.1770485796392837 1:0.04366080405298969 2:0.2663995008765454 3:-0.2958544004778553 
0.1040962771223809 1:1.5602781351978314 2:3.559654302151258 3:-0.2958544004778553 
8.0 1:-0.7025075265598674 2:0.9614043388556733 3:-0.2958544004778553 
8.0 1:-0.6710756339491877 2:-0.14995684316972493 3:-0.2958544004778553 
8.0 1:-0.795371503886981 2:0.2565178844876629 3:-0.2958544004778553 
8.0 1:-0.6180396233802836 2:-0.685612436732106 3:-0.2958544004778553 
8.0 1:-0.7751796735454796 2:-0.691135671322978 3:-0.2958544004778553 
8.0 1:-0.7839397393468039 2:0.3117829509804525 3:-0.2958544004778553 
8.0 1:-0.7939276703269288 2:-0.4427340853036403 3:-0.2958544004778553 
8.0 1:-0.7926051673181416 2:0.11559032890184592 3:-0.2958544004778553 
8.0 1:-0.7947963970739853 2:-0.4416150413284754 3:-0.2958544004778553 
8.0 1:-0.709656322640394 2:0.1461055456047326 3:-0.2958544004778553 
8.0 1:-0.7441360386988476 2:0.9938173494345705 3:-0.2958544004778553 
8.0 1:-0.7671330313855929 2:0.884792363316172 3:-0.2958544004778553 
8.0 1:-0.4392711891466102 2:-0.7605098536663839 3:-0.2958544004778553 
8.0 1:-0.7446893060126154 2:0.21111480203331423 3:-0.2958544004778553 
8.0 1:-0.7113986293565577 2:-0.2575290353554533 3:-0.2958544004778553 
8.0 1:-0.7947187455211758 2:-0.684421407471989 3:-0.2958544004778553 
8.0 1:-0.7889895168904482 2:0.2913456741708631 3:-0.2958544004778553 
8.0 1:-0.24014106179966468 2:0.7473986308098228 3:-0.2958544004778553 
8.0 1:-0.7565408742601688 2:0.14202201671290313 3:-0.2958544004778553 
8.0 1:-0.7951094298962487 2:0.11559032890184592 3:-0.2958544004778553 
8.0 1:-0.7898825097477576 2:-0.5004401073679882 3:-0.2958544004778553 
1.1886733903166666 1:-0.22159690034434049 2:-0.7605098536663839 3:-0.2958544004778553 
4.243563299711598 1:0.8915138430699168 2:-0.5749906861111331 3:-0.2958544004778553 
8.0 1:-0.5822082849807394 2:-0.3245538797626944 3:-0.2958544004778553 
0.27515156110833433 1:-0.5091745729523578 2:0.9783994102211881 3:-0.2958544004778553 
8.0 1:-0.7962766297994168 2:-0.6844933927569411 3:-0.2958544004778553 
8.0 1:-0.793740821277981 2:-0.7605098536663839 3:-0.2958544004778553 
8.0 1:0.45882240453807827 2:1.0754552066870928 3:-0.2958544004778553 
8.0 1:-0.7792054212364484 2:0.39443514633911836 3:-0.2958544004778553 
8.0 1:-0.6745553941594645 2:-0.4150524711811417 3:-0.2958544004778553 
4.3935520646597475 1:0.25111663382773114 2:-0.615780166211732 3:-0.2958544004778553 
8.0 1:-0.7901809829038694 2:0.4244726425145953 3:-0.2958544004778553 
0.056827223701412855 1:0.985744002404273 2:2.0090847201656974 3:-0.2958544004778553 
8.0 1:-0.16834734800521012 2:0.6572141569984394 3:-0.2958544004778553 
8.0 1:-0.7832991140361254 2:0.26810751536495475 3:-0.2958544004778553 
8.0 1:-0.7893777746544958 2:-0.3650554187234848 3:-0.2958544004778553 
0.5581366838035251 1:0.821421183604196 2:-0.7211077263303168 3:-0.2958544004778553 
-7.612888537621309 1:-0.7000251034809879 2:-0.7325337542872631 3:1.1012223119737965 
-8.0 1:-0.7835126558063515 2:0.7805642148223105 3:1.126947140917546 
-8.0 1:-0.6952107072067976 2:-0.7557195601586608 3:1.7030233175304554 
-8.0 1:-0.15933491465725488 2:-0.738024268294066 3:-0.45685438748548163 
-8.0 1:1.4023130372840344 2:1.4125295755338194 3:-0.45685438748548163 
-8.0 1:-0.6686029173144095 2:-0.7230775054912795 3:-0.6635305084067136 
-8.0 1:-0.7907293969955866 2:0.3970004401301395 3:-0.2780965920429022 
-8.0 1:-0.6563242655264037 2:-0.7502355902686717 3:1.1012223119737965 
-8.0 1:0.16956066387850444 2:-0.6263031060483698 3:0.3512978546454591 
-1.61383354650826 1:-0.7953278248885255 2:2.9919194479674855 3:-2.648997731435898 
-8.0 1:-0.726322287162138 2:-0.2620248436065541 3:-0.7634070464039605 
-8.0 1:-0.7962572169112144 2:0.44488374285692944 3:1.1012223119737965 
-8.0 1:-0.7787686312518948 2:0.649210702135126 3:-1.408211477586909 
-8.0 1:1.0588626458185397 2:-0.3366604958682788 3:-0.2958544004778553 
-8.0 1:-0.6904254302649108 2:-0.7605098536663839 3:-1.746209036058084 
-8.0 1:-0.7921319781682086 2:0.2589130312415245 3:-0.6635305084067136 
-0.9961068202596547 1:-0.7961844185804555 2:-0.6026395796495625 3:-1.408211477586909 
-8.0 1:-0.7446893060126154 2:-0.6082347995253867 3:0.5869889291928743 
-8.0 1:-0.6804690452281147 2:0.34752691701758887 3:1.7030233175304554 
-8.0 1:-0.5171532700035364 2:0.8594731753634658 3:1.126947140917546 
-8.0 1:-0.6639608104230151 2:-0.7013706700198072 3:-0.6635305084067136 
-8.0 1:-0.10300356631599661 2:-0.3626602719696232 3:-0.6635305084067136 
-8.0 1:-0.6434850665915541 2:0.16279958759681148 3:-0.7634070464039605 
-8.0 1:-0.474105190414757 2:0.029351957529201618 3:1.7030233175304554 
-8.0 1:-0.7441311854767969 2:-0.6095697993554079 3:1.126947140917546 
-8.0 1:-0.7544831081107165 2:-0.6173638424806788 3:-0.6775269884015683 
-8.0 1:-0.4989876598681586 2:-0.610754284498711 3:-0.6158573407627033 
-8.0 1:-0.7962329508009616 2:0.17090774832914626 3:1.7030233175304554 
-8.0 1:0.41698520385092264 2:-0.7465512525024858 3:1.1012223119737965 
-8.0 1:0.20500617112502642 2:-0.33123542302961423 3:0.5869889291928743 
-8.0 1:-0.7942188636499645 2:2.9884903307570383 3:-0.6167306793233271 
-8.0 1:0.12428495536850212 2:2.778469989850811 3:-0.8189043185438205 
-8.0 1:-0.5941035322267482 2:-0.7605098536663839 3:-0.6167306793233271 
-8.0 1:-0.7706686036494514 2:0.10845724157477178 3:-0.6775269884015683 
-8.0 1:-0.7962547903001892 2:1.9237756133806165 3:1.7030233175304554 
-8.0 1:-0.7943984328658364 2:1.106323805697926 3:-0.2780965920429022 
-8.0 1:-0.7866405574179601 2:0.8899360391318419 3:-0.2958544004778553 
-8.0 1:-0.14892232674770295 2:-0.5643564962886604 3:-0.45685438748548163 
-8.0 1:-0.7590766827816048 2:-0.6356284725080767 3:-0.6158573407627033 
-8.0 1:1.3748583601438173 2:-0.19660330781870125 3:-0.7634070464039605 
-8.0 1:-0.7943353409791788 2:0.779163773824151 3:0.3512978546454591 
-8.0 1:0.9221837798186532 2:2.5169409055029313 3:-0.6775269884015683 
-8.0 1:-0.7861770747121283 2:1.1500581383647481 3:1.7030233175304554 
-8.0 1:-0.7962183911348097 2:0.9435519881875466 3:1.7030233175304554 
-8.0 1:0.012549224097649234 2:0.31171750981231416 3:-0.6635305084067136 
-8.0 1:-0.6697143051639958 2:-0.7605098536663839 3:1.7030233175304554 
-8.0 1:-0.24180814357404412 2:-0.6665756009206761 3:0.5869889291928743 
-8.0 1:-0.794524616639152 2:0.5181778511718192 3:-0.6775269884015683 
-8.0 1:-0.7794699218382057 2:0.8904922890610174 3:1.126947140917546 
-8.0 1:0.09343787601491917 2:-0.010698037371434545 3:-0.6635305084067136 
-8.0 1:-0.5652147279705804 2:-0.6587619254449637 3:-0.8189043185438205 
-8.0 1:-0.474105190414757 2:-0.2402067581492468 3:-0.6167306793233271 
-8.0 1:-0.4496619375569344 2:-0.7516687518509003 3:-0.6635305084067136 
-8.0 1:-0.6941478515777172 2:-0.6911945683743025 3:-0.2958544004778553 
-8.0 1:-0.5432538981916372 2:0.23911707787969042 3:-0.6158573407627033 
-8.0 1:-0.7944178457540388 2:0.1051590067006019 3:-0.2958544004778553 
-8.0 1:-0.18966755247347478 2:-0.7019465522994243 3:0.5869889291928743 
-8.0 1:-0.08261032725939575 2:-0.7429585323716933 3:1.7030233175304554 
-8.0 1:-0.7960922073614943 2:0.6672397439572262 3:1.7030233175304554 
-3.794144769251566 1:-0.7962766297994168 2:0.03758445648099902 3:-1.408211477586909 
-8.0 1:-0.7915811374654661 2:0.04480916144346677 3:-1.746209036058084 
-8.0 1:-0.7958907986463946 2:2.1751613166670607 3:1.1012223119737965 
-8.0 1:-0.7735878167128845 2:0.44488374285692944 3:1.1012223119737965 
-8.0 1:0.19835483030468573 2:-0.6170300925231734 3:-0.6635305084067136 
-8.0 1:-0.7064459162539254 2:-0.7278416225317473 3:-0.45685438748548163 
-8.0 1:-0.5536592062681133 2:-0.7377886800887681 3:-0.2780965920429022 
-8.0 1:-0.7962717765773663 2:0.5237010857626911 3:1.1012223119737965 
-8.0 1:-0.7207240955267764 2:-0.6865417013196697 3:-0.7634070464039605 
-8.0 1:-0.7960363953079125 2:0.6578751127966361 3:-1.062154125987775 
-8.0 1:-0.7957985874274331 2:1.3611909791293273 3:-0.6158573407627033 
-8.0 1:-0.7511901969493876 2:-0.5981110508143925 3:0.3512978546454591 
-8.0 1:0.24365480492494104 2:-0.7556213984064534 3:-0.8189043185438205 
-8.0 1:1.4954779143782846 2:-0.429161587031758 3:1.126947140917546 
-8.0 1:-0.7154340834916276 2:-0.684728980962239 3:1.1012223119737965 
-1.3240716508607586 1:-0.7962402306340374 2:2.811825353250899 3:-1.408211477586909 
-8.0 1:-0.7944421118642919 2:1.6892737314738522 3:1.7030233175304554 
-8.0 1:-0.20031066843043002 2:2.139842718222823 3:1.7030233175304554 
-8.0 1:0.012549224097649234 2:-0.7045314784408868 3:0.3512978546454591 
-8.0 1:-0.31099810373835424 2:0.544157994922722 3:-0.2780965920429022 
-8.0 1:-0.7960509549740641 2:0.5272610853094145 3:-0.2958544004778553 
-8.0 1:0.62037160693624 2:-0.7563085306719054 3:-1.746209036058084 
-8.0 1:-0.7938330324969421 2:0.2482395767181687 3:-2.6388683788384286 
-8.0 1:-0.012262873636018582 2:-0.7517996341871769 3:1.1012223119737965 
-8.0 1:-0.23151203299370646 2:-0.1984356605265735 3:1.126947140917546 
-8.0 1:0.6457806509821311 2:-0.7463941936989538 3:-1.408211477586909 
-8.0 1:-0.6187627534658223 2:-0.7605098536663839 3:-0.45685438748548163 
-8.0 1:-0.6340601093692982 2:-0.37678902017068094 3:0.3512978546454591 
-8.0 1:-0.6204783674607077 2:1.139214536804233 3:-0.45685438748548163 
-8.0 1:-0.4929939306356735 2:-0.4951720933328555 3:-0.7634070464039605 
-8.0 1:-0.5266971311660317 2:-0.6494627354525122 3:-0.6167306793233271 
-8.0 1:-0.6492531209986865 2:-0.43787180651096497 3:-0.7634070464039605 
-8.0 1:-0.6789378536711519 2:-0.495767607962914 3:-1.746209036058084 
-8.0 1:-0.5652147279705804 2:-0.5912528163934994 3:-0.6635305084067136 
-8.0 1:-0.7234176337648568 2:-0.42863805768665153 3:-0.6167306793233271 
-8.0 1:-0.5757195270990936 2:-0.6301903114357844 3:0.3512978546454591 
-8.0 1:0.6192019804220467 2:-0.13184927194585894 3:-0.7634070464039605 
-8.0 1:-0.7945440295273544 2:0.05559386595265767 3:-0.2958544004778553 
-8.0 1:-0.4229959089999392 2:0.09665165484262347 3:1.1012223119737965 
-8.0 1:-0.7959369042558753 2:0.25005229707559945 3:-1.062154125987775 
-8.0 1:-0.7881353498095434 2:0.12663025396677616 3:-1.746209036058084 
-8.0 1:-0.7321461536228521 2:-0.267325578225756 3:-0.2958544004778553 
-8.0 1:-0.39053270670350804 2:0.25786597255131183 3:-0.2958544004778553 
-8.0 1:-0.6366759960545691 2:-0.6953435384342704 3:-0.6775269884015683 
-8.0 1:-0.7623331947775541 2:1.180193796292433 3:-1.062154125987775 
-8.0 1:-0.7679046936916375 2:-0.4663321705343092 3:1.1012223119737965 
-8.0 1:-0.6140648345208461 2:1.0403394758640838 3:-0.2780965920429022 
-8.0 1:-0.7962742031883916 2:0.12701635685879212 3:-0.6158573407627033 
-8.0 1:1.3900659314393573 2:-0.18488933872194654 3:1.126947140917546 
-8.0 1:-0.7956796834871936 2:0.07624709861710341 3:-1.408211477586909 
-8.0 1:-0.7071569132843376 2:-0.7347783863544065 3:-0.7634070464039605 
-8.0 1:-0.6949728993263183 2:-0.650424720624145 3:-0.6158573407627033 
-8.0 1:-0.795779174539231 2:0.15192326545222698 3:0.3512978546454591 
-2.5351231344558776 1:-0.4929939306356735 2:-0.7605098536663839 3:-2.648997731435898 
-8.0 1:0.45882240453807827 2:1.0754552066870928 3:-0.2958544004778553 
-8.0 1:-0.7958058672605092 2:1.2235616584176805 3:1.7030233175304554 
-8.0 1:-0.6686029173144095 2:-0.7475001494404909 3:-0.6775269884015683 
-8.0 1:-0.5757195270990936 2:-0.5844600231407444 3:-0.45685438748548163 
-8.0 1:-0.7549514440385989 2:0.9935359524115757 3:1.126947140917546 
-8.0 1:-0.7943110748689258 2:0.304473172499405 3:-0.2780965920429022 
-8.0 1:-0.7950390581765151 2:-0.06118589859012866 3:0.3512978546454591 
-8.0 1:-0.7648059114123323 2:-0.5884977432148771 3:1.1012223119737965 
-8.0 1:-0.31738494395693756 2:-0.4899040792977228 3:-1.062154125987775 
-8.0 1:-0.31099810373835424 2:-0.5495078952380814 3:-1.062154125987775 
-8.0 1:-0.7704720481564024 2:-0.5884977432148771 3:0.3512978546454591 
-8.0 1:-0.6850820327872054 2:1.7294218881266958 3:1.1012223119737965 
-8.0 1:-0.7960485283630389 2:0.5465531416765835 3:-0.2958544004778553 
-8.0 1:-0.7768491819308844 2:-0.5045563568438869 3:1.7030233175304554 
-8.0 1:-0.28158515150072216 2:-0.5502670127884856 3:-1.746209036058084 
-8.0 1:-0.7224858151311425 2:0.1914824515918259 3:-0.45685438748548163 
-8.0 1:-0.7337549967326245 2:-0.38703710710113787 3:-0.8189043185438205 
-8.0 1:0.15157462295899876 2:-0.3135859399827163 3:-0.8189043185438205 
-8.0 1:-0.7927604704237606 2:0.014379018259159876 3:-0.2958544004778553 
-8.0 1:-0.022313896502801148 2:-0.702686037499387 3:1.1012223119737965 
-8.0 1:-0.6656570115296981 2:-0.5620987759878892 3:0.3512978546454591 
-8.0 1:-0.4998927857805945 2:-0.20981587966582282 3:-0.6635305084067136 
-8.0 1:1.0253147483938008 2:-0.43077798388477384 3:1.126947140917546 
-8.0 1:0.7058683931905502 2:-0.4866581973580634 3:-0.45685438748548163 
-8.0 1:-0.6427376703957625 2:-0.6599398664714532 3:-0.6158573407627033 
-8.0 1:-0.7961286065268737 2:1.1684929154293058 3:-0.6775269884015683 
-3.620877285941494 1:-0.7470940775386853 2:-0.6684144977453622 3:1.7030233175304554 
-8.0 1:-0.6229899098718906 2:-0.6283448704942847 3:0.3512978546454591 
-8.0 1:-0.7952113475593112 2:0.11925503431759044 3:-0.2958544004778553 
-8.0 1:-0.7933452836808573 2:0.1914824515918259 3:-0.45685438748548163 
-8.0 1:-0.6633541576666908 2:-0.7469831642121985 3:-0.45685438748548163 
-8.0 1:-0.07616524837620536 2:-0.0922311887549355 3:1.7030233175304554 
-8.0 1:-0.7926075939291669 2:0.5209263802336275 3:-1.746209036058084 
-4.429571464668999 1:-0.7467980309935991 2:-0.272462709924612 3:-0.7634070464039605 
-8.0 1:-0.4222169668608187 2:-0.6320750170781673 3:0.5869889291928743 
-8.0 1:-0.5318027207632579 2:-0.5667909077434049 3:0.5869889291928743 
-8.0 1:-0.6345454315743577 2:-0.7440775763468582 3:1.126947140917546 
-8.0 1:-0.4565947652562096 2:0.1230506220696115 3:1.1012223119737965 
-8.0 1:-0.796114046860722 2:2.053728685069642 3:1.7030233175304554 
-3.0412945076030136 1:-0.7893777746544958 2:-0.45783136279314474 3:1.7030233175304554 
-8.0 1:-0.6475933190573829 2:-0.7179076532083543 3:0.5869889291928743 
-8.0 1:-0.6535773418457669 2:-0.7605098536663839 3:-0.8189043185438205 
-8.0 1:-0.616697707483294 2:-0.5564512031775544 3:-0.2780965920429022 
-8.0 1:-0.6704083159172309 2:-0.06227222198122434 3:-1.408211477586909 
-8.0 1:-0.7960388219189377 2:1.2861626798587726 3:0.5869889291928743 
-8.0 1:-0.4798052997131811 2:-0.6849514809339092 3:1.126947140917546 
-8.0 1:-0.7867788742464021 2:0.045463573124849735 3:-0.45685438748548163 
-8.0 1:-0.6535773418457669 2:-0.5266296628569337 3:0.5869889291928743 
-8.0 1:-0.5408879524419721 2:-0.5796435531657659 3:-0.6775269884015683 
-8.0 1:-0.7370042288954979 2:-0.6639579541951444 3:1.7030233175304554 
-8.0 1:-0.7742963871322713 2:-0.27770454749248946 3:0.3512978546454591 
-8.0 1:-0.7962086846907086 2:0.04286555874975939 3:-0.8189043185438205 
-8.0 1:-0.5951494015786514 2:-0.5396393670828266 3:-0.6635305084067136 
-8.0 1:-0.7958568260920403 2:0.10542731548996881 3:-0.6635305084067136 
-8.0 1:-0.7626438009887923 2:1.7234732859429251 3:1.126947140917546 
-8.0 1:0.9992044137615986 2:-0.031050240662444106 3:-0.6158573407627033 
-8.0 1:-0.5652147279705804 2:-0.7604509566150595 3:1.126947140917546 
-8.0 1:-0.7446893060126154 2:-0.5846694348787869 3:-0.2958544004778553 
-8.0 1:-0.23819977297942654 2:-0.6960306706997225 3:-0.2780965920429022 
-8.0 1:-0.6397650718897728 2:-0.71292758031303 3:1.1012223119737965 
-8.0 1:-0.7291468623955843 2:-0.6725765560389577 3:0.3512978546454591 
-8.0 1:-0.7961989782466073 2:0.3837944123998316 3:-1.062154125987775 
-8.0 1:-0.6930607298383838 2:-0.6982425821827968 3:-0.2958544004778553 
-8.0 1:-0.1878354611493751 2:2.139842718222823 3:1.7030233175304554 
-8.0 1:-0.747368284584544 2:-0.43077798388477384 3:-0.6775269884015683 
-8.0 1:-0.5051269857621614 2:-0.7605098536663839 3:-0.45685438748548163 
-8.0 1:-0.7950244985103634 2:0.2490968560207803 3:-0.8189043185438205 
-8.0 1:-0.7950511912316416 2:1.0157335966440852 3:-0.6158573407627033 
-8.0 1:-0.7961892718025061 2:1.0379835938111053 3:1.126947140917546 
-5.005719545110315 1:-0.7740415929746151 2:-0.5490890717619962 3:-1.408211477586909 
-8.0 1:-0.7954807013831192 2:0.2916467035442994 3:-1.408211477586909 
-8.0 1:-0.657656474979292 2:-0.6898072156097707 3:1.7030233175304554 
-8.0 1:-0.685176670617192 2:-0.7437438263893529 3:-0.2958544004778553 
-8.0 1:-0.5266971311660317 2:-0.7605098536663839 3:-1.062154125987775 
-8.0 1:-0.6478990720465705 2:0.4046505126855061 3:-0.7634070464039605 
-8.0 1:-0.7960897807504689 2:-0.18348235360697318 3:0.3512978546454591 
-8.0 1:0.3146574435251486 2:-0.4278134989681091 3:-0.6775269884015683 
-8.0 1:-0.6934975198229375 2:-0.7445225762901986 3:-0.45685438748548163 
-8.0 1:-0.5543483637992977 2:-0.40620482524884427 3:1.1012223119737965 
-8.0 1:-0.7565408742601688 2:-0.06770383893670276 3:-0.7634070464039605 
-8.0 1:-0.7949783929008826 2:0.8015053886265647 3:-0.2958544004778553 
-8.0 1:-0.796114046860722 2:2.3091651966638462 3:1.7030233175304554 
-8.0 1:-0.7195884415669371 2:-0.6600249399900329 3:-0.6158573407627033 
-8.0 1:-0.6779502229838558 2:-0.6896567009230525 3:1.126947140917546 
-8.0 1:-0.7877762113777994 2:0.30168537873671375 3:-0.6167306793233271 
-8.0 1:-0.7961334597489244 2:0.31650125920322353 3:-0.7634070464039605 
-8.0 1:-0.10300356631599661 2:-0.6624069985102667 3:1.7030233175304554 
-8.0 1:-0.0030053525745082467 2:2.6036635415197984 3:-0.7634070464039605 
-8.0 1:-0.7825323049521312 2:0.08970834690315059 3:-0.6635305084067136 
-8.0 1:-0.6100002610534726 2:-0.7165072122101948 3:-0.6635305084067136 
-8.0 1:1.1162786892881063 2:-0.5706388484299366 3:0.5869889291928743 
-8.0 1:-0.7963033225206951 2:0.6414951884116211 3:-0.6158573407627033 
-8.0 1:-0.6399082419402655 2:-0.17480485471183538 3:-0.7634070464039605 
-8.0 1:-0.7899237621351877 2:0.2784014111131086 3:-0.6775269884015683 
-7.721190030994199 1:-0.7880940974221133 2:1.1143534370284947 3:-2.648997731435898 
-8.0 1:-0.7170866055998553 2:2.694351912325847 3:1.1012223119737965 
-8.0 1:1.3463578136516972 2:0.8766122172988849 3:-1.062154125987775 
-8.0 1:-0.7688801913238071 2:1.1257729208686273 3:-1.408211477586909 
-8.0 1:-0.7962353774119868 2:0.5079232201245484 3:-0.8189043185438205 
-8.0 1:-0.7227867148982793 2:-0.7324159601846141 3:0.3512978546454591 
-8.0 1:-0.7510737196201733 2:-0.5975417126515894 3:-0.7634070464039605 
-8.0 1:-0.2503328281059145 2:-0.647126485749975 3:-0.6635305084067136 
-8.0 1:-0.7962669233553156 2:1.9564242121648117 3:-0.6158573407627033 
-8.0 1:-0.7613552705343593 2:-0.5681193634566122 3:-0.7634070464039605 
-8.0 1:-0.7471717290914949 2:0.2680486183136304 3:-0.6167306793233271 
-8.0 1:0.370573841381081 2:-0.5647556874143039 3:-0.6167306793233271 
-8.0 1:-0.7934108021785404 2:0.1777528945164118 3:0.3512978546454591 
-6.481300647496177 1:-0.7752184993218845 2:-0.6116377402685781 3:0.3512978546454591 
-8.0 1:-6.806592122732554E-4 2:-0.14361559397712423 3:1.7030233175304554 
-8.0 1:0.5562168646494224 2:-0.7385347094055447 3:0.3512978546454591 
-8.0 1:-0.7505350119725573 2:-0.47688783095501613 3:1.126947140917546 
-8.0 1:-0.7180426903438225 2:0.2023587737364104 3:-0.6167306793233271 
-8.0 1:-0.7939859089915359 2:0.49991322114442116 3:-0.2958544004778553 
-8.0 1:0.7950778943135655 2:-0.4421909236080924 3:-0.6635305084067136 
-8.0 1:-0.7946702133006698 2:0.3463686083415412 3:-1.408211477586909 
-6.160611594200257 1:-0.77868855308806 2:-0.029924652570465407 3:-1.746209036058084 
-8.0 1:1.4777903466148903 2:2.805791677548548 3:1.1012223119737965 
-8.0 1:-0.7424665303134428 2:-0.5484804688983101 3:-0.7634070464039605 
-8.0 1:-0.4432775239493765 2:-0.5885042873316909 3:-0.45685438748548163 
-8.0 1:-0.7454391288194324 2:-0.6531797938027673 3:0.5869889291928743 
-8.0 1:-0.5941035322267482 2:-0.6741078793733939 3:0.5869889291928743 
-8.0 1:-0.5757195270990936 2:-0.23739278791930013 3:-0.2958544004778553 
-8.0 1:1.532556530844832 2:1.1266825531057496 3:-1.062154125987775 
-8.0 1:-0.7939276703269288 2:0.03819960346149906 3:-0.45685438748548163 
-8.0 1:-0.700481306353744 2:-0.40579254588957303 3:1.1012223119737965 
-8.0 1:-0.6952107072067976 2:-0.3868865924144198 3:-0.6635305084067136 
-8.0 1:-0.7914088480826699 2:1.0263481541161166 3:1.126947140917546 
-8.0 1:-0.7874534721114348 2:0.04079761783658931 3:-0.2958544004778553 
-8.0 1:-0.7962669233553156 2:0.09440047865866626 3:-0.6158573407627033 
-8.0 1:0.7844954436322426 2:1.3320434828405312 3:-0.6635305084067136 
-8.0 1:-0.4329814133690388 2:1.2181693061630852 3:-0.6775269884015683 
-8.0 1:-0.7227867148982793 2:-0.6738853794017237 3:0.3512978546454591 
-8.0 1:-0.7897272066421386 2:1.207319160485756 3:1.7030233175304554 
-8.0 1:-0.42889500040243766 2:-0.5618304671985221 3:-0.7634070464039605 
-8.0 1:-0.7166255495050489 2:-0.5637806140090433 3:0.3512978546454591 
-3.0275206727278507 1:-0.6800759342420165 2:-0.7605098536663839 3:-1.408211477586909 
-8.0 1:-0.18966755247347478 2:-0.7600975743071127 3:0.3512978546454591 
-8.0 1:-0.7953884901641579 2:0.6764931251319809 3:-0.8189043185438205 
-8.0 1:-0.794745438242454 2:0.2591747959140777 3:-1.062154125987775 
-8.0 1:-0.796286336243518 2:0.9082595662105641 3:1.126947140917546 
-8.0 1:-0.7603700664580884 2:-0.7541293397729002 3:0.3512978546454591 
-8.0 1:-0.4811763349424742 2:-0.44464496741327836 3:1.7030233175304554 
-8.0 1:0.9154742003337053 2:0.028383428240754894 3:0.3512978546454591 
-8.0 1:0.686608381482763 2:-0.5260734129277581 3:-0.6635305084067136 
-8.0 1:0.13069848830836353 2:-0.7594824273266126 3:1.126947140917546 
-8.0 1:-0.16921850136329195 2:0.32551905217268046 3:-0.6167306793233271 
-8.0 1:-0.7962426572450627 2:1.8889281913469746 3:-0.6775269884015683 
-4.933618915398415 1:-0.7939664961033335 2:0.010001004110707963 3:-0.6775269884015683 
-8.0 1:-0.6487556657385005 2:-0.7287054459511728 3:1.1012223119737965 
-8.0 1:-0.38327956634889354 2:-0.7447254439114274 3:0.3512978546454591 
-8.0 1:-0.7521996671359115 2:0.10024437497341598 3:-0.6635305084067136 
-8.0 1:-0.3514424296969892 2:-0.7605098536663839 3:-0.6167306793233271 
-8.0 1:-0.7852015770799587 2:-0.12479471402055084 3:0.3512978546454591 
-8.0 1:-0.7314667025357687 2:-0.5529959094998524 3:1.7030233175304554 
-8.0 1:-0.732796485377632 2:-0.5960889187189192 3:1.7030233175304554 
-8.0 1:-0.7939931888246119 2:2.169173449782407 3:1.126947140917546 
-8.0 1:0.17432410132116372 2:0.899405376161453 3:-0.2780965920429022 
-5.463114259600092 1:-0.7939592162702577 2:2.4089368016074895 3:-1.408211477586909 
-8.0 1:-0.7905158552253604 2:0.9036786844408837 3:1.7030233175304554 
-8.0 1:-0.47277298096186865 2:-0.32075829201067335 3:1.126947140917546 
-8.0 1:-0.7496978311688297 2:-0.42123011745339667 3:-0.45685438748548163 
-8.0 1:-0.7700959234474811 2:-0.566097231361139 3:-0.6158573407627033 
-8.0 1:-0.3534735031251633 2:-0.02080215373198722 3:1.126947140917546 
-8.0 1:-0.6380640175610394 2:-0.4351690862668533 3:-0.6635305084067136 
-8.0 1:-0.7893777746544958 2:0.9200193441250156 3:1.7030233175304554 
-8.0 1:-0.6514492039765808 2:-0.7529186781623418 3:1.1012223119737965 
-8.0 1:-0.7961334597489244 2:0.13507870877343003 3:-0.7634070464039605 
-8.0 1:0.884314088157859 2:-0.040120386566411696 3:1.7030233175304554 
-8.0 1:-0.7746264062317118 2:0.18376693786832107 3:0.3512978546454591 
-8.0 1:-0.7963033225206951 2:0.4048730126571762 3:1.7030233175304554 
-8.0 1:-0.7953278248885255 2:1.5646410267544708 3:1.1012223119737965 
-8.0 1:-0.7138616395472348 2:-0.6661894980286602 3:1.1012223119737965 
-8.0 1:-0.7505350119725573 2:-0.6179200924098542 3:-0.6167306793233271 
-8.0 1:-0.7944057126989125 2:0.6015106346791232 3:1.126947140917546 
-8.0 1:0.17977912290603265 2:0.3777149278797841 3:-0.6167306793233271 
-8.0 1:-0.7962111113017338 2:0.9971875695936925 3:-0.6158573407627033 
-8.0 1:-0.7929473194727086 2:0.03742739767746714 3:-0.45685438748548163 
-8.0 1:-0.4900480248509622 2:-0.6796114816138245 3:-0.2958544004778553 
-8.0 1:1.2501984985522296 2:0.19730017143932027 3:1.126947140917546 
-8.0 1:-0.7929885718601386 2:1.092011822226081 3:1.126947140917546 
-8.0 1:-0.6628154500190747 2:-0.49807113708138195 3:-0.2780965920429022 
-8.0 1:-0.18966755247347478 2:-0.6642458953349528 3:1.7030233175304554 
-8.0 1:-0.6894887584091459 2:-0.7511583107394216 3:-0.45685438748548163 
-8.0 1:-0.7835126558063515 2:1.550852572627732 3:-0.6775269884015683 
-8.0 1:-0.18966755247347478 2:0.062196879817811544 3:1.126947140917546 
-8.0 1:-0.7775868716825748 2:-0.32651057069002937 3:1.7030233175304554 
-8.0 1:-0.6904860955405432 2:-0.7602611772274585 3:-0.7634070464039605 
-8.0 1:-0.41153745173848405 2:-0.6777267759714415 3:-0.2780965920429022 
-8.0 1:-0.7962353774119868 2:0.241433695231786 3:0.3512978546454591 
-8.0 1:-0.31099810373835424 2:-0.6774453789484469 3:1.1012223119737965 
-8.0 1:-0.5203321304466761 2:-0.23512197938490131 3:-0.2780965920429022 
-8.0 1:-0.7953205450554496 2:1.2955731198370597 3:-0.2780965920429022 
-8.0 1:-0.740534947937306 2:-0.7314997838306779 3:0.3512978546454591 
-8.0 1:-0.7962766297994168 2:0.4463692573736687 3:-1.408211477586909 
-8.0 1:-0.7920373403382219 2:1.9985421479786178 3:-0.2780965920429022 
-8.0 1:-0.7962183911348097 2:0.9353391215861906 3:1.7030233175304554 
-8.0 1:0.96284892738059 2:-0.48342540365203174 3:1.7030233175304554 
-8.0 1:-0.7204887142573225 2:-0.6724783942867503 3:1.7030233175304554 
-8.0 1:-0.7879533539826461 2:-0.08839633630203143 3:-2.6388683788384286 
-8.0 1:-0.7952064943372606 2:1.1379188016750945 3:1.7030233175304554 
-8.0 1:-0.662842142740353 2:0.6443222468751955 3:-0.45685438748548163 
-8.0 1:-0.5337925418040018 2:-0.690481259641595 3:1.7030233175304554 
-8.0 1:-0.7961819919694303 2:0.9458489731892007 3:-0.6158573407627033 
-8.0 1:-0.653041060809176 2:-0.7330638277491832 3:-0.45685438748548163 
-8.0 1:-0.7472979128648103 2:-0.574768186139463 3:1.126947140917546 
-8.0 1:-0.7578027119933235 2:-0.5393514259430181 3:-0.2780965920429022 
-8.0 1:-0.7310007932189116 2:-0.6590106018838894 3:0.5869889291928743 
-8.0 1:-0.7944421118642919 2:1.1174815248655052 3:-0.7634070464039605 
-8.0 1:-0.7834592703637949 2:0.2819025136085072 3:-0.6167306793233271 
-8.0 1:-0.7963033225206951 2:0.7558994385509874 3:1.126947140917546 
-8.0 1:-0.7962766297994168 2:0.304473172499405 3:-0.2780965920429022 
-8.0 1:0.2033512224057734 2:-0.29659086861720124 3:-1.062154125987775 
-8.0 1:-0.796269349966341 2:0.026858649023132564 3:-0.6635305084067136 
-8.0 1:-0.7870943336796908 2:-0.11245250970966843 3:-0.2780965920429022 
-8.0 1:-0.6051640252800546 2:-0.732769342492561 3:-0.6158573407627033 
-8.0 1:-0.7962644967442903 2:0.3793902217841245 3:-0.7634070464039605 
-8.0 1:1.217274240160992 2:0.34395382923723805 3:-0.6158573407627033 
-8.0 1:-0.7953981966082592 2:1.3345629678138553 3:-1.408211477586909 
-8.0 1:-0.24887200826868539 2:-0.14083434433124675 3:1.7030233175304554 
-8.0 1:-0.7340995754982167 2:-0.6143600928631311 3:1.7030233175304554 
-8.0 1:0.24365480492494104 2:-0.5360728234192895 3:1.7030233175304554 
-8.0 1:-0.6876663735291474 2:-0.7456481643821773 3:0.5869889291928743 
-8.0 1:-0.3918843290445988 2:-0.7595936773124478 3:-0.6635305084067136 
-8.0 1:-0.6358145491405884 2:0.2920917034876397 3:-1.062154125987775 
-8.0 1:-0.6345454315743577 2:-0.5505745862787356 3:-0.8189043185438205 
-8.0 1:-0.7599114369743072 2:-0.7605098536663839 3:0.3512978546454591 
-8.0 1:-0.19870182532065772 2:-0.5760704653854151 3:1.126947140917546 
-8.0 1:-0.7546626773265885 2:0.17868870322078945 3:-0.2780965920429022 
-8.0 1:0.6938348291160994 2:-0.7395097828108053 3:-0.2958544004778553 
-8.0 1:-0.7962329508009616 2:0.4554590356280778 3:-0.2958544004778553 
-8.0 1:-0.7563928509876257 2:-0.3526674055949056 3:1.7030233175304554 
-8.0 1:1.5066500315387548 2:1.3328484092086321 3:-1.062154125987775 
-8.0 1:-0.7721852355402624 2:0.5575603461574448 3:-1.746209036058084 
-8.0 1:-0.4390722070425358 2:-0.01150950785634939 3:1.1012223119737965 
-8.0 1:-0.5536592062681133 2:-0.7406026503187148 3:-1.062154125987775 
-8.0 1:-0.5757195270990936 2:-0.6689838359081653 3:-0.45685438748548163 
-8.0 1:-0.7259825616185962 2:-0.692405229984861 3:-0.7634070464039605 
-8.0 1:-0.7958883720353692 2:0.23928722491684998 3:-0.8189043185438205 
-8.0 1:-0.7962183911348097 2:1.370385463252758 3:1.7030233175304554 
-8.0 1:1.1449685114401997 2:-0.18190522145484034 3:-0.6635305084067136 
-8.0 1:-0.795861679314091 2:-0.10923934835407824 3:0.3512978546454591 
-0.8099457310255611 1:-0.7958592527030656 2:-0.6081693583572485 3:-1.062154125987775 
-8.0 1:0.7270260147201197 2:0.08976069983766109 3:-0.6775269884015683 
-8.0 1:-0.7399331484030321 2:-0.44149724722582645 3:1.7030233175304554 
-8.0 1:0.12428495536850212 2:2.778469989850811 3:-0.8189043185438205 
-8.0 1:-0.7956384310997636 2:0.6775140073549383 3:-0.6635305084067136 
-8.0 1:-0.6207113221191363 2:0.05656239524110439 3:1.7030233175304554 
-8.0 1:-0.6854702905512531 2:0.15311429471234403 3:0.5869889291928743 
-8.0 1:-0.7064459162539254 2:-0.7546332367675651 3:-0.6635305084067136 
-8.0 1:0.821421183604196 2:-0.6314336936304121 3:-0.2958544004778553 
-8.0 1:-0.6945045633984359 2:-0.7605098536663839 3:-0.6167306793233271 
-8.0 1:0.11365882568872393 2:-0.7501897814509749 3:1.7030233175304554 
-3.1543295296223066 1:-0.7961480194150761 2:0.3774269867399757 3:1.1012223119737965 
-8.0 1:-0.7962256709678855 2:2.133239704357669 3:0.5869889291928743 
-8.0 1:-0.6697943833278306 2:-0.6795198639784308 3:1.7030233175304554 
-8.0 1:-0.7931099024114034 2:0.5921067388176502 3:-0.8189043185438205 
-8.0 1:0.03136031276575624 2:-0.6023254620424987 3:1.7030233175304554 
-8.0 1:-0.6261420775937522 2:-0.5908667135014833 3:-0.45685438748548163 
-8.0 1:-0.5502255516673171 2:-0.45120871657754935 3:-0.8189043185438205 
-8.0 1:0.6904060277373538 2:-0.5745260538173512 3:-1.062154125987775 
-8.0 1:-0.7056985200581337 2:0.39168661727730997 3:-0.45685438748548163 
-8.0 1:-0.7062954663703569 2:0.10057158081410741 3:-1.746209036058084 
-8.0 1:-0.7472979128648103 2:-0.13128647789986958 3:-0.6158573407627033 
-8.0 1:-0.7476255053532255 2:-0.4957937844301693 3:-0.2780965920429022 
-8.0 1:-0.7648520170218132 2:-0.5335926031468482 3:-0.6158573407627033 
-8.0 1:-0.6414297270531271 2:-0.6882889805089621 3:-0.6167306793233271 
-8.0 1:-0.7938742848843722 2:0.9385980917594776 3:-0.7634070464039605 
-8.0 1:-0.5141564053872938 2:-0.44495908502034226 3:-0.6635305084067136 
-8.0 1:-0.7961504460261013 2:0.15050973622043987 3:-0.6158573407627033 
-8.0 1:-0.7482685572749294 2:-0.7605098536663839 3:0.3512978546454591 
-8.0 1:-0.7960946339725196 2:0.41688801112736706 3:0.3512978546454591 
-8.0 1:-0.7024177419519314 2:0.43208999448589297 3:-0.7634070464039605 
-8.0 1:-0.7962766297994168 2:0.7635429669895402 3:-0.2958544004778553 
-8.0 1:-0.7946022681919616 2:1.4065155321819103 3:-0.45685438748548163 
-8.0 1:-0.795788880983332 2:0.0040524019269370486 3:-0.45685438748548163 
-8.0 1:-0.6120216280375456 2:-0.7285941959653377 3:-0.2780965920429022 
-8.0 1:-0.7126434808125355 2:-0.6384751633220925 3:-0.6775269884015683 
-8.0 1:-0.7937650873882338 2:2.1018083113008466 3:0.5869889291928743 
-8.0 1:-0.6807675183842262 2:1.2961882668175595 3:1.7030233175304554 
-8.0 1:-0.7837067846883754 2:2.6101094965814204 3:-0.6635305084067136 
-8.0 1:1.5940298679486955 2:-0.2697469014468728 3:1.126947140917546 
-8.0 1:-0.7911128015375837 2:1.336342967587217 3:-0.2780965920429022 
-8.0 1:-0.5766561989548584 2:0.7098157679480004 3:-1.062154125987775 
-8.0 1:-0.7957185092635983 2:0.4656482255072103 3:-0.8189043185438205 
-8.0 1:-0.7948570623496177 2:2.435780768777818 3:0.5869889291928743 
-8.0 1:-0.7238835430817139 2:-0.7313165485598908 3:1.7030233175304554 
-4.733816737053365 1:-0.7567447095862938 2:-0.49119981442686106 3:-0.2780965920429022 
-8.0 1:-0.23386099246619452 2:-0.4820576832379413 3:0.3512978546454591 
-2.817624042912065 1:-0.7761260518453457 2:0.9029326551241071 3:-2.6388683788384286 
-8.0 1:-0.6949971654365714 2:-0.7020185375843764 3:-0.6167306793233271 
-8.0 1:-0.1724628803041149 2:-0.44427849687170395 3:1.7030233175304554 
-8.0 1:-0.7631946416915347 2:0.7178257669281276 3:-1.746209036058084 
-8.0 1:-0.7936097842826149 2:0.014810929968872597 3:-0.6635305084067136 
-8.0 1:0.41698520385092264 2:-0.5517656155388524 3:-1.062154125987775 
-8.0 1:-0.3918843290445988 2:-0.4382709976366085 3:-0.6167306793233271 
-8.0 1:-0.5783621065056427 2:-0.7291373576608856 3:-1.408211477586909 
-8.0 1:-0.7896592615334304 2:0.5536927731204715 3:-0.2958544004778553 
-8.0 1:-0.7334832162977911 2:-0.6687940565205643 3:-0.8189043185438205 
-8.0 1:-0.47277298096186865 2:-0.6000415652744723 3:1.7030233175304554 
-8.0 1:-0.7716853536690511 2:0.3447391232548975 3:-0.6635305084067136 
-8.0 1:-0.5961879910974788 2:-0.7605098536663839 3:-0.2780965920429022 
-8.0 1:-0.7960169824197101 2:0.5997175466721341 3:-0.6158573407627033 
-8.0 1:-0.4929939306356735 2:-0.7179992708437478 3:-0.7634070464039605 
-8.0 1:-0.5688255251762232 2:0.6843133447245071 3:-0.2958544004778553 
-8.0 1:-0.7962378040230121 2:0.5312137318649675 3:1.126947140917546 
-8.0 1:0.04508522472483939 2:-0.7376250771684224 3:-0.6158573407627033 
-8.0 1:0.02488126132821166 2:-0.20686448298278579 3:1.7030233175304554 
-8.0 1:-0.796286336243518 2:1.5231382379211644 3:1.126947140917546 
-8.0 1:-0.6935630383206205 2:-0.036966122262145934 3:-0.2958544004778553 
-8.0 1:-0.7614062293658904 2:-0.618352004119567 3:1.7030233175304554 
-1.4927128344349239 1:-0.7934544811769958 2:-0.6165196514116948 3:-1.408211477586909 
-8.0 1:-0.07732516844629757 2:-0.7187845648614074 3:-0.2958544004778553 
-8.0 1:-0.020913741941204454 2:0.7328379708990524 3:-2.6388683788384286 
-8.0 1:-0.796114046860722 2:0.892933244632576 3:1.7030233175304554 
-8.0 1:-0.6086170927690531 2:-0.21033940901092915 3:-1.408211477586909 
-7.180277770609253 1:-0.7551916785301034 2:-0.67348618827608 3:-0.45685438748548163 
-8.0 1:-0.705887795718107 2:-0.6548092788894108 3:-0.6635305084067136 
-8.0 1:-0.5967752309656008 2:-0.15578110713403315 3:-0.7634070464039605 
-8.0 1:-0.7953278248885255 2:0.3198518470119043 3:0.3512978546454591 
-8.0 1:-0.6949728993263183 2:-0.1411811825223797 3:-1.408211477586909 
-8.0 1:-0.6507818859446239 2:-0.6678255272321176 3:-0.6167306793233271 
-8.0 1:-0.31099810373835424 2:-0.6869278042116856 3:-0.8189043185438205 
-8.0 1:-0.79071726394046 2:0.6652830530298912 3:-0.6635305084067136 
-8.0 1:-0.6625218300850136 2:-0.6382003104159117 3:-0.8189043185438205 
-8.0 1:-0.6873412076517574 2:-0.7254661081283272 3:1.126947140917546 
-8.0 1:0.6168239016172551 2:-0.5571056148589373 3:-1.408211477586909 
-8.0 1:-0.7962887628545434 2:1.5647784532075613 3:0.5869889291928743 
-8.0 1:-0.7401054377858282 2:-0.6399279572547627 3:-0.6775269884015683 
-8.0 1:-0.7307362926171542 2:-0.6483306032437196 3:0.3512978546454591 
-8.0 1:-0.7599114369743072 2:-0.7605098536663839 3:0.3512978546454591 
-8.0 1:-0.06586185796279173 2:-0.5378855437767203 3:0.5869889291928743 
-8.0 1:-0.02893126476878776 2:-0.06447758934748489 3:-0.6158573407627033 
-2.723826827304511 1:-0.737135265890864 2:-0.34986652359858667 3:1.1012223119737965 
-8.0 1:-0.4995409271819264 2:-0.6407590600901191 3:-0.6775269884015683 
-8.0 1:-0.7933428570698321 2:0.010622695208021745 3:-0.7634070464039605 
-8.0 1:-0.7952720128349436 2:0.1431606930385093 3:-0.6635305084067136 
-8.0 1:-0.6139289443034295 2:-0.03256847576325251 3:-1.408211477586909 
-8.0 1:0.33456050715463936 2:-0.5709267895697451 3:1.7030233175304554 
-8.0 1:-0.7882857996931119 2:0.6011114435534797 3:0.5869889291928743 
-8.0 1:-0.1736082407080553 2:-0.6939889062538076 3:0.5869889291928743 
-1.590729651148548 1:-0.7521996671359115 2:-0.42362526420725827 3:-1.746209036058084 
-8.0 1:-0.7423961585937091 2:-0.7498494873766557 3:0.3512978546454591 
-8.0 1:-0.7858470556126879 2:0.5594777723838967 3:-0.8189043185438205 
-8.0 1:-0.6397650718897728 2:-0.1615922828647137 3:-0.6635305084067136 
-8.0 1:-0.6507236472800169 2:-0.7358450773950608 3:-0.6167306793233271 
-8.0 1:-0.3614619066204429 2:-0.6222195771565402 3:1.7030233175304554 
-8.0 1:-0.7963033225206951 2:1.4976750793985543 3:1.126947140917546 
-8.0 1:-0.7933428570698321 2:0.24851442962434944 3:-0.6167306793233271 
-5.0036759627022 1:-0.7504379475315455 2:-0.548945101192092 3:0.5869889291928743 
-8.0 1:-0.7956845367092443 2:0.40726815941103783 3:1.7030233175304554 
-8.0 1:-0.7962717765773663 2:0.616176000458915 3:1.1012223119737965 
-8.0 1:-0.6697943833278306 2:-0.6775500848174681 3:1.1012223119737965 
-8.0 1:-0.7930152645814169 2:0.19127958397059716 3:-0.2958544004778553 
-8.0 1:-0.6949728993263183 2:-0.6952322884484353 3:1.126947140917546 
-8.0 1:-0.5967800841876514 2:-0.44704665828395385 3:-0.2780965920429022 
-8.0 1:-0.7946022681919616 2:-0.11817861192176919 3:0.3512978546454591 
-8.0 1:-0.7959490373110016 2:0.2850044249782624 3:0.5869889291928743 
-8.0 1:-0.686652050120573 2:0.009143724808096358 3:-0.6635305084067136 
-8.0 1:-0.6854605841071519 2:-0.7558897071958203 3:1.7030233175304554 
-8.0 1:-0.7204887142573225 2:1.225374378775111 3:1.126947140917546 
-8.0 1:-0.6446571197167729 2:-0.6179266365266681 3:-0.6635305084067136 
-8.0 1:-0.7029879955428763 2:-0.2078461005048602 3:1.7030233175304554 
-8.0 1:-0.37544403934820764 2:-0.7605098536663839 3:1.1012223119737965 
-8.0 1:0.36423310677197834 2:-0.5743559067801917 3:-1.062154125987775 
-8.0 1:-0.7953278248885255 2:0.7778287739941298 3:1.1012223119737965 
-8.0 1:-0.7955947521013083 2:-0.6090070053094185 3:-1.408211477586909 
-8.0 1:-0.6345454315743577 2:-0.7605098536663839 3:-0.6158573407627033 
-0.18135648888806316 1:-0.7960533815850895 2:-0.6238163416591146 3:-1.408211477586909 
-8.0 1:0.16956066387850444 2:-0.6263031060483698 3:0.3512978546454591 
-8.0 1:-0.7961601524702026 2:0.07564503987023105 3:-0.6158573407627033 
-8.0 1:-0.7826099565049408 2:1.3163376024873403 3:-0.8189043185438205 
-8.0 1:-0.7656042664396553 2:-0.6149425192595619 3:-0.6775269884015683 
-8.0 1:-0.7505350119725573 2:-0.4538132750694535 3:-0.6167306793233271 
-8.0 1:-0.7713043757380793 2:0.424989627742888 3:0.3512978546454591 
-8.0 1:-0.7958034406494838 2:0.6734435666967364 3:-0.8189043185438205 
-8.0 1:-0.6758512044469733 2:-0.5726478922917823 3:-0.8189043185438205 
-8.0 1:-0.7669825815020244 2:-0.6072793584705677 3:0.3512978546454591 
-8.0 1:-0.741008137087239 2:-0.5918679633739993 3:-0.2958544004778553 
-8.0 1:1.1712026032346916 2:-0.7417478707611349 3:1.7030233175304554 
-8.0 1:-0.7068414538510488 2:-0.6965280235775735 3:-0.6167306793233271 
-8.0 1:-0.35319929607930467 2:-0.7515640459818791 3:0.5869889291928743 
-2.43847288122612 1:-0.7962669233553156 2:-0.5698600985290909 3:-1.062154125987775 
-8.0 1:0.9684883714033816 2:-0.7556541189905224 3:0.5869889291928743 
-8.0 1:-0.7477880882919203 2:-0.582784729236404 3:-0.6167306793233271 
-8.0 1:1.2836323452587797 2:-0.43940967396221486 3:1.126947140917546 
-8.0 1:-0.700702127957046 2:-0.28419631137180823 3:-0.8189043185438205 
-8.0 1:-0.717018660491147 2:-0.7605098536663839 3:0.3512978546454591 
-8.0 1:-0.23718059634880156 2:-0.4967099607841054 3:-0.6635305084067136 
-8.0 1:-0.7958058672605092 2:1.2235616584176805 3:1.7030233175304554 
-8.0 1:-0.6952107072067976 2:0.7462141456665198 3:-0.2958544004778553 
-8.0 1:-0.748739319813837 2:-0.6587357489777085 3:0.5869889291928743 
-8.0 1:-0.7962572169112144 2:1.0684333693458534 3:-0.6775269884015683 
-8.0 1:-0.7962329508009616 2:0.681322683340587 3:1.126947140917546 
-8.0 1:-0.7442961950265172 2:-0.6505621470772356 3:-0.6158573407627033 
-8.0 1:-0.7922484554974228 2:0.10666415356778254 3:0.3512978546454591 
-8.0 1:-0.717018660491147 2:-0.2842093996054359 3:0.5869889291928743 
-8.0 1:-0.5118220055809576 2:-0.7188630942631734 3:-0.6167306793233271 
-8.0 1:-0.7772762654713367 2:0.9240505200823346 3:0.5869889291928743 
-8.0 1:-0.5042291396828014 2:-0.44853871691750696 3:0.5869889291928743 
-8.0 1:-0.3326361942509329 2:-0.5248562072003858 3:-0.2780965920429022 
-8.0 1:-0.6708062801253797 2:-0.7605098536663839 3:1.1012223119737965 
-8.0 1:-0.7944275521981401 2:0.4394979347191479 3:-0.7634070464039605 
-8.0 1:-0.14496695077646785 2:-0.7073716251380888 3:1.7030233175304554 
-8.0 1:-0.5136079912955765 2:1.678174909357598 3:-1.062154125987775 
-8.0 1:-0.7398870427935514 2:-0.7091189043273813 3:0.5869889291928743 
-8.0 1:-0.6271054421707954 2:-0.6887274363354887 3:-0.45685438748548163 
-8.0 1:1.5597394275502152 2:1.1549596818583063 3:1.126947140917546 
-8.0 1:-0.6467342987544277 2:-0.6936878768803715 3:-0.2958544004778553 
-8.0 1:-0.7947988236850106 2:0.8586355284112956 3:-0.7634070464039605 
-8.0 1:-0.6952107072067976 2:1.3232743663099997 3:-0.6158573407627033 
-8.0 1:-0.23975765725766762 2:-0.4770579779921757 3:-0.7634070464039605 
-8.0 1:-0.734876091026312 2:-0.6372121487770235 3:-0.7634070464039605 
-8.0 1:-0.7958519728699898 2:0.02795151653104208 3:-0.6635305084067136 
-8.0 1:-0.5315988854371329 2:-0.6615104545067721 3:1.126947140917546 
-8.0 1:-0.7877762113777994 2:1.07946675029397 3:-1.062154125987775 
-8.0 1:-0.7682662587344068 2:-0.5477082631142783 3:-0.6158573407627033 
-8.0 1:-0.20377586897455502 2:-0.6774061142475638 3:1.126947140917546 
-8.0 1:-0.792517809321231 2:1.946889433967062 3:1.7030233175304554 
-8.0 1:-0.3918843290445988 2:-0.7029216257046849 3:-0.2780965920429022 
-8.0 1:-0.5951494015786514 2:-0.36694012436586765 3:-0.45685438748548163 
-8.0 1:-0.7961650056922531 2:0.11519768189301613 3:-0.45685438748548163 
-8.0 1:-0.6345454315743577 2:-0.7423237530407518 3:1.1012223119737965 
-8.0 1:-0.7332915140267926 2:-0.19131566143312703 3:0.3512978546454591 
-8.0 1:-0.7919936613397667 2:0.10517209493422958 3:-0.7634070464039605 
-8.0 1:0.10613875812132666 2:0.6502904814094078 3:-0.6635305084067136 
-8.0 1:-0.7865362131438723 2:1.011938008892064 3:-0.7634070464039605 
-8.0 1:-0.7962572169112144 2:1.355405979865902 3:-0.6775269884015683 
-8.0 1:-0.13451796370153646 2:-0.7342548570093002 3:-0.2958544004778553 
-8.0 1:-0.7963033225206951 2:0.0812795244469382 3:-1.746209036058084 
-8.0 1:-0.5369883885243187 2:-0.6797096433660319 3:0.3512978546454591 
-8.0 1:-0.7512629952801465 2:-0.5897084048254356 3:-0.2958544004778553 
-8.0 1:-0.25127920640578055 2:-0.5779420827941701 3:-0.2780965920429022 
-8.0 1:-0.796252363689164 2:1.7556572524333383 3:1.126947140917546 
-8.0 1:-0.7338326482854339 2:-0.5346069412529917 3:1.1012223119737965 
-1.4668351720721087 1:-0.7960849275284183 2:-0.19958088096899362 3:-2.6388683788384286 
-8.0 1:-0.7957427753738513 2:1.5782266132599805 3:-0.6775269884015683 
-8.0 1:-0.7961844185804555 2:0.6098412953831281 3:1.126947140917546 
-0.5297424567436626 1:-0.6952107072067976 2:-0.7532655163534747 3:-0.2958544004778553 
-8.0 1:-0.6749897575329927 2:-0.7323963278341726 3:-0.2958544004778553 
-8.0 1:-0.7962766297994168 2:0.23216722582340352 3:0.3512978546454591 
-8.0 1:-0.5614874534357233 2:0.9235139025036008 3:1.126947140917546 
-8.0 1:-0.7227867148982793 2:0.726025545295856 3:-0.8189043185438205 
-8.0 1:-0.6345454315743577 2:-0.7445552968742678 3:1.1012223119737965 
-8.0 1:1.190210247395848 2:-0.3940785767928183 3:1.7030233175304554 
-2.852050939314089 1:-0.7888414936179051 2:-0.22951367127544944 3:0.3512978546454591 
-8.0 1:-0.7508577512389218 2:-0.6285804586995825 3:-0.7634070464039605 
-8.0 1:-0.6709130510104928 2:-0.6365839135628959 3:-0.6167306793233271 
-8.0 1:-0.5652147279705804 2:-0.7201195646914287 3:-0.2780965920429022 
-8.0 1:-0.629262699372285 2:-0.6037913442087965 3:-0.6167306793233271 
-8.0 1:-0.6400053063812774 2:-0.0063854643911209 3:-0.2958544004778553 
-8.0 1:-0.6652080884900181 2:-0.12908111053360904 3:0.5869889291928743 
-8.0 1:0.738215118157767 2:0.422299995732404 3:1.7030233175304554 
-8.0 1:-0.7006341828483376 2:-0.6918097153548024 3:-0.6167306793233271 
-8.0 1:-0.6345454315743577 2:-0.1020539080924935 3:1.7030233175304554 
-8.0 1:-0.7903484190646148 2:0.06453312952034862 3:-0.2958544004778553 
-8.0 1:-0.7961480194150761 2:0.42409962785620725 3:1.7030233175304554 
