svm_type c_svc
kernel_type rbf
gamma 2.0
nr_class 2
total_sv 8226
rho 0.6263501860730231
label -1 1
probA -3.3367914179113054
probB -0.20165070706333904
nr_sv 3741 4485
SV
7.968128992715872 1:-0.7634272096222827 2:-0.5028541441948636 3:0.14066775237537177 
7.968128992715872 1:0.639913270049654 2:-0.6384047102306984 3:1.3487617314084286 
7.968128992715872 1:0.3250750248963591 2:-0.3824415389204963 3:-0.675296092170136 
7.968128992715872 1:-0.314517728042416 2:0.33557826688418035 3:0.4761553960042256 
7.968128992715872 1:-0.6469785602193674 2:-0.6516471350359473 3:1.162653339826932 
7.968128992715872 1:-0.8058095190405025 2:2.0602329729940143 3:3.3541242944506346 
7.968128992715872 1:-0.7451240705088206 2:-0.20584735405487448 3:0.6345172359932882 
7.968128992715872 1:-0.5877334073832015 2:-0.43585879524226534 3:-0.9970266878867905 
7.968128992715872 1:-0.7905280312057771 2:0.3728308138015306 3:-0.3423152743729274 
7.968128992715872 1:-0.8082223855407223 2:0.07923993741597679 3:0.6345172359932882 
7.968128992715872 1:-0.6317143955287463 2:-0.7701773677982365 3:-1.173612721634547 
7.968128992715872 1:-0.3143098503131663 2:0.8901607502415717 3:0.32853969533215654 
7.968128992715872 1:-0.7861056799894768 2:-0.08103815843761131 3:0.24061800875392447 
7.968128992715872 1:-0.7316788359491343 2:-0.569882401757813 3:-0.10344224390835306 
7.968128992715872 1:1.225398419746577 2:-0.36464456244266685 3:-0.09981949434436392 
7.968128992715872 1:-0.7364699226613656 2:-0.6374569422525891 3:0.4590041056505241 
7.968128992715872 1:-0.5181116912286542 2:-0.7546642488787676 3:-0.6833628266176496 
7.968128992715872 1:-0.6324889875436885 2:-0.5812819443834049 3:1.9668055909859643 
7.968128992715872 1:-0.6403116244741448 2:-0.7619502152104825 3:-0.6203513695791517 
7.968128992715872 1:1.5509299942818717 2:0.247488498696581 3:0.17663050626302745 
7.968128992715872 1:-0.8063019912800345 2:0.07128263543310104 3:0.21916948044898585 
7.968128992715872 1:-0.6230503487418031 2:-0.6574193052915154 3:-0.05184212364339284 
7.968128992715872 1:-0.6138839307758399 2:0.137099856135133 3:1.7460499749407732 
7.968128992715872 1:-0.5283397704547141 2:-0.69611324934224 3:0.18311308725258751 
7.968128992715872 1:-0.8092221784290184 2:-0.10019755138397286 3:1.6738162239483942 
7.968128992715872 1:0.5827815407941932 2:-0.7671629390900835 3:0.12820962634849997 
2.305416796145756 1:-0.8091999058151703 2:-0.7036493211126226 3:0.035724732336667446 
7.968128992715872 1:-0.6855200811162117 2:-0.7701773677982365 3:1.7460499749407732 
7.968128992715872 1:-0.7325524173589575 2:-0.5687437638396678 3:0.33461120241088727 
7.968128992715872 1:-0.8092395015731226 2:-0.7701773677982365 3:0.4590041056505241 
7.968128992715872 1:1.1155375145729798 2:-0.157050466626388 3:-0.397030063019924 
7.968128992715872 1:-0.7364699226613656 2:0.28876905952089543 3:-0.4159733250423002 
7.968128992715872 1:-0.8078165290217109 2:0.6930645011272667 3:1.4191086436932605 
7.968128992715872 1:-0.11863256398252106 2:-0.4803578181589092 3:-0.6554205847972533 
7.968128992715872 1:-0.7061420468047568 2:-0.716977308304784 3:-0.9370715654582631 
7.968128992715872 1:0.7907384615598032 2:0.2641270920900547 3:0.12820962634849997 
7.968128992715872 1:0.2667158271443762 2:-0.26096269467075595 3:0.7685567798557844 
7.968128992715872 1:-0.7151228596553184 2:-0.6835882322426433 3:-0.9309545991828712 
7.968128992715872 1:-0.6285046643997358 2:-0.5272328427428963 3:0.09205075086824178 
7.968128992715872 1:-0.7294268272155958 2:-0.5923589826275569 3:0.4680813449487818 
7.968128992715872 1:-0.6732775677043271 2:-0.6867013867818494 3:0.6982750036315694 
7.968128992715872 1:-0.3218082969753878 2:-0.7621542485946589 3:0.17663050626302745 
7.968128992715872 1:-0.20825013790299224 2:-0.7185174312692116 3:0.8914361075289262 
7.968128992715872 1:-0.2822298621671671 2:0.08731571039611614 3:0.17562622301766614 
7.968128992715872 1:-0.10219042549281808 2:-0.7701773677982365 3:-0.7828092822787527 
7.968128992715872 1:-0.685807150361366 2:-0.677421158662863 3:-0.23515255144324113 
7.968128992715872 1:0.1648928608351009 2:-0.6671405087892055 3:0.11275613744440506 
7.968128992715872 1:-0.5971373998968785 2:-0.7528213666991107 3:0.7482957154496143 
7.968128992715872 1:0.10620947281488353 2:0.2397023214875305 3:-1.485216899703143 
7.968128992715872 1:-0.7441317018251404 2:0.14961170979058935 3:-0.44385200694210936 
7.968128992715872 1:-0.8092395015731226 2:-0.7165889867026422 3:0.035724732336667446 
7.968128992715872 1:-0.7259226026368151 2:-0.655201264953857 3:0.5817159642977183 
7.968128992715872 1:-0.8044607885352514 2:1.4865766590771743 3:-0.585342130636937 
7.968128992715872 1:1.5176621333973028 2:2.760811215312652 3:-0.0689180910945971 
7.968128992715872 1:-0.7475146643951922 2:-0.3884835597809428 3:1.4191086436932605 
7.968128992715872 1:-0.8038173574685261 2:0.6542191774689275 3:-0.5172790452558947 
7.968128992715872 1:-0.1905731067121512 2:-0.7701773677982365 3:0.722944133519523 
7.968128992715872 1:-0.36685837058564535 2:1.8798279710497448 3:0.6704641621168504 
7.968128992715872 1:-0.7982591029459685 2:0.8147605422053238 3:0.24061800875392447 
7.968128992715872 1:-0.718609761089995 2:-0.5100348029734554 3:-0.43993665942472077 
3.3279660840218597 1:-0.8091652595269619 2:-0.6928355517512788 3:-0.43290390601892736 
7.968128992715872 1:-0.7653624522922026 2:-0.2670639510298344 3:-1.1316765297599363 
7.968128992715872 1:-0.8082124866012342 2:0.5634638118428957 3:-1.176836193451512 
7.968128992715872 1:-0.8089969775556646 2:0.09382503352354704 3:1.6738230096459978 
7.968128992715872 1:1.5813024153661768 2:1.014081413379357 3:0.10540959944501625 
7.968128992715872 1:-0.7489227885373717 2:-0.5597597132138404 3:-1.5114991176618153 
7.968128992715872 1:-0.7231286269663041 2:-0.1542795616348325 3:0.2881569636622788 
7.968128992715872 1:-0.5895770848628565 2:-0.44248658936696 3:0.4952989107651782 
7.968128992715872 1:-0.7239205421253507 2:-0.5013469298407872 3:-0.3447075065289013 
7.968128992715872 1:-0.8022953955222336 2:0.362319803655416 3:1.6738230096459978 
7.968128992715872 1:-0.779795106065825 2:2.352948480344231 3:0.171802888896147 
7.968128992715872 1:-0.6414772245988664 2:-0.7701773677982365 3:-0.36725609762019573 
7.968128992715872 1:0.29062424074296445 2:-0.7701773677982365 3:0.6734574677165599 
7.968128992715872 1:0.4968537965679042 2:-0.30523135731494266 3:0.5817159642977183 
3.3665446902185625 1:-0.8092271278987625 2:-0.7701773677982365 3:1.4191086436932605 
7.968128992715872 1:-0.6612429320216924 2:-0.6845294184986824 3:-0.5953370982064753 
7.968128992715872 1:-0.8084599600884362 2:1.0332605514919293 3:-0.05184212364339284 
7.968128992715872 1:-0.29348990583485957 2:-0.291574284019271 3:-0.5109302038956356 
7.968128992715872 1:-0.6469785602193674 2:-0.7701773677982365 3:1.6474407150908805 
7.968128992715872 1:-0.7349751827986654 2:-0.08789631283476304 3:-0.18116214016318638 
7.968128992715872 1:-0.8091231890341376 2:0.06345038616955927 3:0.1598064723524433 
7.968128992715872 1:-0.8089821291464324 2:0.20332514360551762 3:-0.09981949434436392 
7.968128992715872 1:0.9188307385355742 2:-0.30681097061179136 3:0.17663050626302745 
7.968128992715872 1:-0.701660301951528 2:0.38381570793669956 3:0.1598064723524433 
7.968128992715872 1:-0.5772504304653234 2:-0.578629510389113 3:0.2842313961211149 
7.968128992715872 1:-0.8091900068756822 2:0.44363697983277645 3:-0.5133857636989292 
7.968128992715872 1:-0.10219042549281808 2:-0.7671366122018026 3:1.032020465025755 
7.968128992715872 1:-0.11125537932902851 2:-0.3985799214366345 3:-0.18388118080668975 
7.968128992715872 1:-0.18742276922006929 2:-0.3306433862279972 3:-0.675296092170136 
7.968128992715872 1:-0.46791416908459443 2:-0.7701773677982365 3:-0.4504964989901426 
7.968128992715872 1:-0.8075913281483571 2:1.514108002496834 3:-1.9873195834296218 
7.968128992715872 1:0.05690038048987895 2:0.7890457540770399 3:0.21125601317620016 
7.968128992715872 1:-0.7061420468047568 2:-0.3647103796633689 3:0.7361002904884107 
7.968128992715872 1:-0.8087049588407663 2:0.30956730126273746 3:1.162653339826932 
7.968128992715872 1:-0.8048790187286228 2:2.9781462597928323 3:1.078787974048581 
7.968128992715872 1:-0.8073067336380747 2:0.7069848433057465 3:-1.8319601740614961 
7.968128992715872 1:-0.5730310075085288 2:-0.7701773677982365 3:-2.019198658044661 
7.968128992715872 1:-0.7195922308341872 2:0.019570045127514635 3:-1.0893112959781512 
7.968128992715872 1:-0.8047825040686141 2:-0.23013390849392423 3:-1.899872480909963 
7.968128992715872 1:-0.38727245854494086 2:-0.7155556563376202 3:1.162653339826932 
7.968128992715872 1:-0.7140735720695819 2:-0.26556331839782804 3:-0.007193179094451459 
7.968128992715872 1:-0.6124683824290443 2:0.0713945247082946 3:1.5049275769707537 
7.968128992715872 1:-0.4115322844953559 2:-0.7647013750358275 3:-0.978956275622203 
7.968128992715872 1:-0.7743457398776363 2:0.019109324582600406 3:-0.3143771471075574 
7.968128992715872 1:-0.42628665380234093 2:1.2232551224924848 3:-1.3969202245252998 
7.968128992715872 1:-0.6211769744436837 2:-0.7584619025132748 3:0.6692260792366904 
7.968128992715872 1:-0.7229281734416705 2:-0.6826667911528148 3:1.4029929437032056 
7.968128992715872 1:-0.04780070247555588 2:-0.7701773677982365 3:-0.890173502268092 
7.968128992715872 1:-0.39164531506380074 2:-0.6978047519142822 3:-1.3429051425060352 
7.968128992715872 1:-0.7205573774342751 2:-0.5097254620361559 3:-1.2684742025386853 
7.968128992715872 1:-0.0674773194429894 2:3.6407677109326086 3:-0.41925678972609953 
7.968128992715872 1:-0.26684938493756094 2:-0.2555591008511192 3:0.035724732336667446 
7.968128992715872 1:-0.36469297757262764 2:-0.7046629063114339 3:1.6802804055769702 
7.968128992715872 1:-0.8091207142992656 2:1.1947891745388561 3:-1.4880854081943544 
7.968128992715872 1:0.00643806171451299 2:-0.4771656829548606 3:-0.026345205011567466 
7.968128992715872 1:-0.8086430904689657 2:0.12511454024529306 3:0.11992241479717974 
7.968128992715872 1:-0.8091454616479857 2:0.17702458221298548 3:-0.7674042389419025 
7.968128992715872 1:-0.6551204379483142 2:-0.7619897055429038 3:-1.254951169943605 
7.968128992715872 1:-0.737009414863466 2:1.4012380507149196 3:-0.08179769355649805 
7.968128992715872 1:-0.4792930000261438 2:-0.3304261893996805 3:-0.5660390773230305 
7.968128992715872 1:0.29062424074296445 2:-0.5699679641447256 3:-0.09981949434436392 
7.968128992715872 1:-0.6416455065701637 2:-0.3529422606018456 3:-0.3403624036935884 
7.968128992715872 1:-0.8091949563454263 2:0.450297682567822 3:-0.6882442816097729 
7.968128992715872 1:-0.8088781902818076 2:2.1488097886148085 3:-0.08179769355649805 
7.968128992715872 1:-0.5206581934119632 2:-0.7282649616551826 3:0.24662194090272788 
7.968128992715872 1:-0.005772280144035166 2:-0.2675904887954506 3:0.21916948044898585 
7.968128992715872 1:-0.8089054123653999 2:0.26762856823140263 3:1.4974889923936 
7.968128992715872 1:-0.8072324915919141 2:0.532213795453571 3:1.4948766647256164 
7.968128992715872 1:-0.1905731067121512 2:-0.7563228428404588 3:-1.0122838229250153 
7.968128992715872 1:-0.8091949563454263 2:-0.7303118772190157 3:0.02164027866282236 
7.968128992715872 1:-0.6752251840486072 2:-0.7422906113867855 3:0.8780779889538505 
7.968128992715872 1:-0.7469083543515472 2:-0.6798563958288381 3:1.6738162239483942 
7.968128992715872 1:-0.6442736750042491 2:-0.09655127735708031 3:-2.1210454090623134 
7.968128992715872 1:-0.6442736750042491 2:-0.7536638271240967 3:-0.019677518818668294 
7.968128992715872 1:-0.7453344229729423 2:-0.5562319101842115 3:2.6060382144005105 
7.968128992715872 1:-0.7814507036952065 2:-0.4364774771168645 3:-0.9404007547938866 
7.968128992715872 1:-0.618892794156809 2:-0.7701773677982365 3:1.6738162239483942 
7.968128992715872 1:-0.7446984161108332 2:-0.35735859611095194 3:-0.48288937866408604 
7.968128992715872 1:-0.505891450430618 2:-0.7059068517827024 3:0.21125601317620016 
7.968128992715872 1:0.19498316214399586 2:-0.10170476573804936 3:0.17562622301766614 
7.968128992715872 1:-0.7904438902201284 2:0.12789860868098887 3:-0.8490607854909541 
7.968128992715872 1:-0.8092023805500422 2:0.5886718073717739 3:1.2995714297039902 
7.968128992715872 1:0.5663270286301302 2:-0.6777502447663731 3:-0.1971636778422107 
7.968128992715872 1:0.5135953779771216 2:-0.6338106682256965 3:-0.9895396577423919 
7.968128992715872 1:-0.4185085620995811 2:-0.05273017181366739 3:-0.08320920161282544 
7.968128992715872 1:-0.8086084441807574 2:0.140015559012233 3:-0.5632827236381802 
7.968128992715872 1:-0.486264328160625 2:-0.7418430542860117 3:0.4105123657984276 
7.968128992715872 1:-0.7219135321441422 2:-0.61869903435251 3:0.7347397000505332 
7.968128992715872 1:1.5465002188609551 2:1.5978801610063802 3:0.2726898204082379 
7.968128992715872 1:-0.7852494217237578 2:0.020603375492536564 3:-0.9404007547938866 
7.968128992715872 1:0.09064586520474788 2:-0.7037480469436757 3:-1.7997059781192644 
7.968128992715872 1:-0.11633106055154208 2:0.051116239009998565 3:-0.42143237728718264 
7.968128992715872 1:-0.809170208996706 2:0.30048452480585713 3:0.38775751604549435 
7.968128992715872 1:0.307875617535818 2:1.2534323181843663 3:0.186579881908323 
7.968128992715872 1:-0.6442736750042491 2:-0.7701773677982365 3:-1.4572167720662683 
7.968128992715872 1:-0.6967677511095438 2:-0.6124398166637468 3:-0.5092868041634936 
7.968128992715872 1:-0.618892794156809 2:-0.3985799214366345 3:0.07019660707426309 
7.968128992715872 1:-0.7624373156734746 2:-0.3828496056888489 3:-0.0734225997552825 
7.968128992715872 1:-0.4215970312198624 2:-0.3928669866796981 3:0.39491264428142353 
7.968128992715872 1:-0.4219880393296417 2:-0.5248436776314125 3:0.47048724804564956 
7.968128992715872 1:-0.6790065789330542 2:0.10909462872641837 3:-0.48288937866408604 
7.968128992715872 1:1.3355142226119923 2:-0.49201404794523906 3:0.27031794534507514 
7.968128992715872 1:-0.040082004409724606 2:-0.6877873709234329 3:-0.4159733250423002 
7.968128992715872 1:-0.6732825171740712 2:-0.7145157442505281 3:-1.1796951621478036 
7.968128992715872 1:-0.37253788711693203 2:-0.7000491191402215 3:0.005688364508328865 
7.968128992715872 1:-0.636322351860448 2:-0.5795575332010117 3:0.4590041056505241 
7.968128992715872 1:-0.7537336731285792 2:-0.16492220622235101 3:-0.19406609813629122 
7.968128992715872 1:0.21650345659108436 2:0.396235417483173 3:-0.09981949434436392 
7.968128992715872 1:-0.5069506369558426 2:0.5895011043526195 3:-1.2341841811786818 
7.968128992715872 1:-0.8091256637690096 2:1.215166186068205 3:-0.007193179094451459 
7.968128992715872 1:0.5232938639405692 2:0.3138914926628609 3:-0.4714627616277288 
7.968128992715872 1:-0.6498418284662949 2:0.014699570795564243 3:0.5128043680791435 
7.968128992715872 1:-0.8092246531638905 2:-0.7701773677982365 3:0.5128043680791435 
7.968128992715872 1:-0.8073166325775628 2:0.999206721500698 3:0.7482957154496143 
7.968128992715872 1:-0.7080178958377482 2:-0.6897750509886342 3:0.4761553960042256 
7.968128992715872 1:-0.7628926668899264 2:-0.3353756443964733 3:-0.6921351574793242 
7.968128992715872 1:-0.5849691285311547 2:-0.6227073030932638 3:1.3890394589703983 
7.968128992715872 1:-0.6442736750042491 2:-0.7701773677982365 3:1.8470478833019397 
7.968128992715872 1:-0.5787204229793034 2:-0.7701773677982365 3:-0.9758650170673522 
7.968128992715872 1:-0.6178410318362004 2:-0.5574824373775502 3:1.4191086436932605 
7.968128992715872 1:-0.8091999058151703 2:-0.711600041373428 3:0.035724732336667446 
7.968128992715872 1:0.4560206711795693 2:-0.7701773677982365 3:-0.019677518818668294 
7.968128992715872 1:-0.8088014735007749 2:1.160182479893728 3:0.14372363902975485 
7.968128992715872 1:-0.6545858952159579 2:1.5536970607491063 3:-0.585342130636937 
7.968128992715872 1:-0.7903646987042238 2:0.6059883181384785 3:-0.4159733250423002 
7.968128992715872 1:1.107177860175295 2:1.8791303085103033 3:0.722944133519523 
7.968128992715872 1:-0.7581411759356474 2:0.6384164627783697 3:-1.0158550575964373 
7.968128992715872 1:0.14852496439155863 2:-0.6366539721600244 3:1.2658638667444178 
7.968128992715872 1:-0.8087792008869268 2:0.3664926154479248 3:-0.7420338594680823 
7.968128992715872 1:-0.7426790324552646 2:0.25516936835250814 3:-1.6956042186739535 
7.968128992715872 1:-0.008608326307370384 2:-0.7701773677982365 3:-0.10344224390835306 
7.968128992715872 1:0.4281106112929243 2:-0.7480891085306346 3:0.14066775237537177 
7.968128992715872 1:0.01565397437791661 2:-0.7223743204023507 3:-0.48288937866408604 
7.968128992715872 1:-0.80916278479209 2:0.49161115200248745 3:-1.9864618148432802 
7.968128992715872 1:0.18063712409089416 2:-0.15029103806028932 3:0.6982750036315694 
7.968128992715872 1:-0.24185456273015588 2:-0.011502264765914651 3:-0.6445983925760643 
2.164241221091475 1:-0.8092246531638905 2:-0.7701773677982365 3:0.5817159642977183 
7.968128992715872 1:-0.6456372539187324 2:1.773559486504244 3:0.7915226000994998 
7.968128992715872 1:-0.7316417149260539 2:-0.06832885312004902 3:1.2995714297039902 
7.968128992715872 1:-0.8091776332013222 2:2.2624432201568667 3:0.7361002904884107 
7.968128992715872 1:-0.6069942688921354 2:-0.7321876680090237 3:0.32853969533215654 
7.968128992715872 1:-0.7233711509837621 2:-0.5368553204095333 3:-0.767724427641305 
7.968128992715872 1:-0.5173865939111523 2:-0.7610221923985838 3:-0.05184212364339284 
7.968128992715872 1:-0.8090786438064412 2:0.9123411536181563 3:2.6380162042456567 
7.968128992715872 1:-0.6540216556651371 2:-0.6895841810485984 3:-0.36725609762019573 
7.968128992715872 1:-0.6461445745674966 2:-0.737150286449957 3:1.5049275769707537 
7.968128992715872 1:-0.36507408674291875 2:-0.7511364458491386 3:0.36976801783277374 
7.968128992715872 1:-0.8076383481109255 2:0.2505292542930148 3:-1.2865153649625014 
7.968128992715872 1:-0.7705890923419095 2:0.31778787212842124 3:0.6734574677165599 
7.968128992715872 1:-0.8092246531638905 2:-0.7135219042179274 3:-0.4504964989901426 
7.968128992715872 1:-0.18626706803483584 2:-0.07228446808424108 3:0.722944133519523 
7.968128992715872 1:-0.8092073300197863 2:-0.711758002703113 3:-0.019677518818668294 
7.968128992715872 1:-0.805515025590732 2:0.2669967229126632 3:-1.4202083073368783 
7.968128992715872 1:-0.524803374322597 2:-0.7507547059690669 3:0.29481250528147096 
7.968128992715872 1:-0.5342865583521789 2:-0.7302065696658926 3:0.07684017002922565 
7.968128992715872 1:-0.8085391516043408 2:0.34494405739007955 3:2.003203409294804 
7.968128992715872 1:-0.6938970586580003 2:0.6337171132202446 3:2.6060382144005105 
7.968128992715872 1:0.6542964291258359 2:-0.6675880658899793 3:0.11992241479717974 
7.968128992715872 1:-0.7176000692622109 2:-0.5994014252426743 3:-1.899872480909963 
7.968128992715872 1:0.4281106112929243 2:-0.6826141373762533 3:0.15571906011659753 
7.968128992715872 1:-0.4494724448182991 2:-0.43350912046320283 3:0.035724732336667446 
7.968128992715872 1:0.8700264921244618 2:-0.40362810226448037 3:0.07019660707426309 
7.968128992715872 1:-0.5342865583521789 2:-0.7701773677982365 3:-0.7311656107761154 
7.968128992715872 1:-0.7704678303331804 2:0.12268588480138803 3:-0.23515255144324113 
7.968128992715872 1:-0.8083857180422755 2:0.7352730847634797 3:-0.48288937866408604 
7.968128992715872 1:-0.8074651166698841 2:0.44577603950559247 3:-1.0158550575964373 
7.968128992715872 1:-0.80770516595247 2:0.17878848372780007 3:-0.3403624036935884 
7.968128992715872 1:-0.151905374336834 2:0.7945020016732384 3:0.171802888896147 
7.968128992715872 1:-0.8092023805500422 2:-0.7237169917046722 3:0.10642556271754863 
7.968128992715872 1:-0.8082446581545705 2:0.9265313464015144 3:0.38775751604549435 
7.968128992715872 1:0.8068960055392238 2:-0.6102086128819479 3:1.277840623015113 
7.968128992715872 1:-0.49991496571468896 2:-0.7214133889801011 3:1.5049275769707537 
7.968128992715872 1:0.5917846262586032 2:-0.016089725048846298 3:0.21916948044898585 
7.968128992715872 1:-0.8092395015731226 2:0.48223877977451823 3:-0.08320920161282544 
7.968128992715872 1:-0.6561796244735388 2:-0.7653463837987073 3:-0.18440067656065057 
7.968128992715872 1:-0.6303607155537512 2:-0.7561780449549143 3:-0.397030063019924 
7.968128992715872 1:-0.11570000315917703 2:-0.6468424779246988 3:1.6738162239483942 
7.968128992715872 1:-0.6425908552912755 2:-0.30317127830696905 3:-1.8009134009280998 
7.968128992715872 1:-0.22856276173253487 2:-0.7701773677982365 3:-0.09981949434436392 
7.968128992715872 1:-0.8058961347610231 2:0.05693448132005816 3:-0.16731898523249453 
7.968128992715872 1:-0.8091677342618341 2:0.2692476718606728 3:-0.269935473268064 
7.968128992715872 1:-0.5754166519251563 2:0.1293202606481529 3:-0.4714627616277288 
7.968128992715872 1:-0.7993059157968331 2:-0.006329031218734884 3:0.38775751604549435 
7.968128992715872 1:-0.49991496571468896 2:-0.7643459620440365 3:1.9668055909859643 
7.968128992715872 1:-0.7850539176688681 2:-0.017445559795308138 3:-0.9335433677051397 
7.968128992715872 1:-0.808680211492046 2:0.2015349152024222 3:0.21916948044898585 
7.968128992715872 1:-0.5566680605347305 2:-0.7311411741998614 3:-0.5921685756082483 
7.968128992715872 1:-0.8086727872874299 2:0.8951365321266451 3:-0.9154608440487411 
7.968128992715872 1:-0.5945537766904894 2:-0.7666166561582566 3:1.6474407150908805 
7.968128992715872 1:-0.8089969775556646 2:1.6283008804148593 3:-1.6629626904670318 
7.968128992715872 1:-0.7549512426856132 2:-0.5208617357789397 3:-0.23515255144324113 
7.968128992715872 1:0.39171716026499376 2:1.031082001486692 3:0.18311308725258751 
7.968128992715872 1:-0.20181830197061143 2:-0.592622251510365 3:0.24061800875392447 
7.968128992715872 1:-0.2789557879314843 2:-0.7701773677982365 3:-0.5724675220502895 
7.968128992715872 1:-0.3433013693388841 2:-0.39695423608529434 3:-0.7377715122798295 
7.968128992715872 1:1.079356890744043 2:0.6504544324447714 3:0.4123113720289216 
7.968128992715872 1:-0.7084336512962476 2:-0.5281608655547949 3:-0.7420338594680823 
7.968128992715872 1:0.5796237790974952 2:1.4263539021348148 3:1.4948766647256164 
7.968128992715872 1:-0.7626130218493882 2:-0.39730964907708527 3:-1.7252738767855764 
7.968128992715872 1:-0.7989718265891104 2:0.16174840528804396 3:-0.49026788741966676 
7.968128992715872 1:-0.8091157648295216 2:1.1232458556357474 3:0.7361002904884107 
7.968128992715872 1:0.46155417835340673 2:-0.57173186565954 3:-0.554206629115313 
7.968128992715872 1:-0.6545858952159579 2:-0.7701773677982365 3:-0.12384018363293697 
7.968128992715872 1:-0.8012832289595773 2:2.2013450941791706 3:0.5817159642977183 
7.968128992715872 1:0.15929006108484697 2:-0.5979863549975806 3:-0.31232275641932444 
7.968128992715872 1:-0.8092395015731226 2:1.1745503791729814 3:0.7347397000505332 
7.968128992715872 1:-0.808551525278701 2:0.4483560745571121 3:-0.6200480704644942 
7.968128992715872 1:-0.7762339625849878 2:-0.624754218657097 3:1.4974889923936 
7.968128992715872 1:-0.7155014940907376 2:-0.22969951483729084 3:0.030742785974406515 
7.968128992715872 1:-0.8089945028207925 2:1.5156152168509105 3:-1.6792287708069178 
7.968128992715872 1:0.8634412226300157 2:-0.7205248565006237 3:-0.1971636778422107 
7.968128992715872 1:-0.049567663174178496 2:0.5894879409084791 3:0.24061800875392447 
7.968128992715872 1:-0.6855200811162117 2:0.1025984690431279 3:0.11992241479717974 
7.968128992715872 1:-0.8084277885351 2:1.6408061523482456 3:0.7841916078180932 
7.968128992715872 1:-0.8092395015731226 2:-0.7107180906160209 3:-0.4714627616277288 
7.968128992715872 1:-0.752483932018209 2:-0.45946743230808423 3:-0.026345205011567466 
7.968128992715872 1:-0.1905731067121512 2:-0.25950155237117084 3:-0.6575846748315897 
7.968128992715872 1:-0.06683636311113612 2:-0.27805542688707363 3:0.957777682996118 
7.968128992715872 1:0.18063712409089416 2:-0.7667746174879414 3:0.1598064723524433 
7.968128992715872 1:-0.7052907380087817 2:-0.5366381235812167 3:0.24061800875392447 
7.968128992715872 1:-0.8092221784290184 2:0.8916745463177185 3:1.6738162239483942 
7.968128992715872 1:0.8162752507041806 2:-0.34762422916912145 3:-0.019677518818668294 
7.968128992715872 1:-0.8089128365700159 2:0.7844517120720381 3:0.9265787376905407 
7.968128992715872 1:-0.5959099314003564 2:-0.7683542307847903 3:-0.4714627616277288 
7.968128992715872 1:-0.4627939426343844 2:-0.7069862542022156 3:0.07019660707426309 
7.968128992715872 1:0.44149150274593824 2:0.43849665489594775 3:0.10642556271754863 
7.968128992715872 1:0.7273431783432591 2:0.8905293266775031 3:-1.0122838229250153 
7.968128992715872 1:-0.8090786438064412 2:0.5012928651677564 3:-0.14443120880669688 
7.968128992715872 1:-0.8092122794895303 2:0.0792991729146085 3:-0.026345205011567466 
7.968128992715872 1:-0.804292506563954 2:0.23386433401126028 3:1.7460499749407732 
7.968128992715872 1:-0.8088286955843673 2:0.09968276616602789 3:0.6692260792366904 
7.968128992715872 1:-0.6493914267195872 2:-0.7019512368185102 3:0.2881569636622788 
7.968128992715872 1:-0.8021667093088886 2:0.04547570319583436 3:0.7008946147255873 
7.968128992715872 1:-0.5033894934750055 2:-0.6617632418578495 3:-0.7097859514950237 
7.968128992715872 1:-0.7736503393785986 2:0.2923495163270859 3:-0.44754606439925504 
7.968128992715872 1:-0.0911184616753993 2:-0.08328252566355066 3:-0.4504964989901426 
7.968128992715872 1:-0.3660219101989025 2:-0.7620818496518866 3:0.6982750036315694 
7.968128992715872 1:-0.5570541191747657 2:-0.7701773677982365 3:1.6474407150908805 
7.968128992715872 1:-0.8091330879736257 2:0.3807420437299147 3:-1.5436953116509349 
7.968128992715872 1:0.01059314156463518 2:-0.7701773677982365 3:1.6802804055769702 
7.968128992715872 1:-0.4963216506805155 2:-0.6374240336422382 3:0.4123113720289216 
7.968128992715872 1:-0.8086554641433258 2:0.24821248812430333 3:0.4572180237682778 
7.968128992715872 1:-0.7168378509216285 2:1.011639594491312 3:0.19311830802779642 
7.968128992715872 1:-0.6678430499253706 2:-0.7061964475537912 3:-1.5661147256235417 
7.968128992715872 1:-0.39303611606187616 2:0.9505546319577559 3:-0.6988651924536289 
7.968128992715872 1:-0.4557236251050224 2:-0.7139826247628416 3:0.8780779889538505 
7.968128992715872 1:-0.76139050282261 2:0.8422589770146328 3:1.6802804055769702 
7.968128992715872 1:-0.4169197823117441 2:-0.7701773677982365 3:0.07684017002922565 
7.968128992715872 1:-0.3333455109487465 2:-0.7701773677982365 3:1.4029929437032056 
7.968128992715872 1:-0.774912454163329 2:0.3508017900325604 3:0.38775751604549435 
7.968128992715872 1:-0.5735680249757572 2:-0.7314702603033716 3:-0.5912231902271741 
7.968128992715872 1:-0.8071211285226731 2:0.4601373570627759 3:0.8996697966830095 
7.968128992715872 1:-0.8073290062519229 2:2.4027918615818797 3:-1.5160702555684098 
7.968128992715872 1:-0.6948176600303919 2:-0.6376083218602039 3:-0.708933641330471 
3.502550102137774 1:-0.8092395015731226 2:-0.7701773677982365 3:0.6446046980961787 
7.968128992715872 1:-0.8062227997641298 2:0.8194598917634488 3:-0.6009354480481339 
7.968128992715872 1:-0.37084269372959805 2:-0.26660981220699037 3:1.032020465025755 
7.968128992715872 1:-0.38879194575636133 2:-0.7303447858293668 3:-0.4127245520301134 
7.968128992715872 1:1.5710693866703729 2:-0.27203973291490796 3:0.6734574677165599 
7.968128992715872 1:-0.8060668914671926 2:0.3155237597362713 3:0.8693617520863042 
5.554080964199737 1:-0.8092221784290184 2:-0.7701773677982365 3:-1.595054348855062 
7.968128992715872 1:-0.3452440362134201 2:-0.3208037117330434 3:-0.6988651924536289 
7.968128992715872 1:-0.6653757392579664 2:-0.23784110503813222 3:1.6802804055769702 
7.968128992715872 1:-0.8028621098079263 2:0.7389456856786532 3:-1.4167791777245305E-4 
7.968128992715872 1:0.37889803362792857 2:-0.1759334272458009 3:0.1598468879010075 
7.968128992715872 1:0.18063712409089416 2:-0.7701773677982365 3:0.3482641255354053 
7.968128992715872 1:1.5957424933444153 2:-0.506559653720388 3:-0.3423152743729274 
7.968128992715872 1:-0.6823474710102816 2:-0.7701773677982365 3:-1.0204409282645774 
7.968128992715872 1:-0.8092122794895303 2:-0.7701773677982365 3:0.5568108945427146 
7.968128992715872 1:-0.7298698047576874 2:0.8189136088316219 3:-1.7833871385657354 
7.968128992715872 1:-0.6595749607179509 2:-0.767636823079138 3:-0.989643235028799 
7.968128992715872 1:0.060555563895852954 2:2.067643992045063 3:8.629205555950524E-4 
7.968128992715872 1:-0.7093146569106868 2:-0.6204366089790437 3:-1.4880854081943544 
7.968128992715872 1:-0.7642611952741537 2:-0.187629147364552 3:-0.9926187053597455 
7.968128992715872 1:-0.6592730430635643 2:-0.7423103565529962 3:0.886397868081165 
7.968128992715872 1:-0.7708142932152634 2:-0.38485703092026086 3:-0.03223842576645875 
7.968128992715872 1:-0.6442736750042491 2:-0.6178763190937346 3:0.27031794534507514 
7.968128992715872 1:-0.7443767005774705 2:0.19671051292496336 3:-1.2614089142844787 
7.968128992715872 1:-0.1343298072757458 2:-0.2959182205856052 3:-0.6554205847972533 
7.968128992715872 1:-0.8092221784290184 2:-0.7701773677982365 3:-1.662346552442797 
7.968128992715872 1:0.01565397437791661 2:-0.5956959157171499 3:-1.3123196143092724 
7.968128992715872 1:-0.3843027766985165 2:-0.7701773677982365 3:-1.0979327985344072 
7.968128992715872 1:-0.6183681503639407 2:-0.5830853362306405 3:0.722944133519523 
7.968128992715872 1:-0.6549100854841925 2:-0.19569833862262115 3:-0.5821334579453086 
7.968128992715872 1:-0.809046472253105 2:2.0006618065366046 3:0.07019660707426309 
7.968128992715872 1:-0.8087148577802542 2:0.35043979531869923 3:-1.7833871385657354 
7.968128992715872 1:-0.8040747298952162 2:0.4087341076944889 3:-1.5165186093386906 
7.968128992715872 1:-0.662777267642345 2:-0.7197745401846205 3:-0.6882442816097729 
7.968128992715872 1:-0.8091974310802982 2:0.2779487084374813 3:-0.7828092822787527 
7.968128992715872 1:-0.6088552695158947 2:-0.6554579521145949 3:-0.3403624036935884 
7.968128992715872 1:-0.7152787679522558 2:-0.2975175790486645 3:0.4095409326294852 
7.968128992715872 1:-0.8068761297703432 2:0.14004188590051386 3:0.722944133519523 
7.968128992715872 1:-0.8092048552849144 2:0.20544445811212297 3:0.8693617520863042 
7.968128992715872 1:-0.636198615116847 2:-0.3009927283017318 3:-1.785794037119464 
7.968128992715872 1:-0.8086307167946056 2:0.20505613650998097 3:-0.9139827067465045 
7.968128992715872 1:-0.28979512667093316 2:1.7183125114469584 3:-0.978956275622203 
7.968128992715872 1:-0.804896341872727 2:0.07450767924750072 3:0.6704641621168504 
7.968128992715872 1:-0.4387122975947549 2:1.1557924712729022 3:0.957777682996118 
7.968128992715872 1:-0.6967677511095438 2:-0.4513719141617343 3:0.19173525344675102 
7.968128992715872 1:-0.6566993187966632 2:-0.5816307756531256 3:-0.15078569108916914 
7.968128992715872 1:0.6971043929420431 2:-0.7158452521087092 3:-0.6200480704644942 
7.968128992715872 1:-0.8051858858527533 2:0.5581786890205226 3:-0.269935473268064 
7.968128992715872 1:-0.6744827635870011 2:-0.6044890964029414 3:1.6802804055769702 
7.968128992715872 1:-0.8034684198515712 2:1.432929042482948 3:0.21125601317620016 
7.968128992715872 1:0.19116712097134045 2:-0.7701773677982365 3:-0.7725851605397679 
7.968128992715872 1:-0.8091924816105541 2:-0.730285550330735 3:-0.03394860406303933 
7.968128992715872 1:-0.8089573817977123 2:0.8543430187355256 3:-0.08179769355649805 
7.968128992715872 1:-0.5767307361421992 2:-0.6242605895018318 3:-0.36725609762019573 
7.968128992715872 1:-0.4431717698341354 2:0.23342994035462697 3:-1.4169663863860862 
7.968128992715872 1:-0.8091875321408102 2:0.43761470413854053 3:-1.7408497405198071 
7.968128992715872 1:-0.770284699952651 2:0.8550801716073885 3:-0.6921351574793242 
7.968128992715872 1:-0.8081060730017373 2:0.15953036495038544 3:0.11992241479717974 
7.968128992715872 1:-0.7470271416254042 2:-0.6329418809124296 3:1.5049275769707537 
7.968128992715872 1:-0.7729970093723852 2:-0.3393115141944548 3:-1.133055303876478 
7.968128992715872 1:-0.8047429083106618 2:0.6030331249289573 3:0.43757908671845736 
7.968128992715872 1:-0.14107840927174511 2:-0.601369360141665 3:1.8470478833019397 
7.968128992715872 1:-0.791602066140234 2:0.2981282683047244 3:-0.7753670642840554 
7.968128992715872 1:-0.8091429869131138 2:0.0608242790635483 3:0.5568108945427146 
7.968128992715872 1:-0.6914124248464919 2:-0.48745291455058826 3:3.3541242944506346 
7.968128992715872 1:0.4281106112929243 2:-0.7701773677982365 3:0.8693617520863042 
7.968128992715872 1:-0.15004684844794675 2:-0.6547931981855043 3:0.24662194090272788 
7.968128992715872 1:-0.7905280312057771 2:0.14655779075001496 3:0.1598064723524433 
7.968128992715872 1:0.8970332737828192 2:1.8648216447296815 3:-1.2929464476504424 
7.968128992715872 1:-0.7573170892232646 2:-0.46481837235115947 3:-0.978956275622203 
7.968128992715872 1:-0.629742031835746 2:-0.11707308677197382 3:0.5797411769764851 
7.968128992715872 1:-0.7441317018251404 2:-0.5621686234915348 3:-1.4167791777245305E-4 
7.968128992715872 1:-0.8092122794895303 2:0.4423930343615081 3:1.6738230096459978 
7.968128992715872 1:-0.41329924519397837 2:-0.5597004777152086 3:0.7685567798557844 
7.968128992715872 1:-0.7414886849818227 2:1.0585343642415097 3:2.598623122605281 
7.968128992715872 1:0.048520928213218205 2:-0.7701773677982365 3:-0.09334462814547795 
7.968128992715872 1:-0.6742996332064717 2:-0.645197047407148 3:-0.4159733250423002 
7.968128992715872 1:-0.4824062164951453 2:-0.7701773677982365 3:0.32853969533215654 
7.968128992715872 1:-0.6586791066942794 2:-0.500952026516575 3:-0.6109772020901483 
7.968128992715872 1:1.4297892475616056 2:-0.7396184322262831 3:0.02164027866282236 
7.968128992715872 1:-0.7535703406270259 2:-0.3692188592814581 3:-0.019677518818668294 
7.968128992715872 1:-0.5775102776268856 2:-0.6964160085574693 3:0.6982750036315694 
7.968128992715872 1:-0.767235826590322 2:0.5378609129898053 3:-1.2341841811786818 
7.968128992715872 1:-0.7861279526033249 2:2.1492573457155824 3:-0.2781638035460446 
7.968128992715872 1:-0.6324889875436885 2:-0.7701773677982365 3:1.4974889923936 
7.968128992715872 1:-0.7607322233466526 2:0.12066529612583564 3:-1.151814273651952 
7.968128992715872 1:-0.8092122794895303 2:2.130578418480346 3:-0.49026788741966676 
7.968128992715872 1:0.862505772848392 2:-0.15780078294239117 3:0.19173525344675102 
7.968128992715872 1:-0.6741461996444064 2:0.2542545089847499 3:2.6380162042456567 
7.968128992715872 1:-0.5604742027678978 2:-0.01685320480898981 3:2.598623122605281 
7.968128992715872 1:1.3464080055186258 2:-0.4037070829293228 3:0.6210604842342157 
7.968128992715872 1:-0.44657947975290746 2:-0.703984988938203 3:-1.2614089142844787 
7.968128992715872 1:-0.6724633799314326 2:1.624207049287193 3:1.162653339826932 
7.968128992715872 1:1.170531072899015 2:-0.24508758103742587 3:-1.4164819307136391 
7.968128992715872 1:-0.804648868385525 2:0.6451956365106789 3:0.30797536499322403 
7.968128992715872 1:-0.5300547617210242 2:-0.737768968324556 3:0.02164027866282236 
7.968128992715872 1:-0.8086232925899896 2:2.5933656241246132 3:-0.7674042389419025 
7.968128992715872 1:-0.8082471328894424 2:0.31158130821621965 3:-0.3143771471075574 
7.968128992715872 1:-0.011738865920476106 2:-0.6652383911109168 3:-0.951133521807045 
7.968128992715872 1:-0.492720911441726 2:-0.7490500399528842 3:0.3692215120159793 
7.968128992715872 1:-0.8092246531638905 2:0.714257646193321 3:-0.9554404820536266 
7.968128992715872 1:-0.8022459008247933 2:0.871356770287001 3:-0.5647830098555784 
7.968128992715872 1:-0.10219042549281808 2:-0.7701773677982365 3:-0.6109772020901483 
7.968128992715872 1:-0.4071124080139276 2:-0.10621324535613857 3:-1.414922730041006 
7.968128992715872 1:-0.68045924830293 2:0.07843696732341193 3:-1.0966748894717615 
7.968128992715872 1:-0.19785130197076292 2:-0.5850598528517016 3:-0.33258713901503156 
7.968128992715872 1:-0.618892794156809 2:-0.7701773677982365 3:-0.9309545991828712 
7.968128992715872 1:-0.8076185502319493 2:0.037663199098503214 3:0.45723194357338703 
7.968128992715872 1:1.3536664028982612 2:-0.15406236480651578 3:-0.18388118080668975 
7.968128992715872 1:-0.16418253403692668 2:-0.6523118889650377 3:-1.1161474856800766 
7.968128992715872 1:0.8453756580642675 2:-0.47852151770132256 3:-0.5921685756082483 
7.968128992715872 1:-0.6855200811162117 2:-0.6840489527875575 3:2.598623122605281 
7.968128992715872 1:-0.6498418284662949 2:-0.012673811294410803 3:-0.6833628266176496 
7.968128992715872 1:-0.6058855876694703 2:-0.7701773677982365 3:-1.1821627503881698 
7.968128992715872 1:-0.7563766899718969 2:0.8489789152483103 3:0.18311308725258751 
7.968128992715872 1:-0.22696655774008176 2:-0.7667877809320819 3:0.6210604842342157 
7.968128992715872 1:0.16189595690508443 2:-0.5861919090477764 3:-0.2781638035460446 
7.968128992715872 1:-0.8065172932139002 2:0.6849755647029871 3:0.38775751604549435 
7.968128992715872 1:-0.584281152236733 2:-0.7373214112237821 3:1.032020465025755 
7.968128992715872 1:-0.8092395015731226 2:-0.7701773677982365 3:0.7102536678612485 
7.968128992715872 1:-0.7604600025107304 2:-0.5965910299186975 3:1.4191086436932605 
7.968128992715872 1:-0.8083980917166357 2:0.9912494195178222 3:-0.42143237728718264 
7.968128992715872 1:-0.49991496571468896 2:-0.7549209360395055 3:0.32812809051100117 
7.968128992715872 1:-0.388024777946035 2:-0.7619502152104825 3:1.5049275769707537 
7.968128992715872 1:-0.7616651983934043 2:0.7838330301974389 3:-1.0122838229250153 
7.968128992715872 1:0.3587586412394274 2:-0.06601208695133746 3:-1.7697135265294521 
7.968128992715872 1:-0.7510906562852615 2:1.2460805346319495 3:0.18311308725258751 
7.968128992715872 1:0.5769337422916092 2:1.564537156998731 3:0.7915226000994998 
7.968128992715872 1:-0.6928279731932876 2:-0.35793120593105965 3:-0.3447075065289013 
7.968128992715872 1:-0.8092395015731226 2:1.8373824454190042 3:-0.19406609813629122 
7.968128992715872 1:-0.744933515923675 2:-0.07806980178394972 3:-1.3653675768059934 
7.968128992715872 1:0.20215741853798266 2:0.04085533430255176 3:-0.4159733250423002 
7.968128992715872 1:-0.6397053144304998 2:-0.6687727758626159 3:-0.7553307408552472 
7.968128992715872 1:-0.7123981765612242 2:1.4098732700710264 3:0.43757908671845736 
0.8297800592852953 1:-0.8092395015731226 2:-0.7398487924987401 3:-0.15078569108916914 
7.968128992715872 1:0.5895053954414723 2:-0.7701773677982365 3:0.47157287670751813 
7.968128992715872 1:-0.7830964023851001 2:0.9718333394107231 3:1.3941093041735022 
7.968128992715872 1:-0.8092395015731226 2:1.287525638508019 3:-1.0966748894717615 
7.968128992715872 1:-0.14298148038832878 2:-0.7545655230477145 3:-0.9139827067465045 
7.968128992715872 1:-0.8082941528520109 2:1.8502102217338303 3:1.1477057752815905 
7.968128992715872 1:0.8613005769657182 2:-0.6014351773623671 3:-0.7725851605397679 
7.968128992715872 1:-0.6806992975855161 2:-0.7340963674093826 3:-0.2519959469897754 
7.968128992715872 1:0.668439538919432 2:0.6087328962417533 3:0.29481250528147096 
7.968128992715872 1:-0.808435212739716 2:1.615427032045542 3:-0.9404007547938866 
7.968128992715872 1:-0.5633201478707212 2:-0.764688211591687 3:-1.1796951621478036 
7.968128992715872 1:0.00643806171451299 2:-0.30361225368567263 3:0.11992241479717974 
7.968128992715872 1:-0.49991496571468896 2:-0.7576523506986398 3:0.33461120241088727 
7.968128992715872 1:0.3807788321306641 2:-0.7286401198131842 3:0.4952989107651782 
7.968128992715872 1:-0.8092122794895303 2:1.5609567001925406 3:-1.1316765297599363 
7.968128992715872 1:-0.8001126793651117 2:0.08723014800920342 3:0.4123113720289216 
7.968128992715872 1:-0.8032828147361697 2:1.5454567447172116 3:-0.3781393113469756 
7.968128992715872 1:-0.8092395015731226 2:-0.6966463688299265 3:-0.4504964989901426 
7.968128992715872 1:-0.6087117348933175 2:-0.7137193558800335 3:0.6446046980961787 
7.968128992715872 1:1.3073542145032735 2:1.7005089532470588 3:-0.43290390601892736 
7.968128992715872 1:-0.7676887030719017 2:-0.5390996876354727 3:0.08208644337002834 
0.6018642223351329 1:-0.8092246531638905 2:-0.7701773677982365 3:0.3482641255354053 
7.968128992715872 1:-0.7361086113700507 2:-0.5576206535410245 3:1.6802804055769702 
7.968128992715872 1:-0.1905731067121512 2:0.3007675388548758 3:1.162653339826932 
7.968128992715872 1:-0.8091157648295216 2:2.7640823311815437 3:0.17562622301766614 
7.968128992715872 1:-0.8086430904689657 2:0.3105611412953381 3:-0.9370715654582631 
7.968128992715872 1:-0.41426686652893835 2:-0.6491526623713402 3:-0.3712820072129674 
7.968128992715872 1:-0.7597621272768207 2:-0.4272169941640886 3:-0.5092868041634936 
7.968128992715872 1:-0.6592730430635643 2:-0.40952532523938245 3:0.4952989107651782 
2.5037417066071526 1:-0.8089474828582243 2:-0.47491473400685114 3:3.3541242944506346 
7.968128992715872 1:-0.39680018780221904 2:0.5652935305784123 3:0.886397868081165 
7.968128992715872 1:-0.8079600636442881 2:2.607799340624569 3:-0.7420338594680823 
7.968128992715872 1:-0.7554585633343773 2:-0.5805447915115421 3:0.02164027866282236 
7.968128992715872 1:0.3456202738038716 2:-0.501991938603667 3:-0.6109772020901483 
7.968128992715872 1:-0.5960410923485736 2:-0.7531899431350421 3:-0.12384018363293697 
7.968128992715872 1:-0.12575980041393953 2:-0.21171825014149576 3:-0.9121793205058212 
7.968128992715872 1:-0.5597887012083481 2:-0.7570336688240408 3:0.1598064723524433 
7.968128992715872 1:-0.4225795009640545 2:-0.7701773677982365 3:-0.9154608440487411 
7.968128992715872 1:-0.8092395015731226 2:-0.7451010067107624 3:-0.007193179094451459 
7.968128992715872 1:-0.8092122794895303 2:0.11279355652987261 3:-0.5083468108404174 
7.968128992715872 1:-0.8053789151727709 2:0.18972072408640753 3:1.9668055909859643 
7.968128992715872 1:-0.8053789151727709 2:2.585020000539595 3:-0.2897642937141565 
7.968128992715872 1:-0.6648312975861218 2:0.8319585819747647 3:-1.3817752111115407 
7.968128992715872 1:-0.8020429725652876 2:0.5941741270224639 3:0.24662194090272788 
7.968128992715872 1:-0.7956804292093234 2:1.6183164080343613 3:-0.3143771471075574 
7.968128992715872 1:-0.5760353356431613 2:-0.7701773677982365 3:-1.0733007660054807 
7.968128992715872 1:-0.776130023720363 2:1.1670143074025987 3:-0.585342130636937 
3.214869171717725 1:-0.8091999058151703 2:-0.7423301017192068 3:0.07684017002922565 
7.968128992715872 1:-0.80917515846645 2:-0.7258033976009266 3:0.09547411042293417 
7.968128992715872 1:-0.1218299214371712 2:-0.7684595383379135 3:-1.0122838229250153 
1.4655351675848176 1:-0.8091256637690096 2:1.5788524025014228 3:-2.0342351334786546 
7.968128992715872 1:-0.7767487074383681 2:-0.5996383672372015 3:1.6802804055769702 
7.968128992715872 1:-0.7809730798649066 2:-0.1309802655063132 3:-1.0893112959781512 
2.9302021150481306 1:-0.8092246531638905 2:-0.7434292493049307 3:0.09798068739036334 
7.968128992715872 1:-0.2687970012818409 2:-0.29645792179536185 3:-0.3781393113469756 
7.968128992715872 1:-0.6664844204806314 2:-0.6694177846254958 3:0.6345172359932882 
7.968128992715872 1:-0.04602136810257336 2:-0.7613710236683046 3:0.1087628622457327 
7.968128992715872 1:-0.8091058658900335 2:1.2474034607680604 3:-0.23454751276300856 
7.968128992715872 1:-0.6161656363278426 2:-0.7551118059795414 3:-0.708933641330471 
7.968128992715872 1:0.5518473548939395 2:-0.7701773677982365 3:-1.4359744360591782 
7.968128992715872 1:-0.7239205421253507 2:-0.6496199646383246 3:0.45723194357338703 
7.968128992715872 1:-0.7893995521041359 2:-0.2430077568632417 3:-1.5160702555684098 
7.968128992715872 1:-0.8081976381920021 2:1.6683045871575546 3:-2.0384830299514722 
7.968128992715872 1:-0.6494978403190841 2:-0.7381638716487682 3:0.6982750036315694 
7.968128992715872 1:-0.35930547975623944 2:-0.7087699008832407 3:1.7460499749407732 
7.968128992715872 1:0.4862891533992496 2:0.10842987479732791 3:0.24662194090272788 
7.968128992715872 1:-0.33951502498469305 2:-0.14517704001174142 3:-0.5113847460894038 
7.968128992715872 1:-0.3143098503131663 2:-0.7465424038441368 3:1.032020465025755 
7.968128992715872 1:0.11536846657623069 2:-0.6613815019777777 3:0.11992241479717974 
7.968128992715872 1:-0.21537984906928273 2:-0.254710058704063 3:0.1598064723524433 
7.968128992715872 1:-0.5122886400747905 2:-0.7701773677982365 3:0.7361002904884107 
7.968128992715872 1:-0.5572001285322149 2:-0.7074403930250597 3:2.6380162042456567 
7.968128992715872 1:-0.8075393587160447 2:1.739966377057927 3:-0.6921351574793242 
7.968128992715872 1:-4.8624645739973426E-4 2:-0.5469780089535059 3:0.5568108945427146 
7.968128992715872 1:-0.8091949563454263 2:0.056092020895072224 3:0.186579881908323 
7.968128992715872 1:-0.7833884210999985 2:0.5425997528803516 3:0.2726898204082379 
7.968128992715872 1:-0.43804659391418144 2:-0.7381836168149788 3:0.171802888896147 
7.968128992715872 1:-0.8091454616479857 2:1.2295209219033183 3:0.07019660707426309 
7.968128992715872 1:-0.3809371372725689 2:-0.7701773677982365 3:-1.7431917518771338 
7.968128992715872 1:-0.7176619376340113 2:1.1607155993814142 3:0.186579881908323 
7.968128992715872 1:-0.7665899207887247 2:1.2705053052344737 3:0.14372363902975485 
7.968128992715872 1:-0.3143098503131663 2:0.7218924437947568 3:0.005688364508328865 
7.968128992715872 1:-0.413608587052981 2:0.2863074954666393 3:-1.176836193451512 
7.968128992715872 1:-0.44885871057003807 2:-0.6591437164739087 3:0.24662194090272788 
7.968128992715872 1:-0.8074131472375716 2:0.1550087218881559 3:-1.1004510555290081 
7.968128992715872 1:-0.7400335408770748 2:0.8745028334365581 3:1.7460499749407732 
7.968128992715872 1:0.44864843599582066 2:-0.7245397069634476 3:-0.397030063019924 
7.968128992715872 1:-0.8092395015731226 2:-0.7384732125860677 3:0.12820962634849997 
7.968128992715872 1:-0.8067523930267422 2:1.8699290610561592 3:0.09205075086824178 
7.968128992715872 1:-0.8080392551601927 2:9.503533909098182E-4 3:1.4948766647256164 
7.968128992715872 1:-0.5300547617210242 2:0.0021548085297570193 3:0.39491264428142353 
7.968128992715872 1:-0.6135300436891411 2:0.4717014427401228 3:0.7347397000505332 
7.968128992715872 1:-0.44450070246041035 2:-0.6159018024726737 3:0.29481250528147096 
7.968128992715872 1:-0.7331117074400341 2:-0.4710841717619929 3:0.9265787376905407 
7.968128992715872 1:0.6587336287513683 2:0.5579285835818548 3:-0.41925678972609953 
7.968128992715872 1:-0.5181116912286542 2:-0.7701773677982365 3:-1.2614089142844787 
7.968128992715872 1:-0.6324889875436885 2:-0.7701773677982365 3:-0.4201835268819741 
7.968128992715872 1:-0.6414772245988664 2:-0.261351016272898 3:0.7008946147255873 
7.968128992715872 1:-0.3738643450083349 2:0.27861346236657175 3:0.43757908671845736 
7.968128992715872 1:-0.3533834392074948 2:-0.7634771747307696 3:0.07019660707426309 
7.968128992715872 1:-0.8032209463643691 2:0.31475369825405747 3:-0.5921685756082483 
7.968128992715872 1:-0.7806068191038477 2:0.6354875964571294 3:-0.5953370982064753 
7.968128992715872 1:-0.6355923050732021 2:-0.4944229582229335 3:-1.0116818867519999 
7.968128992715872 1:-0.7473884529167191 2:0.1332890390564854 3:-1.1136230402619889 
7.968128992715872 1:-0.5123381347722309 2:-0.7701773677982365 3:0.24662194090272788 
7.968128992715872 1:-0.8092395015731226 2:-0.7177802783973489 3:-0.04233360266002373 
7.968128992715872 1:-0.8092221784290184 2:0.21872637324979297 3:1.3219440737950683 
2.2882570267039486 1:-0.8092395015731226 2:-0.7701773677982365 3:-0.675296092170136 
7.968128992715872 1:-0.7089731434983481 2:-0.21843160665310296 3:-1.1304163643284053 
7.968128992715872 1:-0.7496256132410255 2:-0.49500214976511125 3:-0.0689180910945971 
7.968128992715872 1:-0.7007149532304162 2:-0.2704996099504804 3:1.1904496642624252 
7.968128992715872 1:-0.7451240705088206 2:-0.16450097600985805 3:-0.33258713901503156 
7.968128992715872 1:-0.801117421723152 2:0.7169034984655428 3:-0.5364462021173007 
7.968128992715872 1:-0.8089821291464324 2:0.30030681830996164 3:0.1598468879010075 
2.7043548327676077 1:-0.8092246531638905 2:-0.7701773677982365 3:1.078787974048581 
7.968128992715872 1:-0.8088781902818076 2:0.547792731593742 3:2.6060382144005105 
7.968128992715872 1:-0.7660924990794485 2:0.2298889738808576 3:3.3541242944506346 
7.968128992715872 1:-0.3143098503131663 2:-0.05661996955715753 3:2.6060382144005105 
7.968128992715872 1:0.01565397437791661 2:-0.5258704262743642 3:0.005688364508328865 
7.968128992715872 1:-0.49468832566498205 2:-0.711725094092762 3:-0.7393161129184985 
7.968128992715872 1:-0.44138996072628084 2:-0.715292387454812 3:1.3487617314084286 
7.968128992715872 1:-0.06683636311113612 2:-0.7701773677982365 3:-0.10344224390835306 
7.968128992715872 1:-0.7517043905335226 2:-0.4862352959676006 3:-1.0966748894717615 
7.968128992715872 1:-0.789169401761038 2:0.7038519436003298 3:-1.2407286132212172 
7.968128992715872 1:-0.7453542208519185 2:-0.5992105553026384 3:0.33461120241088727 
7.968128992715872 1:0.0562742725672578 2:-0.5244027022527089 3:1.0450655455998816 
7.968128992715872 1:-0.5165451840546654 2:-0.64882357626783 3:1.1477057752815905 
7.968128992715872 1:-0.7140735720695819 2:-0.1181985612459786 3:-0.43993665942472077 
7.968128992715872 1:-0.584281152236733 2:-0.7627334401368367 3:-0.7311656107761154 
7.968128992715872 1:-0.7029793356383148 2:-0.7255993642167503 3:-1.0718519449078063 
7.968128992715872 1:1.1351770105173329 2:-0.7701773677982365 3:0.7361002904884107 
7.968128992715872 1:-0.11323764196151677 2:-0.7460487746888715 3:0.12820962634849997 
7.968128992715872 1:-0.3143098503131663 2:-0.7701773677982365 3:0.957777682996118 
7.738966959664005 1:-0.7158702295866686 2:-0.7627860939133984 3:2.598623122605281 
7.968128992715872 1:-0.7152094753758391 2:-0.5512890369094889 3:2.598623122605281 
7.968128992715872 1:-0.6545858952159579 2:-0.7701773677982365 3:0.4590041056505241 
7.968128992715872 1:-0.25044684220581037 2:1.7254668433372693 3:-0.770165769002431 
7.968128992715872 1:-0.5764857373898691 2:2.2554665947624515 3:1.078787974048581 
7.968128992715872 1:-0.3894922957251431 2:-0.7107180906160209 3:-0.026345205011567466 
7.968128992715872 1:-0.6780216344539901 2:-0.7231246367183539 3:-0.9309545991828712 
7.968128992715872 1:-0.8092048552849144 2:0.2478110030780209 3:0.7915226000994998 
7.968128992715872 1:1.4483967790643264 2:-0.34674886013378436 3:-1.2341841811786818 
7.968128992715872 1:-0.5264292751335145 2:-0.6484681632760391 3:-0.5912231902271741 
7.968128992715872 1:-0.8068662308308551 2:0.9597032256353384 3:-1.595054348855062 
7.968128992715872 1:-0.8089969775556646 2:1.4609276881695923 3:0.39491264428142353 
7.913525437768157 1:-0.8092122794895303 2:-0.689505200383756 3:-0.5083468108404174 
7.968128992715872 1:-0.44492388212352585 2:0.009355212474559296 3:0.47048724804564956 
7.968128992715872 1:-0.8018029232827015 2:0.2268745451727046 3:0.2726898204082379 
7.968128992715872 1:-0.8089821291464324 2:0.1269113503704585 3:0.09205075086824178 
7.968128992715872 1:-0.7999493468635583 2:0.22520936948894318 3:-0.38017477176389836 
7.968128992715872 1:-0.4471016488109037 2:-0.351270503196014 3:0.02164027866282236 
6.351246864717787 1:-0.8092122794895303 2:-0.7701773677982365 3:0.5128043680791435 
7.968128992715872 1:-0.8060990630205288 2:0.32069041156138084 3:0.6446046980961787 
7.968128992715872 1:-0.8085935957715253 2:0.8507625619293352 3:-1.7833871385657354 
7.968128992715872 1:-0.8032209463643691 2:1.658214807223933 3:-0.007193179094451459 
7.968128992715872 1:-0.7711830287111944 2:-0.5108509365101606 3:0.8693617520863042 
7.968128992715872 1:-0.791602066140234 2:0.9471518816474609 3:-0.6065546693019821 
2.288355611727325 1:-0.7672308771205779 2:-0.36278851681886953 3:-0.15078569108916914 
7.968128992715872 1:-0.5773989145576446 2:-0.49351468057724535 3:2.6380162042456567 
7.968128992715872 1:-0.8082446581545705 2:0.18056554868675487 3:1.6738230096459978 
7.968128992715872 1:-0.5042729738243168 2:-0.6524698502947226 3:0.21916948044898585 
7.968128992715872 1:-0.6810408109978549 2:-0.48401725562994213 3:-0.10344224390835306 
7.968128992715872 1:-0.8051858858527533 2:0.09667491917994495 3:-0.23454751276300856 
7.968128992715872 1:-0.7092280411901661 2:-0.35886581046502847 3:-0.3712820072129674 
7.968128992715872 1:-0.289042807269839 2:0.882177121370415 3:-0.3143771471075574 
7.968128992715872 1:-0.806250021847722 2:0.7213988146394915 3:-1.0718519449078063 
7.968128992715872 1:-0.6281779993966292 2:-0.7649448987524249 3:1.3958661859878199 
7.968128992715872 1:-0.3493941665937982 2:2.96932675221876 3:-0.7553307408552472 
7.968128992715872 1:-0.6030297436271589 2:-0.6704708601567284 3:0.2832613400008308 
7.968128992715872 1:-0.4557236251050224 2:-0.5725348357521048 3:-0.2897642937141565 
7.968128992715872 1:-0.8024389301448108 2:0.26006616957273926 3:-1.2533890160822838 
7.968128992715872 1:-0.6442736750042491 2:0.9835948767501761 3:-2.0009988861609616 
7.968128992715872 1:-0.7925350411869855 2:0.3680722287447737 3:-1.1320171419159406 
7.968128992715872 1:-0.7808122220982253 2:-0.00604601716971623 3:0.24061800875392447 
7.968128992715872 1:-0.7267664872281739 2:0.027494438500039256 3:-0.9970266878867905 
1.237403091113689 1:-0.8092395015731226 2:-0.7701773677982365 3:0.4123113720289216 
7.968128992715872 1:-0.6636830206055045 2:-0.7701773677982365 3:-0.6468741065064356 
7.968128992715872 1:-0.8033570567823304 2:0.5575336802576426 3:-0.6203513695791517 
7.968128992715872 1:-0.5467839694558815 2:0.19126084705083515 3:-0.6203513695791517 
7.968128992715872 1:-0.8078165290217109 2:0.32400759948476326 3:0.4680813449487818 
7.968128992715872 1:-0.779319956970397 2:0.12169204476878727 3:-0.6141351230728034 
7.968128992715872 1:-0.5927175234154503 2:-0.7513536426774554 3:-0.3781393113469756 
7.968128992715872 1:-0.8089573817977123 2:0.4525157229054805 3:-0.16731898523249453 
2.509548689875086 1:-0.8092395015731226 2:-0.7701773677982365 3:0.7361002904884107 
7.968128992715872 1:-0.7875113293967844 2:1.0757521491771613 3:-0.4442812313497079 
7.968128992715872 1:-0.618026636951602 2:-0.7403819119864267 3:-0.9926187053597455 
7.968128992715872 1:-0.8091454616479857 2:0.997620526481779 3:0.47157287670751813 
7.968128992715872 1:1.176641193298033 2:2.0874220668660235 3:-2.019198658044661 
7.968128992715872 1:-0.7956754797395793 2:0.3213156751580502 3:-1.4237207602806472 
7.968128992715872 1:-0.7708563637080877 2:1.0349388906198311 3:0.4105123657984276 
7.968128992715872 1:-0.7986575352603639 2:0.7971939259999514 3:0.6186763152788172 
7.968128992715872 1:-0.41329924519397837 2:0.5604888734671639 3:0.171802888896147 
7.968128992715872 1:-0.7930943312680621 2:2.3028220850575636 3:-1.5114991176618153 
7.968128992715872 1:-0.6967677511095438 2:-0.2465750502252918 3:1.8470478833019397 
7.968128992715872 1:-0.8083312738750912 2:0.2631266703353837 3:-1.1762230086159653 
7.968128992715872 1:-0.3524034441981748 2:0.343469751646354 3:1.3958661859878199 
7.968128992715872 1:-0.8090241996392569 2:0.21101259498351477 3:-0.05184212364339284 
7.968128992715872 1:0.8749388408454221 2:-0.5604376305870713 3:1.277840623015113 
7.968128992715872 1:-0.8075641060647648 2:0.16048471465056496 3:-1.0966748894717615 
7.968128992715872 1:-0.5288817373916865 2:-0.3791901682178159 3:-0.6882442816097729 
7.968128992715872 1:-0.6054549838017388 2:-0.7701773677982365 3:0.7347397000505332 
7.968128992715872 1:-0.5548936756314921 2:0.18126321122619637 3:0.2832613400008308 
7.968128992715872 1:0.2631274615799469 2:-0.6282491130763749 3:-0.2160128691912041 
7.968128992715872 1:-0.8090192501695128 2:1.3716071379548647 3:1.6474407150908805 
7.968128992715872 1:-0.8092395015731226 2:0.7380242445888248 3:-1.1510293227350066 
7.968128992715872 1:-0.3809371372725689 2:-0.5552117432633301 3:-0.2781638035460446 
7.968128992715872 1:-0.8083337486099631 2:0.9355022335832013 3:1.4029929437032056 
7.968128992715872 1:-0.5860035677076593 2:0.6096675007757222 3:0.5817159642977183 
7.968128992715872 1:-0.20181830197061143 2:-0.619442768946443 3:-1.3653675768059934 
7.968128992715872 1:-0.7503333874144233 2:0.05985676591922838 3:0.21125601317620016 
7.968128992715872 1:-0.8084970811115165 2:0.2639362221500188 3:-0.31915854209418315 
7.968128992715872 1:-0.7117423718201388 2:-0.39494022913181215 3:0.29481250528147096 
7.968128992715872 1:-0.8092122794895303 2:2.6399642163816517 3:-0.08179769355649805 
7.968128992715872 1:-0.618892794156809 2:-0.7701773677982365 3:-0.3486247122324311 
7.968128992715872 1:-0.7324559026989487 2:-0.46313345150118745 3:-0.05184212364339284 
7.968128992715872 1:-0.4557236251050224 2:-0.7701773677982365 3:0.4572180237682778 
7.968128992715872 1:-0.8075393587160447 2:0.5301273895573165 3:0.19311830802779642 
7.968128992715872 1:-0.7428200923429698 2:1.0216898840925122 3:0.5817159642977183 
7.968128992715872 1:-0.35930547975623944 2:-0.7453642755935705 3:2.6060382144005105 
7.968128992715872 1:1.3536664028982612 2:1.024789875187578 3:-0.9121793205058212 
7.968128992715872 1:-0.24275041675382722 2:-0.3739971895044256 3:0.4095409326294852 
7.968128992715872 1:-0.6624456531694943 2:-0.7627729304692579 3:-0.09881156109051159 
7.968128992715872 1:-0.8059926494210319 2:0.7917837504582445 3:0.29481250528147096 
7.968128992715872 1:-0.7513505034468236 2:-0.1850425305909622 3:0.4123113720289216 
7.968128992715872 1:-0.7999542963333024 2:-0.1152762766468084 3:-1.6629626904670318 
7.968128992715872 1:-0.4285287635963913 2:-0.6708065279823087 3:-1.0733007660054807 
7.968128992715872 1:-0.8068662308308551 2:0.35437566511668084 3:-0.2160128691912041 
7.968128992715872 1:1.0782531589911217 2:-0.12033103919672439 3:0.10540959944501625 
7.968128992715872 1:0.01565397437791661 2:0.12585169311715583 3:-1.6668631890862409 
7.968128992715872 1:-0.6688453175485388 2:-0.7099611925779474 3:0.2726898204082379 
7.968128992715872 1:-0.4557236251050224 2:-0.7701773677982365 3:3.3541242944506346 
7.968128992715872 1:0.01565397437791661 2:-0.7701773677982365 3:-0.4504964989901426 
7.968128992715872 1:-0.6187863805573122 2:0.6648618220564462 3:-0.31232275641932444 
7.968128992715872 1:-0.6324889875436885 2:-0.7701773677982365 3:0.09547411042293417 
7.968128992715872 1:-0.8092395015731226 2:0.6933738420645664 3:0.24662194090272788 
7.968128992715872 1:0.2080547117380071 2:1.9212467480375333 3:-0.09334462814547795 
7.968128992715872 1:-0.7789635951488262 2:-0.5475769456618944 3:0.7361002904884107 
7.968128992715872 1:-0.8024908995771232 2:0.22295183881886343 3:-0.12384018363293697 
7.968128992715872 1:-0.8092246531638905 2:-0.7374793725534671 3:-0.03394860406303933 
7.968128992715872 1:-0.1905731067121512 2:-0.7701773677982365 3:0.13250576929718977 
7.968128992715872 1:-0.8054234604004672 2:0.3794849348145059 3:-1.0718519449078063 
7.968128992715872 1:-0.8091405121782417 2:1.2210699907651772 3:-1.662346552442797 
7.968128992715872 1:-0.8092395015731226 2:-0.7701773677982365 3:-1.595054348855062 
7.968128992715872 1:-0.6146882196092466 2:-0.6820612727223562 3:-0.9970266878867905 
7.968128992715872 1:-0.8088781902818076 2:1.6555755366737817 3:2.003203409294804 
7.968128992715872 1:-0.5519190443153236 2:-0.7162533188770617 3:-0.6988651924536289 
7.968128992715872 1:-0.41953557707146955 2:-0.7522553386010732 3:0.10540959944501625 
7.968128992715872 1:-0.7441317018251404 2:-0.5893577173635443 3:1.1904496642624252 
7.968128992715872 1:-0.8079006700073597 2:1.4098732700710264 3:0.43757908671845736 
7.968128992715872 1:-0.8059406799887195 2:0.539920991997779 3:-1.173612721634547 
5.798501211377835 1:-0.8092395015731226 2:-0.7044851998155384 3:-0.007193179094451459 
7.968128992715872 1:-0.1905731067121512 2:-0.23762390820981547 3:1.7460499749407732 
7.968128992715872 1:-0.7673125433713547 2:2.983339238506222 3:-1.4167791777245305E-4 
7.968128992715872 1:-0.8072795115544825 2:0.5025828826935161 3:0.005688364508328865 
7.968128992715872 1:0.32242458384842526 2:-0.38551520312728116 3:0.7685567798557844 
7.968128992715872 1:-0.8092221784290184 2:0.6517839403029523 3:0.7102536678612485 
7.968128992715872 1:-0.5749068565415202 2:-0.3029277545903715 3:1.3941093041735022 
7.968128992715872 1:-0.2614891092047649 2:-0.44790334663073716 3:-0.6445983925760643 
7.968128992715872 1:-0.5161962464377106 2:-0.7488657517349185 3:-0.6599587067179516 
7.968128992715872 1:-0.39680018780221904 2:-0.7343267276818397 3:0.8570664662109753 
7.968128992715872 1:-0.8084995558463886 2:2.275422376079307 3:2.6060382144005105 
7.968128992715872 1:-0.8089252102443759 2:0.5113168278806758 3:-0.7674042389419025 
7.968128992715872 1:-0.6469587623403912 2:-0.3069623502194061 3:-1.2258604197696081 
7.968128992715872 1:0.7655753573811009 2:-0.666054524647622 3:0.8570664662109753 
7.968128992715872 1:-0.6592730430635643 2:1.0903438270068015 3:-0.31915854209418315 
7.968128992715872 1:-0.8089722302069444 2:1.0635233095707235 3:-0.42143237728718264 
7.968128992715872 1:1.3027041876787473 2:0.1326045399611843 3:2.6060382144005105 
7.968128992715872 1:-0.8088509681982154 2:0.36064804624958435 3:0.8693617520863042 
7.968128992715872 1:-0.7470766363228447 2:-0.6221873470497177 3:0.7102536678612485 
6.561254103381663 1:-0.8092395015731226 2:-0.7701773677982365 3:-0.15078569108916914 
7.968128992715872 1:0.3567244091746267 2:-0.6828115890383594 3:1.3487617314084286 
7.968128992715872 1:-0.7239205421253507 2:-0.5659202050715506 3:-0.5364462021173007 
7.077585816697329 1:-0.7604327804271382 2:-0.6104192279881944 3:3.3541242944506346 
7.968128992715872 1:-0.8091132900946495 2:0.795173337324399 3:0.10540959944501625 
7.968128992715872 1:-0.8091875321408102 2:0.1890691336014575 3:-0.6203513695791517 
7.968128992715872 1:-0.808435212739716 2:2.385903162749738 3:0.8780779889538505 
7.968128992715872 1:-0.8087420798638465 2:0.7728810446726209 3:2.598623122605281 
7.968128992715872 1:0.03794886083994748 2:-0.19019601897193125 3:-0.7114789415698011 
7.968128992715872 1:-0.8092122794895303 2:0.0732242434438111 3:1.3890394589703983 
7.50992331430227 1:-0.8092395015731226 2:-0.7162335737108512 3:0.13250576929718977 
7.968128992715872 1:-0.8086430904689657 2:0.6358232642827096 3:-0.6009354480481339 
7.968128992715872 1:-0.7966307274001792 2:2.0323857069149844 3:-1.0966748894717615 
7.968128992715872 1:-0.21981209922507106 2:-0.5769906615936324 3:1.2658638667444178 
7.968128992715872 1:-0.23816473303597363 2:-0.7666495647686076 3:1.6738162239483942 
7.968128992715872 1:-0.24975144170677266 2:-0.6577878817274467 3:0.38775751604549435 
7.968128992715872 1:-0.7745239207884217 2:-0.5099624040306832 3:0.24662194090272788 
7.968128992715872 1:0.7374524702954621 2:0.2241497122356405 3:0.36976801783277374 
7.968128992715872 1:-0.6442736750042491 2:-0.7060845582785978 3:1.5049275769707537 
7.968128992715872 1:0.13349837424865144 2:-0.19401341777264908 3:-0.5092868041634936 
7.968128992715872 1:-0.3452440362134201 2:1.1266222790577616 3:-0.5632827236381802 
7.968128992715872 1:-0.8090736943366972 2:0.08560446265786326 3:-0.019677518818668294 
7.968128992715872 1:-0.6941519563498184 2:-0.7106127830628975 3:0.030742785974406515 
7.968128992715872 1:-0.7899736905944444 2:1.051189162411163 3:0.171802888896147 
7.968128992715872 1:0.6019854834010707 2:-0.4380044366371516 3:-0.7885139137312912 
7.968128992715872 1:-0.4075133150631949 2:-0.5345253907966814 3:-0.5724675220502895 
7.968128992715872 1:0.6755840984949545 2:-0.4245448150035861 3:-0.5660390773230305 
7.968128992715872 1:-0.7976379444930914 2:0.22985606527050653 3:-0.23454751276300856 
7.968128992715872 1:-0.7102674298364147 2:-0.7115408058747963 3:-1.0204409282645774 
7.968128992715872 1:0.2500732351300397 2:0.4304998625806509 3:-1.133055303876478 
7.968128992715872 1:-0.8087346556592304 2:3.347387449653301 3:0.8996697966830095 
7.968128992715872 1:-0.5940613044509573 2:-0.7367356379595341 3:-0.7420338594680823 
7.968128992715872 1:-0.7981997093090399 2:0.10671862705907502 3:-0.05184212364339284 
7.968128992715872 1:-0.8089549070628402 2:0.6999950544671907 3:-0.7115613985798032 
7.968128992715872 1:-0.7736503393785986 2:0.26758907789898156 3:-0.6468741065064356 
6.64688356518888 1:-0.8091726837315781 2:0.1636110326339115 3:-1.5160702555684098 
7.968128992715872 1:-0.8091924816105541 2:-0.721867527802945 3:0.035724732336667446 
7.968128992715872 1:-0.8003428297082096 2:1.4948103933869985 3:-0.4201835268819741 
7.968128992715872 1:-0.8085614242181891 2:0.1146232752653891 3:-1.7431917518771338 
7.968128992715872 1:-0.7552630592794878 2:-0.5302077811186282 3:0.8780779889538505 
7.968128992715872 1:0.9632942999811628 2:0.04256000031873436 3:-1.4932745920841675 
7.968128992715872 1:-0.8035352376931159 2:0.2914873107358893 3:-0.9335433677051397 
7.968128992715872 1:-0.8089400586536081 2:0.2971936637707555 3:-1.3817752111115407 
7.968128992715872 1:-0.4459929675882386 2:-0.7701773677982365 3:-1.590766451607372 
7.968128992715872 1:-0.7452255346385734 2:1.8755564334261827 3:1.162653339826932 
7.968128992715872 1:-0.8037579638315976 2:1.9365097615183346 3:0.12820962634849997 
7.968128992715872 1:-0.4387122975947549 2:1.3773661447662926 3:1.1904496642624252 
7.968128992715872 1:-0.8091182395643935 2:0.393708036208215 3:-0.0734225997552825 
7.968128992715872 1:-0.7876127935265372 2:-0.0010307449522213143 3:-0.7553307408552472 
7.968128992715872 1:-0.8069949170442001 2:0.6108193021380077 3:-0.6203513695791517 
7.968128992715872 1:-0.7242472071284572 2:-0.5304118145028044 3:-0.9121793205058212 
7.968128992715872 1:-0.655088266394978 2:-0.732135014232462 3:-0.03394860406303933 
7.968128992715872 1:1.6484098008907513 2:-0.43283778481204216 3:0.186579881908323 
7.968128992715872 1:0.4952551178405793 2:-0.6320862570433033 3:-0.05184212364339284 
7.968128992715872 1:-0.751028787913461 2:-0.5269235018055968 3:0.5797411769764851 
7.968128992715872 1:-0.6855200811162117 2:-0.6470136026985241 3:-0.5821334579453086 
7.968128992715872 1:-0.6695530917219367 2:-0.6629545335525563 3:0.24061800875392447 
7.968128992715872 1:-0.03060129511501489 2:-0.7017669486005446 3:1.4191086436932605 
7.968128992715872 1:-0.6657222021400492 2:-0.7701773677982365 3:1.9668055909859643 
7.968128992715872 1:-0.5940613044509573 2:-0.575358394520222 3:-0.10344224390835306 
7.968128992715872 1:-0.39680018780221904 2:-0.5206642841168335 3:-1.3817752111115407 
7.968128992715872 1:0.01565397437791661 2:-0.6854837681988618 3:0.7482957154496143 
7.968128992715872 1:-0.06683636311113612 2:-0.7701773677982365 3:-0.989643235028799 
7.968128992715872 1:1.497849406011908 2:-0.5265680888138058 3:1.4948766647256164 
7.968128992715872 1:-0.7597621272768207 2:-0.556146347797299 3:0.7008946147255873 
7.968128992715872 1:-0.8090934922156734 2:0.05469669581618903 3:0.005688364508328865 
7.968128992715872 1:0.6048784484664624 2:-0.5898974185733009 3:0.030742785974406515 
7.968128992715872 1:-0.809041522783361 2:0.1698175965461131 3:0.8780779889538505 
7.968128992715872 1:-0.8087569282730787 2:0.5027210988569905 3:-1.7833871385657354 
7.968128992715872 1:-0.8091132900946495 2:0.15459407339773304 3:0.33461120241088727 
7.968128992715872 1:-0.6717704541672669 2:-0.7701773677982365 3:2.598623122605281 
7.968128992715872 1:0.5688883792226712 2:-0.2685974922721917 3:1.6738230096459978 
7.968128992715872 1:-0.5342865583521789 2:-0.7701773677982365 3:-0.5198310980109332 
7.968128992715872 1:-0.8090736943366972 2:0.4551879020659831 3:1.4948766647256164 
7.968128992715872 1:-0.7863581029464228 2:-0.5461618754168007 3:1.6738162239483942 
7.968128992715872 1:-0.5431560081334997 2:0.40689122551483203 3:-0.41925678972609953 
7.968128992715872 1:-0.056076215887591804 2:-0.765853176398113 3:0.12963666353186165 
7.968128992715872 1:-0.8051537142994171 2:0.39889443319953516 3:0.29481250528147096 
7.968128992715872 1:-0.4185085620995811 2:-0.6497910894121499 3:-0.18195734428580218 
7.968128992715872 1:-0.3488398259824656 2:-0.7140550237056138 3:0.8914361075289262 
7.968128992715872 1:-0.7792283917801325 2:-0.43604966518230126 3:0.7841916078180932 
7.968128992715872 1:-0.6324889875436885 2:-0.7701773677982365 3:-0.5724675220502895 
7.968128992715872 1:-0.6138839307758399 2:-0.5612800910120573 3:-0.14443120880669688 
7.968128992715872 1:-0.26073431506879874 2:-0.7608115772923374 3:-0.19406609813629122 
7.968128992715872 1:-0.7949602813615655 2:0.23472653960245704 3:-1.2865153649625014 
7.968128992715872 1:0.6755840984949545 2:-0.7378479489893984 3:-0.2781638035460446 
7.968128992715872 1:-0.6531282763763379 2:-0.6889852443402099 3:2.598623122605281 
7.968128992715872 1:-0.7725391834210615 2:-0.5206708658389038 3:0.8693617520863042 
7.968128992715872 1:-0.8092122794895303 2:0.186726040544465 3:0.886397868081165 
7.968128992715872 1:-0.7102674298364147 2:-0.6495738925838331 3:-0.892117214744308 
7.968128992715872 1:-0.7165606806159622 2:-0.6105508624295986 3:-0.3486247122324311 
7.968128992715872 1:-0.6791476388207593 2:-0.22151843430402823 3:-0.7885139137312912 
7.968128992715872 1:-0.5342865583521789 2:0.4850623385426353 3:1.6738162239483942 
7.968128992715872 1:-0.7616651983934043 2:-0.12465523059684791 3:0.7008946147255873 
7.968128992715872 1:-0.809051421722849 2:0.03121311146970403 3:0.171802888896147 
7.968128992715872 1:-0.8092122794895303 2:1.1391472961573583 3:-0.14443120880669688 
7.968128992715872 1:1.3888942538014706 2:0.7526488310288162 3:-1.7833871385657354 
7.968128992715872 1:-0.8091330879736257 2:1.4544512736525124 3:-0.21267762415967523 
7.968128992715872 1:-0.4258461509951213 2:-0.7503268940345036 3:-0.44385200694210936 
7.968128992715872 1:-0.3954143362738877 2:-0.7048340310852592 3:-0.7295374747158448 
7.968128992715872 1:-0.8089969775556646 2:0.25171396426565146 3:-0.31915854209418315 
7.968128992715872 1:-0.6672639619653178 2:-0.06457727154003319 3:-0.5859287699561851 
7.968128992715872 1:-0.5487588078837536 2:-0.4425853151980131 3:-0.23515255144324113 
7.968128992715872 1:-0.6911080324572334 2:-0.2718751898631529 3:-0.10344224390835306 
7.968128992715872 1:1.447577641821688 2:1.1644474357952195 3:0.7482957154496143 
1.4821956853763376 1:-0.7981304167326234 2:0.0549336378107164 3:-0.44754606439925504 
7.968128992715872 1:-0.809170208996706 2:0.5194255094711662 3:-1.1796951621478036 
7.968128992715872 1:-0.5441063063243555 2:-0.7701773677982365 3:-0.7097859514950237 
7.968128992715872 1:0.20715143350971968 2:-0.7315229140799331 3:-0.019677518818668294 
7.968128992715872 1:-0.5774632576643172 2:-0.7324772637801127 3:0.5128043680791435 
7.968128992715872 1:-0.3143098503131663 2:-0.7701773677982365 3:1.2658638667444178 
7.968128992715872 1:-0.6641334223522123 2:-0.73790060276596 3:-0.10344224390835306 
7.968128992715872 1:-0.49991496571468896 2:-0.6777765716546539 3:0.21125601317620016 
7.968128992715872 1:-0.768688495960198 2:-0.5847965839688934 3:1.3941093041735022 
7.968128992715872 1:-0.809170208996706 2:0.1833561988445211 3:-1.1796951621478036 
7.968128992715872 1:-0.6653757392579664 2:-0.67052351393329 3:-1.4237207602806472 
7.968128992715872 1:0.4281106112929243 2:-0.7392696009565622 3:-0.3403624036935884 
7.968128992715872 1:-0.8087767261520548 2:0.9140326561901986 3:-1.4880854081943544 
7.968128992715872 1:1.2778479506241753 2:0.3578639778138884 3:-1.1316765297599363 
7.968128992715872 1:-0.4426520755110112 2:-0.588831179597928 3:-0.6882442816097729 
7.968128992715872 1:-0.809170208996706 2:1.7629102601946551 3:-1.133055303876478 
7.968128992715872 1:1.0055479231860376 2:0.2350885343163182 3:-0.43993665942472077 
7.968128992715872 1:-0.14766367876619121 2:-0.7209921587676081 3:-0.7753670642840554 
7.968128992715872 1:-0.3143098503131663 2:-0.7701773677982365 3:-1.176836193451512 
7.968128992715872 1:-0.804898816607599 2:0.5297324862331044 3:-1.5661147256235417 
7.968128992715872 1:-0.8026591815484206 2:0.07124314510067996 3:0.12820962634849997 
0.23088688031206045 1:-0.8092395015731226 2:-0.7320231249572686 3:-0.12384018363293697 
7.968128992715872 1:-0.8049532607747835 2:1.001635376944603 3:-1.6629626904670318 
7.968128992715872 1:-0.49991496571468896 2:-0.7017406217122637 3:-0.08179769355649805 
7.968128992715872 1:0.4281106112929243 2:-0.4521617208101587 3:0.2881569636622788 
7.968128992715872 1:-0.807826427961199 2:-0.014582510694769719 3:1.7460499749407732 
7.968128992715872 1:-0.8089994522905366 2:0.47508444788420734 3:0.1598064723524433 
7.968128992715872 1:-0.6561796244735388 2:-0.5415349248014479 3:0.7497744002531248 
7.968128992715872 1:-0.8070048159836882 2:2.0572053808417206 3:1.9668055909859643 
7.968128992715872 1:-0.8091504111177298 2:1.293192501210464 3:0.08208644337002834 
7.968128992715872 1:-0.8042256887224094 2:0.43812149673794615 3:-1.4237207602806472 
7.968128992715872 1:-0.8088460187284714 2:0.05259712647579431 3:0.10540959944501625 
7.968128992715872 1:-0.8078783973935115 2:0.4032844418203607 3:-0.3403624036935884 
7.968128992715872 1:-0.3143098503131663 2:-0.6216279006737504 3:0.10642556271754863 
7.968128992715872 1:-0.6545858952159579 2:-0.7626610411940644 3:0.030742785974406515 
7.968128992715872 1:-0.7959625489847337 2:1.1606497821607122 3:-1.7997059781192644 
7.968128992715872 1:-0.8065717373810847 2:1.0660506908456815 3:-0.6921351574793242 
7.968128992715872 1:-0.6442736750042491 2:1.2090715114311972 3:-0.5614885619644104 
7.968128992715872 1:-0.1905731067121512 2:-0.735827360313846 3:1.7460499749407732 
7.968128992715872 1:-0.8082199108058502 2:1.0715003567198098 3:0.10540959944501625 
7.968128992715872 1:-0.1488639251791211 2:1.1230418222515712 3:-1.485216899703143 
7.968128992715872 1:-0.7869619382551959 2:0.2695109407434808 3:-1.0966748894717615 
7.968128992715872 1:-0.7313373225367955 2:-0.5807883152281397 3:0.09205075086824178 
7.968128992715872 1:-0.8091900068756822 2:0.2873868978861526 3:-1.6956042186739535 
7.968128992715872 1:-0.8080714267135289 2:0.16253163021439818 3:-1.7697135265294521 
7.968128992715872 1:-0.8022731229083855 2:2.881111931311826 3:0.08208644337002834 
7.968128992715872 1:-0.5471230081333482 2:0.8727126050334629 3:2.003203409294804 
7.968128992715872 1:-0.45046728823685134 2:-0.1968106496524855 3:-1.1004510555290081 
7.968128992715872 1:0.8137015264372797 2:-0.16363218869659119 3:2.598623122605281 
7.968128992715872 1:-0.7405136394422467 2:-0.595314175837078 3:-0.5083468108404174 
7.968128992715872 1:-0.8091132900946495 2:0.12939265959092502 3:0.6734574677165599 
7.968128992715872 1:-0.777221381798924 2:-0.27370490859866936 3:-0.9309545991828712 
7.968128992715872 1:-0.3116198135072803 2:-0.5387245294774711 3:-0.4714627616277288 
7.968128992715872 1:-0.7806983842941124 2:0.9033241943819781 3:1.162653339826932 
7.968128992715872 1:-0.8060124473000081 2:0.1429904973879649 3:-1.7431917518771338 
7.968128992715872 1:-0.8082471328894424 2:0.4808829450280563 3:-1.176836193451512 
7.968128992715872 1:-0.4792930000261438 2:-0.7592911994941204 3:-0.10344224390835306 
7.968128992715872 1:-0.4052192358368321 2:-0.7625491519188711 3:1.6474407150908805 
7.968128992715872 1:-0.7700001054423686 2:-0.25836949617509597 3:0.07684017002922565 
7.968128992715872 1:-0.6700529881660847 2:-0.7701773677982365 3:-1.1304163643284053 
7.968128992715872 1:-0.7612048977072084 2:-0.6038638328062721 3:1.6802804055769702 
7.968128992715872 1:-0.35930547975623944 2:0.08666411991116593 3:-1.2865153649625014 
7.968128992715872 1:-0.8088633418725755 2:0.8698693010991351 3:-0.12384018363293697 
7.968128992715872 1:-0.6776232021395948 2:-0.6133086039770137 3:-0.5632827236381802 
7.968128992715872 1:-0.4557236251050224 2:-0.6680290412686829 3:1.3958661859878199 
7.968128992715872 1:-0.7566018908452508 2:0.021044350871240163 3:-0.6882442816097729 
7.968128992715872 1:-0.6914124248464919 2:-0.5677235969187864 3:-0.4504964989901426 
7.968128992715872 1:-0.6804246020147218 2:-0.6822982147168835 3:0.11275613744440506 
7.968128992715872 1:-0.8082446581545705 2:0.8277594432939751 3:-0.269935473268064 
7.968128992715872 1:-0.6144828166148688 2:3.044608489257744 3:1.4191086436932605 
7.968128992715872 1:-0.8012213605877768 2:1.427255598058433 3:-0.43993665942472077 
7.968128992715872 1:-0.5787501197977677 2:-0.6931448926885783 3:0.8996697966830095 
7.968128992715872 1:-0.7983432439316172 2:0.47699314728456615 3:0.1598064723524433 
7.968128992715872 1:-0.8092395015731226 2:1.9554519576363794 3:0.722944133519523 
7.968128992715872 1:-0.8092246531638905 2:0.21970704983825332 3:-0.4159733250423002 
7.968128992715872 1:-0.808935109183864 2:0.2914675655696787 3:0.09798068739036334 
7.968128992715872 1:-0.8030848359464081 2:0.6993434639822407 3:0.4680813449487818 
7.968128992715872 1:-0.5835486307146152 2:-0.7701773677982365 3:0.37116494244608494 
7.968128992715872 1:1.2530214103880677 2:-0.5797484031410476 3:0.7102536678612485 
0.7561754495851242 1:-0.8092395015731226 2:-0.7423169382750664 3:0.14693577922944992 
7.968128992715872 1:-0.7440921060671881 2:-0.37258870098140207 3:-0.7295374747158448 
7.968128992715872 1:-0.7703564672639397 2:-0.4549523709679249 3:-1.2104620957665713 
7.968128992715872 1:-0.7859101759345872 2:-0.19953548258954962 3:-1.0893112959781512 
7.968128992715872 1:-0.768688495960198 2:-0.5244158656968494 3:0.7685567798557844 
7.968128992715872 1:-0.6324889875436885 2:-0.7701773677982365 3:-0.5912231902271741 
7.968128992715872 1:-0.5320865190509529 2:-0.737801876934907 3:-1.069860566638887 
0.11746357797004012 1:-0.8092122794895303 2:-0.7402766044333033 3:-0.08179769355649805 
3.739973429475583 1:-0.8051957847922414 2:0.3516245052913359 3:2.6060382144005105 
7.968128992715872 1:-0.7370861316444987 2:0.2479228923532143 3:-1.5268280085487842 
7.968128992715872 1:-0.8084104653909958 2:1.017925139068356 3:0.21916948044898585 
7.968128992715872 1:-0.6030297436271589 2:-0.6655806406585674 3:0.6446046980961787 
7.968128992715872 1:0.3234565482900577 2:1.5495571575669487 3:0.6982750036315694 
7.968128992715872 1:-0.8068662308308551 2:0.16901462645354823 3:0.171802888896147 
7.968128992715872 1:-0.79234448660184 2:0.34702388156426384 3:-1.4164819307136391 
7.968128992715872 1:-0.8089524323279683 2:2.066452700350356 3:0.035724732336667446 
7.968128992715872 1:-0.8071631990154975 2:1.5846640630894124 3:-1.8505689128056686 
7.968128992715872 1:-0.13034795886666506 2:-0.3080220074727088 3:0.4590041056505241 
7.968128992715872 1:-0.7971256743745831 2:1.524836209471265 3:0.12963666353186165 
7.968128992715872 1:-0.0304750836365418 2:0.11615681650774652 3:1.162653339826932 
7.968128992715872 1:-0.7837695302702896 2:1.3471692039082004 3:-0.9331625722738385 
0.7960583747872785 1:-0.7342649338903955 2:-0.5316096879195814 3:2.003203409294804 
7.968128992715872 1:-0.8091108153597776 2:0.4923483048743502 3:-0.6882442816097729 
7.968128992715872 1:-0.8092395015731226 2:-0.7701773677982365 3:0.47048724804564956 
7.968128992715872 1:-0.8092246531638905 2:0.23208068733023526 3:0.7361002904884107 
7.968128992715872 1:-0.6161656363278426 2:-0.7657017967904983 3:3.3541242944506346 
7.968128992715872 1:-0.44835881412589 2:-0.5888838333744896 3:-0.2897642937141565 
7.968128992715872 1:-0.8089573817977123 2:1.8851065121500474 3:-0.23454751276300856 
7.968128992715872 1:-0.7294268272155958 2:-0.5106863934584055 3:0.3692215120159793 
7.968128992715872 1:-0.5237095415091642 2:-0.7579682733580096 3:0.3482641255354053 
7.968128992715872 1:-0.5617833375151965 2:-0.47548734382695873 3:-0.6575846748315897 
7.968128992715872 1:-0.7889714229712763 2:0.2806801230966156 3:-1.4675035080418222 
7.968128992715872 1:-0.8089969775556646 2:0.4631122954385076 3:-0.6921351574793242 
7.968128992715872 1:-0.22120042548827445 2:0.37917559387720645 3:-1.1136230402619889 
5.020943103641288 1:-0.8092395015731226 2:-0.7701773677982365 3:-0.8112508286697753 
7.968128992715872 1:-0.8091999058151703 2:0.5804314913398796 3:1.162653339826932 
7.968128992715872 1:-0.49991496571468896 2:-0.5827496684050602 3:0.3692215120159793 
7.968128992715872 1:-0.8001943456158884 2:1.6312100015698892 3:-0.6921351574793242 
7.968128992715872 1:-0.8074477935257799 2:0.2621591571910638 3:-1.8505689128056686 
7.968128992715872 1:-0.8038173574685261 2:-0.20335288139026744 3:-1.9873195834296218 
7.968128992715872 1:-0.8092048552849144 2:0.2751251496693641 3:-0.21267762415967523 
7.968128992715872 1:-0.3547148465686418 2:-0.7701773677982365 3:0.9265787376905407 
7.968128992715872 1:1.43297918081164 2:0.9858853160306069 3:0.1155704267185766 
7.968128992715872 1:-0.1905731067121512 2:-0.7687820427193534 3:0.957777682996118 
7.968128992715872 1:0.479986003680214 2:-0.6963304461705566 3:-0.7725851605397679 
7.968128992715872 1:-0.4748335277867632 2:-0.7701773677982365 3:-0.767724427641305 
7.968128992715872 1:-0.4296522932282886 2:-0.7134560869972254 3:0.47048724804564956 
7.968128992715872 1:0.28750112533447486 2:0.3040057461134157 3:-0.33258713901503156 
7.968128992715872 1:-0.7791368265898677 2:-0.30583687574540136 3:-0.7565767376174538 
7.968128992715872 1:-0.7573393618371127 2:-0.6601243930623689 3:1.6474407150908805 
7.968128992715872 1:-0.8024908995771232 2:0.3180182324008784 3:-1.0966748894717615 
7.968128992715872 1:-0.75943051280397 2:0.9894920997250782 3:0.24061800875392447 
7.968128992715872 1:1.3410452550509577 2:-0.5963935782565915 3:-1.2341841811786818 
7.968128992715872 1:-0.8092395015731226 2:1.6951777583701941 3:-0.9970266878867905 
7.968128992715872 1:-0.8082496076243145 2:0.5892180903036008 3:-1.7431917518771338 
7.968128992715872 1:-0.6469785602193674 2:-0.7480298730320027 3:-0.8475163341708146 
7.968128992715872 1:-0.6866337118086208 2:-0.40922914774622327 3:-0.08320920161282544 
7.968128992715872 1:-0.4252472651560924 2:0.3726794341939158 3:-1.0158550575964373 
7.968128992715872 1:-0.6545858952159579 2:-0.623325984967863 3:0.6734574677165599 
7.968128992715872 1:0.129434859588794 2:-0.7701773677982365 3:-0.48288937866408604 
7.968128992715872 1:1.5115767603470047 2:0.6939135432743231 3:-0.6422285250175718 
7.968128992715872 1:-0.7723214067523236 2:0.2367734551662901 3:-1.7203224245851636 
2.5673425524946536 1:-0.8091157648295216 2:-0.017557449070501614 3:-1.8009134009280998 
7.968128992715872 1:-0.7719303986425444 2:0.20648437019921503 3:0.6692260792366904 
7.968128992715872 1:-0.8092023805500422 2:0.08330744165536241 3:1.6738230096459978 
7.968128992715872 1:-0.79965732814866 2:0.22466308655711634 3:0.2832613400008308 
7.968128992715872 1:-0.0785839295486165 2:-0.47731706256247525 3:-0.4719552307279081 
7.968128992715872 1:-0.7691265240325454 2:-0.4771261926224393 3:0.10540959944501625 
7.968128992715872 1:-0.8087123830453823 2:1.4027979188455575 3:0.32853969533215654 
7.968128992715872 1:-0.8092073300197863 2:2.409564453592119 3:-0.6009354480481339 
7.968128992715872 1:-0.8092122794895303 2:0.4921969252667356 3:0.6186763152788172 
7.968128992715872 1:0.23936010786906392 2:0.518675193155163 3:-0.5953370982064753 
7.968128992715872 1:-0.35268803870845716 2:-0.263167571564274 3:-0.9758650170673522 
7.968128992715872 1:-0.5037334816222163 2:-0.5712250730601344 3:-0.23515255144324113 
7.968128992715872 1:-0.5581974466856391 2:-0.7701773677982365 3:0.15571906011659753 
7.968128992715872 1:-0.8091132900946495 2:0.3611614205710602 3:-0.5092868041634936 
7.968128992715872 1:-0.442629802897163 2:-0.1319214517623522 3:-0.7420338594680823 
7.968128992715872 1:-0.04091104059185148 2:0.33879672897650986 3:0.47157287670751813 
7.968128992715872 1:-0.7388605165477373 2:-0.639234007211544 3:0.10642556271754863 
7.968128992715872 1:-0.6112780349556025 2:-0.7110932487740225 3:8.629205555950524E-4 
7.968128992715872 1:-0.5105810730130964 2:-0.40241048368149274 3:0.2726898204082379 
7.968128992715872 1:-0.7283082470534425 2:-0.29375283402450825 3:-0.6988651924536289 
7.968128992715872 1:-0.3776160430743177 2:-0.7701773677982365 3:-1.3123196143092724 
7.968128992715872 1:1.2014652587992687 2:-0.6331722411848869 3:0.19311830802779642 
7.968128992715872 1:-0.6717704541672669 2:-0.6315268106673361 3:-0.5172790452558947 
7.968128992715872 1:-0.8075888534134851 2:0.4377792471902956 3:-1.1136230402619889 
7.968128992715872 1:-0.8084104653909958 2:2.42354403126923 3:-2.0431892845360258 
7.968128992715872 1:-0.6498418284662949 2:0.19983683090830992 3:0.21916948044898585 
7.968128992715872 1:-0.4185085620995811 2:-0.5672102225973105 3:-0.18195734428580218 
7.968128992715872 1:-0.5156443805612501 2:-0.6032912229861643 3:0.5694785642388679 
7.968128992715872 1:-0.7542632663911916 2:-0.5612603458458468 3:-0.5109302038956356 
7.968128992715872 1:-0.8092395015731226 2:0.5538281707321183 3:0.8570664662109753 
7.968128992715872 1:-0.782598980675824 2:-0.4859391184744415 3:0.6041456480669432 
3.78808454327047 1:-0.809170208996706 2:-0.7185108495471415 3:0.09175027221469086 
7.968128992715872 1:-0.8090563711925931 2:0.035017346826281534 3:-0.04233360266002373 
7.968128992715872 1:-0.6683107748161824 2:0.2847147187256502 3:-1.5411555361971845 
7.968128992715872 1:-0.8087049588407663 2:0.19671709464703357 3:-0.05184212364339284 
7.968128992715872 1:0.4862891533992496 2:0.6013284589127748 3:-0.42143237728718264 
7.968128992715872 1:-0.49991496571468896 2:-0.7567440730529518 3:0.02164027866282236 
7.968128992715872 1:-0.5643620112518417 2:-0.7701773677982365 3:0.7361002904884107 
7.968128992715872 1:1.071541678018203 2:-0.6237735420686367 3:-0.989643235028799 
7.968128992715872 1:-0.7395138465539506 2:-0.3707655639679558 3:-0.9563528182669093 
7.968128992715872 1:-0.44492388212352585 2:0.07277668634303719 3:-0.18440067656065057 
7.968128992715872 1:-0.1218299214371712 2:0.20511537200861285 3:-0.2160128691912041 
7.968128992715872 1:-0.6855200811162117 2:-0.7523935547645475 3:-1.1796951621478036 
7.968128992715872 1:-0.4225795009640545 2:-0.5416270689104307 3:-0.38576071157668745 
7.968128992715872 1:-0.7086934984578097 2:-0.6786980127444824 3:-0.9878599238348165 
7.968128992715872 1:-0.8092023805500422 2:0.0743036458633244 3:0.38775751604549435 
7.968128992715872 1:-0.32638160701888136 2:-0.7701773677982365 3:-0.5724675220502895 
7.968128992715872 1:-0.8086356662643496 2:2.247489547613365 3:0.4572180237682778 
7.968128992715872 1:0.6169229830885854 2:-0.14717130179901297 3:-0.21267762415967523 
7.968128992715872 1:-0.804542454786028 2:0.6332234840649794 3:-0.05184212364339284 
7.968128992715872 1:0.04963703364049945 2:-0.27665352008612043 3:0.4680813449487818 
7.968128992715872 1:-0.29668973802438176 2:-0.5949192725128659 3:-0.019677518818668294 
7.968128992715872 1:-0.5342865583521789 2:1.1713384988027222 3:-1.4359744360591782 
7.968128992715872 1:-0.8092246531638905 2:2.2045240659390783 3:-1.1316765297599363 
7.968128992715872 1:-0.5979986076323416 2:1.333321260672493 3:0.8996697966830095 
7.968128992715872 1:-0.7718462576568959 2:-0.004466403872867436 3:0.005688364508328865 
7.968128992715872 1:-0.6340554947176775 2:-0.7060319045020361 3:1.032020465025755 
7.968128992715872 1:0.5518473548939395 2:-0.7103166055697384 3:-0.6833628266176496 
7.968128992715872 1:-0.7552704834841037 2:-0.5038282390612537 3:-0.23454751276300856 
7.968128992715872 1:-0.5617833375151965 2:0.02822500964983181 3:2.6380162042456567 
7.968128992715872 1:-0.8048047766824622 2:0.3262914570431237 3:0.21125601317620016 
7.968128992715872 1:-0.8092023805500422 2:1.4974167553267985 3:-0.9154608440487411 
7.968128992715872 1:-0.8076185502319493 2:0.16908044367425032 3:0.12820962634849997 
7.968128992715872 1:-0.7975290561587225 2:1.0785757079452782 3:0.7497744002531248 
7.968128992715872 1:0.49922459257529966 2:-0.18858349706473151 3:1.4191086436932605 
7.968128992715872 1:-0.8083807685725315 2:3.4366948364238885 3:-0.9404007547938866 
7.968128992715872 1:-0.12079795699553872 2:3.8770646966970435 3:0.24662194090272788 
7.968128992715872 1:-0.48851633689416346 2:-0.19325651973457578 3:-0.9331625722738385 
7.968128992715872 1:-0.8090266743741288 2:0.9313294217906927 3:0.186579881908323 
7.647551542832051 1:-0.7826657985173686 2:-0.4797193911180994 3:1.6738162239483942 
7.968128992715872 1:1.2716215176861723 2:-0.12480661020446256 3:0.6982750036315694 
7.968128992715872 1:-0.03148230072945404 2:-0.7701773677982365 3:-1.0893112959781512 
7.968128992715872 1:-0.8027334235945811 2:0.5637139172815635 3:-2.0431892845360258 
7.968128992715872 1:-0.8081728908432818 2:0.08788173849415365 3:-0.1971636778422107 
7.968128992715872 1:-0.712878275126396 2:-0.18708286443272515 3:0.8996697966830095 
7.968128992715872 1:-0.655088266394978 2:-0.7701773677982365 3:-0.6422285250175718 
7.968128992715872 1:-0.3125008191217195 2:-0.7518406901106505 3:0.2842313961211149 
7.968128992715872 1:-0.7394569276518942 2:-0.39041200434751233 3:-0.04233360266002373 
7.968128992715872 1:-0.593531711188345 2:1.0046432239306857 3:0.5128043680791435 
7.968128992715872 1:-0.7176000692622109 2:-0.0614772804449675 3:0.4095409326294852 
7.968128992715872 1:-0.7960466899703823 2:0.9815479611863428 3:0.15571906011659753 
7.968128992715872 1:-0.5962415458732072 2:-0.32285062729687664 3:-1.4359744360591782 
7.968128992715872 1:-0.746999919541812 2:1.5359000842712769 3:-0.18116214016318638 
7.968128992715872 1:-0.7684088509196596 2:-0.43496368104071775 3:-0.9121793205058212 
7.968128992715872 1:-0.8080293562207047 2:0.39100953015943174 3:-0.269935473268064 
7.968128992715872 1:-0.49333217095511495 2:0.3150103854147955 3:-0.978956275622203 
7.968128992715872 1:0.20601800493833436 2:-0.7689400040490383 3:-0.18440067656065057 
7.968128992715872 1:-0.8087767261520548 2:0.9844702457855131 3:-0.5133857636989292 
7.968128992715872 1:-0.7705173250306209 2:-0.31104301790293204 3:-0.7972734861541947 
7.968128992715872 1:-0.8028621098079263 2:1.2212279520948623 3:0.6734574677165599 
7.968128992715872 1:-0.8022360018853052 2:0.1536923774741152 3:-1.7431917518771338 
7.968128992715872 1:-0.8072374410616582 2:0.3672955855404897 3:-0.42143237728718264 
7.968128992715872 1:-0.6510544485535849 2:0.570664215787698 3:0.18311308725258751 
7.968128992715872 1:-0.6545858952159579 2:-0.7701773677982365 3:-1.4572167720662683 
7.968128992715872 1:0.47428173980020716 2:-0.6024355991170379 3:-1.1714408006729027 
7.968128992715872 1:-0.7650654841075601 2:-0.21673352235899057 3:0.17663050626302745 
7.968128992715872 1:-0.7517043905335226 2:-0.3480191324933336 3:0.47157287670751813 
7.968128992715872 1:-0.788805615734851 2:-0.10109266558552049 3:1.7460499749407732 
7.968128992715872 1:1.311944847690871 2:-0.72040638550336 3:0.17663050626302745 
7.968128992715872 1:0.4281106112929243 2:-0.5818808810917935 3:-1.862415446727972 
7.968128992715872 1:-0.7832077654543411 2:-0.002748574412544421 3:-0.7885139137312912 
7.968128992715872 1:-0.7913570673879039 2:0.03947317266780908 3:-0.6009354480481339 
7.968128992715872 1:-0.5342865583521789 2:-0.6985616499523556 3:1.6474407150908805 
7.968128992715872 1:-0.8082446581545705 2:0.6218173597173171 3:0.2881569636622788 
7.968128992715872 1:-0.8091182395643935 2:1.6694498067977699 3:-1.1796951621478036 
7.968128992715872 1:-0.7863432545371907 2:0.5425273539375794 3:3.3541242944506346 
7.968128992715872 1:-0.7546270524173785 2:1.3273253118665378 3:0.19173525344675102 
7.968128992715872 1:-0.3143098503131663 2:-0.7518999256092822 3:-0.2160128691912041 
7.968128992715872 1:0.9777616000429935 2:0.7932119841474785 3:-0.4159733250423002 
7.968128992715872 1:-0.796620828460691 2:0.27750115133670744 3:-1.8319601740614961 
7.968128992715872 1:-0.8065643131764687 2:1.1245095462732264 3:-0.6200480704644942 
7.968128992715872 1:-0.7929285240316368 2:0.14173997019462634 3:0.722944133519523 
7.968128992715872 1:-0.8074081977678276 2:0.6848834205940042 3:0.4952989107651782 
7.968128992715872 1:-0.6385842595334746 2:-0.7701773677982365 3:0.30797536499322403 
7.968128992715872 1:-0.6649896806179312 2:-0.4063331900353339 3:1.9668055909859643 
7.968128992715872 1:-0.7488980411886516 2:0.02944262823281943 3:-0.0689180910945971 
7.968128992715872 1:-0.7208741434978936 2:-0.7351757698288959 3:1.9668055909859643 
7.968128992715872 1:-0.6931843350148584 2:1.1307029467412877 3:-0.4442812313497079 
7.968128992715872 1:-0.8092395015731226 2:0.09800442703812605 3:-0.6445983925760643 
7.968128992715872 1:-0.7837447829215693 2:1.2659704987281033 3:0.2726898204082379 
7.968128992715872 1:-0.7595517748126989 2:-0.3439779551422289 3:-0.0689180910945971 
0.8112293466197548 1:-0.8092395015731226 2:-0.7701773677982365 3:0.8693617520863042 
1.42274926032428 1:-0.8080046088719844 2:-0.001359831055731529 3:0.19173525344675102 
7.968128992715872 1:0.4506084260144608 2:-0.025086939118814013 3:0.8996697966830095 
7.968128992715872 1:-0.70969824081585 2:-0.6355877331846514 3:1.4974889923936 
7.968128992715872 1:-0.584281152236733 2:1.4947906482207878 3:0.13250576929718977 
7.968128992715872 1:0.11876875229038655 2:-0.7701773677982365 3:-0.4714627616277288 
7.968128992715872 1:-0.5487588078837536 2:-0.7701773677982365 3:-0.5953370982064753 
7.968128992715872 1:0.09064586520474788 2:-0.5918521900281511 3:0.5128043680791435 
7.968128992715872 1:-0.8089549070628402 2:0.2862350965238672 3:-0.9121793205058212 
7.968128992715872 1:-0.1660979788278704 2:-0.6034162757054983 3:-0.5921685756082483 
7.968128992715872 1:-0.3143098503131663 2:-0.7701773677982365 3:-0.6200480704644942 
7.968128992715872 1:-0.5141050954708534 2:-0.5886995451565239 3:0.8780779889538505 
7.968128992715872 1:-0.6506188952161093 2:-0.7652871483000756 3:1.162653339826932 
7.968128992715872 1:-0.718614710559739 2:-0.21562779305119642 3:-0.09981949434436392 
7.968128992715872 1:-0.7776420867271674 2:-0.6225888320960001 3:1.6738230096459978 
7.968128992715872 1:-0.6889376899744716 2:-0.6666600430780808 3:0.2881569636622788 
7.968128992715872 1:-0.809170208996706 2:-0.7071178886436197 3:-0.49026788741966676 
7.968128992715872 1:0.2922229194702895 2:-0.7453708573156407 3:0.12963666353186165 
7.968128992715872 1:-0.10506359267923371 2:-0.7701773677982365 3:2.6060382144005105 
7.968128992715872 1:-0.4028954597920051 2:-0.6393590599308778 3:0.1155704267185766 
7.968128992715872 1:-0.1218299214371712 2:-0.7701773677982365 3:-0.23515255144324113 
7.968128992715872 1:0.2978603655087517 2:-0.5161558044987444 3:-1.4167791777245305E-4 
7.968128992715872 1:-0.5927595939082746 2:-0.7105864561746168 3:-0.5113665790016869 
7.968128992715872 1:-0.7581807716935997 2:-0.21064542944405257 3:-0.2897642937141565 
7.968128992715872 1:-0.7215423219133391 2:-0.2842422456330647 3:0.24061800875392447 
7.968128992715872 1:-0.8088311703192392 2:0.6701930169333108 3:0.14372363902975485 
7.968128992715872 1:-0.6217758602827127 2:-0.7474770083781057 3:0.17663050626302745 
7.968128992715872 1:-0.6212660648990764 2:-0.15747169683888104 3:-1.4169663863860862 
7.968128992715872 1:0.20033601367217568 2:-0.48308265109597337 3:0.19311830802779642 
7.968128992715872 1:-0.5622733350198565 2:0.30742165986785125 3:0.4095409326294852 
7.968128992715872 1:-0.03148230072945404 2:-0.6750451569955196 3:0.2832613400008308 
7.968128992715872 1:-0.33655524207775683 2:-0.5917929545295194 3:0.6982750036315694 
7.968128992715872 1:-0.001179172221565425 2:-0.6504426798971 3:-0.3447075065289013 
0.0034496150237862304 1:-0.8091429869131138 2:-0.7332078349299052 3:0.005688364508328865 
7.968128992715872 1:-0.8082446581545705 2:1.5934177534427827 3:-0.9970266878867905 
7.968128992715872 1:-0.8092395015731226 2:-0.7701773677982365 3:0.47048724804564956 
7.968128992715872 1:0.13852703550859663 2:0.06454295203321299 3:0.32853969533215654 
7.968128992715872 1:-0.808910361835144 2:0.04658801422569872 3:-0.951133521807045 
7.968128992715872 1:-0.8084847074371564 2:0.630294617743739 3:-0.14443120880669688 
7.968128992715872 1:-0.8074824398139882 2:0.7891708067963737 3:-0.3781393113469756 
7.968128992715872 1:-0.5908985932845153 2:-0.45954641297292664 3:-0.5660390773230305 
5.49869145770256 1:-0.6732825171740712 2:-0.7701773677982365 3:-0.5859287699561851 
7.968128992715872 1:-0.8089969775556646 2:1.2454223624249292 3:-0.6921351574793242 
7.968128992715872 1:0.8328559743467168 2:-0.7701773677982365 3:-0.675296092170136 
7.968128992715872 1:-0.8088781902818076 2:0.8972821735215314 3:-1.1796951621478036 
7.968128992715872 1:0.45688682838477634 2:1.434488910613586 3:-0.38576071157668745 
7.968128992715872 1:-0.6569665901628414 2:-0.46508822295603774 3:0.186579881908323 
7.968128992715872 1:-0.80793779103044 2:0.9577879445129093 3:0.12820962634849997 
7.968128992715872 1:-0.07600278107709929 2:0.6997186221402423 3:-0.019677518818668294 
7.968128992715872 1:-0.7243560954628263 2:-0.5494724816181128 3:-0.3423152743729274 
7.968128992715872 1:-0.5984960293416177 2:-0.5938596152595631 3:1.3487617314084286 
7.968128992715872 1:-0.7523156500469116 2:-0.18767521941904347 3:-1.176836193451512 
7.968128992715872 1:-0.8087396051289745 2:0.690056654141184 3:0.24061800875392447 
7.968128992715872 1:-0.809041522783361 2:0.22181320090071824 3:-1.4380749993548227 
7.968128992715872 1:-0.6374013362646489 2:-0.7701773677982365 3:2.598623122605281 
7.968128992715872 1:-0.7739596812376011 2:-0.38701583575928755 3:-1.1136230402619889 
7.968128992715872 1:-0.08139275362835954 2:-0.7701773677982365 3:2.6060382144005105 
7.968128992715872 1:-0.6980323406291463 2:-0.3608469088081596 3:-0.6988651924536289 
7.968128992715872 1:-0.7503333874144233 2:0.0523404393150563 3:0.7361002904884107 
7.968128992715872 1:-0.7744001840448207 2:-0.3584774888628865 3:-0.9121793205058212 
7.968128992715872 1:-0.5993052676447683 2:-0.45910543759422306 3:0.7482957154496143 
7.968128992715872 1:-0.7640557922797759 2:-0.5455366118201314 3:0.6210604842342157 
7.968128992715872 1:-0.2420475920501735 2:0.792810499101196 3:0.10540959944501625 
7.968128992715872 1:-0.8091776332013222 2:0.7887298314176703 3:0.957777682996118 
7.968128992715872 1:-0.8085391516043408 2:0.17580696362999795 3:-0.9335433677051397 
7.968128992715872 1:-0.7428200923429698 2:-0.6109984195303724 3:0.957777682996118 
7.968128992715872 1:0.5754167298150609 2:-0.11032023992794536 3:-0.767724427641305 
7.968128992715872 1:-0.6638092320839775 2:-0.7472334846615082 3:-0.4504964989901426 
7.968128992715872 1:-0.8091454616479857 2:0.6495000827445919 3:-0.36725609762019573 
7.968128992715872 1:0.1037198895336311 2:1.466778839090003 3:-0.4127245520301134 
7.968128992715872 1:0.10993147406240208 2:-0.6952773706393242 3:-0.7311656107761154 
7.968128992715872 1:1.4850055320261226 2:0.04281668747947227 3:-1.7833871385657354 
7.968128992715872 1:0.4281106112929243 2:-0.7340305501886806 3:0.8693617520863042 
7.968128992715872 1:-0.4285287635963913 2:-0.7349125009460877 3:0.07684017002922565 
7.968128992715872 1:-0.8059778010117997 2:0.5810435914924086 3:-0.0734225997552825 
7.968128992715872 1:-0.8092023805500422 2:0.33943515601731944 3:-1.5378412953054266 
7.968128992715872 1:-0.8048295240311825 2:1.16998266405626 3:-1.7997059781192644 
7.968128992715872 1:-0.807341379926283 2:0.5320755792900967 3:-0.31915854209418315 
7.968128992715872 1:-0.8090786438064412 2:0.1436684147611958 3:-0.9331625722738385 
7.968128992715872 1:-0.5794603687060376 2:-0.7477929310374755 3:1.4191086436932605 
7.968128992715872 1:-0.033840723062489475 2:-0.3259966904464337 3:-0.09981949434436392 
7.968128992715872 1:-0.8087346556592304 2:1.9161064231007046 3:0.39491264428142353 
7.968128992715872 1:0.0602437473019785 2:-0.6334947455663268 3:1.6738162239483942 
7.968128992715872 1:0.00643806171451299 2:-0.512904433796064 3:1.4948766647256164 
7.968128992715872 1:-0.8089821291464324 2:0.20832725237887192 3:0.1598468879010075 
7.968128992715872 1:-0.7304860137408205 2:-0.6016721193568944 3:3.3541242944506346 
4.043649297448541 1:-0.8092122794895303 2:3.3379558419267 3:-0.4127245520301134 
7.968128992715872 1:-0.8087099083105102 2:0.24690930715440307 3:0.32853969533215654 
7.968128992715872 1:-0.8079699625837761 2:0.33403814391975295 3:-0.42143237728718264 
7.968128992715872 1:-0.6312936906005028 2:0.05632896288959941 3:-0.9970266878867905 
7.968128992715872 1:-0.7748852320797368 2:0.6339606369368421 3:0.45723194357338703 
3.2993784786388227 1:-0.8049681091840156 2:0.4110442921411302 3:-2.0342351334786546 
7.968128992715872 1:-0.35930547975623944 2:-0.7654187827414796 3:0.7685567798557844 
7.968128992715872 1:-0.6752326082532232 2:-0.2400525636537204 3:-0.9335433677051397 
7.968128992715872 1:-0.8071533000760094 2:0.9213778580205454 3:-0.6882442816097729 
7.968128992715872 1:-0.6086028465589486 2:-0.72494119200973 3:-0.3423152743729274 
7.968128992715872 1:-0.7346410935909427 2:1.4624941380223007 3:-0.6468741065064356 
7.968128992715872 1:-0.8078734479237675 2:0.7306132255377761 3:-1.0979327985344072 
7.968128992715872 1:-0.36990229447823036 2:-0.7308186698184214 3:1.162653339826932 
